{"learner":{"attributes":{"best_iteration":"346","best_score":"0.9879807692307693"},"feature_names":["proj_sum","proj_mean","own_sum","own_mean","own_std","own_max","own_min","sal_sum","sal_unused","sal_std","ceil_85_sum","ceil_99_sum","var_sum","std_sum","min_sum","min_mean","cpt_proj","cpt_proj_raw","cpt_own","cpt_salary","cpt_ceil","cpt_p99","cpt_minutes","cpt_std","cpt_proj_rank_slate","cpt_is_top1_proj","cpt_is_top3_proj","team_max_count","team_split_5_1","team_split_4_2","team_split_3_3","cpt_team_count","n_unique_teams","proj_std","proj_max","proj_min","proj_range","proj_cv","n_sal_10k_plus","n_sal_8k_to_10k","n_sal_6k_to_8k","n_sal_under_6k","n_sal_under_4k","sal_top2_sum","sal_bot2_sum","sal_top_to_bot_ratio","n_pg","n_sg","n_sf","n_pf","n_c","n_g","n_f","n_unique_positions","proj_top3_sum","proj_bot3_sum","own_top3_sum","own_bot3_sum","proj_per_dollar","proj_per_own","ceil_per_own","n_chalk_20plus","n_chalk_30plus","n_lev_5less","n_lev_10less"],"feature_types":["float","float","float","float","float","float","float","float","float","float","float","float","float","float","float","float","float","float","float","float","float","float","float","float","float","float","float","float","float","float","float","float","float","float","float","float","float","float","float","float","float","float","float","float","float","float","float","float","float","float","float","float","float","float","float","float","float","float","float","float","float","float","float","float","float"],"gradient_booster":{"model":{"cats":{"enc":[],"feature_segments":[],"sorted_idx":[]},"gbtree_model_param":{"num_parallel_tree":"1","num_trees":"377"},"iteration_indptr":[0,1,2,3,4,5,6,7,8,9,10,11,12,13,14,15,16,17,18,19,20,21,22,23,24,25,26,27,28,29,30,31,32,33,34,35,36,37,38,39,40,41,42,43,44,45,46,47,48,49,50,51,52,53,54,55,56,57,58,59,60,61,62,63,64,65,66,67,68,69,70,71,72,73,74,75,76,77,78,79,80,81,82,83,84,85,86,87,88,89,90,91,92,93,94,95,96,97,98,99,100,101,102,103,104,105,106,107,108,109,110,111,112,113,114,115,116,117,118,119,120,121,122,123,124,125,126,127,128,129,130,131,132,133,134,135,136,137,138,139,140,141,142,143,144,145,146,147,148,149,150,151,152,153,154,155,156,157,158,159,160,161,162,163,164,165,166,167,168,169,170,171,172,173,174,175,176,177,178,179,180,181,182,183,184,185,186,187,188,189,190,191,192,193,194,195,196,197,198,199,200,201,202,203,204,205,206,207,208,209,210,211,212,213,214,215,216,217,218,219,220,221,222,223,224,225,226,227,228,229,230,231,232,233,234,235,236,237,238,239,240,241,242,243,244,245,246,247,248,249,250,251,252,253,254,255,256,257,258,259,260,261,262,263,264,265,266,267,268,269,270,271,272,273,274,275,276,277,278,279,280,281,282,283,284,285,286,287,288,289,290,291,292,293,294,295,296,297,298,299,300,301,302,303,304,305,306,307,308,309,310,311,312,313,314,315,316,317,318,319,320,321,322,323,324,325,326,327,328,329,330,331,332,333,334,335,336,337,338,339,340,341,342,343,344,345,346,347,348,349,350,351,352,353,354,355,356,357,358,359,360,361,362,363,364,365,366,367,368,369,370,371,372,373,374,375,376,377],"tree_info":[0,0,0,0,0,0,0,0,0,0,0,0,0,0,0,0,0,0,0,0,0,0,0,0,0,0,0,0,0,0,0,0,0,0,0,0,0,0,0,0,0,0,0,0,0,0,0,0,0,0,0,0,0,0,0,0,0,0,0,0,0,0,0,0,0,0,0,0,0,0,0,0,0,0,0,0,0,0,0,0,0,0,0,0,0,0,0,0,0,0,0,0,0,0,0,0,0,0,0,0,0,0,0,0,0,0,0,0,0,0,0,0,0,0,0,0,0,0,0,0,0,0,0,0,0,0,0,0,0,0,0,0,0,0,0,0,0,0,0,0,0,0,0,0,0,0,0,0,0,0,0,0,0,0,0,0,0,0,0,0,0,0,0,0,0,0,0,0,0,0,0,0,0,0,0,0,0,0,0,0,0,0,0,0,0,0,0,0,0,0,0,0,0,0,0,0,0,0,0,0,0,0,0,0,0,0,0,0,0,0,0,0,0,0,0,0,0,0,0,0,0,0,0,0,0,0,0,0,0,0,0,0,0,0,0,0,0,0,0,0,0,0,0,0,0,0,0,0,0,0,0,0,0,0,0,0,0,0,0,0,0,0,0,0,0,0,0,0,0,0,0,0,0,0,0,0,0,0,0,0,0,0,0,0,0,0,0,0,0,0,0,0,0,0,0,0,0,0,0,0,0,0,0,0,0,0,0,0,0,0,0,0,0,0,0,0,0,0,0,0,0,0,0,0,0,0,0,0,0,0,0,0,0,0,0,0,0,0,0,0,0,0,0,0,0,0,0,0,0,0,0,0,0,0,0,0,0,0,0,0,0,0,0,0,0,0,0,0,0,0,0,0,0,0,0,0,0],"trees":[{"base_weights":[7.62562E-1,-6.0720778E0,1.1086593E0,-3.170523E-1,-4.3758354E0,1.1187016E0,-2.817949E-1,-1.4257805E0,-3.1301108E-1,3.0738336E-1,1.1405405E0,-2.986502E-1,4.6627585E-2,-2.7575898E-1,2.7887521E-2,4.420946E-2,5.3249203E-2],"categories":[],"categories_nodes":[],"categories_segments":[],"categories_sizes":[],"default_left":[0,0,0,0,0,0,0,0,0,0,0,0,0,0,0,0,0],"id":0,"left_children":[1,3,5,-1,7,9,-1,11,-1,13,15,-1,-1,-1,-1,-1,-1],"loss_changes":[2.0171746E4,5.32375E2,5.966963E2,0E0,9.749949E2,1.4263867E2,0E0,8.023818E2,0E0,4.075171E2,2.2791016E1,0E0,0E0,0E0,0E0,0E0,0E0],"parents":[2147483647,0,0,1,1,2,2,4,4,5,5,7,7,9,9,10,10],"right_children":[2,4,6,-1,8,10,-1,12,-1,14,16,-1,-1,-1,-1,-1,-1],"split_conditions":[2.5372E2,2.491E2,9.273693E-1,-3.170523E-1,5.301793E1,2.556875E2,-2.817949E-1,5.298344E1,-3.1301108E-1,5.565E4,2.584225E2,-2.986502E-1,4.6627585E-2,-2.7575898E-1,2.7887521E-2,4.420946E-2,5.3249203E-2],"split_indices":[10,10,37,0,13,10,0,13,0,7,10,0,0,0,0,0,0],"split_type":[0,0,0,0,0,0,0,0,0,0,0,0,0,0,0,0,0],"sum_hessian":[8.523561E3,4.097613E2,8.1137993E3,2.7302863E2,1.3673267E2,8.1036733E3,1.0125892E1,6.2764263E1,7.396841E1,2.133485E2,7.8903247E3,1.975784E1,4.3006424E1,8.520568E0,2.0482793E2,7.1757086E2,7.172754E3],"tree_param":{"num_deleted":"0","num_feature":"65","num_nodes":"17","size_leaf_vector":"1"}},{"base_weights":[7.050151E-1,-4.7895823E0,1.0948657E0,-5.0235267E0,-2.2647355E0,3.9472178E-1,1.1310178E0,-2.435746E-1,-4.145087E0,4.147886E-2,-2.3347054E-1,6.6518956E-1,-2.5670287E-1,6.1094046E-1,1.1364002E0,1.3303359E-2,-2.427178E-1,-2.2619303E-1,3.8139842E-2,-2.8228564E-3,4.3807883E-2,4.8245367E-2,5.3087182E-2],"categories":[],"categories_nodes":[],"categories_segments":[],"categories_sizes":[],"default_left":[0,0,0,0,0,0,0,0,0,0,0,0,0,0,0,0,0,0,0,0,0,0,0],"id":1,"left_children":[1,3,5,7,9,11,13,-1,15,-1,-1,17,-1,19,21,-1,-1,-1,-1,-1,-1,-1,-1],"loss_changes":[1.6379443E4,2.8223145E2,1.7957715E2,8.03457E1,4.1172632E2,5.735915E2,1.7489258E1,0E0,5.882418E2,0E0,0E0,3.1478003E2,0E0,1.7164726E1,8.362305E0,0E0,0E0,0E0,0E0,0E0,0E0,0E0,0E0],"parents":[2147483647,0,0,1,1,2,2,3,3,4,4,5,5,6,6,8,8,11,11,13,13,14,14],"right_children":[2,4,6,8,10,12,14,-1,16,-1,-1,18,-1,20,22,-1,-1,-1,-1,-1,-1,-1,-1],"split_conditions":[2.5372E2,2.525025E2,2.562625E2,2.491E2,3.281775E2,1.8933E2,4.59E1,-2.435746E-1,2.492125E2,4.147886E-2,-2.3347054E-1,5.2078267E3,-2.5670287E-1,3.826375E1,2.59545E2,1.3303359E-2,-2.427178E-1,-2.2619303E-1,3.8139842E-2,-2.8228564E-3,4.3807883E-2,4.8245367E-2,5.3087182E-2],"split_indices":[10,10,10,10,11,54,55,0,10,0,0,9,0,33,10,0,0,0,0,0,0,0,0],"split_type":[0,0,0,0,0,0,0,0,0,0,0,0,0,0,0,0,0,0,0,0,0,0,0],"sum_hessian":[7.6428115E3,5.0533826E2,7.137473E3,4.6121088E2,4.4127384E1,3.5168048E2,6.785793E3,3.4626434E2,1.1494655E2,2.1102629E1,2.3024755E1,3.3759003E2,1.4090452E1,7.167777E1,6.714115E3,2.3539253E1,9.1407295E1,8.54485E0,3.290452E2,2.4155869E1,4.75219E1,1.1826133E3,5.531502E3],"tree_param":{"num_deleted":"0","num_feature":"65","num_nodes":"23","size_leaf_vector":"1"}},{"base_weights":[6.80207E-1,-4.0019407E0,1.081826E0,-2.16077E0,-2.0180933E-1,1.0897942E0,-1.8711372E-1,-1.9695869E-1,-0E0,4.7193548E-1,1.1228591E0,5.0087012E-2,-1.7893475E-1,2.9444627E-2,-2.2553098E-1,4.5330215E-2,5.2307982E-2],"categories":[],"categories_nodes":[],"categories_segments":[],"categories_sizes":[],"default_left":[0,0,0,0,0,0,0,0,0,0,0,0,0,0,0,0,0],"id":2,"left_children":[1,3,5,7,-1,9,-1,-1,11,13,15,-1,-1,-1,-1,-1,-1],"loss_changes":[1.3652852E4,3.9498633E2,2.789712E2,4.7030923E2,0E0,1.3515137E2,0E0,0E0,2.254538E2,3.1222488E2,1.0727051E1,0E0,0E0,0E0,0E0,0E0,0E0],"parents":[2147483647,0,0,1,1,2,2,3,3,5,5,8,8,9,9,10,10],"right_children":[2,4,6,8,-1,10,-1,-1,12,14,16,-1,-1,-1,-1,-1,-1],"split_conditions":[2.5372E2,1E0,9.326297E-1,5.298344E1,-2.0180933E-1,2.562625E2,-1.8711372E-1,-1.9695869E-1,5.301793E1,8.9691055E-1,2.584225E2,5.0087012E-2,-1.7893475E-1,2.9444627E-2,-2.2553098E-1,4.5330215E-2,5.2307982E-2],"split_indices":[10,47,37,13,0,10,0,0,13,37,10,0,0,0,0,0,0],"split_type":[0,0,0,0,0,0,0,0,0,0,0,0,0,0,0,0,0],"sum_hessian":[7.256851E3,5.7232776E2,6.684523E3,1.0113805E2,4.7118973E2,6.675264E3,9.258699E0,5.0413494E1,5.0724552E1,3.4061935E2,6.334645E3,4.0365246E1,1.0359304E1,3.3141357E2,9.205801E0,6.320941E2,5.702551E3],"tree_param":{"num_deleted":"0","num_feature":"65","num_nodes":"17","size_leaf_vector":"1"}},{"base_weights":[6.7298454E-1,-3.4388633E0,1.0283308E0,-1.9962145E0,-1.7329994E-1,-7.9615164E-1,1.0905689E0,-1.6991527E-1,-1.0585924E-1,-2.279814E0,7.951661E-1,-3.1334538E-2,1.0978444E0,2.9866565E-2,-1.5568915E-1,-1.8824495E-1,-3.807984E-2,4.749809E-2,2.5118978E-4,1.8916726E-2,5.094036E-2],"categories":[],"categories_nodes":[],"categories_segments":[],"categories_sizes":[],"default_left":[0,0,0,0,0,0,0,0,0,0,0,0,0,0,0,0,0,0,0,0,0],"id":3,"left_children":[1,3,5,7,-1,9,11,-1,13,15,17,-1,19,-1,-1,-1,-1,-1,-1,-1,-1],"loss_changes":[1.0452113E4,2.5978418E2,7.487407E2,3.4823724E2,0E0,5.168141E2,8.318262E1,0E0,1.3510135E2,2.9186652E2,1.9509583E1,0E0,4.3078613E1,0E0,0E0,0E0,0E0,0E0,0E0,0E0,0E0],"parents":[2147483647,0,0,1,1,2,2,3,3,5,5,6,6,8,8,9,9,10,10,12,12],"right_children":[2,4,6,8,-1,10,12,-1,14,16,18,-1,20,-1,-1,-1,-1,-1,-1,-1,-1],"split_conditions":[3.30256E2,1E0,3.33854E2,3.253275E2,-1.7329994E-1,5E0,1.0144829E2,-1.6991527E-1,6.5205777E-1,1.1610324E2,1.0660108E1,-3.1334538E-2,4.59E1,2.9866565E-2,-1.5568915E-1,-1.8824495E-1,-3.807984E-2,4.749809E-2,2.5118978E-4,1.8916726E-2,5.094036E-2],"split_indices":[11,47,11,11,0,53,56,0,37,56,4,0,55,0,0,0,0,0,0,0,0],"split_type":[0,0,0,0,0,0,0,0,0,0,0,0,0,0,0,0,0,0,0,0,0],"sum_hessian":[7.149724E3,5.6777747E2,6.581947E3,1.0770838E2,4.6006906E2,2.1643832E2,6.3655083E3,5.5979885E1,5.1728497E1,1.1184292E2,1.045954E2,2.5344816E1,6.3401636E3,4.2779068E1,8.949428E0,4.8571396E1,6.3271523E1,7.9724365E1,2.4871033E1,9.37241E1,6.2464395E3],"tree_param":{"num_deleted":"0","num_feature":"65","num_nodes":"21","size_leaf_vector":"1"}},{"base_weights":[6.766584E-1,-3.0788774E0,8.254155E-1,-1.5658122E-1,-8.0883527E-1,-1.5591542E-1,9.370362E-1,4.302671E-2,-1.4351214E-1,9.7205496E-1,-1.576223E-1,-1.5904082E-1,4.598161E-2],"categories":[],"categories_nodes":[],"categories_segments":[],"categories_sizes":[],"default_left":[0,0,0,0,0,0,0,0,0,0,0,0,0],"id":4,"left_children":[1,3,5,-1,7,-1,9,-1,-1,11,-1,-1,-1],"loss_changes":[4.0070137E3,1.9780347E2,3.248979E3,0E0,1.505363E2,0E0,1.030541E3,0E0,0E0,8.332905E2,0E0,0E0,0E0],"parents":[2147483647,0,0,1,1,2,2,4,4,6,6,9,9],"right_children":[2,4,6,-1,8,-1,10,-1,-1,12,-1,-1,-1],"split_conditions":[1.01056854E2,1.873719E2,3.5665833E1,-1.5658122E-1,1.877063E2,-1.5591542E-1,9.273693E-1,4.302671E-2,-1.4351214E-1,1.4555727E2,-1.576223E-1,-1.5904082E-1,4.598161E-2],"split_indices":[56,14,1,0,14,0,37,0,0,2,0,0,0],"split_type":[0,0,0,0,0,0,0,0,0,0,0,0,0],"sum_hessian":[7.1669624E3,2.720274E2,6.894935E3,2.3709245E2,3.4934944E1,1.7676842E2,6.7181665E3,2.0251951E1,1.4682994E1,6.66576E3,5.240673E1,4.0931175E1,6.6248286E3],"tree_param":{"num_deleted":"0","num_feature":"65","num_nodes":"13","size_leaf_vector":"1"}},{"base_weights":[6.585685E-1,-2.733276E0,1.0352174E0,-2.8428473E0,-3.7415565E-3,-4.2406693E-1,1.0757178E0,-1.6697402E0,-1.4214303E-1,-1.5320566E-1,7.075297E-2,1.0851011E0,-9.013734E-1,-1.3775885E-1,-9.438207E-3,-1.6811073E-1,2.8548464E-2,-7.038728E-3,5.0111994E-2,-1.771027E-1,2.5827134E-2],"categories":[],"categories_nodes":[],"categories_segments":[],"categories_sizes":[],"default_left":[0,0,0,0,0,0,0,0,0,0,0,0,0,0,0,0,0,0,0,0,0],"id":5,"left_children":[1,3,5,7,-1,9,11,13,-1,-1,15,17,19,-1,-1,-1,-1,-1,-1,-1,-1],"loss_changes":[8.842526E3,1.9966895E2,3.6893896E2,1.856875E2,0E0,2.4448996E2,1.1374463E2,2.2975052E2,0E0,0E0,3.000379E2,3.701367E1,1.2972246E2,0E0,0E0,0E0,0E0,0E0,0E0,0E0,0E0],"parents":[2147483647,0,0,1,1,2,2,3,3,5,5,6,6,7,7,10,10,11,11,12,12],"right_children":[2,4,6,8,-1,10,12,14,-1,-1,16,18,20,-1,-1,-1,-1,-1,-1,-1,-1],"split_conditions":[3.313805E2,3.0071558E1,3.33854E2,1E0,-3.7415565E-3,5.224E1,9.1951704E-1,3.253275E2,-1.4214303E-1,-1.5320566E-1,2.4520605E1,1.00697014E2,3.3780624E2,-1.3775885E-1,-9.438207E-3,-1.6811073E-1,2.8548464E-2,-7.038728E-3,5.0111994E-2,-1.771027E-1,2.5827134E-2],"split_indices":[11,3,11,47,0,55,37,11,0,0,33,56,11,0,0,0,0,0,0,0,0],"split_type":[0,0,0,0,0,0,0,0,0,0,0,0,0,0,0,0,0,0,0,0,0],"sum_hessian":[6.917978E3,6.9054407E2,6.227434E3,6.629257E2,2.7618338E1,1.6760266E2,6.0598315E3,1.17991E2,5.4493475E2,2.3423248E1,1.4417941E2,6.0319565E3,2.7874945E1,6.1085587E1,5.690541E1,1.7543655E1,1.2663576E2,2.3243069E1,6.0087134E3,8.638641E0,1.9236303E1],"tree_param":{"num_deleted":"0","num_feature":"65","num_nodes":"21","size_leaf_vector":"1"}},{"base_weights":[6.06745E-1,-2.559411E0,1.0550933E0,-2.648242E0,-4.1391695E-1,5.4261327E-1,1.091206E0,-2.3979642E0,-2.9671912E0,-1.3377845E-1,4.1145444E-2,6.6314715E-1,-1.5550561E-1,9.843008E-1,5.1308345E-2,-1.2745146E-1,2.734357E-2,-1.3321976E-1,-1.8715765E-1,3.682696E-2,-4.058565E-2,4.660552E-2,-1.2806503E-2],"categories":[],"categories_nodes":[],"categories_segments":[],"categories_sizes":[],"default_left":[0,0,0,0,0,0,0,0,0,0,0,0,0,0,0,0,0,0,0,0,0,0,0],"id":6,"left_children":[1,3,5,7,9,11,13,15,17,-1,-1,19,-1,21,-1,-1,-1,-1,-1,-1,-1,-1,-1],"loss_changes":[8.698172E3,1.4236768E2,9.7981445E1,4.7302246E1,1.08154305E2,1.7048022E2,1.1138184E1,4.6870972E2,6.7402344E0,0E0,0E0,7.4816864E1,0E0,3.617035E1,0E0,0E0,0E0,0E0,0E0,0E0,0E0,0E0,0E0],"parents":[2147483647,0,0,1,1,2,2,3,3,4,4,5,5,6,6,7,7,8,8,11,11,13,13],"right_children":[2,4,6,8,10,12,14,16,18,-1,-1,20,-1,22,-1,-1,-1,-1,-1,-1,-1,-1,-1],"split_conditions":[2.543675E2,1.8042935E2,2.5666E2,5.301793E1,2.5379875E2,4.254286E0,2.59695E2,5.298344E1,2.5372E2,-1.3377845E-1,4.1145444E-2,5.749217E2,-1.5550561E-1,2.0086E2,5.1308345E-2,-1.2745146E-1,2.734357E-2,-1.3321976E-1,-1.8715765E-1,3.682696E-2,-4.058565E-2,4.660552E-2,-1.2806503E-2],"split_indices":[10,2,10,13,10,58,10,13,10,0,0,12,0,54,0,0,0,0,0,0,0,0,0],"split_type":[0,0,0,0,0,0,0,0,0,0,0,0,0,0,0,0,0,0,0,0,0,0,0],"sum_hessian":[6.124174E3,7.588136E2,5.36536E3,7.2819904E2,3.0614597E1,3.5518152E2,5.0101787E3,4.1468747E2,3.1351154E2,1.0095504E1,2.0519093E1,3.4570676E2,9.474758E0,9.557753E2,4.0544033E3,3.6878668E2,4.590081E1,2.9954422E2,1.3967329E1,3.181731E2,2.7533669E1,9.345452E2,2.1230099E1],"tree_param":{"num_deleted":"0","num_feature":"65","num_nodes":"23","size_leaf_vector":"1"}},{"base_weights":[6.240001E-1,-1.9183863E0,9.3871707E-1,-2.337312E0,-3.435903E-1,-1.2575431E-1,9.683392E-1,-2.4548855E0,-2.4188799E-1,-1.1510891E-1,8.559416E-1,-1.8154268E0,1.0039626E0,-1.20543614E-1,-7.92739E-2,4.9161397E-2,-1.312198E-1,8.390957E-3,4.8997246E-2,-1.3164186E-1,1.4690219E-2,4.6672005E-2,-1.1515137E-1],"categories":[],"categories_nodes":[],"categories_segments":[],"categories_sizes":[],"default_left":[0,0,0,0,0,0,0,0,0,0,0,0,0,0,0,0,0,0,0,0,0,0,0],"id":7,"left_children":[1,3,5,7,9,-1,11,13,15,-1,17,19,21,-1,-1,-1,-1,-1,-1,-1,-1,-1,-1],"loss_changes":[5.0335454E3,4.5519067E2,6.1181055E2,1.3302905E2,3.849087E2,0E0,5.526885E2,5.5890625E1,1.09393585E2,0E0,1.2798264E1,1.5976698E2,2.1809912E2,0E0,0E0,0E0,0E0,0E0,0E0,0E0,0E0,0E0,0E0],"parents":[2147483647,0,0,1,1,2,2,3,3,4,4,6,6,7,7,8,8,10,10,11,11,12,12],"right_children":[2,4,6,8,10,-1,12,14,16,-1,18,20,22,-1,-1,-1,-1,-1,-1,-1,-1,-1,-1],"split_conditions":[5.372103E1,5E0,2.13995E2,2.4516E2,2E0,-1.2575431E-1,1.01405266E2,1.7475257E0,5.523622E2,-1.1510891E-1,2.3154E2,3.1187267E1,9.326297E-1,-1.20543614E-1,-7.92739E-2,4.9161397E-2,-1.312198E-1,8.390957E-3,4.8997246E-2,-1.3164186E-1,1.4690219E-2,4.6672005E-2,-1.1515137E-1],"split_indices":[13,31,0,0,42,0,56,60,12,0,0,15,37,0,0,0,0,0,0,0,0,0,0],"split_type":[0,0,0,0,0,0,0,0,0,0,0,0,0,0,0,0,0,0,0,0,0,0,0],"sum_hessian":[6.287231E3,6.9171857E2,5.5955127E3,5.4570844E2,1.4601009E2,4.3733696E1,5.551779E3,5.16347E2,2.9361477E1,5.1748856E1,9.426123E1,6.9222145E1,5.4825566E3,4.1719327E2,9.91537E1,1.9953384E1,9.408093E0,2.3360792E1,7.090044E1,4.625663E1,2.2965515E1,5.4661143E3,1.6442657E1],"tree_param":{"num_deleted":"0","num_feature":"65","num_nodes":"23","size_leaf_vector":"1"}},{"base_weights":[6.0763234E-1,-1.7302648E0,9.274987E-1,-2.247614E0,-8.9560544E-1,-1.6944506E0,9.9305326E-1,-1.4880427E0,-1.1098108E-1,3.3061653E-1,-1.11579455E-1,-1.2693293E-1,4.4451315E-2,-1.1952774E-1,1.0093431E0,-1.0974559E-1,3.3916966E-3,-1.1690161E-1,3.3190046E-2,-1.1443146E-1,4.342563E-2,-1.1762328E-1,4.6841785E-2],"categories":[],"categories_nodes":[],"categories_segments":[],"categories_sizes":[],"default_left":[0,0,0,0,0,0,0,0,0,0,0,0,0,0,0,0,0,0,0,0,0,0,0],"id":8,"left_children":[1,3,5,7,9,11,13,15,-1,17,-1,-1,19,-1,21,-1,-1,-1,-1,-1,-1,-1,-1],"loss_changes":[4.559755E3,3.1320947E2,9.2358496E2,5.1148926E1,5.335229E2,2.4432626E2,3.089917E2,1.2022641E2,0E0,1.795701E2,0E0,0E0,1.1862756E2,0E0,1.7949023E2,0E0,0E0,0E0,0E0,0E0,0E0,0E0,0E0],"parents":[2147483647,0,0,1,1,2,2,3,3,4,4,5,5,6,6,7,7,9,9,12,12,14,14],"right_children":[2,4,6,8,10,12,14,16,-1,18,-1,-1,20,-1,22,-1,-1,-1,-1,-1,-1,-1,-1],"split_conditions":[5.372103E1,4.105422E0,4.0524273E0,1E0,3.6712864E1,1E0,9.851521E1,5.30012E1,-1.1098108E-1,5.199E1,-1.11579455E-1,-1.2693293E-1,5.496327E1,-1.1952774E-1,4.312E1,-1.0974559E-1,3.3916966E-3,-1.1690161E-1,3.3190046E-2,-1.1443146E-1,4.342563E-2,-1.1762328E-1,4.6841785E-2],"split_indices":[13,58,58,47,33,28,56,13,0,55,0,0,13,0,55,0,0,0,0,0,0,0,0],"split_type":[0,0,0,0,0,0,0,0,0,0,0,0,0,0,0,0,0,0,0,0,0,0,0],"sum_hessian":[6.093857E3,7.3259973E2,5.3612573E3,4.5068134E2,2.8191837E2,1.298736E2,5.2313833E3,8.360699E1,3.6707434E2,1.5697505E2,1.2494333E2,8.017115E1,4.9702446E1,2.2607353E1,5.2087764E3,5.2786274E1,3.0820711E1,1.7871925E1,1.3910312E2,1.2339635E1,3.7362812E1,1.2844964E1,5.195931E3],"tree_param":{"num_deleted":"0","num_feature":"65","num_nodes":"23","size_leaf_vector":"1"}},{"base_weights":[6.153745E-1,-1.8608272E0,8.915326E-1,-2.2504063E0,5.706973E-1,-2.3790581E0,9.6579254E-1,-1.08253345E-1,-1.1145098E0,-1.1338634E-1,4.5957014E-2,-1.03394985E-1,-1.5717418E-1,-1.2019448E-1,9.824741E-1,-1.03310585E-1,2.5997354E-2,-2.1440279E-2,4.689382E-2],"categories":[],"categories_nodes":[],"categories_segments":[],"categories_sizes":[],"default_left":[0,0,0,0,0,0,0,0,0,0,0,0,0,0,0,0,0,0,0],"id":9,"left_children":[1,3,5,7,9,11,13,-1,15,-1,-1,-1,-1,-1,17,-1,-1,-1,-1],"loss_changes":[4.0962217E3,5.7158325E2,1.310956E3,5.6794434E1,1.11842766E2,4.4559326E0,3.1734326E2,0E0,9.0219025E1,0E0,0E0,0E0,0E0,0E0,2.8588477E2,0E0,0E0,0E0,0E0],"parents":[2147483647,0,0,1,1,2,2,3,3,4,4,5,5,6,6,8,8,14,14],"right_children":[2,4,6,8,10,12,14,-1,16,-1,-1,-1,-1,-1,18,-1,-1,-1,-1],"split_conditions":[4.0801754E0,1.7808961E2,1.01056854E2,5.8757687E1,4.0446444E0,2.4327E2,2.13995E2,-1.08253345E-1,5E0,-1.1338634E-1,4.5957014E-2,-1.03394985E-1,-1.5717418E-1,-1.2019448E-1,1.7294801E2,-1.03310585E-1,2.5997354E-2,-2.1440279E-2,4.689382E-2],"split_indices":[58,2,56,57,58,0,0,0,51,0,0,0,0,0,14,0,0,0,0],"split_type":[0,0,0,0,0,0,0,0,0,0,0,0,0,0,0,0,0,0,0],"sum_hessian":[5.9863643E3,5.997835E2,5.3865806E3,5.171661E2,8.261743E1,1.1861062E2,5.26797E3,4.7217633E2,4.498971E1,9.377398E0,7.3240036E1,1.0927596E2,9.334653E0,2.3419563E1,5.2445503E3,2.6746935E1,1.8242779E1,1.3174644E2,5.112804E3],"tree_param":{"num_deleted":"0","num_feature":"65","num_nodes":"19","size_leaf_vector":"1"}},{"base_weights":[6.3987976E-1,-1.5511658E0,9.302606E-1,-9.944035E-2,-8.0362123E-1,-1.7780409E0,9.891479E-1,8.125326E-1,-1.6706986E0,-1.0811053E-1,8.524498E-3,-1.2918795E0,1.011659E0,4.6327803E-2,1.8148195E-2,-1.01145364E-1,1.8948171E-2,1.578991E-2,-1.2104473E-1,-1.20108165E-1,4.715138E-2],"categories":[],"categories_nodes":[],"categories_segments":[],"categories_sizes":[],"default_left":[0,0,0,0,0,0,0,0,0,0,0,0,0,0,0,0,0,0,0,0,0],"id":10,"left_children":[1,3,5,-1,7,9,11,13,15,-1,-1,17,19,-1,-1,-1,-1,-1,-1,-1,-1],"loss_changes":[4.0002202E3,3.3321545E2,8.871177E2,0E0,4.6925153E2,1.346872E2,2.8053027E2,8.538887E0,2.416383E2,0E0,0E0,1.192728E2,2.7439893E2,0E0,0E0,0E0,0E0,0E0,0E0,0E0,0E0],"parents":[2147483647,0,0,1,1,2,2,4,4,5,5,6,6,7,7,8,8,11,11,12,12],"right_children":[2,4,6,-1,8,10,12,14,16,-1,-1,18,20,-1,-1,-1,-1,-1,-1,-1,-1],"split_conditions":[5.372103E1,3.7868332E1,4.0446444E0,-9.944035E-2,2.205E4,3.8261665E1,1.017967E2,1.0224262E2,4.086E1,-1.0811053E-1,8.524498E-3,1.784E2,3.5665833E1,4.6327803E-2,1.8148195E-2,-1.01145364E-1,1.8948171E-2,1.578991E-2,-1.2104473E-1,-1.20108165E-1,4.715138E-2],"split_indices":[13,1,58,0,19,1,56,56,1,0,0,54,1,0,0,0,0,0,0,0,0],"split_type":[0,0,0,0,0,0,0,0,0,0,0,0,0,0,0,0,0,0,0,0,0],"sum_hessian":[6.2835317E3,7.3452234E2,5.5490093E3,4.0236856E2,3.3215378E2,1.1717067E2,5.431839E3,1.1586109E2,2.1629268E2,9.063415E1,2.6536518E1,5.222913E1,5.37961E3,7.716839E1,3.8692703E1,1.7254665E2,4.374604E1,2.3833275E1,2.8395855E1,1.9592539E1,5.360017E3],"tree_param":{"num_deleted":"0","num_feature":"65","num_nodes":"21","size_leaf_vector":"1"}},{"base_weights":[5.942919E-1,-1.6027732E0,1.0215607E0,-1.9077404E0,-5.485925E-1,1.0279208E0,-1.0653336E-1,-9.71743E-2,-1.6183199E0,3.5297596E-1,-1.2400784E-1,7.0041597E-1,1.0708555E0,-9.33805E-2,-1.7778309E-2,3.7028342E-2,-1.0219555E-1,3.6637772E-2,-6.265168E-2,2.3829518E-2,4.9400404E-2],"categories":[],"categories_nodes":[],"categories_segments":[],"categories_sizes":[],"default_left":[0,0,0,0,0,0,0,0,0,0,0,0,0,0,0,0,0,0,0,0,0],"id":11,"left_children":[1,3,5,7,9,11,-1,-1,13,15,-1,17,19,-1,-1,-1,-1,-1,-1,-1,-1],"loss_changes":[5.32738E3,2.9484277E2,1.0341455E2,3.698877E1,4.0763025E2,6.5095215E1,0E0,0E0,1.5253479E2,1.7478142E2,0E0,1.1150592E2,7.1660156E0,0E0,0E0,0E0,0E0,0E0,0E0,0E0,0E0],"parents":[2147483647,0,0,1,1,2,2,3,3,4,4,5,5,8,8,9,9,11,11,12,12],"right_children":[2,4,6,8,10,12,-1,-1,14,16,-1,18,20,-1,-1,-1,-1,-1,-1,-1,-1],"split_conditions":[3.335055E2,3.30256E2,9.326297E-1,1.6454265E0,5.380658E1,3.371805E2,-1.0653336E-1,-9.71743E-2,1.822642E2,5.591643E2,-1.2400784E-1,5.7934735E2,1.8111143E0,-9.33805E-2,-1.7778309E-2,3.7028342E-2,-1.0219555E-1,3.6637772E-2,-6.265168E-2,2.3829518E-2,4.9400404E-2],"split_indices":[11,11,37,60,13,11,0,0,14,12,0,12,18,0,0,0,0,0,0,0,0],"split_type":[0,0,0,0,0,0,0,0,0,0,0,0,0,0,0,0,0,0,0,0,0],"sum_hessian":[5.6718086E3,9.2272565E2,4.749083E3,7.14624E2,2.0810162E2,4.741034E3,8.049007E0,4.1218826E2,3.0243576E2,1.4721754E2,6.0884083E1,5.5300665E2,4.1880273E3,2.2568231E2,7.675343E1,1.26080826E2,2.1136723E1,5.2920715E2,2.3799517E1,2.9311672E1,4.158716E3],"tree_param":{"num_deleted":"0","num_feature":"65","num_nodes":"21","size_leaf_vector":"1"}},{"base_weights":[6.0289544E-1,-1.8291739E0,1.0159979E0,-1.9547307E0,-1.065598E0,5.152091E-1,1.0654473E0,-2.071809E0,-1.3668051E0,-9.1978475E-2,8.212288E-1,-1.5299226E-1,6.160829E-1,1.0063242E-2,1.0680656E0,-9.352957E-2,-1.455185E-1,3.3869077E-2,-9.102899E-2,4.7315698E-2,2.4523256E-2,3.1252732E-3,3.7472732E-2,4.407165E-2,4.987362E-2],"categories":[],"categories_nodes":[],"categories_segments":[],"categories_sizes":[],"default_left":[0,0,0,0,0,0,0,0,0,0,0,0,0,0,0,0,0,0,0,0,0,0,0,0,0],"id":12,"left_children":[1,3,5,7,9,11,13,15,17,-1,19,-1,21,-1,23,-1,-1,-1,-1,-1,-1,-1,-1,-1,-1],"loss_changes":[5.7317783E3,7.5693115E1,1.19478516E2,4.4014404E1,2.1448685E2,1.7267436E2,9.071777E0,1.409375E1,1.5970047E2,0E0,1.1698341E0,0E0,4.6634537E1,0E0,6.044922E0,0E0,0E0,0E0,0E0,0E0,0E0,0E0,0E0,0E0,0E0],"parents":[2147483647,0,0,1,1,2,2,3,3,4,4,5,5,6,6,7,7,8,8,10,10,12,12,14,14],"right_children":[2,4,6,8,10,12,14,16,18,-1,20,-1,22,-1,24,-1,-1,-1,-1,-1,-1,-1,-1,-1,-1],"split_conditions":[2.543675E2,5E0,2.572625E2,1.7475257E0,2.525025E2,2.8840784E1,5.168126E2,2.5372E2,1.7504E0,-9.1978475E-2,4.012977E0,-1.5299226E-1,3.0554283E1,1.0063242E-2,2.59695E2,-9.352957E-2,-1.455185E-1,3.3869077E-2,-9.102899E-2,4.7315698E-2,2.4523256E-2,3.1252732E-3,3.7472732E-2,4.407165E-2,4.987362E-2],"split_indices":[10,31,10,60,10,15,12,10,60,0,58,0,15,0,10,0,0,0,0,0,0,0,0,0,0],"split_type":[0,0,0,0,0,0,0,0,0,0,0,0,0,0,0,0,0,0,0,0,0,0,0,0,0],"sum_hessian":[5.7016934E3,8.270972E2,4.874596E3,7.082018E2,1.18895424E2,4.400288E2,4.4345674E3,5.874211E2,1.2078073E2,7.957679E1,3.9318634E1,1.0129986E1,4.2989883E2,1.4429209E1,4.420138E3,5.717773E2,1.5643787E1,2.7070068E1,9.371066E1,2.0209034E1,1.9109602E1,1.1543731E2,3.1446152E2,5.9865857E2,3.8214795E3],"tree_param":{"num_deleted":"0","num_feature":"65","num_nodes":"25","size_leaf_vector":"1"}},{"base_weights":[5.791726E-1,-1.7897455E0,9.9021506E-1,-9.761897E-1,-1.9443684E0,1.0142348E-1,1.0484567E0,-8.458181E-2,1.8671662E-1,-8.626796E-2,-9.90196E-2,-1.7897871E-1,2.9238302E-1,8.5395485E-1,1.0690448E0,4.9205832E-2,-9.555184E-2,2.4664577E-2,-1.3740283E-1,-4.4385655E-4,4.1300043E-2,4.926175E-2,2.0244913E-2],"categories":[],"categories_nodes":[],"categories_segments":[],"categories_sizes":[],"default_left":[0,0,0,0,0,0,0,0,0,0,0,0,0,0,0,0,0,0,0,0,0,0,0],"id":13,"left_children":[1,3,5,7,9,11,13,-1,15,-1,-1,-1,17,19,21,-1,-1,-1,-1,-1,-1,-1,-1],"loss_changes":[5.140707E3,9.474512E1,2.3228906E2,1.291514E2,2.7495117E0,2.1249174E2,1.5053711E1,0E0,1.1318517E2,0E0,0E0,0E0,2.1494287E2,1.6115173E1,4.710449E0,0E0,0E0,0E0,0E0,0E0,0E0,0E0,0E0],"parents":[2147483647,0,0,1,1,2,2,3,3,4,4,5,5,6,6,8,8,12,12,13,13,14,14],"right_children":[2,4,6,8,10,12,14,-1,16,-1,-1,-1,18,20,22,-1,-1,-1,-1,-1,-1,-1,-1],"split_conditions":[2.5372E2,1E0,2.565475E2,5.298344E1,3.280305E2,2.5410328E1,2.584225E2,-8.458181E-2,5.301793E1,-8.626796E-2,-9.90196E-2,-1.7897871E-1,4.234326E0,8.561121E0,9.1951704E-1,4.9205832E-2,-9.555184E-2,2.4664577E-2,-1.3740283E-1,-4.4385655E-4,4.1300043E-2,4.926175E-2,2.0244913E-2],"split_indices":[10,47,10,13,11,3,10,0,13,0,0,0,58,4,37,0,0,0,0,0,0,0,0],"split_type":[0,0,0,0,0,0,0,0,0,0,0,0,0,0,0,0,0,0,0,0,0,0,0],"sum_hessian":[5.276155E3,7.7937103E2,4.496784E3,1.2631817E2,6.5305286E2,2.7714307E2,4.219641E3,7.224636E1,5.407181E1,5.0383917E2,1.492137E2,1.1441479E1,2.6570157E2,4.1071582E2,3.808925E3,3.9492462E1,1.457935E1,2.4838908E2,1.73125E1,1.9715277E1,3.9100055E2,3.792718E3,1.6207127E1],"tree_param":{"num_deleted":"0","num_feature":"65","num_nodes":"23","size_leaf_vector":"1"}},{"base_weights":[6.0701776E-1,-1.7185713E0,1.0129861E0,-8.5023314E-2,-9.061415E-1,1.0202893E0,-9.2676975E-2,-2.469729E0,2.0544164E-1,6.702308E-1,1.0579491E0,-1.3203028E-1,-8.906076E-2,-1.068217E-1,3.512197E-2,-3.5967756E-2,3.372927E-2,4.4230007E-2,4.9430367E-2],"categories":[],"categories_nodes":[],"categories_segments":[],"categories_sizes":[],"default_left":[0,0,0,0,0,0,0,0,0,0,0,0,0,0,0,0,0,0,0],"id":14,"left_children":[1,3,5,-1,7,9,-1,11,13,15,17,-1,-1,-1,-1,-1,-1,-1,-1],"loss_changes":[5.2240537E3,8.425488E1,1.0642432E2,0E0,2.0459825E2,6.043506E1,0E0,1.6827698E0,9.96148E1,4.315796E1,4.9541016E0,0E0,0E0,0E0,0E0,0E0,0E0,0E0,0E0],"parents":[2147483647,0,0,1,1,2,2,4,4,5,5,7,7,8,8,9,9,10,10],"right_children":[2,4,6,-1,8,10,-1,12,14,16,18,-1,-1,-1,-1,-1,-1,-1,-1],"split_conditions":[2.545125E2,2.525025E2,9.326297E-1,-8.5023314E-2,3.0976017E1,2.573375E2,-9.2676975E-2,2.3517E2,5.56E4,2.97084E1,2.59695E2,-1.3203028E-1,-8.906076E-2,-1.068217E-1,3.512197E-2,-3.5967756E-2,3.372927E-2,4.4230007E-2,4.9430367E-2],"split_indices":[10,10,37,0,15,10,0,0,7,22,10,0,0,0,0,0,0,0,0],"split_type":[0,0,0,0,0,0,0,0,0,0,0,0,0,0,0,0,0,0,0],"sum_hessian":[5.529959E3,8.211317E2,4.7088276E3,7.0551807E2,1.1561362E2,4.698455E3,1.0372333E1,4.753386E1,6.807975E1,4.5960904E2,4.238846E3,2.353829E1,2.3995571E1,1.14761E1,5.6603653E1,1.8387419E1,4.4122162E2,6.5895996E2,3.579886E3],"tree_param":{"num_deleted":"0","num_feature":"65","num_nodes":"19","size_leaf_vector":"1"}},{"base_weights":[5.9428334E-1,-1.7379508E0,9.8523104E-1,-8.1770435E-2,-1.1468079E0,3.0983913E-1,1.0364493E0,-9.2837185E-2,2.4104971E-2,5.4907453E-1,-1.1099238E-1,-5.7353433E-3,1.0447823E0,-1.4875463E-1,3.3266976E-2,4.0857572E-2,4.9105227E-2],"categories":[],"categories_nodes":[],"categories_segments":[],"categories_sizes":[],"default_left":[0,0,0,0,0,0,0,0,0,0,0,0,0,0,0,0,0],"id":15,"left_children":[1,3,5,-1,7,9,11,-1,-1,13,-1,-1,15,-1,-1,-1,-1],"loss_changes":[4.7444688E3,1.4309082E1,1.5323877E2,0E0,7.7948906E1,2.0717505E2,4.056201E1,0E0,0E0,1.9489229E2,0E0,0E0,1.3047852E1,0E0,0E0,0E0,0E0],"parents":[2147483647,0,0,1,1,2,2,4,4,5,5,6,6,9,9,12,12],"right_children":[2,4,6,-1,8,10,12,-1,-1,14,-1,-1,16,-1,-1,-1,-1],"split_conditions":[2.5372E2,2.525025E2,2.562625E2,-8.1770435E-2,5E0,1.8933E2,4.583E1,-9.2837185E-2,2.4104971E-2,5.2078267E3,-1.1099238E-1,-5.7353433E-3,2.5874875E2,-1.4875463E-1,3.3266976E-2,4.0857572E-2,4.9105227E-2],"split_indices":[10,10,10,0,31,54,55,0,0,9,0,0,10,0,0,0,0],"split_type":[0,0,0,0,0,0,0,0,0,0,0,0,0,0,0,0,0],"sum_hessian":[5.2001797E3,7.45795E2,4.454385E3,6.948838E2,5.0911156E1,3.1511234E2,4.1392725E3,3.341747E1,1.7493687E1,2.907211E2,2.4391237E1,2.9057358E1,4.110215E3,1.1746817E1,2.7897427E2,5.423184E2,3.5678965E3],"tree_param":{"num_deleted":"0","num_feature":"65","num_nodes":"17","size_leaf_vector":"1"}},{"base_weights":[6.0129625E-1,-1.2418845E0,7.9108244E-1,-1.7497535E0,3.477565E-1,-1.2359209E0,8.9872295E-1,-7.6843046E-2,-2.0125675E0,-9.336317E-2,8.6637026E-1,-1.1759292E-1,-1.7322729E0,9.3570715E-1,-8.177256E-2,-8.470093E-2,-1.3213341E-1,4.74286E-2,1.7031207E-3,-7.171898E-2,2.3283208E-2,-7.611172E-2,-1.19882986E-1,2.4889281E-2,4.741618E-2],"categories":[],"categories_nodes":[],"categories_segments":[],"categories_sizes":[],"default_left":[0,0,0,0,0,0,0,0,0,0,0,0,0,0,0,0,0,0,0,0,0,0,0,0,0],"id":16,"left_children":[1,3,5,7,9,11,13,-1,15,-1,17,19,21,23,-1,-1,-1,-1,-1,-1,-1,-1,-1,-1,-1],"loss_changes":[1.8171875E3,3.928152E2,1.0285042E3,1.9946289E0,1.4773636E2,1.3105237E2,4.4456104E2,0E0,2.9354248E0,0E0,1.3014259E1,6.858493E1,4.050354E0,1.6510303E2,0E0,0E0,0E0,0E0,0E0,0E0,0E0,0E0,0E0,0E0,0E0],"parents":[2147483647,0,0,1,1,2,2,3,3,4,4,5,5,6,6,8,8,10,10,11,11,12,12,13,13],"right_children":[2,4,6,8,10,12,14,-1,16,-1,18,20,22,24,-1,-1,-1,-1,-1,-1,-1,-1,-1,-1,-1],"split_conditions":[2.21E2,1.933167E2,1.01056854E2,1.1725741E2,2.1541E2,7.1992314E-1,9.326297E-1,-7.6843046E-2,5.265453E2,-9.336317E-2,6.3E3,2.2721E2,2.432E2,2.3428E2,-8.177256E-2,-8.470093E-2,-1.3213341E-1,4.74286E-2,1.7031207E-3,-7.171898E-2,2.3283208E-2,-7.611172E-2,-1.19882986E-1,2.4889281E-2,4.741618E-2],"split_indices":[0,14,56,56,0,37,37,0,12,0,19,0,0,0,0,0,0,0,0,0,0,0,0,0,0],"split_type":[0,0,0,0,0,0,0,0,0,0,0,0,0,0,0,0,0,0,0,0,0,0,0,0,0],"sum_hessian":[5.1904375E3,4.8371808E2,4.7067197E3,3.666719E2,1.1704618E2,2.3650171E2,4.470218E3,2.9068738E2,7.598454E1,2.0168516E1,9.687767E1,7.340486E1,1.6309685E2,4.4102524E3,5.996535E1,6.710626E1,8.878282E0,8.016085E1,1.6716816E1,2.1770672E1,5.1634193E1,1.5368192E2,9.414932E0,8.6321094E2,3.5470415E3],"tree_param":{"num_deleted":"0","num_feature":"65","num_nodes":"25","size_leaf_vector":"1"}},{"base_weights":[5.2335817E-1,-1.2700558E0,9.832112E-1,-7.703067E-2,-7.9035014E-1,-0E0,1.0050834E0,6.2076926E-1,-1.4726105E0,-1.5134361E-1,5.674554E-1,-4.5244318E-2,1.0157393E0,-8.8256136E-2,4.1580543E-2,-8.219762E-2,1.533114E-2,-2.2229426E-2,4.5871865E-2,-3.5408404E-2,4.228482E-2,-7.206445E-3,4.7068223E-2],"categories":[],"categories_nodes":[],"categories_segments":[],"categories_sizes":[],"default_left":[0,0,0,0,0,0,0,0,0,0,0,0,0,0,0,0,0,0,0,0,0,0,0],"id":17,"left_children":[1,3,5,-1,7,9,11,13,15,-1,17,19,21,-1,-1,-1,-1,-1,-1,-1,-1,-1,-1],"loss_changes":[3.5988174E3,1.7064514E2,7.453418E1,0E0,3.9689374E2,1.4575665E2,3.8428467E1,9.879895E1,1.59237E2,0E0,3.0991861E1,2.5313108E1,3.2212646E1,0E0,0E0,0E0,0E0,0E0,0E0,0E0,0E0,0E0,0E0],"parents":[2147483647,0,0,1,1,2,2,4,4,5,5,6,6,7,7,8,8,10,10,11,11,12,12],"right_children":[2,4,6,-1,8,10,12,14,16,-1,18,20,22,-1,-1,-1,-1,-1,-1,-1,-1,-1,-1],"split_conditions":[3.33854E2,2.2632E2,4.662E1,-7.703067E-2,8.964E1,2.6335402E1,2.1604E2,5.201E1,2.4516E2,-1.5134361E-1,5.74E4,5E0,1.0117652E2,-8.8256136E-2,4.1580543E-2,-8.219762E-2,1.533114E-2,-2.2229426E-2,4.5871865E-2,-3.5408404E-2,4.228482E-2,-7.206445E-3,4.7068223E-2],"split_indices":[11,0,55,0,16,3,0,55,0,0,7,53,56,0,0,0,0,0,0,0,0,0,0],"split_type":[0,0,0,0,0,0,0,0,0,0,0,0,0,0,0,0,0,0,0,0,0,0,0],"sum_hessian":[4.3607046E3,8.893302E2,3.4713745E3,4.7986252E2,4.0946768E2,7.571342E1,3.3956611E3,1.3331512E2,2.7615256E2,1.0203795E1,6.550962E1,3.372173E1,3.3619395E3,1.2530301E1,1.2078482E2,2.3529358E2,4.0858994E1,1.874044E1,4.6769176E1,1.9615816E1,1.4105914E1,2.2425177E1,3.3395142E3],"tree_param":{"num_deleted":"0","num_feature":"65","num_nodes":"23","size_leaf_vector":"1"}},{"base_weights":[5.6614125E-1,-1.4854014E0,9.850169E-1,-1.5798707E0,-9.0688705E-1,3.002995E-1,1.0187429E0,-1.1300569E0,-1.7056831E0,-7.489289E-2,7.5430936E-1,-1.5705511E-1,5.2559894E-1,-2.0323342E-2,1.0240324E0,-7.209473E-2,4.1418444E-2,-7.627114E-2,-1.1907218E-1,2.0795476E-2,4.4869576E-2,3.6605157E-2,-1.0516817E-1,4.1000634E-2,4.8739523E-2],"categories":[],"categories_nodes":[],"categories_segments":[],"categories_sizes":[],"default_left":[0,0,0,0,0,0,0,0,0,0,0,0,0,0,0,0,0,0,0,0,0,0,0,0,0],"id":18,"left_children":[1,3,5,7,9,11,13,15,17,-1,19,-1,21,-1,23,-1,-1,-1,-1,-1,-1,-1,-1,-1,-1],"loss_changes":[3.9678616E3,4.0078857E1,8.7667725E1,3.4500732E1,1.3790335E2,1.5382903E2,2.9006104E1,1.3635313E2,1.4560303E1,0E0,1.2729607E0,0E0,1.3347374E2,0E0,1.5474365E1,0E0,0E0,0E0,0E0,0E0,0E0,0E0,0E0,0E0,0E0],"parents":[2147483647,0,0,1,1,2,2,3,3,4,4,5,5,6,6,7,7,8,8,10,10,12,12,14,14],"right_children":[2,4,6,8,10,12,14,16,18,-1,20,-1,22,-1,24,-1,-1,-1,-1,-1,-1,-1,-1,-1,-1],"split_conditions":[2.545125E2,5E0,2.562625E2,2.373829E1,2.525025E2,3.3846154E0,1.8111143E0,2.3705332E1,2.5372E2,-7.489289E-2,3.33854E2,-1.5705511E-1,1.8933E2,-2.0323342E-2,2.59695E2,-7.209473E-2,4.1418444E-2,-7.627114E-2,-1.1907218E-1,2.0795476E-2,4.4869576E-2,3.6605157E-2,-1.0516817E-1,4.1000634E-2,4.8739523E-2],"split_indices":[10,31,10,3,10,45,18,3,10,0,11,0,54,0,10,0,0,0,0,0,0,0,0,0,0],"split_type":[0,0,0,0,0,0,0,0,0,0,0,0,0,0,0,0,0,0,0,0,0,0,0,0,0],"sum_hessian":[4.6141284E3,7.8166394E2,3.8324644E3,6.6952203E2,1.1214196E2,1.8099922E2,3.651465E3,1.4971869E2,5.1980334E2,7.833366E1,3.3808304E1,9.231531E0,1.7176768E2,1.2550895E1,3.638914E3,1.2353787E2,2.6180807E1,4.9755823E2,2.2245092E1,1.6627115E1,1.718119E1,1.5763824E2,1.4129441E1,7.8946313E2,2.849451E3],"tree_param":{"num_deleted":"0","num_feature":"65","num_nodes":"25","size_leaf_vector":"1"}},{"base_weights":[5.673049E-1,-1.3839607E0,9.8135966E-1,-1.6199899E0,-1.0663702E0,5.259297E-1,1.033122E0,-7.2777234E-2,-1.1023037E-1,-7.3138185E-2,7.555056E-2,-9.955318E-1,8.378525E-1,6.18669E-1,1.0401471E0,4.2037476E-2,-8.766772E-2,-2.1271423E-1,5.3958762E-3,-1.8747916E-2,4.220956E-2,3.9786693E-2,-1.6518582E-2,1.5268274E-2,4.7915228E-2],"categories":[],"categories_nodes":[],"categories_segments":[],"categories_sizes":[],"default_left":[0,0,0,0,0,0,0,0,0,0,0,0,0,0,0,0,0,0,0,0,0,0,0,0,0],"id":19,"left_children":[1,3,5,7,9,11,13,-1,-1,-1,15,17,19,21,23,-1,-1,-1,-1,-1,-1,-1,-1,-1,-1],"loss_changes":[3.6366602E3,5.5913208E1,8.626929E1,6.6898193E0,2.0449652E2,1.8236853E2,8.2873535E0,0E0,0E0,0E0,1.8157582E2,2.6661368E2,3.2447083E1,1.4934084E1,3.824463E0,0E0,0E0,0E0,0E0,0E0,0E0,0E0,0E0,0E0,0E0],"parents":[2147483647,0,0,1,1,2,2,3,3,4,4,5,5,6,6,10,10,11,11,12,12,13,13,14,14],"right_children":[2,4,6,8,10,12,14,-1,-1,-1,16,18,20,22,24,-1,-1,-1,-1,-1,-1,-1,-1,-1,-1],"split_conditions":[2.545125E2,3.0377367E1,2.573375E2,2.5372E2,2.2632E2,3.0438417E1,4.662E1,-7.2777234E-2,-1.1023037E-1,-7.3138185E-2,2.5055948E1,5.0576925E0,5.260939E2,1.0253371E1,5.05E4,4.2037476E-2,-8.766772E-2,-2.1271423E-1,5.3958762E-3,-1.8747916E-2,4.220956E-2,3.9786693E-2,-1.6518582E-2,1.5268274E-2,4.7915228E-2],"split_indices":[10,15,10,10,0,15,55,0,0,0,33,45,12,6,7,0,0,0,0,0,0,0,0,0,0],"split_type":[0,0,0,0,0,0,0,0,0,0,0,0,0,0,0,0,0,0,0,0,0,0,0,0,0],"sum_hessian":[4.4979976E3,7.867139E2,3.7112834E3,4.4768317E2,3.3903076E2,3.8091293E2,3.3303706E3,4.3144354E2,1.6239624E1,2.322057E2,1.0682504E2,6.4138306E1,3.1677463E2,5.8243088E1,3.2721274E3,7.567012E1,3.115492E1,1.4186959E1,4.9951347E1,1.8586723E1,2.981879E2,4.692101E1,1.1322077E1,1.0566351E1,3.261561E3],"tree_param":{"num_deleted":"0","num_feature":"65","num_nodes":"25","size_leaf_vector":"1"}},{"base_weights":[5.005897E-1,-1.2023388E0,9.631389E-1,-1.3861612E0,-5.735945E-1,5.9054905E-1,1.0237764E0,-7.0135194E-1,-7.0373766E-2,-9.159124E-2,-1.4863786E-1,7.51373E-1,-1.5718846E-1,1.0328003E0,6.77225E-1,-6.9451414E-2,7.577917E-3,3.6909948E-3,-9.0311445E-2,3.7068628E-2,-2.5547491E-2,1.3991916E-2,4.7602188E-2,-2.1405796E-2,4.514876E-2],"categories":[],"categories_nodes":[],"categories_segments":[],"categories_sizes":[],"default_left":[0,0,0,0,0,0,0,0,0,0,0,0,0,0,0,0,0,0,0,0,0,0,0,0,0],"id":20,"left_children":[1,3,5,7,9,11,13,15,-1,-1,17,19,-1,21,23,-1,-1,-1,-1,-1,-1,-1,-1,-1,-1],"loss_changes":[3.0923965E3,9.520996E1,6.839258E1,6.1929688E1,1.1478499E2,2.8334283E2,6.791992E0,8.1848495E1,0E0,0E0,6.3039608E1,3.0810059E1,0E0,3.989746E0,2.584275E1,0E0,0E0,0E0,0E0,0E0,0E0,0E0,0E0,0E0,0E0],"parents":[2147483647,0,0,1,1,2,2,3,3,4,4,5,5,6,6,7,7,10,10,11,11,13,13,14,14],"right_children":[2,4,6,8,10,12,14,16,-1,-1,18,20,-1,22,24,-1,-1,-1,-1,-1,-1,-1,-1,-1,-1],"split_conditions":[3.33854E2,3.30256E2,3.37328E2,1E0,4E0,5.7934735E2,9.105354E-1,1.822642E2,-7.0373766E-2,-9.159124E-2,-5E3,1.3797013E1,-1.5718846E-1,9.1444737E-1,1.2305043E1,-6.9451414E-2,7.577917E-3,3.6909948E-3,-9.0311445E-2,3.7068628E-2,-2.5547491E-2,1.3991916E-2,4.7602188E-2,-2.1405796E-2,4.514876E-2],"split_indices":[11,11,11,47,27,12,37,14,0,0,8,4,0,6,4,0,0,0,0,0,0,0,0,0,0],"split_type":[0,0,0,0,0,0,0,0,0,0,0,0,0,0,0,0,0,0,0,0,0,0,0,0,0],"sum_hessian":[3.9229055E3,8.3733966E2,3.085566E3,6.462905E2,1.9104915E2,4.3461102E2,2.6509548E3,1.14356415E2,5.319341E2,4.276874E1,1.4828041E2,4.1892422E2,1.5686772E1,2.5802224E3,7.073252E1,5.8850334E1,5.5506084E1,1.3257349E2,1.5706936E1,4.0276648E2,1.6157755E1,1.01710205E1,2.5700513E3,1.4502648E1,5.622987E1],"tree_param":{"num_deleted":"0","num_feature":"65","num_nodes":"25","size_leaf_vector":"1"}},{"base_weights":[5.6392103E-1,-1.3083161E0,9.6734375E-1,-1.3906746E0,-2.1391468E-1,3.5795808E-1,1.022797E0,-1.4749945E0,-9.567629E-1,-1.00807644E-1,3.828337E-2,-1.1087533E-1,5.0004864E-1,4.693153E-1,1.0308281E0,-6.982748E-2,-4.2438924E-2,3.1000458E-2,-6.702598E-2,-4.9631417E-2,2.8080506E-2,-3.9484918E-2,4.282194E-2,-0E0,4.7562655E-2],"categories":[],"categories_nodes":[],"categories_segments":[],"categories_sizes":[],"default_left":[0,0,0,0,0,0,0,0,0,0,0,0,0,0,0,0,0,0,0,0,0,0,0,0,0],"id":21,"left_children":[1,3,5,7,9,11,13,15,17,-1,-1,-1,19,21,23,-1,-1,-1,-1,-1,-1,-1,-1,-1,-1],"loss_changes":[3.1845342E3,6.641565E1,1.1623242E2,2.2752075E1,1.14866516E2,1.1564575E2,1.2970947E1,1.1337402E1,9.7409546E1,0E0,0E0,0E0,4.9406258E1,3.074797E1,1.2035889E1,0E0,0E0,0E0,0E0,0E0,0E0,0E0,0E0,0E0,0E0],"parents":[2147483647,0,0,1,1,2,2,3,3,4,4,5,5,6,6,7,7,8,8,12,12,13,13,14,14],"right_children":[2,4,6,8,10,12,14,16,18,-1,-1,-1,20,22,24,-1,-1,-1,-1,-1,-1,-1,-1,-1,-1],"split_conditions":[2.543675E2,2.5372E2,2.572625E2,1.7475257E0,3.1621983E1,4.696E1,4.662E1,2.525025E2,1.7504E0,-1.00807644E-1,3.828337E-2,-1.1087533E-1,5.096077E3,1.2237493E1,1.8111143E0,-6.982748E-2,-4.2438924E-2,3.1000458E-2,-6.702598E-2,-4.9631417E-2,2.8080506E-2,-3.9484918E-2,4.282194E-2,-0E0,4.7562655E-2],"split_indices":[10,10,10,60,15,55,55,10,60,0,0,0,9,4,18,0,0,0,0,0,0,0,0,0,0],"split_type":[0,0,0,0,0,0,0,0,0,0,0,0,0,0,0,0,0,0,0,0,0,0,0,0,0],"sum_hessian":[4.2130186E3,7.4621124E2,3.4668076E3,6.9336017E2,5.285106E1,2.9049106E2,3.1763164E3,5.7731036E2,1.1604979E2,1.7924982E1,3.492608E1,1.3067385E1,2.7742368E2,4.714801E1,3.1291685E3,5.3219E2,4.512035E1,2.7002352E1,8.904744E1,1.723551E1,2.6018817E2,1.1687847E1,3.5460163E1,1.1127213E1,3.1180413E3],"tree_param":{"num_deleted":"0","num_feature":"65","num_nodes":"25","size_leaf_vector":"1"}},{"base_weights":[5.5133355E-1,-1.093412E0,9.5993567E-1,-6.79527E-2,-6.5263975E-1,5.4819643E-1,1.0217988E0,6.5380394E-1,-1.2950016E0,-1.1438921E-1,6.604577E-1,6.384146E-3,1.02549E0,-7.1406394E-2,4.1022856E-2,-7.25837E-2,1.5749896E-2,3.3802986E-2,-3.7378993E-2,3.4098115E-2,4.758496E-2],"categories":[],"categories_nodes":[],"categories_segments":[],"categories_sizes":[],"default_left":[0,0,0,0,0,0,0,0,0,0,0,0,0,0,0,0,0,0,0,0,0],"id":22,"left_children":[1,3,5,-1,7,9,11,13,15,-1,17,-1,19,-1,-1,-1,-1,-1,-1,-1,-1],"loss_changes":[2.6856865E3,1.3283313E2,8.0242676E1,0E0,3.1456445E2,1.4509424E2,8.4592285E0,6.661333E1,1.1769632E2,0E0,4.5645584E1,0E0,5.871826E0,0E0,0E0,0E0,0E0,0E0,0E0,0E0,0E0],"parents":[2147483647,0,0,1,1,2,2,4,4,5,5,6,6,7,7,8,8,10,10,12,12],"right_children":[2,4,6,-1,8,10,12,14,16,-1,18,-1,20,-1,-1,-1,-1,-1,-1,-1,-1],"split_conditions":[3.33854E2,2.2632E2,3.3750626E2,-6.79527E-2,1.0253371E1,4.701E1,2.1541E2,5.156E1,2.4516E2,-1.1438921E-1,5.7934735E2,6.384146E-3,4.662E1,-7.1406394E-2,4.1022856E-2,-7.25837E-2,1.5749896E-2,3.3802986E-2,-3.7378993E-2,3.4098115E-2,4.758496E-2],"split_indices":[11,0,11,0,18,55,0,55,0,0,12,0,55,0,0,0,0,0,0,0,0],"split_type":[0,0,0,0,0,0,0,0,0,0,0,0,0,0,0,0,0,0,0,0,0],"sum_hessian":[3.9931184E3,7.9400574E2,3.1991128E3,4.219849E2,3.7202084E2,4.2026773E2,2.778845E3,1.2243169E2,2.4958917E2,1.391689E1,4.0635086E2,1.2179934E1,2.766665E3,1.1112734E1,1.11318954E2,2.129546E2,3.663456E1,3.8755823E2,1.879263E1,9.431699E1,2.6723481E3],"tree_param":{"num_deleted":"0","num_feature":"65","num_nodes":"21","size_leaf_vector":"1"}},{"base_weights":[5.447107E-1,-1.1321949E0,9.5332533E-1,-1.253013E0,5.201193E-1,5.495044E-1,1.0158461E0,-1.3725882E0,-5.957527E-1,4.6731208E-2,-1.5328805E-1,7.014798E-1,-1.3531126E0,4.478392E-1,1.0219212E0,-6.5783165E-2,-6.867839E-3,-6.5821186E-2,2.3079572E-2,4.4839364E-2,-8.563752E-2,-3.928588E-2,3.6640674E-2,-1.4146435E-1,1.0225818E-2,4.2181313E-2,-1.0071001E-2,4.756756E-2,3.7099224E-2],"categories":[],"categories_nodes":[],"categories_segments":[],"categories_sizes":[],"default_left":[0,0,0,0,0,0,0,0,0,0,0,0,0,0,0,0,0,0,0,0,0,0,0,0,0,0,0,0,0],"id":23,"left_children":[1,3,5,7,9,11,13,15,17,-1,19,21,23,25,27,-1,-1,-1,-1,-1,-1,-1,-1,-1,-1,-1,-1,-1,-1],"loss_changes":[2.6835186E3,1.5427625E2,7.8215576E1,5.4499023E1,1.8215027E1,1.24030136E2,8.289551E0,4.2203003E1,1.0480293E2,0E0,4.7499123E1,5.954892E1,8.809625E1,1.0436501E1,5.6433105E0,0E0,0E0,0E0,0E0,0E0,0E0,0E0,0E0,0E0,0E0,0E0,0E0,0E0,0E0],"parents":[2147483647,0,0,1,1,2,2,3,3,4,4,5,5,6,6,7,7,8,8,10,10,11,11,12,12,13,13,14,14],"right_children":[2,4,6,8,10,12,14,16,18,-1,20,22,24,26,28,-1,-1,-1,-1,-1,-1,-1,-1,-1,-1,-1,-1,-1,-1],"split_conditions":[3.33854E2,4.086E1,3.3750626E2,5E0,1.396729E0,5.7934735E2,3.6225E1,1.8042935E2,2E0,4.6731208E-2,5.523622E2,2.95003E1,7.3E3,1.3500522E1,3E0,-6.5783165E-2,-6.867839E-3,-6.5821186E-2,2.3079572E-2,4.4839364E-2,-8.563752E-2,-3.928588E-2,3.6640674E-2,-1.4146435E-1,1.0225818E-2,4.2181313E-2,-1.0071001E-2,4.756756E-2,3.7099224E-2],"split_indices":[11,1,11,31,59,12,1,2,42,0,12,22,44,4,41,0,0,0,0,0,0,0,0,0,0,0,0,0,0],"split_type":[0,0,0,0,0,0,0,0,0,0,0,0,0,0,0,0,0,0,0,0,0,0,0,0,0,0,0,0,0],"sum_hessian":[3.9131978E3,7.660986E2,3.147099E3,7.1438654E2,5.171205E1,4.243539E2,2.7227454E3,6.0279504E2,1.1159148E2,2.9709406E1,2.2002645E1,3.9387943E2,3.047447E1,3.0441645E1,2.6923037E3,5.7490436E2,2.7890701E1,6.332012E1,4.8271355E1,1.3451918E1,8.550728E0,2.197468E1,3.7190475E2,1.4087295E1,1.6387177E1,1.790256E1,1.2539084E1,2.5357976E3,1.5650612E2],"tree_param":{"num_deleted":"0","num_feature":"65","num_nodes":"29","size_leaf_vector":"1"}},{"base_weights":[5.311734E-1,-1.2755378E0,9.467662E-1,-6.027178E-1,-1.398309E0,4.116985E-1,9.968307E-1,-6.274491E-2,2.680284E-1,-7.7868086E-1,-1.4595033E0,5.293024E-1,-8.040698E-2,-1.33331E-2,1.0032641E0,4.8587017E-2,-7.2712615E-2,-7.101325E-2,3.816253E-2,-6.519403E-2,-8.7348506E-2,-4.7356054E-2,3.0279415E-2,7.678221E-3,4.6586156E-2],"categories":[],"categories_nodes":[],"categories_segments":[],"categories_sizes":[],"default_left":[0,0,0,0,0,0,0,0,0,0,0,0,0,0,0,0,0,0,0,0,0,0,0,0,0],"id":24,"left_children":[1,3,5,7,9,11,13,-1,15,17,19,21,-1,-1,23,-1,-1,-1,-1,-1,-1,-1,-1,-1,-1],"loss_changes":[2.7531533E3,5.4854736E1,7.880908E1,7.284872E1,1.9690186E1,6.622653E1,2.3175537E1,0E0,7.700968E1,6.993846E1,4.977295E0,5.0240387E1,0E0,0E0,2.2092041E1,0E0,0E0,0E0,0E0,0E0,0E0,0E0,0E0,0E0,0E0],"parents":[2147483647,0,0,1,1,2,2,3,3,4,4,5,5,6,6,8,8,9,9,10,10,11,11,14,14],"right_children":[2,4,6,8,10,12,14,-1,16,18,20,22,-1,-1,24,-1,-1,-1,-1,-1,-1,-1,-1,-1,-1],"split_conditions":[2.545125E2,1E0,2.5666E2,5.298344E1,1.4077307E0,3.7212704E1,1.0144829E2,-6.274491E-2,5.301793E1,1.4061323E0,2.5292E2,2.33E4,-8.040698E-2,-1.33331E-2,4.59E1,4.8587017E-2,-7.2712615E-2,-7.101325E-2,3.816253E-2,-6.519403E-2,-8.7348506E-2,-4.7356054E-2,3.0279415E-2,7.678221E-3,4.6586156E-2],"split_indices":[10,47,10,13,60,33,56,0,13,60,10,43,0,0,55,0,0,0,0,0,0,0,0,0,0],"split_type":[0,0,0,0,0,0,0,0,0,0,0,0,0,0,0,0,0,0,0,0,0,0,0,0,0],"sum_hessian":[3.6635505E3,6.844685E2,2.9790818E3,1.0722991E2,5.7723865E2,2.565085E2,2.7225735E3,5.7024086E1,5.0205822E1,5.3973362E1,5.2326526E2,2.4433043E2,1.2178079E1,1.2986619E1,2.7095867E3,3.571266E1,1.4493161E1,3.6751457E1,1.7221907E1,4.838518E2,3.9413464E1,1.7820929E1,2.2650949E2,3.279886E1,2.6767878E3],"tree_param":{"num_deleted":"0","num_feature":"65","num_nodes":"25","size_leaf_vector":"1"}},{"base_weights":[5.322133E-1,-1.3288013E0,9.363573E-1,-6.421071E-2,-8.459703E-1,4.3652377E-1,1.0076821E0,-7.964572E-2,1.5167854E-2,-4.394326E-1,7.5915545E-1,8.393248E-1,4.762095E-2,-7.619356E-2,2.9020924E-2,-1.5190324E-1,-1.3260891E-3,-2.557304E-2,4.000348E-2,4.176832E-2,1.3018466E-3],"categories":[],"categories_nodes":[],"categories_segments":[],"categories_sizes":[],"default_left":[0,0,0,0,0,0,0,0,0,0,0,0,0,0,0,0,0,0,0,0,0],"id":25,"left_children":[1,3,5,-1,7,9,11,-1,13,15,17,19,-1,-1,-1,-1,-1,-1,-1,-1,-1],"loss_changes":[2.730878E3,1.891687E1,1.05247314E2,0E0,6.452278E1,1.06601295E2,1.0571045E1,0E0,4.575413E1,1.1807823E2,4.0868027E1,2.1047089E1,0E0,0E0,0E0,0E0,0E0,0E0,0E0,0E0,0E0],"parents":[2147483647,0,0,1,1,2,2,4,4,5,5,6,6,8,8,9,9,10,10,11,11],"right_children":[2,4,6,-1,8,10,12,-1,14,16,18,20,-1,-1,-1,-1,-1,-1,-1,-1,-1],"split_conditions":[2.543675E2,2.525025E2,2.5752124E2,-6.421071E-2,3.0976017E1,3.0538467E1,2.59695E2,-7.964572E-2,2.29265E2,1E0,2.97084E1,2.78E4,4.762095E-2,-7.619356E-2,2.9020924E-2,-1.5190324E-1,-1.3260891E-3,-2.557304E-2,4.000348E-2,4.176832E-2,1.3018466E-3],"split_indices":[10,10,10,0,15,15,10,0,0,49,22,43,0,0,0,0,0,0,0,0,0],"split_type":[0,0,0,0,0,0,0,0,0,0,0,0,0,0,0,0,0,0,0,0,0],"sum_hessian":[3.6277542E3,6.465798E2,2.9811746E3,5.641703E2,8.2409485E1,3.7403827E2,2.6071362E3,4.0186775E1,4.2222713E1,1.00257195E2,2.7378107E2,3.8052423E2,2.226612E3,1.0633582E1,3.158913E1,1.134248E1,8.891472E1,2.0649685E1,2.5313138E2,3.5006717E2,3.045707E1],"tree_param":{"num_deleted":"0","num_feature":"65","num_nodes":"21","size_leaf_vector":"1"}},{"base_weights":[5.3185564E-1,-1.2121495E0,9.309851E-1,-5.680241E-1,-1.3383623E0,2.519811E-1,9.8547244E-1,-6.0520068E-2,2.6622522E-1,-6.3785605E-2,-3.8701266E-1,4.0247455E-1,-7.7379435E-2,-1.51288295E-2,9.921718E-1,3.701049E-2,-6.442982E-2,3.756599E-2,-9.0182E-2,2.480871E-2,-4.033616E-2,-1.6237874E-2,4.5847215E-2],"categories":[],"categories_nodes":[],"categories_segments":[],"categories_sizes":[],"default_left":[0,0,0,0,0,0,0,0,0,0,0,0,0,0,0,0,0,0,0,0,0,0,0],"id":26,"left_children":[1,3,5,7,9,11,13,-1,15,-1,17,19,-1,-1,21,-1,-1,-1,-1,-1,-1,-1,-1],"loss_changes":[2.4141738E3,5.0862366E1,1.0363159E2,6.855615E1,2.3809082E1,6.2069595E1,2.3647217E1,0E0,4.8042053E1,0E0,5.6504692E1,3.5175274E1,0E0,0E0,1.8323242E1,0E0,0E0,0E0,0E0,0E0,0E0,0E0,0E0],"parents":[2147483647,0,0,1,1,2,2,3,3,4,4,5,5,6,6,8,8,10,10,11,11,14,14],"right_children":[2,4,6,8,10,12,14,-1,16,-1,18,20,-1,-1,22,-1,-1,-1,-1,-1,-1,-1,-1],"split_conditions":[2.543675E2,1E0,2.565475E2,2.491E2,3.33854E2,3.7212704E1,1.017967E2,-6.0520068E-2,2E0,-6.3785605E-2,3.33904E2,-4.7E3,-7.7379435E-2,-1.51288295E-2,9.1444737E-1,3.701049E-2,-6.442982E-2,3.756599E-2,-9.0182E-2,2.480871E-2,-4.033616E-2,-1.6237874E-2,4.5847215E-2],"split_indices":[10,47,10,10,11,33,56,0,39,0,11,8,0,0,6,0,0,0,0,0,0,0,0],"split_type":[0,0,0,0,0,0,0,0,0,0,0,0,0,0,0,0,0,0,0,0,0,0,0],"sum_hessian":[3.465059E3,6.446718E2,2.8203875E3,1.0723144E2,5.3744037E2,2.1053342E2,2.609854E3,5.637016E1,5.0861282E1,5.1018558E2,2.725481E1,1.9644281E2,1.4090597E1,1.2651216E1,2.5972026E3,3.9099194E1,1.1762089E1,1.5658006E1,1.1596805E1,1.7834563E2,1.8097187E1,9.114015E0,2.5880886E3],"tree_param":{"num_deleted":"0","num_feature":"65","num_nodes":"23","size_leaf_vector":"1"}},{"base_weights":[5.313009E-1,-9.1546196E-1,9.391133E-1,-6.259921E-2,-4.6605986E-1,5.175144E-1,1.0013741E0,-1.4566692E0,1.8146078E-1,7.2173846E-1,-3.2206507E0,2.7964512E-1,1.0115916E0,-6.206267E-2,-8.7244526E-2,3.9706618E-2,-2.3610154E-2,-1.775381E-2,3.667959E-2,-7.392518E-2,-2.0041068E-1,4.5505133E-2,-2.5136696E-2,-4.682479E-3,4.6703696E-2],"categories":[],"categories_nodes":[],"categories_segments":[],"categories_sizes":[],"default_left":[0,0,0,0,0,0,0,0,0,0,0,0,0,0,0,0,0,0,0,0,0,0,0,0,0],"id":27,"left_children":[1,3,5,-1,7,9,11,13,15,17,19,21,23,-1,-1,-1,-1,-1,-1,-1,-1,-1,-1,-1,-1],"loss_changes":[2.006846E3,1.4850159E2,6.842993E1,0E0,2.4130338E2,2.6519254E2,1.6205078E1,2.5834045E0,1.08617966E2,2.818187E1,2.2030334E1,2.1076391E1,1.125E1,0E0,0E0,0E0,0E0,0E0,0E0,0E0,0E0,0E0,0E0,0E0,0E0],"parents":[2147483647,0,0,1,1,2,2,4,4,5,5,6,6,7,7,8,8,9,9,10,10,11,11,12,12],"right_children":[2,4,6,-1,8,10,12,14,16,18,20,22,24,-1,-1,-1,-1,-1,-1,-1,-1,-1,-1,-1,-1],"split_conditions":[3.342265E2,2.2632E2,3.3750626E2,-6.259921E-2,5.199E1,5.7934735E2,4.59E1,3.3182974E2,7.428375E1,2.95003E1,4.498E1,3.3755676E2,2.1634E2,-6.206267E-2,-8.7244526E-2,3.9706618E-2,-2.3610154E-2,-1.775381E-2,3.667959E-2,-7.392518E-2,-2.0041068E-1,4.5505133E-2,-2.5136696E-2,-4.682479E-3,4.6703696E-2],"split_indices":[11,0,11,0,55,12,55,11,20,22,55,11,0,0,0,0,0,0,0,0,0,0,0,0,0],"split_type":[0,0,0,0,0,0,0,0,0,0,0,0,0,0,0,0,0,0,0,0,0,0,0,0,0],"sum_hessian":[3.3982717E3,7.4672314E2,2.6515486E3,3.730359E2,3.736873E2,3.4345044E2,2.3080981E3,1.4730852E2,2.2637875E2,3.2671698E2,1.6733467E1,3.3214073E1,2.2748843E3,1.2338874E2,2.3919783E1,1.1435033E2,1.12028435E2,2.0356735E1,3.0636023E2,8.316631E0,8.416836E0,1.7964912E1,1.5249163E1,8.230127E0,2.266654E3],"tree_param":{"num_deleted":"0","num_feature":"65","num_nodes":"25","size_leaf_vector":"1"}},{"base_weights":[4.942343E-1,-1.1750401E0,9.1101986E-1,-1.2616144E0,-6.3072103E-1,4.2137578E-1,9.887781E-1,-6.295751E-2,-7.3545504E-1,-6.0679905E-2,3.3931077E-2,-1.18192226E-1,5.044826E-1,8.453776E-1,4.7565468E-2,3.7366733E-2,-5.971917E-2,2.6605485E-2,-6.825415E-2,4.018691E-3,4.117583E-2],"categories":[],"categories_nodes":[],"categories_segments":[],"categories_sizes":[],"default_left":[0,0,0,0,0,0,0,0,0,0,0,0,0,0,0,0,0,0,0,0,0],"id":28,"left_children":[1,3,5,7,9,11,13,-1,15,-1,-1,-1,17,19,-1,-1,-1,-1,-1,-1,-1],"loss_changes":[2.145813E3,2.7349915E1,9.290991E1,2.8010315E1,8.412732E1,8.568302E1,1.2194092E1,0E0,8.296827E1,0E0,0E0,0E0,4.990371E1,1.9497711E1,0E0,0E0,0E0,0E0,0E0,0E0,0E0],"parents":[2147483647,0,0,1,1,2,2,3,3,4,4,5,5,6,6,8,8,12,12,13,13],"right_children":[2,4,6,8,10,12,14,-1,16,-1,-1,-1,18,20,-1,-1,-1,-1,-1,-1,-1],"split_conditions":[2.543675E2,5E0,2.573375E2,1.7475257E0,2.525025E2,7.1394796E0,2.610975E2,-6.295751E-2,1.7504E0,-6.0679905E-2,3.3931077E-2,-1.18192226E-1,3.769534E1,4.723E1,4.7565468E-2,3.7366733E-2,-5.971917E-2,2.6605485E-2,-6.825415E-2,4.018691E-3,4.117583E-2],"split_indices":[10,31,10,60,10,4,10,0,60,0,0,0,33,55,0,0,0,0,0,0,0],"split_type":[0,0,0,0,0,0,0,0,0,0,0,0,0,0,0,0,0,0,0,0,0],"sum_hessian":[3.0811948E3,6.149766E2,2.4662183E3,5.285769E2,8.639972E1,3.3972568E2,2.1264927E3,4.3646686E2,9.211007E1,5.7672897E1,2.8726824E1,8.041631E0,3.3168405E2,5.2274884E2,1.6037438E3,2.425833E1,6.785174E1,3.2079282E2,1.0891237E1,3.3155056E1,4.8959378E2],"tree_param":{"num_deleted":"0","num_feature":"65","num_nodes":"21","size_leaf_vector":"1"}},{"base_weights":[5.086822E-1,-9.6252614E-1,9.224377E-1,-6.0187876E-2,-5.6328475E-1,5.1994634E-1,9.9074596E-1,5.788038E-1,-1.1194222E0,6.823221E-1,-1.2279829E-1,5.104502E-1,1.0034025E0,-6.2056992E-2,3.726785E-2,-6.42867E-2,1.5427124E-2,-2.2535263E-2,3.541249E-2,4.2230237E-2,-4.093706E-2,2.6177196E-2,4.6575192E-2],"categories":[],"categories_nodes":[],"categories_segments":[],"categories_sizes":[],"default_left":[0,0,0,0,0,0,0,0,0,0,0,0,0,0,0,0,0,0,0,0,0,0,0],"id":29,"left_children":[1,3,5,-1,7,9,11,13,15,17,-1,19,21,-1,-1,-1,-1,-1,-1,-1,-1,-1,-1],"loss_changes":[1.8671062E3,9.1564514E1,6.460571E1,0E0,2.014691E2,1.8328122E2,1.1230225E1,4.766835E1,8.7358E1,3.5097626E1,0E0,3.2933983E1,7.0321045E0,0E0,0E0,0E0,0E0,0E0,0E0,0E0,0E0,0E0,0E0],"parents":[2147483647,0,0,1,1,2,2,4,4,5,5,6,6,7,7,8,8,9,9,11,11,12,12],"right_children":[2,4,6,-1,8,10,12,14,16,18,-1,20,22,-1,-1,-1,-1,-1,-1,-1,-1,-1,-1],"split_conditions":[3.33854E2,2.2632E2,3.37328E2,-6.0187876E-2,8.964E1,5.7934735E2,4.59E1,5.201E1,2.4516E2,2.21E2,-1.2279829E-1,3.381775E2,2.1934E2,-6.2056992E-2,3.726785E-2,-6.42867E-2,1.5427124E-2,-2.2535263E-2,3.541249E-2,4.2230237E-2,-4.093706E-2,2.6177196E-2,4.6575192E-2],"split_indices":[11,0,11,0,16,12,55,55,0,0,0,11,0,0,0,0,0,0,0,0,0,0,0],"split_type":[0,0,0,0,0,0,0,0,0,0,0,0,0,0,0,0,0,0,0,0,0,0,0],"sum_hessian":[3.0641821E3,6.7203796E2,2.392144E3,3.5770178E2,3.143362E2,3.4942233E2,2.0427217E3,1.02709236E2,2.11627E2,3.33555E2,1.5867352E1,5.4521034E1,1.9882007E3,1.0199419E1,9.250981E1,1.778389E2,3.378809E1,2.2580084E1,3.1097488E2,4.2758083E1,1.1762951E1,4.571183E1,1.9424888E3],"tree_param":{"num_deleted":"0","num_feature":"65","num_nodes":"23","size_leaf_vector":"1"}},{"base_weights":[5.084966E-1,-1.078608E0,9.0006196E-1,-1.1707406E0,-1.21104375E-1,4.3537146E-1,9.838716E-1,-4.9631163E-1,-6.012818E-2,7.4836177E-1,-7.8320764E-2,5.315971E-1,-1.0404001E-1,8.4573567E-1,4.7419224E-2,-5.721684E-2,1.7029453E-2,2.037516E-2,4.5138005E-2,-2.5247838E-2,2.7500138E-2,4.0848013E-2,6.4765513E-3],"categories":[],"categories_nodes":[],"categories_segments":[],"categories_sizes":[],"default_left":[0,0,0,0,0,0,0,0,0,0,0,0,0,0,0,0,0,0,0,0,0,0,0],"id":30,"left_children":[1,3,5,7,9,11,13,15,-1,17,-1,19,-1,21,-1,-1,-1,-1,-1,-1,-1,-1,-1],"loss_changes":[1.8814086E3,5.2206787E1,9.349292E1,4.901819E1,7.672415E1,9.796743E1,1.1714722E1,6.233105E1,0E0,1.4851894E0,0E0,2.648246E1,0E0,1.5593475E1,0E0,0E0,0E0,0E0,0E0,0E0,0E0,0E0,0E0],"parents":[2147483647,0,0,1,1,2,2,3,3,4,4,5,5,6,6,7,7,9,9,11,11,13,13],"right_children":[2,4,6,8,10,12,14,16,-1,18,-1,20,-1,22,-1,-1,-1,-1,-1,-1,-1,-1,-1],"split_conditions":[2.543675E2,2.5372E2,2.5752124E2,1E0,1.4645994E0,4.254286E0,2.6127E2,5.298344E1,-6.012818E-2,2E0,-7.8320764E-2,4.701E1,-1.0404001E-1,4.2940016E0,4.7419224E-2,-5.721684E-2,1.7029453E-2,2.037516E-2,4.5138005E-2,-2.5247838E-2,2.7500138E-2,4.0848013E-2,6.4765513E-3],"split_indices":[10,10,10,47,60,58,10,13,0,49,0,55,0,58,0,0,0,0,0,0,0,0,0],"split_type":[0,0,0,0,0,0,0,0,0,0,0,0,0,0,0,0,0,0,0,0,0,0,0],"sum_hessian":[3.0242925E3,5.978656E2,2.426427E3,5.447861E2,5.307951E1,3.726078E2,2.053819E3,9.346963E1,4.5131647E2,3.4539017E1,1.8540491E1,3.6088632E2,1.1721456E1,5.338827E2,1.5199364E3,5.009319E1,4.337644E1,1.7227345E1,1.7311672E1,2.0088476E1,3.4079785E2,5.0256238E2,3.1320343E1],"tree_param":{"num_deleted":"0","num_feature":"65","num_nodes":"23","size_leaf_vector":"1"}},{"base_weights":[5.258926E-1,-1.1248969E0,9.071243E-1,-1.2094713E0,-6.027556E-1,9.2603886E-1,-1.01822495E-1,-6.043576E-2,-6.928049E-1,-5.811461E-2,3.2252654E-2,-8.523097E-1,9.4222695E-1,3.681976E-2,-5.759516E-2,-1.2846486E-1,2.9125737E-2,-2.8966457E-2,4.3901727E-2],"categories":[],"categories_nodes":[],"categories_segments":[],"categories_sizes":[],"default_left":[0,0,0,0,0,0,0,0,0,0,0,0,0,0,0,0,0,0,0],"id":31,"left_children":[1,3,5,7,9,11,-1,-1,13,-1,-1,15,17,-1,-1,-1,-1,-1,-1],"loss_changes":[1.9040928E3,2.3491089E1,1.472207E2,2.4541199E1,7.225952E1,7.138916E1,0E0,0E0,7.29341E1,0E0,0E0,6.7946945E1,4.915332E1,0E0,0E0,0E0,0E0,0E0,0E0],"parents":[2147483647,0,0,1,1,2,2,3,3,4,4,5,5,8,8,11,11,12,12],"right_children":[2,4,6,8,10,12,-1,-1,14,-1,-1,16,18,-1,-1,-1,-1,-1,-1],"split_conditions":[2.543675E2,5E0,9.214365E-1,1.7475257E0,2.525025E2,1.0117652E2,-1.01822495E-1,-6.043576E-2,1.7504E0,-5.811461E-2,3.2252654E-2,3.1067833E1,1.8111143E0,3.681976E-2,-5.759516E-2,-1.2846486E-1,2.9125737E-2,-2.8966457E-2,4.3901727E-2],"split_indices":[10,31,37,60,10,56,0,0,60,0,0,15,18,0,0,0,0,0,0],"split_type":[0,0,0,0,0,0,0,0,0,0,0,0,0,0,0,0,0,0,0],"sum_hessian":[3.022387E3,5.6639594E2,2.455991E3,4.8541473E2,8.098119E1,2.4421985E3,1.3792543E1,4.011846E2,8.423013E1,5.394616E1,2.7035036E1,2.1240429E1,2.420958E3,2.264198E1,6.158815E1,8.830692E0,1.2409737E1,1.8642181E1,2.402316E3],"tree_param":{"num_deleted":"0","num_feature":"65","num_nodes":"19","size_leaf_vector":"1"}},{"base_weights":[4.7797778E-1,-1.1389787E0,8.612362E-1,-4.6880838E-1,-5.8620404E-2,1.2759823E-1,9.513811E-1,-5.7003178E-2,2.984954E-1,-1.2103208E-1,3.0982134E-1,6.8042994E-1,1.0002863E0,-5.304766E-2,4.4178475E-2,-3.6069617E-2,3.155914E-2,1.4258294E-2,3.8377345E-2,4.6404228E-2,2.8717866E-2],"categories":[],"categories_nodes":[],"categories_segments":[],"categories_sizes":[],"default_left":[0,0,0,0,0,0,0,0,0,0,0,0,0,0,0,0,0,0,0,0,0],"id":32,"left_children":[1,3,5,7,-1,9,11,-1,13,-1,15,17,19,-1,-1,-1,-1,-1,-1,-1,-1],"loss_changes":[1.6703513E3,4.5710205E1,1.4351697E2,5.382502E1,0E0,1.2103506E2,2.4229858E1,0E0,4.529358E1,0E0,9.405669E1,1.6492523E1,4.1833496E0,0E0,0E0,0E0,0E0,0E0,0E0,0E0,0E0],"parents":[2147483647,0,0,1,1,2,2,3,3,5,5,6,6,8,8,10,10,11,11,12,12],"right_children":[2,4,6,8,-1,10,12,-1,14,-1,16,18,20,-1,-1,-1,-1,-1,-1,-1,-1],"split_conditions":[2.5372E2,1E0,2.565475E2,1.822642E2,-5.8620404E-2,5.47E4,2.5874875E2,-5.7003178E-2,3.752833E1,-1.2103208E-1,1.801408E2,1.826305E2,9.105354E-1,-5.304766E-2,4.4178475E-2,-3.6069617E-2,3.155914E-2,1.4258294E-2,3.8377345E-2,4.6404228E-2,2.8717866E-2],"split_indices":[10,47,10,14,0,7,10,0,1,0,14,14,37,0,0,0,0,0,0,0,0],"split_type":[0,0,0,0,0,0,0,0,0,0,0,0,0,0,0,0,0,0,0,0,0],"sum_hessian":[2.692267E3,5.1520355E2,2.1770635E3,8.8347336E1,4.268562E2,2.3900473E2,1.9380588E3,4.3913147E1,4.4434193E1,1.3627067E1,2.2537767E2,3.003359E2,1.6377229E3,1.345396E1,3.098023E1,5.710747E1,1.6827019E2,9.015081E1,2.101851E2,1.5961809E3,4.1542057E1],"tree_param":{"num_deleted":"0","num_feature":"65","num_nodes":"21","size_leaf_vector":"1"}},{"base_weights":[5.10153E-1,-9.6453077E-1,9.007122E-1,-5.7746075E-2,-6.0140806E-1,4.643426E-1,9.76405E-1,5.214466E-1,-1.0542831E0,-2.86781E-1,7.653987E-1,4.7820953E-1,9.922507E-1,3.509086E-2,-7.011058E-3,-6.1491113E-2,1.68E-2,2.5287198E-3,-1.4351147E-1,-1.4435386E-2,3.9520577E-2,4.394737E-2,-2.8169805E-2,5.41601E-3,4.5935016E-2],"categories":[],"categories_nodes":[],"categories_segments":[],"categories_sizes":[],"default_left":[0,0,0,0,0,0,0,0,0,0,0,0,0,0,0,0,0,0,0,0,0,0,0,0,0],"id":33,"left_children":[1,3,5,-1,7,9,11,13,15,17,19,21,23,-1,-1,-1,-1,-1,-1,-1,-1,-1,-1,-1,-1],"loss_changes":[1.5837712E3,5.932306E1,7.0694214E1,0E0,1.3278496E2,7.3804756E1,1.347522E1,1.2617149E1,7.5544235E1,9.18097E1,2.4156754E1,3.222416E1,1.022168E1,0E0,0E0,0E0,0E0,0E0,0E0,0E0,0E0,0E0,0E0,0E0,0E0],"parents":[2147483647,0,0,1,1,2,2,4,4,5,5,6,6,7,7,8,8,9,9,10,10,11,11,12,12],"right_children":[2,4,6,-1,8,10,12,14,16,18,20,22,24,-1,-1,-1,-1,-1,-1,-1,-1,-1,-1,-1,-1],"split_conditions":[3.33854E2,3.7868332E1,3.37328E2,-5.7746075E-2,1.0253371E1,1.840851E2,4.662E1,3E0,4.086E1,1.6438313E2,2.95003E1,3.381775E2,1.8111143E0,3.509086E-2,-7.011058E-3,-6.1491113E-2,1.68E-2,2.5287198E-3,-1.4351147E-1,-1.4435386E-2,3.9520577E-2,4.394737E-2,-2.8169805E-2,5.41601E-3,4.5935016E-2],"split_indices":[11,1,11,0,18,14,55,62,1,2,22,11,18,0,0,0,0,0,0,0,0,0,0,0,0],"split_type":[0,0,0,0,0,0,0,0,0,0,0,0,0,0,0,0,0,0,0,0,0,0,0,0,0],"sum_hessian":[2.746708E3,5.7454456E2,2.1721633E3,3.1642773E2,2.5811685E2,3.231268E2,1.8490365E3,7.389978E1,1.8421707E2,9.212808E1,2.3099873E2,5.8915783E1,1.7901207E3,5.4658165E1,1.9241615E1,1.5385399E2,3.0363087E1,8.320641E1,8.921669E0,1.7998528E1,2.1300021E2,4.1313805E1,1.7601978E1,1.4560451E1,1.7755603E3],"tree_param":{"num_deleted":"0","num_feature":"65","num_nodes":"25","size_leaf_vector":"1"}},{"base_weights":[4.6687976E-1,-1.110896E0,8.459254E-1,-1.1963285E0,-6.7859846E-1,2.4747486E-1,9.667423E-1,-5.7210624E-2,-8.598055E-1,3.291037E-2,-5.4573976E-2,5.321313E-1,-1.1513858E0,7.187456E-1,4.6453413E-2,-5.5883385E-2,1.9056834E-2,-3.7086125E-2,3.0668601E-2,-1.349439E-1,-1.5001851E-2,-2.4333194E-2,3.5294183E-2],"categories":[],"categories_nodes":[],"categories_segments":[],"categories_sizes":[],"default_left":[0,0,0,0,0,0,0,0,0,0,0,0,0,0,0,0,0,0,0,0,0,0,0],"id":34,"left_children":[1,3,5,7,9,11,13,-1,15,-1,-1,17,19,21,-1,-1,-1,-1,-1,-1,-1,-1,-1],"loss_changes":[1.4866469E3,1.6079895E1,1.4413489E2,4.3511963E0,6.0141975E1,1.3544727E2,1.6499023E1,0E0,2.5844883E1,0E0,0E0,5.167672E1,8.218486E1,1.6176193E1,0E0,0E0,0E0,0E0,0E0,0E0,0E0,0E0,0E0],"parents":[2147483647,0,0,1,1,2,2,3,3,4,4,5,5,6,6,8,8,11,11,12,12,13,13],"right_children":[2,4,6,8,10,12,14,-1,16,-1,-1,18,20,22,-1,-1,-1,-1,-1,-1,-1,-1,-1],"split_conditions":[2.5372E2,1.7475257E0,2.5752124E2,5E0,1.7504E0,6.93149E3,2.59695E2,-5.7210624E-2,2.525025E2,3.291037E-2,-5.4573976E-2,2.95003E1,1.9239E2,2.85422E1,4.6453413E-2,-5.5883385E-2,1.9056834E-2,-3.7086125E-2,3.0668601E-2,-1.349439E-1,-1.5001851E-2,-2.4333194E-2,3.5294183E-2],"split_indices":[10,60,10,31,60,9,10,0,10,0,0,22,54,22,0,0,0,0,0,0,0,0,0],"split_type":[0,0,0,0,0,0,0,0,0,0,0,0,0,0,0,0,0,0,0,0,0,0,0],"sum_hessian":[2.4827412E3,4.8026154E2,2.0024796E3,3.984492E2,8.1812355E1,3.3751068E2,1.664969E3,3.4473828E2,5.37109E1,2.1531967E1,6.028039E1,2.8130804E2,5.6202644E1,2.5379335E2,1.4111757E3,4.225752E1,1.1453379E1,2.4936224E1,2.563718E2,1.6614704E1,3.958794E1,8.82912E0,2.4496423E2],"tree_param":{"num_deleted":"0","num_feature":"65","num_nodes":"23","size_leaf_vector":"1"}},{"base_weights":[4.677022E-1,-8.814274E-1,7.509176E-1,-1.1107198E0,2.1533413E-2,8.5036886E-1,-8.076657E-1,-1.1907543E0,3.6501102E-2,-6.759272E-2,4.740281E-1,8.6405563E-1,-3.8681373E-2,8.31383E-2,-1.3406793E0,-2.4053235E-2,-6.1211854E-2,-5.2877516E-2,3.3625793E-2,2.9646788E-2,4.4338543E-2,3.777174E-2,-5.5020396E-2,-8.998643E-2,-5.4474983E-2],"categories":[],"categories_nodes":[],"categories_segments":[],"categories_sizes":[],"default_left":[0,0,0,0,0,0,0,0,0,0,0,0,0,0,0,0,0,0,0,0,0,0,0,0,0],"id":35,"left_children":[1,3,5,7,9,11,13,15,-1,-1,17,19,-1,21,23,-1,-1,-1,-1,-1,-1,-1,-1,-1,-1],"loss_changes":[9.27524E2,8.762506E1,3.1174097E2,5.259082E1,5.871187E1,4.459619E1,5.791606E1,2.8812317E1,0E0,0E0,2.9036797E1,3.9805664E1,0E0,4.4701244E1,3.2212982E0,0E0,0E0,0E0,0E0,0E0,0E0,0E0,0E0,0E0,0E0],"parents":[2147483647,0,0,1,1,2,2,3,3,4,4,5,5,6,6,7,7,10,10,11,11,13,13,14,14],"right_children":[2,4,6,8,10,12,14,16,-1,-1,18,20,-1,22,24,-1,-1,-1,-1,-1,-1,-1,-1,-1,-1],"split_conditions":[4.105422E0,5.8322914E1,9.214365E-1,3.2960815E1,2.45E4,-4.5E2,4.6E3,1E0,3.6501102E-2,-6.759272E-2,9.211235E0,1.7412831E2,-3.8681373E-2,9.326297E-1,9.292683E-1,-2.4053235E-2,-6.1211854E-2,-5.2877516E-2,3.3625793E-2,2.9646788E-2,4.4338543E-2,3.777174E-2,-5.5020396E-2,-8.998643E-2,-5.4474983E-2],"split_indices":[58,57,37,15,43,8,44,47,0,0,4,2,0,37,37,0,0,0,0,0,0,0,0,0,0],"split_type":[0,0,0,0,0,0,0,0,0,0,0,0,0,0,0,0,0,0,0,0,0,0,0,0,0],"sum_hessian":[2.424147E3,4.1991025E2,2.0042368E3,3.3496234E2,8.4947914E1,1.8847776E3,1.1945921E2,3.2209125E2,1.2871067E1,1.8923334E1,6.602458E1,1.8704764E3,1.4301168E1,4.4864902E1,7.4594315E1,5.7539845E1,2.6455142E2,8.239578E0,5.7785004E1,5.914483E2,1.2790281E3,2.8916487E1,1.5948417E1,1.1632227E1,6.2962086E1],"tree_param":{"num_deleted":"0","num_feature":"65","num_nodes":"25","size_leaf_vector":"1"}},{"base_weights":[4.6007544E-1,-1.0866541E0,8.3671933E-1,-4.1067037E-1,-5.6374628E-2,3.7528843E-1,9.807307E-1,-5.3158257E-2,3.337072E-1,4.7379032E-1,-9.878318E-2,7.3931205E-1,4.6288833E-2,-5.3394802E-2,3.8376313E-2,-7.881828E-3,3.2532737E-2,4.1285772E-2,-3.1294767E-2],"categories":[],"categories_nodes":[],"categories_segments":[],"categories_sizes":[],"default_left":[0,0,0,0,0,0,0,0,0,0,0,0,0,0,0,0,0,0,0],"id":36,"left_children":[1,3,5,7,-1,9,11,-1,13,15,-1,17,-1,-1,-1,-1,-1,-1,-1],"loss_changes":[1.3467952E3,4.147699E1,1.2254785E2,4.5077198E1,0E0,1.1124184E2,7.3425293E0,0E0,3.1572283E1,6.509997E1,0E0,3.33313E1,0E0,0E0,0E0,0E0,0E0,0E0,0E0],"parents":[2147483647,0,0,1,1,2,2,3,3,5,5,6,6,8,8,9,9,11,11],"right_children":[2,4,6,8,-1,10,12,-1,14,16,-1,18,-1,-1,-1,-1,-1,-1,-1],"split_conditions":[2.5372E2,1E0,2.584225E2,2.491E2,-5.6374628E-2,2.78E4,2.59695E2,-5.3158257E-2,1.819563E2,1.832308E2,-9.878318E-2,1.8958E2,4.6288833E-2,-5.3394802E-2,3.8376313E-2,-7.881828E-3,3.2532737E-2,4.1285772E-2,-3.1294767E-2],"split_indices":[10,47,10,10,0,43,10,0,14,14,0,54,0,0,0,0,0,0,0],"split_type":[0,0,0,0,0,0,0,0,0,0,0,0,0,0,0,0,0,0,0],"sum_hessian":[2.3087532E3,4.5145642E2,1.8572968E3,7.8545E1,3.729114E2,4.4346024E2,1.4138365E3,3.9134968E1,3.941003E1,4.279284E2,1.5531814E1,1.4287675E2,1.2709598E3,9.292609E0,3.0117422E1,1.13505936E2,3.144225E2,1.291615E2,1.3715248E1],"tree_param":{"num_deleted":"0","num_feature":"65","num_nodes":"19","size_leaf_vector":"1"}},{"base_weights":[4.632836E-1,-1.0235784E0,8.574268E-1,-4.6508726E-1,-1.1363479E0,4.4658506E-1,9.763327E-1,-5.3006183E-2,2.6180157E-1,-5.5901084E-2,-1.8382649E-1,-1.5982607E-1,6.99567E-1,3.449465E-1,9.8520154E-1,4.6055086E-2,-5.8261722E-2,4.189865E-2,-7.1779154E-2,1.04300175E-2,-1.7782484E-1,-2.2137856E-2,3.5946004E-2,4.022924E-2,-1.6411075E-2,3.817587E-2,4.6570394E-2],"categories":[],"categories_nodes":[],"categories_segments":[],"categories_sizes":[],"default_left":[0,0,0,0,0,0,0,0,0,0,0,0,0,0,0,0,0,0,0,0,0,0,0,0,0,0,0],"id":37,"left_children":[1,3,5,7,9,11,13,-1,15,-1,17,19,21,23,25,-1,-1,-1,-1,-1,-1,-1,-1,-1,-1,-1,-1],"loss_changes":[1.3201826E3,2.8482452E1,8.589783E1,4.169198E1,2.8863892E1,6.2097076E1,6.810547E0,0E0,4.747712E1,0E0,5.030729E1,1.7322046E2,2.8257904E1,8.621575E0,4.1071777E0,0E0,0E0,0E0,0E0,0E0,0E0,0E0,0E0,0E0,0E0,0E0,0E0],"parents":[2147483647,0,0,1,1,2,2,3,3,4,4,5,5,6,6,8,8,10,10,11,11,12,12,13,13,14,14],"right_children":[2,4,6,8,10,12,14,-1,16,-1,18,20,22,24,26,-1,-1,-1,-1,-1,-1,-1,-1,-1,-1,-1,-1],"split_conditions":[2.543675E2,1E0,2.584975E2,5.298344E1,2.5379875E2,3.0438417E1,4.583E1,-5.3006183E-2,5.301793E1,-5.5901084E-2,3.305055E2,1.255E1,3.0195136E0,3.381775E2,2.605625E2,4.6055086E-2,-5.8261722E-2,4.189865E-2,-7.1779154E-2,1.04300175E-2,-1.7782484E-1,-2.2137856E-2,3.5946004E-2,4.022924E-2,-1.6411075E-2,3.817587E-2,4.6570394E-2],"split_indices":[10,47,10,13,10,15,55,0,13,0,11,35,18,11,10,0,0,0,0,0,0,0,0,0,0,0,0],"split_type":[0,0,0,0,0,0,0,0,0,0,0,0,0,0,0,0,0,0,0,0,0,0,0,0,0,0,0],"sum_hessian":[2.2496794E3,4.7077972E2,1.7788997E3,8.071571E1,3.90064E2,4.013188E2,1.3775808E3,4.134724E1,3.9368473E1,3.5932483E2,3.0739166E1,1.17852974E2,2.8346582E2,2.0345512E1,1.3572354E3,2.6983036E1,1.2385438E1,1.721582E1,1.3523346E1,1.07708534E2,1.0144441E1,1.777834E1,2.6568747E2,1.1707977E1,8.637534E0,2.1417325E2,1.1430621E3],"tree_param":{"num_deleted":"0","num_feature":"65","num_nodes":"27","size_leaf_vector":"1"}},{"base_weights":[4.5145437E-1,-8.451688E-1,8.548489E-1,-5.4821532E-2,-4.8256466E-1,-3.4891564E-1,8.946609E-1,5.710998E-1,-1.1385747E0,-1.447035E-1,7.467292E-1,-6.8108566E-2,9.14734E-1,-5.7976164E-2,3.6140934E-2,-6.028517E-2,2.4885826E-2,4.0532812E-2,1.5301453E-2,2.8256763E-2,4.538499E-2],"categories":[],"categories_nodes":[],"categories_segments":[],"categories_sizes":[],"default_left":[0,0,0,0,0,0,0,0,0,0,0,0,0,0,0,0,0,0,0,0,0],"id":38,"left_children":[1,3,5,-1,7,9,11,13,15,-1,17,-1,19,-1,-1,-1,-1,-1,-1,-1,-1],"loss_changes":[1.13042E3,6.3240356E1,7.956506E1,0E0,1.7625122E2,1.6748756E2,7.761694E1,3.964303E1,4.667946E1,0E0,1.3832283E0,0E0,3.307312E1,0E0,0E0,0E0,0E0,0E0,0E0,0E0,0E0],"parents":[2147483647,0,0,1,1,2,2,4,4,5,5,6,6,7,7,8,8,10,10,12,12],"right_children":[2,4,6,-1,8,10,12,14,16,-1,18,-1,20,-1,-1,-1,-1,-1,-1,-1,-1],"split_conditions":[3.33854E2,3.772E1,4.701E1,-5.4821532E-2,9.540225E1,4.134667E1,3.6006668E1,5.201E1,4.1085E1,-1.447035E-1,2.92233E1,-6.8108566E-2,3.3805475E2,-5.7976164E-2,3.6140934E-2,-6.028517E-2,2.4885826E-2,4.0532812E-2,1.5301453E-2,2.8256763E-2,4.538499E-2],"split_indices":[11,1,55,0,21,1,1,55,1,0,15,0,11,0,0,0,0,0,0,0,0],"split_type":[0,0,0,0,0,0,0,0,0,0,0,0,0,0,0,0,0,0,0,0,0],"sum_hessian":[2.1581914E3,5.1157278E2,1.6466187E3,2.593329E2,2.5223991E2,5.2110016E1,1.5945087E3,9.663658E1,1.5560333E2,1.4089087E1,3.802093E1,1.2436313E1,1.5820723E3,9.327117E0,8.730946E1,1.4154558E2,1.4057743E1,2.6939528E1,1.1081403E1,3.1088406E2,1.2711882E3],"tree_param":{"num_deleted":"0","num_feature":"65","num_nodes":"21","size_leaf_vector":"1"}},{"base_weights":[5.0139993E-1,-1.0535724E0,8.365007E-1,-1.1430364E0,-5.9132755E-1,3.9363036E-1,9.7643745E-1,-5.4792155E-2,-7.9932964E-1,-5.2381754E-2,3.34998E-2,-2.1814413E0,5.0824946E-1,9.9008256E-1,1.4414635E-1,-5.3123247E-2,2.1728626E-2,-1.298235E-1,-5.2895907E-2,-1.0709961E-1,2.675472E-2,1.6685337E-2,4.5768414E-2,3.5615493E-2,-1.8445846E-2],"categories":[],"categories_nodes":[],"categories_segments":[],"categories_sizes":[],"default_left":[0,0,0,0,0,0,0,0,0,0,0,0,0,0,0,0,0,0,0,0,0,0,0,0,0],"id":39,"left_children":[1,3,5,7,9,11,13,-1,15,-1,-1,17,19,21,23,-1,-1,-1,-1,-1,-1,-1,-1,-1,-1],"loss_changes":[1.1834509E3,1.5171387E1,1.1477185E2,3.6950073E0,5.0799873E1,1.3396849E2,1.5511108E1,0E0,2.1961643E1,0E0,0E0,7.2600784E0,9.165484E1,3.7940674E0,9.04714E0,0E0,0E0,0E0,0E0,0E0,0E0,0E0,0E0,0E0,0E0],"parents":[2147483647,0,0,1,1,2,2,3,3,4,4,5,5,6,6,8,8,11,11,12,12,13,13,14,14],"right_children":[2,4,6,8,10,12,14,-1,16,-1,-1,18,20,22,24,-1,-1,-1,-1,-1,-1,-1,-1,-1,-1],"split_conditions":[2.5372E2,1.7475257E0,2.584975E2,5E0,5.863E1,4.696E1,9.105354E-1,-5.4792155E-2,2.525025E2,-5.2381754E-2,3.34998E-2,9.292683E-1,7.1394796E0,3.8999336E1,5.3791077E1,-5.3123247E-2,2.1728626E-2,-1.298235E-1,-5.2895907E-2,-1.0709961E-1,2.675472E-2,1.6685337E-2,4.5768414E-2,3.5615493E-2,-1.8445846E-2],"split_indices":[10,60,10,31,55,55,37,0,10,0,0,37,4,5,13,0,0,0,0,0,0,0,0,0,0],"split_type":[0,0,0,0,0,0,0,0,0,0,0,0,0,0,0,0,0,0,0,0,0,0,0,0,0],"sum_hessian":[2.2679353E3,4.014224E2,1.8665128E3,3.3411417E2,6.730823E1,4.4994214E2,1.4165707E3,2.8896487E2,4.5149303E1,4.7877632E1,1.9430593E1,1.8069021E1,4.3187314E2,1.3930576E3,2.3513054E1,3.558548E1,9.563824E0,9.563154E0,8.505866E0,9.828201E0,4.2204492E2,1.3249344E1,1.3798083E3,1.0966691E1,1.2546363E1],"tree_param":{"num_deleted":"0","num_feature":"65","num_nodes":"25","size_leaf_vector":"1"}},{"base_weights":[4.381356E-1,-1.0458124E0,8.0247897E-1,-3.9370084E-1,-5.4398786E-2,2.6300713E-1,9.428508E-1,2.1346498E-1,-5.313188E-2,4.4423428E-1,-1.2936877E0,7.231882E-1,4.6281993E-2,-4.8776105E-2,4.162523E-2,3.0768048E-2,-3.684378E-2,-8.7059885E-2,1.2074073E-2,3.9401025E-2,1.0557988E-2],"categories":[],"categories_nodes":[],"categories_segments":[],"categories_sizes":[],"default_left":[0,0,0,0,0,0,0,0,0,0,0,0,0,0,0,0,0,0,0,0,0],"id":40,"left_children":[1,3,5,7,-1,9,11,13,-1,15,17,19,-1,-1,-1,-1,-1,-1,-1,-1,-1],"loss_changes":[1.0794426E3,3.410666E1,1.2059546E2,3.342935E1,0E0,9.4403305E1,1.6267456E1,3.6630756E1,0E0,8.4583145E1,3.3761745E1,1.8631119E1,0E0,0E0,0E0,0E0,0E0,0E0,0E0,0E0,0E0],"parents":[2147483647,0,0,1,1,2,2,3,3,5,5,6,6,7,7,9,9,10,10,11,11],"right_children":[2,4,6,8,-1,10,12,14,-1,16,18,20,-1,-1,-1,-1,-1,-1,-1,-1,-1],"split_conditions":[2.5372E2,1E0,2.5752124E2,1.0735517E1,-5.4398786E-2,3.6712864E1,2.605625E2,1.0484029E1,-5.313188E-2,3E0,4E0,7.419286E-1,4.6281993E-2,-4.8776105E-2,4.162523E-2,3.0768048E-2,-3.684378E-2,-8.7059885E-2,1.2074073E-2,3.9401025E-2,1.0557988E-2],"split_indices":[10,47,10,4,0,33,10,4,0,46,46,37,0,0,0,0,0,0,0,0,0],"split_type":[0,0,0,0,0,0,0,0,0,0,0,0,0,0,0,0,0,0,0,0,0],"sum_hessian":[1.9934435E3,3.9229495E2,1.6011486E3,6.9584435E1,3.227105E2,3.3188156E2,1.269267E3,3.8967453E1,3.061698E1,2.982902E2,3.3591366E1,2.905492E2,9.7871783E2,1.3291106E1,2.5676348E1,2.5339401E2,4.4896168E1,2.4215433E1,9.375935E0,2.2726457E2,6.3284622E1],"tree_param":{"num_deleted":"0","num_feature":"65","num_nodes":"21","size_leaf_vector":"1"}},{"base_weights":[4.7243297E-1,-8.563868E-1,8.504222E-1,-9.9615556E-1,5.1070064E-1,3.8326284E-1,9.4237053E-1,-1.1819755E0,-1.6592266E-1,4.2792063E-2,-2.3325693E-3,-4.0912226E-1,6.98916E-1,5.089884E-1,9.691931E-1,-5.1371958E-2,-8.3552316E-2,-5.264791E-2,2.235447E-2,2.952723E-2,-1.3469793E-1,-1.1978993E-2,3.713383E-2,-7.914567E-3,3.56089E-2,8.299137E-3,4.520403E-2],"categories":[],"categories_nodes":[],"categories_segments":[],"categories_sizes":[],"default_left":[0,0,0,0,0,0,0,0,0,0,0,0,0,0,0,0,0,0,0,0,0,0,0,0,0,0,0],"id":41,"left_children":[1,3,5,7,9,11,13,15,17,-1,-1,19,21,23,25,-1,-1,-1,-1,-1,-1,-1,-1,-1,-1,-1,-1],"loss_changes":[1.0326277E3,8.781653E1,6.779175E1,6.3094177E1,1.0478481E1,6.697419E1,1.4364868E1,1.0223846E1,5.0428265E1,0E0,0E0,2.0519958E2,2.0393227E1,1.5086748E1,1.3251465E1,0E0,0E0,0E0,0E0,0E0,0E0,0E0,0E0,0E0,0E0,0E0,0E0],"parents":[2147483647,0,0,1,1,2,2,3,3,4,4,5,5,6,6,7,7,8,8,11,11,12,12,13,13,14,14],"right_children":[2,4,6,8,10,12,14,16,18,-1,-1,20,22,24,26,-1,-1,-1,-1,-1,-1,-1,-1,-1,-1,-1,-1],"split_conditions":[3.33854E2,2.4516E2,3.37328E2,5E0,1.396729E0,1.840851E2,3E0,3.32006E2,2.29265E2,4.2792063E-2,-2.3325693E-3,5.4030254E1,2.85422E1,1.793017E2,2.1735E2,-5.1371958E-2,-8.3552316E-2,-5.264791E-2,2.235447E-2,2.952723E-2,-1.3469793E-1,-1.1978993E-2,3.713383E-2,-7.914567E-3,3.56089E-2,8.299137E-3,4.520403E-2],"split_indices":[11,0,11,31,59,14,62,11,0,0,0,13,22,14,0,0,0,0,0,0,0,0,0,0,0,0,0],"split_type":[0,0,0,0,0,0,0,0,0,0,0,0,0,0,0,0,0,0,0,0,0,0,0,0,0,0,0],"sum_hessian":[2.0527927E3,4.5404468E2,1.5987482E3,4.1248074E2,4.1563923E1,2.6464362E2,1.3341046E3,3.3625113E2,7.622962E1,2.3668962E1,1.789496E1,7.495729E1,1.8968633E2,8.0013725E1,1.2540908E3,3.089029E2,2.734824E1,3.0313696E1,4.5915924E1,5.3457684E1,2.1499609E1,1.879733E1,1.7088899E2,2.2185627E1,5.7828102E1,2.2686123E1,1.2314047E3],"tree_param":{"num_deleted":"0","num_feature":"65","num_nodes":"27","size_leaf_vector":"1"}},{"base_weights":[4.7702062E-1,-6.6081196E-1,8.6480457E-1,-5.422163E-2,-2.343053E-1,5.416716E-1,9.8108137E-1,-9.5364046E-1,4.8764664E-1,2.6651366E-2,7.3095626E-1,4.568624E-4,9.8864627E-1,-5.897722E-2,3.9174233E-2,3.825996E-2,1.8552229E-3,-1.5857941E-1,1.9912306E-2,-4.030335E-3,3.803628E-2,2.7291203E-2,4.576214E-2],"categories":[],"categories_nodes":[],"categories_segments":[],"categories_sizes":[],"default_left":[0,0,0,0,0,0,0,0,0,0,0,0,0,0,0,0,0,0,0,0,0,0,0],"id":42,"left_children":[1,3,5,-1,7,9,11,13,15,17,19,-1,21,-1,-1,-1,-1,-1,-1,-1,-1,-1,-1],"loss_changes":[8.722296E2,1.1027359E2,5.415149E1,0E0,1.4495908E2,3.8074677E1,7.5706787E0,8.4611885E1,2.1089355E1,1.5283456E2,2.3022614E1,0E0,1.5273438E0,0E0,0E0,0E0,0E0,0E0,0E0,0E0,0E0,0E0,0E0],"parents":[2147483647,0,0,1,1,2,2,4,4,5,5,6,6,7,7,8,8,9,9,10,10,12,12],"right_children":[2,4,6,-1,8,10,12,14,16,18,20,-1,22,-1,-1,-1,-1,-1,-1,-1,-1,-1,-1],"split_conditions":[3.342265E2,2.2632E2,3.39529E2,-5.422163E-2,1.822642E2,1.819563E2,1.05551445E2,1.1772632E2,2.5055948E1,4E0,2.95003E1,4.568624E-4,1.7336992E2,-5.897722E-2,3.9174233E-2,3.825996E-2,1.8552229E-3,-1.5857941E-1,1.9912306E-2,-4.030335E-3,3.803628E-2,2.7291203E-2,4.576214E-2],"split_indices":[11,0,11,0,14,14,56,56,33,53,22,0,14,0,0,0,0,0,0,0,0,0,0],"split_type":[0,0,0,0,0,0,0,0,0,0,0,0,0,0,0,0,0,0,0,0,0,0,0],"sum_hessian":[1.973734E3,5.0122394E2,1.47251E3,2.248127E2,2.7641125E2,3.9237094E2,1.0801392E3,1.3850475E2,1.3790651E2,1.0635237E2,2.860186E2,8.741384E0,1.0713977E3,1.1762817E2,2.0876581E1,7.6829834E1,6.107667E1,1.0051535E1,9.630084E1,2.9740286E1,2.562783E2,2.0715275E1,1.0506825E3],"tree_param":{"num_deleted":"0","num_feature":"65","num_nodes":"23","size_leaf_vector":"1"}},{"base_weights":[4.1027126E-1,-8.0331796E-1,8.1588095E-1,-9.4353706E-1,5.2101916E-1,-1.038054E0,8.4895843E-1,-1.0135906E0,4.3912744E-3,4.4611968E-2,-1.2755154E-3,2.856274E-2,-1.23017326E-1,4.9047616E-1,9.524803E-1,-4.888696E-2,9.876945E-3,2.8201107E-2,-7.356073E-2,9.112834E-3,4.4260718E-2],"categories":[],"categories_nodes":[],"categories_segments":[],"categories_sizes":[],"default_left":[0,0,0,0,0,0,0,0,0,0,0,0,0,0,0,0,0,0,0,0,0],"id":43,"left_children":[1,3,5,7,9,11,13,15,-1,-1,-1,-1,-1,17,19,-1,-1,-1,-1,-1,-1],"loss_changes":[8.4782117E2,8.0891174E1,8.0181946E1,2.8902863E1,1.0700213E1,6.5336945E1,4.597229E1,2.299701E1,0E0,0E0,0E0,0E0,0E0,7.480741E1,6.9196167E0,0E0,0E0,0E0,0E0,0E0,0E0],"parents":[2147483647,0,0,1,1,2,2,3,3,4,4,5,5,6,6,7,7,13,13,14,14],"right_children":[2,4,6,8,10,12,14,16,-1,-1,-1,-1,-1,18,20,-1,-1,-1,-1,-1,-1],"split_conditions":[3.33854E2,2.4516E2,4.59E1,1.8042935E2,5.5374445E2,5.3791077E1,3.3780624E2,8.366667E0,4.3912744E-3,4.4611968E-2,-1.2755154E-3,2.856274E-2,-1.23017326E-1,5.7934735E2,2.1735E2,-4.888696E-2,9.876945E-3,2.8201107E-2,-7.356073E-2,9.112834E-3,4.4260718E-2],"split_indices":[11,0,55,2,12,13,11,45,0,0,0,0,0,12,0,0,0,0,0,0,0],"split_type":[0,0,0,0,0,0,0,0,0,0,0,0,0,0,0,0,0,0,0,0,0],"sum_hessian":[1.719408E3,4.3017834E2,1.2892296E3,3.8956784E2,4.0610504E1,2.1734612E1,1.267495E3,3.653173E2,2.4250555E1,2.2157406E1,1.8453096E1,1.1075481E1,1.065913E1,2.8641635E2,9.810787E2,3.5154556E2,1.3771708E1,2.715162E2,1.4900164E1,1.3947485E1,9.6713116E2],"tree_param":{"num_deleted":"0","num_feature":"65","num_nodes":"21","size_leaf_vector":"1"}},{"base_weights":[4.565244E-1,-9.9810135E-1,8.1054467E-1,-5.2723914E-1,-1.0867153E0,4.24263E-1,9.798775E-1,1.5423734E-2,-5.286972E-2,-5.3576704E-2,-4.7571254E-1,-1.1014946E0,4.9093398E-1,6.5944274E-3,9.8638934E-1,3.7158933E-2,-5.272595E-2,2.1307547E-2,-1.07523024E-1,-3.9180204E-2,2.5292369E-2,4.6228234E-2,3.35564E-2],"categories":[],"categories_nodes":[],"categories_segments":[],"categories_sizes":[],"default_left":[0,0,0,0,0,0,0,0,0,0,0,0,0,0,0,0,0,0,0,0,0,0,0],"id":44,"left_children":[1,3,5,7,9,11,13,-1,-1,-1,15,17,19,-1,21,-1,-1,-1,-1,-1,-1,-1,-1],"loss_changes":[9.4319147E2,1.3650909E1,9.528058E1,3.2953415E1,1.3112976E1,4.6403847E1,4.97937E0,0E0,0E0,0E0,3.304656E1,3.897259E1,3.4976982E1,0E0,3.4152222E0,0E0,0E0,0E0,0E0,0E0,0E0,0E0,0E0],"parents":[2147483647,0,0,1,1,2,2,3,3,4,4,5,5,6,6,10,10,11,11,12,12,14,14],"right_children":[2,4,6,8,10,12,14,-1,-1,-1,16,18,20,-1,22,-1,-1,-1,-1,-1,-1,-1,-1],"split_conditions":[2.543675E2,1E0,2.59545E2,3.9324757E1,3.177265E1,2.8824669E1,2.1712E2,1.5423734E-2,-5.286972E-2,-5.3576704E-2,3.1810034E1,5.660716E2,1.0144829E2,6.5944274E-3,8.9399046E-1,3.7158933E-2,-5.272595E-2,2.1307547E-2,-1.07523024E-1,-3.9180204E-2,2.5292369E-2,4.6228234E-2,3.35564E-2],"split_indices":[10,47,10,5,15,15,0,0,0,0,15,12,56,0,37,0,0,0,0,0,0,0,0],"split_type":[0,0,0,0,0,0,0,0,0,0,0,0,0,0,0,0,0,0,0,0,0,0,0],"sum_hessian":[1.8284423E3,3.5724533E2,1.471197E3,5.8620228E1,2.986251E2,4.503725E2,1.02082446E3,2.4575142E1,3.4045086E1,2.6303772E2,3.558736E1,1.7808044E1,4.3256445E2,8.539987E0,1.0122845E3,1.1942443E1,2.3644917E1,8.082163E0,9.725882E0,1.7288082E1,4.1527637E2,9.3732715E2,7.495732E1],"tree_param":{"num_deleted":"0","num_feature":"65","num_nodes":"23","size_leaf_vector":"1"}},{"base_weights":[4.6210486E-1,-1.0101264E0,8.13958E-1,-3.214239E-1,-5.3650666E-2,3.7689313E-1,9.5458484E-1,-5.0791144E-2,3.2272166E-1,-1.0655797E-1,4.619162E-1,7.535562E-1,4.6292543E-2,-4.8817918E-2,4.1928735E-2,-3.901235E-2,2.5046002E-2,4.0026423E-2,1.1730629E-2],"categories":[],"categories_nodes":[],"categories_segments":[],"categories_sizes":[],"default_left":[0,0,0,0,0,0,0,0,0,0,0,0,0,0,0,0,0,0,0],"id":45,"left_children":[1,3,5,7,-1,9,11,-1,13,-1,15,17,-1,-1,-1,-1,-1,-1,-1],"loss_changes":[9.293137E2,3.636371E1,8.8022095E1,3.4215267E1,0E0,8.202162E1,9.906799E0,0E0,3.1467476E1,0E0,3.7974083E1,1.2863815E1,0E0,0E0,0E0,0E0,0E0,0E0,0E0],"parents":[2147483647,0,0,1,1,2,2,3,3,5,5,6,6,8,8,10,10,11,11],"right_children":[2,4,6,8,-1,10,12,-1,14,-1,16,18,-1,-1,-1,-1,-1,-1,-1],"split_conditions":[2.543675E2,1E0,2.584225E2,1.822642E2,-5.3650666E-2,1.730447E2,2.6127E2,-5.0791144E-2,1.494943E0,-1.0655797E-1,2.95003E1,1.8968E2,4.6292543E-2,-4.8817918E-2,4.1928735E-2,-3.901235E-2,2.5046002E-2,4.0026423E-2,1.1730629E-2],"split_indices":[10,47,10,14,0,14,10,0,59,0,22,54,0,0,0,0,0,0,0],"split_type":[0,0,0,0,0,0,0,0,0,0,0,0,0,0,0,0,0,0,0],"sum_hessian":[1.7908802E3,3.4479413E2,1.4460862E3,6.50935E1,2.7970062E2,3.5377707E2,1.0923091E3,2.9219463E1,3.5874035E1,9.676705E0,3.4410034E2,2.3102493E2,8.612842E2,1.0224132E1,2.5649904E1,1.9508965E1,3.245914E2,1.8573398E2,4.5290955E1],"tree_param":{"num_deleted":"0","num_feature":"65","num_nodes":"19","size_leaf_vector":"1"}},{"base_weights":[4.612424E-1,-8.852381E-1,8.1187624E-1,-9.668655E-1,1.6281027E-1,4.9685472E-1,9.8071724E-1,-3.3898294E-1,-1.1132578E0,-5.6978196E-2,4.4110578E-2,5.655739E-1,-8.85717E-2,7.9967E-1,4.6069764E-2,-4.94241E-2,1.4645309E-2,-5.3529978E-2,8.881378E-3,-2.357416E-2,2.785044E-2,3.9580595E-2,1.0821256E-2],"categories":[],"categories_nodes":[],"categories_segments":[],"categories_sizes":[],"default_left":[0,0,0,0,0,0,0,0,0,0,0,0,0,0,0,0,0,0,0,0,0,0,0],"id":46,"left_children":[1,3,5,7,9,11,13,15,17,-1,-1,19,-1,21,-1,-1,-1,-1,-1,-1,-1,-1,-1],"loss_changes":[8.13047E2,3.092868E1,7.1489685E1,2.9385254E1,3.0966671E1,8.079571E1,1.763794E0,3.206217E1,1.845398E1,0E0,0E0,2.0701965E1,0E0,2.8581696E0,0E0,0E0,0E0,0E0,0E0,0E0,0E0,0E0,0E0],"parents":[2147483647,0,0,1,1,2,2,3,3,4,4,5,5,6,6,7,7,8,8,11,11,13,13],"right_children":[2,4,6,8,10,12,14,16,18,-1,-1,20,-1,22,-1,-1,-1,-1,-1,-1,-1,-1,-1],"split_conditions":[2.545125E2,1.8042935E2,2.59695E2,1E0,1.4061323E0,2.0512732E1,2.610975E2,5.298344E1,5.537796E1,-5.6978196E-2,4.4110578E-2,4.0801754E0,-8.85717E-2,4.2714286E0,4.6069764E-2,-4.94241E-2,1.4645309E-2,-5.3529978E-2,8.881378E-3,-2.357416E-2,2.785044E-2,3.9580595E-2,1.0821256E-2],"split_indices":[10,2,10,47,60,6,10,13,13,0,0,58,0,58,0,0,0,0,0,0,0,0,0],"split_type":[0,0,0,0,0,0,0,0,0,0,0,0,0,0,0,0,0,0,0,0,0,0,0],"sum_hessian":[1.7189847E3,3.5454126E2,1.3644435E3,3.293343E2,2.5206985E1,4.7860013E2,8.858433E2,6.3526463E1,2.658078E2,8.713833E0,1.6493153E1,4.6648938E2,1.211074E1,1.0032638E2,7.855169E2,2.9855377E1,3.3671085E1,2.5620712E2,9.600683E0,1.590802E1,4.5058136E2,8.932631E1,1.1000072E1],"tree_param":{"num_deleted":"0","num_feature":"65","num_nodes":"23","size_leaf_vector":"1"}},{"base_weights":[4.3558174E-1,-9.650127E-1,7.598096E-1,-2.6043946E-1,-5.192273E-2,-8.980851E-2,7.865953E-1,-4.9820587E-2,3.8171688E-1,4.307948E-1,9.44609E-1,-4.52335E-2,4.2516567E-2,2.3148976E-2,-9.700932E-2,-2.024209E-3,4.4019252E-2],"categories":[],"categories_nodes":[],"categories_segments":[],"categories_sizes":[],"default_left":[0,0,0,0,0,0,0,0,0,0,0,0,0,0,0,0,0],"id":47,"left_children":[1,3,5,7,-1,-1,9,-1,11,13,15,-1,-1,-1,-1,-1,-1],"loss_changes":[7.4070935E2,3.4630524E1,9.773303E1,3.252122E1,0E0,0E0,7.274988E1,0E0,2.66548E1,7.5866E1,1.1903564E1,0E0,0E0,0E0,0E0,0E0,0E0],"parents":[2147483647,0,0,1,1,2,2,3,3,6,6,8,8,9,9,10,10],"right_children":[2,4,6,8,-1,-1,10,-1,12,14,16,-1,-1,-1,-1,-1,-1],"split_conditions":[2.5372E2,1E0,1.01056854E2,3.0377367E1,-5.192273E-2,-8.980851E-2,2.584975E2,-4.9820587E-2,1.494943E0,2.78E4,4.59E1,-4.52335E-2,4.2516567E-2,2.3148976E-2,-9.700932E-2,-2.024209E-3,4.4019252E-2],"split_indices":[10,47,56,15,0,0,10,0,59,43,55,0,0,0,0,0,0],"split_type":[0,0,0,0,0,0,0,0,0,0,0,0,0,0,0,0,0],"sum_hessian":[1.6279789E3,3.0534445E2,1.3226344E3,5.8788765E1,2.465557E2,1.19097395E1,1.3107247E3,2.5629265E1,3.31595E1,4.052398E2,9.0548486E2,8.9534025E0,2.4206097E1,3.9508768E2,1.0152115E1,1.1217785E1,8.942671E2],"tree_param":{"num_deleted":"0","num_feature":"65","num_nodes":"17","size_leaf_vector":"1"}},{"base_weights":[4.6435013E-1,-6.61952E-1,8.105041E-1,-8.592313E-1,1.8470891E-1,5.004609E-1,9.607256E-1,-1.0617523E0,-4.115543E-2,-5.76737E-2,6.090413E-1,-4.544687E-2,6.4361197E-1,1.736495E-1,9.809082E-1,-5.571802E-2,-1.9340832E-2,-4.905796E-2,2.911077E-2,6.3290135E-3,4.3589417E-2,2.3103727E-2,-1.1219925E-1,-1.0283551E-2,3.419236E-2,-1.9784393E-2,3.1638324E-2,3.8770963E-2,4.6273764E-2],"categories":[],"categories_nodes":[],"categories_segments":[],"categories_sizes":[],"default_left":[0,0,0,0,0,0,0,0,0,0,0,0,0,0,0,0,0,0,0,0,0,0,0,0,0,0,0,0,0],"id":48,"left_children":[1,3,5,7,9,11,13,15,17,-1,19,21,23,25,27,-1,-1,-1,-1,-1,-1,-1,-1,-1,-1,-1,-1,-1,-1],"loss_changes":[6.4248914E2,6.515422E1,5.7544495E1,5.1696564E1,4.586358E1,3.2655937E1,1.2814453E1,2.3015503E1,4.537601E1,0E0,8.731501E0,1.1615745E2,2.8970535E1,7.6605024E0,1.1622314E0,0E0,0E0,0E0,0E0,0E0,0E0,0E0,0E0,0E0,0E0,0E0,0E0,0E0,0E0],"parents":[2147483647,0,0,1,1,2,2,3,3,4,4,5,5,6,6,7,7,8,8,10,10,11,11,12,12,13,13,14,14],"right_children":[2,4,6,8,10,12,14,16,18,-1,20,22,24,26,28,-1,-1,-1,-1,-1,-1,-1,-1,-1,-1,-1,-1,-1,-1],"split_conditions":[3.33854E2,6.429447E1,3.39529E2,5E0,7.1394796E0,1.793017E2,4.662E1,1.7475257E0,2E0,-5.76737E-2,5.74E4,5.4E3,2.95003E1,5.85E4,3.42407E2,-5.571802E-2,-1.9340832E-2,-4.905796E-2,2.911077E-2,6.3290135E-3,4.3589417E-2,2.3103727E-2,-1.1219925E-1,-1.0283551E-2,3.419236E-2,-1.9784393E-2,3.1638324E-2,3.8770963E-2,4.6273764E-2],"split_indices":[11,57,11,31,4,14,55,60,42,0,7,44,22,7,11,0,0,0,0,0,0,0,0,0,0,0,0,0,0],"split_type":[0,0,0,0,0,0,0,0,0,0,0,0,0,0,0,0,0,0,0,0,0,0,0,0,0,0,0,0,0],"sum_hessian":[1.6448024E3,3.8615344E2,1.2586489E3,3.1351144E2,7.264202E1,4.133705E2,8.4527844E2,2.5064392E2,6.2867508E1,1.5784354E1,5.6857666E1,8.553082E1,3.278397E2,2.188482E1,8.233936E2,2.0170657E2,4.893735E1,2.4855461E1,3.8012047E1,2.4977133E1,3.1880535E1,7.0294136E1,1.5236685E1,3.3388557E1,2.9445114E2,9.838528E0,1.2046293E1,1.3805139E2,6.853422E2],"tree_param":{"num_deleted":"0","num_feature":"65","num_nodes":"29","size_leaf_vector":"1"}},{"base_weights":[4.0639678E-1,-8.815067E-1,7.61807E-1,-1.0815656E0,-3.3648562E-1,4.1297227E-1,9.6939516E-1,-5.25408E-2,-6.816373E-1,-5.0718915E-2,7.189277E-1,-6.161397E-1,4.819305E-1,1.9992901E-2,9.8092294E-1,-4.878761E-2,1.2490049E-2,2.0870041E-2,4.6053108E-2,-9.083953E-2,3.6087744E-2,2.9632615E-2,-1.7892892E-3,4.5524042E-2,1.7761407E-2],"categories":[],"categories_nodes":[],"categories_segments":[],"categories_sizes":[],"default_left":[0,0,0,0,0,0,0,0,0,0,0,0,0,0,0,0,0,0,0,0,0,0,0,0,0],"id":49,"left_children":[1,3,5,7,9,11,13,-1,15,-1,17,19,21,-1,23,-1,-1,-1,-1,-1,-1,-1,-1,-1,-1],"loss_changes":[6.743419E2,3.376686E1,8.2568115E1,4.0384827E0,7.2241135E1,3.1084572E1,3.397461E0,0E0,1.3213894E1,0E0,1.7115574E0,5.46705E1,3.4741676E1,0E0,2.9035645E0,0E0,0E0,0E0,0E0,0E0,0E0,0E0,0E0,0E0,0E0],"parents":[2147483647,0,0,1,1,2,2,3,3,4,4,5,5,6,6,8,8,10,10,11,11,12,12,14,14],"right_children":[2,4,6,8,10,12,14,-1,16,-1,18,20,22,-1,24,-1,-1,-1,-1,-1,-1,-1,-1,-1,-1],"split_conditions":[2.543675E2,2E0,2.59545E2,5E0,2E0,2.95003E1,3.6556667E1,-5.25408E-2,2.525025E2,-5.0718915E-2,2.530475E2,2.585E1,1.8933E2,1.9992901E-2,9.105354E-1,-4.878761E-2,1.2490049E-2,2.0870041E-2,4.6053108E-2,-9.083953E-2,3.6087744E-2,2.9632615E-2,-1.7892892E-3,4.5524042E-2,1.7761407E-2],"split_indices":[10,40,10,31,49,22,1,0,10,0,10,35,54,0,37,0,0,0,0,0,0,0,0,0,0],"split_type":[0,0,0,0,0,0,0,0,0,0,0,0,0,0,0,0,0,0,0,0,0,0,0,0,0],"sum_hessian":[1.470197E3,3.173446E2,1.1528524E3,2.307403E2,8.6604324E1,4.3216068E2,7.206917E2,1.9727815E2,3.3462147E1,5.032902E1,3.6275307E1,2.6180525E1,4.0598016E2,1.6909676E1,7.03782E2,2.4102959E1,9.359186E0,2.1085833E1,1.5189474E1,1.3154698E1,1.3025827E1,3.096914E2,9.6288765E1,6.915549E2,1.2227119E1],"tree_param":{"num_deleted":"0","num_feature":"65","num_nodes":"25","size_leaf_vector":"1"}},{"base_weights":[4.6694362E-1,-6.0613245E-1,7.970352E-1,-5.1039737E-2,-2.0505033E-1,5.5372345E-1,9.844786E-1,-5.4072555E-2,3.1421903E-1,-2.524582E-1,6.162509E-1,1.4695803E-2,4.558683E-2,2.1733638E-2,-7.412594E-2,3.445736E-2,-1.20765075E-1,-1.3301135E-2,3.1207165E-2],"categories":[],"categories_nodes":[],"categories_segments":[],"categories_sizes":[],"default_left":[0,0,0,0,0,0,0,0,0,0,0,0,0,0,0,0,0,0,0],"id":50,"left_children":[1,3,5,-1,7,9,11,-1,13,15,17,-1,-1,-1,-1,-1,-1,-1,-1],"loss_changes":[5.571304E2,7.403874E1,5.3583313E1,0E0,1.0566403E2,2.6886368E1,2.3084717E0,0E0,4.2166634E1,9.451768E1,2.8121109E1,0E0,0E0,0E0,0E0,0E0,0E0,0E0,0E0],"parents":[2147483647,0,0,1,1,2,2,4,4,5,5,6,6,8,8,9,9,10,10],"right_children":[2,4,6,-1,8,10,12,-1,14,16,18,-1,-1,-1,-1,-1,-1,-1,-1],"split_conditions":[3.33854E2,2.2632E2,3.4125726E2,-5.1039737E-2,5.224E1,2.95003E1,4.151295E0,-5.4072555E-2,5.421792E1,3.07E1,8.230167E0,1.4695803E-2,4.558683E-2,2.1733638E-2,-7.412594E-2,3.445736E-2,-1.20765075E-1,-1.3301135E-2,3.1207165E-2],"split_indices":[11,0,11,0,55,22,58,0,13,36,4,0,0,0,0,0,0,0,0],"split_type":[0,0,0,0,0,0,0,0,0,0,0,0,0,0,0,0,0,0,0],"sum_hessian":[1.5696863E3,3.687583E2,1.200928E3,1.6201874E2,2.0673956E2,5.2559766E2,6.753303E2,7.171893E1,1.3502063E2,3.7138344E1,4.8845935E2,8.265868E0,6.6706445E2,1.2581023E2,9.210405E0,2.6617558E1,1.0520785E1,3.0882088E1,4.5757724E2],"tree_param":{"num_deleted":"0","num_feature":"65","num_nodes":"19","size_leaf_vector":"1"}},{"base_weights":[4.4419459E-1,-9.293732E-1,7.3882496E-1,-5.090698E-2,-5.088067E-1,-9.620135E-2,7.6844126E-1,2.8239056E-1,-4.9833167E-2,4.4666767E-1,9.6931654E-1,-4.3051258E-2,3.3038765E-2,2.3416119E-2,-7.2717614E-2,3.472878E-2,4.600272E-2],"categories":[],"categories_nodes":[],"categories_segments":[],"categories_sizes":[],"default_left":[0,0,0,0,0,0,0,0,0,0,0,0,0,0,0,0,0],"id":51,"left_children":[1,3,5,-1,7,-1,9,11,-1,13,15,-1,-1,-1,-1,-1,-1],"loss_changes":[6.001084E2,1.829802E1,1.0387323E2,0E0,3.743883E1,0E0,7.706549E1,1.924339E1,0E0,6.005149E1,3.378601E0,0E0,0E0,0E0,0E0,0E0,0E0],"parents":[2147483647,0,0,1,1,2,2,4,4,6,6,7,7,9,9,10,10],"right_children":[2,4,6,-1,8,-1,10,12,-1,14,16,-1,-1,-1,-1,-1,-1],"split_conditions":[2.5372E2,3E0,1.00697014E2,-5.090698E-2,4E0,-9.620135E-2,2.59695E2,1.822642E2,-4.9833167E-2,4.2940016E0,2.6144876E2,-4.3051258E-2,3.3038765E-2,2.3416119E-2,-7.2717614E-2,3.472878E-2,4.600272E-2],"split_indices":[10,46,56,0,51,0,10,14,0,58,10,0,0,0,0,0,0],"split_type":[0,0,0,0,0,0,0,0,0,0,0,0,0,0,0,0,0],"sum_hessian":[1.4796318E3,2.606291E2,1.2190028E3,1.8110052E2,7.952858E1,1.158213E1,1.2074207E3,3.3480988E1,4.6047592E1,4.6631818E2,7.411025E2,8.224575E0,2.5256414E1,4.5343588E2,1.2882271E1,1.0007752E2,6.4102496E2],"tree_param":{"num_deleted":"0","num_feature":"65","num_nodes":"17","size_leaf_vector":"1"}},{"base_weights":[4.39479E-1,-9.253013E-1,7.32396E-1,-2.4126929E-1,-5.0667547E-2,3.7918895E-1,9.6675175E-1,-4.8312552E-2,3.7916514E-1,5.4995768E-2,5.426497E-1,7.4954057E-1,4.573456E-2,-4.3280687E-2,4.1256137E-2,1.1117574E-2,-9.524703E-2,2.7558059E-2,-3.759544E-2,3.8167045E-2,2.028779E-3],"categories":[],"categories_nodes":[],"categories_segments":[],"categories_sizes":[],"default_left":[0,0,0,0,0,0,0,0,0,0,0,0,0,0,0,0,0,0,0,0,0],"id":52,"left_children":[1,3,5,7,-1,9,11,-1,13,15,17,19,-1,-1,-1,-1,-1,-1,-1,-1,-1],"loss_changes":[5.7707654E2,3.00186E1,9.7368225E1,2.8078238E1,0E0,2.4994164E1,2.7634888E0,0E0,2.2593315E1,6.427605E1,2.4930443E1,4.642887E0,0E0,0E0,0E0,0E0,0E0,0E0,0E0,0E0,0E0],"parents":[2147483647,0,0,1,1,2,2,3,3,5,5,6,6,8,8,9,9,10,10,11,11],"right_children":[2,4,6,8,-1,10,12,-1,14,16,18,20,-1,-1,-1,-1,-1,-1,-1,-1,-1],"split_conditions":[2.5372E2,1E0,2.59695E2,1.822642E2,-5.0667547E-2,2.562625E2,2.6127E2,-4.8312552E-2,1.6589E2,-4.7E3,5.9375146E2,2.0086E2,4.573456E-2,-4.3280687E-2,4.1256137E-2,1.1117574E-2,-9.524703E-2,2.7558059E-2,-3.759544E-2,3.8167045E-2,2.028779E-3],"split_indices":[10,47,10,14,0,10,10,0,54,8,12,54,0,0,0,0,0,0,0,0,0],"split_type":[0,0,0,0,0,0,0,0,0,0,0,0,0,0,0,0,0,0,0,0,0],"sum_hessian":[1.4403021E3,2.5380293E2,1.1864991E3,5.3152237E1,2.006507E2,4.7518268E2,7.1131647E2,2.2934147E1,3.0218092E1,1.6058846E2,3.1459424E2,8.6747345E1,6.2456915E2,8.028488E0,2.2189602E1,1.4880591E2,1.178255E1,3.0292676E2,1.1667464E1,7.718828E1,9.559072E0],"tree_param":{"num_deleted":"0","num_feature":"65","num_nodes":"21","size_leaf_vector":"1"}},{"base_weights":[3.9803305E-1,-9.195972E-1,6.984584E-1,-2.274872E-1,-5.04197E-2,2.652517E-1,9.103328E-1,-4.7876354E-2,4.0657535E-1,-1.3973466E-1,3.759607E-1,6.7315596E-1,4.5469217E-2,-6.8920087E-3,4.5159213E-2,2.113994E-2,-9.744633E-2,3.551879E-2,-2.0585285E-2],"categories":[],"categories_nodes":[],"categories_segments":[],"categories_sizes":[],"default_left":[0,0,0,0,0,0,0,0,0,0,0,0,0,0,0,0,0,0,0],"id":53,"left_children":[1,3,5,7,-1,9,11,-1,13,-1,15,17,-1,-1,-1,-1,-1,-1,-1],"loss_changes":[5.2258966E2,2.9243866E1,9.789227E1,2.7569042E1,0E0,1.3044922E2,1.2000244E1,0E0,1.0051342E1,0E0,7.281641E1,2.1118828E1,0E0,0E0,0E0,0E0,0E0,0E0,0E0],"parents":[2147483647,0,0,1,1,2,2,3,3,5,5,6,6,8,8,10,10,11,11],"right_children":[2,4,6,8,-1,10,12,-1,14,-1,16,18,-1,-1,-1,-1,-1,-1,-1],"split_conditions":[2.5372E2,1E0,2.584225E2,3.0377367E1,-5.04197E-2,2.95003E1,2.6127E2,-4.7876354E-2,1.5859107E0,-1.3973466E-1,2.0512732E1,5.91592E2,4.5469217E-2,-6.8920087E-3,4.5159213E-2,2.113994E-2,-9.744633E-2,3.551879E-2,-2.0585285E-2],"split_indices":[10,47,10,15,0,22,10,0,59,0,6,12,0,0,0,0,0,0,0],"split_type":[0,0,0,0,0,0,0,0,0,0,0,0,0,0,0,0,0,0,0],"sum_hessian":[1.317063E3,2.438329E2,1.0732301E3,5.067984E1,1.9315306E2,3.5399353E2,7.192366E2,2.2088017E1,2.8591822E1,1.0286048E1,3.437075E2,1.8328775E2,5.3594885E2,1.469342E1,1.3898402E1,3.336708E2,1.0036654E1,1.6901369E2,1.427407E1],"tree_param":{"num_deleted":"0","num_feature":"65","num_nodes":"19","size_leaf_vector":"1"}},{"base_weights":[4.2398146E-1,-5.0431423E-2,7.143546E-1,4.6949297E-2,8.514651E-1,-1.1279818E-1,2.2944827E-1,6.158563E-1,4.559442E-2,-2.865864E-2,2.59828E-2,3.153802E-2,-4.1672565E-2],"categories":[],"categories_nodes":[],"categories_segments":[],"categories_sizes":[],"default_left":[0,0,0,0,0,0,0,0,0,0,0,0,0],"id":54,"left_children":[1,-1,3,5,7,-1,9,11,-1,-1,-1,-1,-1],"loss_changes":[5.867815E2,0E0,1.0165698E2,8.7434525E1,2.9195984E1,0E0,5.197117E1,3.7988724E1,0E0,0E0,0E0,0E0,0E0],"parents":[2147483647,0,0,2,2,3,3,4,4,6,6,7,7],"right_children":[2,-1,4,6,8,-1,10,12,-1,-1,-1,-1,-1],"split_conditions":[2.5372E2,-5.0431423E-2,2.5666E2,5.141964E3,2.610975E2,-1.1279818E-1,3.0023466E1,2.0512732E1,4.559442E-2,-2.865864E-2,2.59828E-2,3.153802E-2,-4.1672565E-2],"split_indices":[10,0,10,9,10,0,15,6,0,0,0,0,0],"split_type":[0,0,0,0,0,0,0,0,0,0,0,0,0],"sum_hessian":[1.3254772E3,2.1172955E2,1.1137476E3,1.9055057E2,9.23197E2,1.1757974E1,1.7879259E2,3.4799875E2,5.7519824E2,4.9891144E1,1.2890144E2,3.3356436E2,1.44344E1],"tree_param":{"num_deleted":"0","num_feature":"65","num_nodes":"13","size_leaf_vector":"1"}},{"base_weights":[4.3383312E-1,-1.0228846E0,7.1547365E-1,-4.9540073E-2,-4.9322426E-1,3.8270405E-1,9.616575E-1,2.5228912E-2,-5.2342873E-2,-1.0349705E0,4.655016E-1,1.6715258E-2,9.717482E-1,3.937308E-2,-1.6289146E-1,2.8371082E-3,3.0036718E-2,2.2124654E-2,4.5228403E-2],"categories":[],"categories_nodes":[],"categories_segments":[],"categories_sizes":[],"default_left":[0,0,0,0,0,0,0,0,0,0,0,0,0,0,0,0,0,0,0],"id":55,"left_children":[1,3,5,-1,7,9,11,-1,-1,13,15,-1,17,-1,-1,-1,-1,-1,-1],"loss_changes":[5.3924316E2,4.9247894E0,8.922095E1,0E0,1.6377136E1,5.5660774E1,2.8798218E0,0E0,0E0,1.2874652E2,3.350831E1,0E0,2.5211182E0,0E0,0E0,0E0,0E0,0E0,0E0],"parents":[2147483647,0,0,1,1,2,2,4,4,5,5,6,6,9,9,10,10,12,12],"right_children":[2,4,6,-1,8,10,12,-1,-1,14,16,-1,18,-1,-1,-1,-1,-1,-1],"split_conditions":[2.5372E2,2.525025E2,2.59695E2,-4.9540073E-2,3.2895474E2,2.85422E1,4.662E1,2.5228912E-2,-5.2342873E-2,1.6212198E2,5.199E1,1.6715258E-2,2.1934E2,3.937308E-2,-1.6289146E-1,2.8371082E-3,3.0036718E-2,2.2124654E-2,4.5228403E-2],"split_indices":[10,10,10,0,11,22,55,0,0,2,55,0,0,0,0,0,0,0,0],"split_type":[0,0,0,0,0,0,0,0,0,0,0,0,0,0,0,0,0,0,0],"sum_hessian":[1.3111154E3,2.11674E2,1.0994414E3,1.900702E2,2.1603783E1,4.6950378E2,6.299376E2,8.119915E0,1.3483869E1,2.4865103E1,4.446387E2,1.1822849E1,6.1811475E2,1.45670805E1,1.0298021E1,1.4230711E2,3.0233157E2,1.673387E1,6.0138086E2],"tree_param":{"num_deleted":"0","num_feature":"65","num_nodes":"19","size_leaf_vector":"1"}},{"base_weights":[4.0872455E-1,-4.994962E-2,6.927337E-1,2.092634E-1,9.247058E-1,-1.24371566E-1,3.0672547E-1,7.003383E-1,4.6044216E-2,1.910949E-2,-1.0307399E-1,3.6203206E-2,-9.152368E-3],"categories":[],"categories_nodes":[],"categories_segments":[],"categories_sizes":[],"default_left":[0,0,0,0,0,0,0,0,0,0,0,0,0],"id":56,"left_children":[1,-1,3,5,7,-1,9,11,-1,-1,-1,-1,-1],"loss_changes":[5.3323083E2,0E0,1.1762494E2,9.7918236E1,1.076355E1,0E0,9.3296234E1,1.5056236E1,0E0,0E0,0E0,0E0,0E0],"parents":[2147483647,0,0,2,2,3,3,4,4,6,6,7,7],"right_children":[2,-1,4,6,8,-1,10,12,-1,-1,-1,-1,-1],"split_conditions":[2.5372E2,-4.994962E-2,2.5874875E2,2.1974E2,2.6212E2,-1.24371566E-1,2.78E4,4.2940016E0,4.6044216E-2,1.910949E-2,-1.0307399E-1,3.6203206E-2,-9.152368E-3],"split_indices":[10,0,10,0,10,0,43,58,0,0,0,0,0],"split_type":[0,0,0,0,0,0,0,0,0,0,0,0,0],"sum_hessian":[1.2525493E3,1.9917006E2,1.0533793E3,3.4282816E2,7.1055115E2,9.8800125E0,3.3294815E2,1.8565356E2,5.248976E2,3.2045175E2,1.2496372E1,1.6976974E2,1.5883814E1],"tree_param":{"num_deleted":"0","num_feature":"65","num_nodes":"13","size_leaf_vector":"1"}},{"base_weights":[4.2977536E-1,-6.3427204E-1,6.364345E-1,-1.0728579E0,3.7883777E-2,5.0413422E-2,7.7127737E-1,-5.2785754E-2,-1.2208943E-4,8.0793875E-1,-1.075658E0,4.772806E-1,-7.5229377E-1,-4.0740356E-1,8.23893E-1,4.542466E-2,1.7582666E-2,-6.709842E-2,-1.388707E-2,-1.1135809E-2,3.5356928E-2,-5.6306366E-2,2.1386476E-2,-1.0913497E-1,2.5319211E-2,-3.935399E-3,3.9793093E-2],"categories":[],"categories_nodes":[],"categories_segments":[],"categories_sizes":[],"default_left":[0,0,0,0,0,0,0,0,0,0,0,0,0,0,0,0,0,0,0,0,0,0,0,0,0,0,0],"id":57,"left_children":[1,3,5,7,9,11,13,-1,-1,15,17,19,21,23,25,-1,-1,-1,-1,-1,-1,-1,-1,-1,-1,-1,-1],"loss_changes":[2.6557117E2,5.831991E1,7.9486084E1,9.183777E0,6.8260185E1,6.574242E1,5.14722E1,0E0,0E0,2.650011E0,8.430244E0,2.6802568E1,3.9211582E1,6.942208E1,3.0158264E1,0E0,0E0,0E0,0E0,0E0,0E0,0E0,0E0,0E0,0E0,0E0,0E0],"parents":[2147483647,0,0,1,1,2,2,3,3,4,4,5,5,6,6,9,9,10,10,11,11,12,12,13,13,14,14],"right_children":[2,4,6,8,10,12,14,-1,-1,16,18,20,22,24,26,-1,-1,-1,-1,-1,-1,-1,-1,-1,-1,-1,-1],"split_conditions":[4.097059E0,2.2632E2,1.07920654E2,5.526039E1,2.5055948E1,3.6869606E1,2.2003E2,-5.2785754E-2,-1.2208943E-4,4.031514E0,4.096774E0,2.3428E2,2.4839E2,4.238166E0,5.372103E1,4.542466E-2,1.7582666E-2,-6.709842E-2,-1.388707E-2,-1.1135809E-2,3.5356928E-2,-5.6306366E-2,2.1386476E-2,-1.0913497E-1,2.5319211E-2,-3.935399E-3,3.9793093E-2],"split_indices":[58,0,56,13,33,33,0,0,0,58,45,0,0,58,13,0,0,0,0,0,0,0,0,0,0,0,0],"split_type":[0,0,0,0,0,0,0,0,0,0,0,0,0,0,0,0,0,0,0,0,0,0,0,0,0,0,0],"sum_hessian":[1.2041332E3,1.9512225E2,1.00901086E3,1.1794696E2,7.7175285E1,1.8956961E2,8.194413E2,1.0979354E2,8.1534195E0,4.6021435E1,3.115385E1,1.24386E2,6.51836E1,3.435841E1,7.850829E2,3.0564867E1,1.5456569E1,1.9762112E1,1.139174E1,3.55913E1,8.87947E1,4.7169853E1,1.801375E1,1.0768969E1,2.3589441E1,3.393429E1,7.5114856E2],"tree_param":{"num_deleted":"0","num_feature":"65","num_nodes":"27","size_leaf_vector":"1"}},{"base_weights":[3.995864E-1,-7.3157924E-1,7.0946264E-1,-4.8929904E-2,-1.2326245E-1,-9.6209836E-1,7.6692E-1,4.5146728E-1,-6.853213E-2,3.9541018E-1,-1.3698845E-1,5.387604E-1,4.568702E-2,3.4832593E-2,-1.6309964E-2,3.2616965E-2,1.7601796E-4,-6.9949974E-4,2.9636586E-2],"categories":[],"categories_nodes":[],"categories_segments":[],"categories_sizes":[],"default_left":[0,0,0,0,0,0,0,0,0,0,0,0,0,0,0,0,0,0,0],"id":58,"left_children":[1,3,5,-1,7,9,11,13,-1,15,-1,17,-1,-1,-1,-1,-1,-1,-1],"loss_changes":[4.0289304E2,4.94207E1,8.746231E1,0E0,7.13163E1,8.545005E1,4.39281E1,1.6178974E1,0E0,2.0906966E0,0E0,2.596103E1,0E0,0E0,0E0,0E0,0E0,0E0,0E0],"parents":[2147483647,0,0,1,1,2,2,4,4,5,5,6,6,7,7,9,9,11,11],"right_children":[2,4,6,-1,8,10,12,14,-1,16,-1,18,-1,-1,-1,-1,-1,-1,-1],"split_conditions":[3.335055E2,3.30256E2,4.662E1,-4.8929904E-2,5.380658E1,-7.9E3,3.422055E2,1.0253371E1,-6.853213E-2,5.9041376E2,-1.3698845E-1,1.789593E2,4.568702E-2,3.4832593E-2,-1.6309964E-2,3.2616965E-2,1.7601796E-4,-6.9949974E-4,2.9636586E-2],"split_indices":[11,11,55,0,13,8,11,18,0,12,0,14,0,0,0,0,0,0,0],"split_type":[0,0,0,0,0,0,0,0,0,0,0,0,0,0,0,0,0,0,0],"sum_hessian":[1.1463013E3,2.4587555E2,9.004257E2,1.5795024E2,8.7925316E1,2.9052172E1,8.7137354E2,6.2314564E1,2.5610756E1,1.7866426E1,1.1185744E1,4.3731952E2,4.3405402E2,4.554384E1,1.6770723E1,8.8330145E0,9.033413E0,6.978725E1,3.675323E2],"tree_param":{"num_deleted":"0",