{"learner":{"attributes":{"best_iteration":"18","best_score":"0.30810169123050496"},"feature_names":["proj_sum","proj_mean","proj_std","proj_max","proj_min","proj_range","proj_cv","own_sum","own_mean","own_std","own_max","own_min","own_range","own_prod_log","sal_sum","sal_mean","sal_std","sal_unused","ceil85_sum","ceil95_sum","ceil99_sum","ceil85_mean","ceil85_max","ceil85_min","ceil_to_proj_ratio","std_sum","std_mean","var_sum","saber_team_sum","saber_team_mean","saber_game_sum","saber_game_mean","h_proj_sum","h_proj_mean","h_proj_max","h_proj_min","h_proj_std","h_own_sum","h_own_mean","h_own_std","h_own_min","h_ceil85_sum","h_ceil85_max","h_sal_mean","h_sal_std","p_proj_sum","p_proj_mean","p_own_sum","p_own_mean","p_sal_sum","p_n","proj_per_dollar","ceil85_per_dollar","proj_x_own_inverse","ceil_x_own_inverse","var_per_proj","ceil_minus_proj","primary_stack_size","secondary_stack_size","tertiary_stack_size","has_5_stack","has_4_stack","has_3_stack","has_4_secondary","has_3_secondary","num_teams","shape_5_3","shape_5_2","shape_4_4","shape_4_3","primary_stack_sal_sum","primary_stack_proj_sum","primary_stack_sal_std","primary_stack_order_mean","primary_stack_top4_orders","primary_stack_consecutive","bringback_count","has_bringback","has_bringback_2plus","game_stack_size","pitcher_anti_hitters","pitcher_team_hitters","proj_vs_slate_p50","proj_vs_slate_p90","own_vs_slate_median","own_vs_slate_p75","proj_top3_sum","proj_bot3_sum","own_top3_sum","own_bot3_sum","sal_top3_sum","sal_bot3_sum","stud_to_cheap_ratio","proj_top3_ratio","has_top3_proj_anchor","n_chalk_30plus","n_chalk_20plus","n_lev_5less","n_lev_10less","n_lev_15less","dev_sum","dev_max_over","dev_sum_under","dev_n_over","dev_n_under","dev_mean","dev_abs_sum","antipitcher_count","antipitcher_proj_sum","pitcher_x_pitcher_anti","stack_with_pitcher_corr","sal_skew","sal_p75_minus_p25","sal_top3_to_bot3","own_skew","own_p75_minus_p25","pos_proj_zscore_sum","pos_proj_zscore_max","pos_proj_zscore_min","num_games_in_lineup","num_teams_distinct","highest_game_total_in_lineup","lineup_avg_game_total","h_proj_excess_vs_slate_mean","p_proj_excess_vs_slate_max"],"feature_types":[],"gradient_booster":{"model":{"cats":{"enc":[],"feature_segments":[],"sorted_idx":[]},"gbtree_model_param":{"num_parallel_tree":"1","num_trees":"69"},"iteration_indptr":[0,1,2,3,4,5,6,7,8,9,10,11,12,13,14,15,16,17,18,19,20,21,22,23,24,25,26,27,28,29,30,31,32,33,34,35,36,37,38,39,40,41,42,43,44,45,46,47,48,49,50,51,52,53,54,55,56,57,58,59,60,61,62,63,64,65,66,67,68,69],"tree_info":[0,0,0,0,0,0,0,0,0,0,0,0,0,0,0,0,0,0,0,0,0,0,0,0,0,0,0,0,0,0,0,0,0,0,0,0,0,0,0,0,0,0,0,0,0,0,0,0,0,0,0,0,0,0,0,0,0,0,0,0,0,0,0,0,0,0,0,0,0],"trees":[{"base_weights":[1.9071897E-3,-1.2384593E-1,2.0859422E-1,1.884232E-1,-1.7675193E-1,-1.8171735E-1,3.5950097E-1,7.200128E-2,1.1721964E0,-6.864659E-2,-2.2945574E-1,-2.7438197E-1,1.09781496E-1,7.616129E-1,2.0280348E-1,7.879447E-1,-6.844494E-2,4.185707E0,8.1647104E-1,8.2103187E-1,-1.0706824E-1,-2.3908533E-1,8.628777E-2,-2.7911296E-1,-2.2953208E-1,1.1118798E-1,1.5700985E-2,1.674978E0,3.125284E-1,-9.196212E-2,5.2054644E-1,4.7615252E-2,1.0738512E-2,2.8269382E-2,-4.54791E-3,1.3799138E-1,1.1217307E-1,1.5471888E-2,8.183878E-2,-6.994984E-3,4.8131797E-2,5.4963294E-2,-3.5798312E-3,-8.306712E-3,-5.754229E-3,-7.0236833E-3,4.132583E-2,-8.533968E-3,-7.2592325E-3,-2.8439723E-3,-7.891717E-3,-2.6282675E-3,3.4078605E-2,8.9969955E-2,3.8072716E-2,2.4440493E-2,1.3438525E-3,5.605099E-3,-5.708566E-3,1.0904668E-2,4.2939167E-2],"categories":[],"categories_nodes":[],"categories_segments":[],"categories_sizes":[],"default_left":[0,0,0,0,0,0,0,0,0,0,0,0,0,0,0,0,0,0,0,0,0,0,0,0,0,0,0,0,0,0,0,0,0,0,0,0,0,0,0,0,0,0,0,0,0,0,0,0,0,0,0,0,0,0,0,0,0,0,0,0,0],"id":0,"left_children":[1,3,5,7,9,11,13,15,17,19,21,23,25,27,29,31,33,35,37,39,41,43,45,47,49,-1,51,53,55,57,59,-1,-1,-1,-1,-1,-1,-1,-1,-1,-1,-1,-1,-1,-1,-1,-1,-1,-1,-1,-1,-1,-1,-1,-1,-1,-1,-1,-1,-1,-1],"loss_changes":[5.249251E3,2.074465E3,4.49984E3,2.083496E3,6.117488E2,5.7543176E2,3.4713774E3,1.6358262E3,2.0601484E3,1.2030531E3,2.1948853E2,3.3656006E0,1.7387694E3,6.3363184E3,3.7133745E3,9.163291E2,1.1432605E3,2.033496E1,9.890835E2,1.2035908E3,8.022345E2,1.25142334E2,8.844569E2,2.836914E0,6.9673004E0,0E0,5.7980707E2,2.7326533E3,1.3925298E3,5.638547E2,2.7287124E3,0E0,0E0,0E0,0E0,0E0,0E0,0E0,0E0,0E0,0E0,0E0,0E0,0E0,0E0,0E0,0E0,0E0,0E0,0E0,0E0,0E0,0E0,0E0,0E0,0E0,0E0,0E0,0E0,0E0,0E0],"parents":[2147483647,0,0,1,1,2,2,3,3,4,4,5,5,6,6,7,7,8,8,9,9,10,10,11,11,12,12,13,13,14,14,15,15,16,16,17,17,18,18,19,19,20,20,21,21,22,22,23,23,24,24,26,26,27,27,28,28,29,29,30,30],"right_children":[2,4,6,8,10,12,14,16,18,20,22,24,26,28,30,32,34,36,38,40,42,44,46,48,50,-1,52,54,56,58,60,-1,-1,-1,-1,-1,-1,-1,-1,-1,-1,-1,-1,-1,-1,-1,-1,-1,-1,-1,-1,-1,-1,-1,-1,-1,-1,-1,-1,-1,-1],"split_conditions":[6.554E1,1.56E4,5.5377436E-1,9.75E1,1.69E4,1.2295833E3,7.715302E0,8.26222E0,6.093E1,1.7600477E0,5.18014E1,1.1267653E3,9.96E0,1.115E1,1.7642069E1,3.3624046E1,1.70334E1,1.9539078E0,1.12E4,1.133843E3,7.71E0,6.141E1,1.94E4,5.283091E-1,-4.71E0,1.1118798E-1,1.028216E1,4.223526E1,7.8052464E0,9.008222E0,5.8E0,4.7615252E-2,1.0738512E-2,2.8269382E-2,-4.54791E-3,1.3799138E-1,1.1217307E-1,1.5471888E-2,8.183878E-2,-6.994984E-3,4.8131797E-2,5.4963294E-2,-3.5798312E-3,-8.306712E-3,-5.754229E-3,-7.0236833E-3,4.132583E-2,-8.533968E-3,-7.2592325E-3,-2.8439723E-3,-7.891717E-3,-2.6282675E-3,3.4078605E-2,8.9969955E-2,3.8072716E-2,2.4440493E-2,1.3438525E-3,5.605099E-3,-5.708566E-3,1.0904668E-2,4.2939167E-2],"split_indices":[32,49,118,0,49,72,39,122,32,24,28,72,34,23,115,106,116,51,91,72,34,32,49,118,124,0,122,100,115,39,73,0,0,0,0,0,0,0,0,0,0,0,0,0,0,0,0,0,0,0,0,0,0,0,0,0,0,0,0,0,0],"split_type":[0,0,0,0,0,0,0,0,0,0,0,0,0,0,0,0,0,0,0,0,0,0,0,0,0,0,0,0,0,0,0,0,0,0,0,0,0,0,0,0,0,0,0,0,0,0,0,0,0,0,0,0,0,0,0,0,0,0,0,0,0],"sum_hessian":[2.01958E5,1.25563E5,7.6395E4,1.8191E4,1.07372E5,2.1301E4,5.5094E4,1.6267E4,1.924E3,3.5191E4,7.2181E4,1.6163E4,5.138E3,1.5448E4,3.9646E4,2.667E3,1.36E4,2.02E2,1.722E3,1.456E3,3.3735E4,7.0045E4,2.136E3,1.4616E4,1.547E3,1.3E2,5.008E3,5.091E3,1.0357E4,2.0567E4,1.9079E4,9.32E2,1.735E3,1.033E3,1.2567E4,1E2,1.02E2,1.489E3,2.33E2,6.21E2,8.35E2,2.11E2,3.3524E4,3.8919E4,3.1126E4,1.712E3,4.24E2,1.2769E4,1.847E3,3.09E2,1.238E3,4.586E3,4.22E2,1.193E3,3.898E3,3.601E3,6.756E3,5.362E3,1.5205E4,1.6274E4,2.805E3],"tree_param":{"num_deleted":"0","num_feature":"125","num_nodes":"61","size_leaf_vector":"1"}},{"base_weights":[-8.428857E-3,-1.2702066E-1,1.8818562E-1,1.743118E-1,-1.7831764E-1,-1.3483565E-1,3.520626E-1,5.4021526E-2,1.3338618E0,7.0052576E-1,-1.9247901E-1,-1.7429277E-1,8.6449E-1,-1.8565288E-1,4.746212E-1,6.5531784E-1,-5.5398762E-2,2.2367327E0,1.4567706E-1,1.8812933E0,-1.2907362E-1,-2.0280623E-1,1.5879944E-1,9.3022734E-1,-2.06275E-1,-2.3018956E-1,1.8238415E0,2.922744E-1,-2.3295052E-1,-7.059975E-2,6.229639E-1,3.3944435E-2,-6.4298264E-3,7.531959E-2,-2.4507705E-3,1.0819754E-1,4.7781948E-2,4.3076377E-2,-4.861918E-3,1.1244205E-1,4.6067093E-2,9.007023E-4,-8.005663E-3,-7.3498166E-3,-4.1798907E-3,7.301394E-2,3.0230652E-4,8.771834E-3,1.1432678E-1,-8.038087E-3,2.3971791E-3,-8.707766E-3,5.2761296E-3,3.0552868E-2,8.7085746E-2,-5.9195966E-3,4.2297963E-2,-8.121703E-3,-3.8029936E-3,-6.8131248E-3,1.8361216E-2,3.442962E-3,2.4336312E-2],"categories":[],"categories_nodes":[],"categories_segments":[],"categories_sizes":[],"default_left":[0,0,0,0,0,0,0,0,0,0,0,0,0,0,0,0,0,0,0,0,0,0,0,0,0,0,0,0,0,0,0,0,0,0,0,0,0,0,0,0,0,0,0,0,0,0,0,0,0,0,0,0,0,0,0,0,0,0,0,0,0,0,0],"id":1,"left_children":[1,3,5,7,9,11,13,15,17,19,21,23,25,27,29,31,33,35,37,39,41,43,45,47,49,51,53,55,57,59,61,-1,-1,-1,-1,-1,-1,-1,-1,-1,-1,-1,-1,-1,-1,-1,-1,-1,-1,-1,-1,-1,-1,-1,-1,-1,-1,-1,-1,-1,-1,-1,-1],"loss_changes":[4.6915635E3,1.9400486E3,4.00739E3,2.546601E3,1.3349299E3,1.00483997E3,3.3098667E3,1.0884668E3,1.84056E3,1.6664812E3,3.8293945E2,8.661139E2,1.0169964E3,2.1081299E2,3.3080986E3,1.0549381E3,9.4459265E2,8.543872E2,2.9484238E2,4.473069E2,2.1928688E1,2.745498E2,1.02008154E3,1.2666802E3,4.2042627E2,1.1100527E1,4.4547534E2,4.5992526E2,3.399402E1,9.3484906E2,3.075874E3,0E0,0E0,0E0,0E0,0E0,0E0,0E0,0E0,0E0,0E0,0E0,0E0,0E0,0E0,0E0,0E0,0E0,0E0,0E0,0E0,0E0,0E0,0E0,0E0,0E0,0E0,0E0,0E0,0E0,0E0,0E0,0E0],"parents":[2147483647,0,0,1,1,2,2,3,3,4,4,5,5,6,6,7,7,8,8,9,9,10,10,11,11,12,12,13,13,14,14,15,15,16,16,17,17,18,18,19,19,20,20,21,21,22,22,23,23,24,24,25,25,26,26,27,27,28,28,29,29,30,30],"right_children":[2,4,6,8,10,12,14,16,18,20,22,24,26,28,30,32,34,36,38,40,42,44,46,48,50,52,54,56,58,60,62,-1,-1,-1,-1,-1,-1,-1,-1,-1,-1,-1,-1,-1,-1,-1,-1,-1,-1,-1,-1,-1,-1,-1,-1,-1,-1,-1,-1,-1,-1,-1,-1],"split_conditions":[6.554E1,1.56E4,5.898098E-1,9.75E0,4.591E0,5.9877598E1,4E0,8.26222E0,9.4E0,4.3072188E-1,2.3E4,6.565E1,9.9934E0,2.503E2,8.98616E0,5.8217444E0,3.2064512E0,9.772E1,4.22362E1,6.087372E-1,5.740722E1,8.8765E1,8.1787E1,-3.403207E-1,1.348184E3,1.0040112E2,5.528721E-1,2.500025E2,2.2829054E1,1E0,6.04E0,3.3944435E-2,-6.4298264E-3,7.531959E-2,-2.4507705E-3,1.0819754E-1,4.7781948E-2,4.3076377E-2,-4.861918E-3,1.1244205E-1,4.6067093E-2,9.007023E-4,-8.005663E-3,-7.3498166E-3,-4.1798907E-3,7.301394E-2,3.0230652E-4,8.771834E-3,1.1432678E-1,-8.038087E-3,2.3971791E-3,-8.707766E-3,5.2761296E-3,3.0552868E-2,8.7085746E-2,-5.9195966E-3,4.2297963E-2,-8.121703E-3,-3.8029936E-3,-6.8131248E-3,1.8361216E-2,3.442962E-3,2.4336312E-2],"split_indices":[32,49,118,82,82,12,99,122,34,118,70,32,122,19,122,117,117,0,28,36,106,30,30,102,72,106,118,19,115,104,4,0,0,0,0,0,0,0,0,0,0,0,0,0,0,0,0,0,0,0,0,0,0,0,0,0,0,0,0,0,0,0,0],"split_type":[0,0,0,0,0,0,0,0,0,0,0,0,0,0,0,0,0,0,0,0,0,0,0,0,0,0,0,0,0,0,0,0,0,0,0,0,0,0,0,0,0,0,0,0,0,0,0,0,0,0,0,0,0,0,0,0,0,0,0,0,0,0,0],"sum_hessian":[2.01207E5,1.25506E5,7.5701E4,1.8257E4,1.07249E5,2.5479E4,5.0222E4,1.6542E4,1.715E3,1.7E3,1.05549E5,2.4512E4,9.67E2,9.322E3,4.09E4,2.546E3,1.3996E4,9.74E2,7.41E2,7.01E2,9.99E2,1.02535E5,3.014E3,6.89E2,2.3823E4,4.52E2,5.15E2,8.39E2,8.483E3,8.748E3,3.2152E4,1.645E3,9.01E2,1.41E2,1.3855E4,3.1E2,6.64E2,1.42E2,5.99E2,1.08E2,5.93E2,4.64E2,5.35E2,6.1595E4,4.094E4,1.84E2,2.83E3,5.65E2,1.24E2,1.96E4,4.223E3,3.94E2,5.8E1,2.96E2,2.19E2,5.84E2,2.55E2,6.256E3,2.227E3,7.117E3,1.631E3,8.691E3,2.3461E4],"tree_param":{"num_deleted":"0","num_feature":"125","num_nodes":"63","size_leaf_vector":"1"}},{"base_weights":[6.4228475E-3,-1.15329646E-1,2.0549163E-1,6.456627E-1,-1.3644472E-1,-1.6366386E-1,3.5427034E-1,1.9484854E0,1.4173304E-1,-1.73765E-1,1.7394602E-1,2.5541678E-1,-2.2516E-1,-3.7618475E-3,5.180283E-1,1.06199205E-1,1.7326828E0,1.1069268E0,-1.6895661E-1,-1.8688872E-1,2.5585842E-1,3.9280124E-2,1.1829125E0,8.079902E-2,1.0307996E-1,5.1826096E-1,-2.4873595E-1,4.3818945E-1,-1.333678E-1,7.995041E-1,1.1729217E-1,6.793485E-2,1.6632827E-2,6.304117E-4,5.7400867E-2,-9.7207946E-4,-8.148963E-3,-1.9561814E-3,-6.249585E-3,6.6035934E-2,2.1018707E-3,1.2268047E-2,-6.577845E-3,1.09864265E-1,2.325119E-2,-2.2522232E-3,1.11654826E-1,4.5594774E-2,-8.445791E-3,9.37908E-3,-7.917761E-3,5.199788E-2,6.9762273E-3,8.260483E-3,-5.562632E-3,2.1332603E-2,6.386923E-2,2.1786427E-2,-9.542129E-4],"categories":[],"categories_nodes":[],"categories_segments":[],"categories_sizes":[],"default_left":[0,0,0,0,0,0,0,0,0,0,0,0,0,0,0,0,0,0,0,0,0,0,0,0,0,0,0,0,0,0,0,0,0,0,0,0,0,0,0,0,0,0,0,0,0,0,0,0,0,0,0,0,0,0,0,0,0,0,0],"id":2,"left_children":[1,3,5,7,9,11,13,15,17,19,21,23,25,27,29,-1,31,33,35,37,39,41,43,45,-1,47,49,51,53,55,57,-1,-1,-1,-1,-1,-1,-1,-1,-1,-1,-1,-1,-1,-1,-1,-1,-1,-1,-1,-1,-1,-1,-1,-1,-1,-1,-1,-1],"loss_changes":[4.907362E3,2.0188271E3,4.220246E3,2.226677E3,1.4160769E3,5.689193E2,3.2110254E3,3.1876758E2,7.3398285E2,6.153115E2,1.7827482E3,1.5686877E3,3.3750336E2,9.8463617E2,4.2387246E3,0E0,5.219641E2,5.218882E2,2.5957619E1,2.761194E2,1.1690925E3,1.106517E3,1.5594814E3,1.5207151E3,0E0,4.7464288E2,1.5917773E2,1.037751E3,2.8283917E2,2.593246E3,1.4078103E3,0E0,0E0,0E0,0E0,0E0,0E0,0E0,0E0,0E0,0E0,0E0,0E0,0E0,0E0,0E0,0E0,0E0,0E0,0E0,0E0,0E0,0E0,0E0,0E0,0E0,0E0,0E0,0E0],"parents":[2147483647,0,0,1,1,2,2,3,3,4,4,5,5,6,6,7,7,8,8,9,9,10,10,11,11,12,12,13,13,14,14,16,16,17,17,18,18,19,19,20,20,21,21,22,22,23,23,25,25,26,26,27,27,28,28,29,29,30,30],"right_children":[2,4,6,8,10,12,14,16,18,20,22,24,26,28,30,-1,32,34,36,38,40,42,44,46,-1,48,50,52,54,56,58,-1,-1,-1,-1,-1,-1,-1,-1,-1,-1,-1,-1,-1,-1,-1,-1,-1,-1,-1,-1,-1,-1,-1,-1,-1,-1,-1,-1],"split_conditions":[6.554E1,4.728E0,4E0,3.2526806E-1,4.3E3,7.0657585E1,1.0076E1,8.5784E0,1.2220712E0,2.3E4,9.75E1,3.2567568E0,8.7252E1,-5.98E0,6.0598427E1,1.06199205E-1,1.071128E1,1.026039E0,1.35848675E1,4.91E4,8.1787E1,4.31036E1,4.2639947E0,5E0,1.0307996E-1,2.428E2,1.117E1,4.6067542E-1,2.5487892E1,6.2E0,3.1798494E1,6.793485E-2,1.6632827E-2,6.304117E-4,5.7400867E-2,-9.7207946E-4,-8.148963E-3,-1.9561814E-3,-6.249585E-3,6.6035934E-2,2.1018707E-3,1.2268047E-2,-6.577845E-3,1.09864265E-1,2.325119E-2,-2.2522232E-3,1.11654826E-1,4.5594774E-2,-8.445791E-3,9.37908E-3,-7.917761E-3,5.199788E-2,6.9762273E-3,8.260483E-3,-5.562632E-3,2.1332603E-2,6.386923E-2,2.1786427E-2,-9.542129E-4],"split_indices":[32,82,103,118,43,88,83,121,105,70,0,92,30,124,47,0,101,105,101,14,30,28,123,96,0,19,46,40,12,73,12,0,0,0,0,0,0,0,0,0,0,0,0,0,0,0,0,0,0,0,0,0,0,0,0,0,0,0,0],"split_type":[0,0,0,0,0,0,0,0,0,0,0,0,0,0,0,0,0,0,0,0,0,0,0,0,0,0,0,0,0,0,0,0,0,0,0,0,0,0,0,0,0,0,0,0,0,0,0,0,0,0,0,0,0,0,0,0,0,0,0],"sum_hessian":[2.02471E5,1.25633E5,7.6838E4,3.391E3,1.22242E5,2.2072E4,5.4766E4,9.45E2,2.446E3,1.09122E5,1.312E4,2.824E3,1.9248E4,1.7188E4,3.7578E4,1.11E2,8.34E2,5.95E2,1.851E3,1.05888E5,3.234E3,1.1576E4,1.544E3,2.678E3,1.46E2,5.91E2,1.8657E4,3.897E3,1.3291E4,2.2073E4,1.5505E4,5.74E2,2.6E2,2.54E2,3.41E2,7.95E2,1.056E3,1.5857E4,9.0031E4,2.81E2,2.953E3,4.764E3,6.812E3,2.17E2,1.327E3,2.569E3,1.09E2,2.62E2,3.29E2,4.91E2,1.8166E4,5.33E2,3.364E3,1.501E3,1.179E4,2.0698E4,1.375E3,3.049E3,1.2456E4],"tree_param":{"num_deleted":"0","num_feature":"125","num_nodes":"59","size_leaf_vector":"1"}},{"base_weights":[6.343875E-3,-1.0785607E-1,1.9537148E-1,2.1992856E-1,-1.6038549E-1,-1.6653684E-1,3.3474803E-1,3.9250085E-1,-2.820894E-1,4.2127115E-1,-1.7289272E-1,1.0577362E0,-2.0236896E-1,-2.6277716E-3,5.028712E-1,2.908412E-1,1.1498249E0,-2.8554702E-1,6.726728E-4,1.683206E-1,1.8969427E0,-1.8806492E-1,5.6604907E-2,2.6280491E0,-2.7570236E-1,1.1743579E0,-2.189306E-1,4.736886E-1,-1.6397683E-1,-7.9158165E-2,6.4567345E-1,1.6227374E-2,-1.0951669E-3,8.071299E-2,2.1574175E-2,-8.642192E-3,-3.9457507E-3,4.3740943E-2,7.083216E-5,-1.7563403E-3,9.2283875E-2,-6.6862945E-3,-3.2606358E-3,2.4868105E-2,-5.5935327E-3,4.4141483E-2,1.37943E-1,-8.996186E-3,-4.52148E-3,-6.9767623E-3,9.547684E-2,-7.1990257E-3,1.0852605E-2,3.775861E-2,5.403015E-3,-6.8352367E-3,3.55772E-3,-3.487049E-3,6.477952E-2,-2.9317508E-3,2.3909505E-2],"categories":[],"categories_nodes":[],"categories_segments":[],"categories_sizes":[],"default_left":[0,0,0,0,0,0,0,0,0,0,0,0,0,0,0,0,0,0,0,0,0,0,0,0,0,0,0,0,0,0,0,0,0,0,0,0,0,0,0,0,0,0,0,0,0,0,0,0,0,0,0,0,0,0,0,0,0,0,0,0,0],"id":3,"left_children":[1,3,5,7,9,11,13,15,17,19,21,23,25,27,29,31,33,35,-1,37,39,41,43,45,47,49,51,53,55,57,59,-1,-1,-1,-1,-1,-1,-1,-1,-1,-1,-1,-1,-1,-1,-1,-1,-1,-1,-1,-1,-1,-1,-1,-1,-1,-1,-1,-1,-1,-1],"loss_changes":[4.370298E3,2.173075E3,3.8460208E3,1.5103215E3,7.913948E2,9.302221E2,3.1223052E3,9.9844775E2,4.70224E0,8.544733E2,3.7078955E2,1.2633557E3,4.6990918E2,1.4071829E3,3.0536152E3,9.364164E2,1.0165657E3,1.677887E0,0E0,4.186584E2,7.7265125E2,2.7597363E2,1.2398567E3,6.244319E2,9.426651E-1,6.929569E2,2.4872723E2,1.0674326E3,2.468422E2,6.0105554E2,3.31846E3,0E0,0E0,0E0,0E0,0E0,0E0,0E0,0E0,0E0,0E0,0E0,0E0,0E0,0E0,0E0,0E0,0E0,0E0,0E0,0E0,0E0,0E0,0E0,0E0,0E0,0E0,0E0,0E0,0E0,0E0],"parents":[2147483647,0,0,1,1,2,2,3,3,4,4,5,5,6,6,7,7,8,8,9,9,10,10,11,11,12,12,13,13,14,14,15,15,16,16,17,17,19,19,20,20,21,21,22,22,23,23,24,24,25,25,26,26,27,27,28,28,29,29,30,30],"right_children":[2,4,6,8,10,12,14,16,18,20,22,24,26,28,30,32,34,36,-1,38,40,42,44,46,48,50,52,54,56,58,60,-1,-1,-1,-1,-1,-1,-1,-1,-1,-1,-1,-1,-1,-1,-1,-1,-1,-1,-1,-1,-1,-1,-1,-1,-1,-1,-1,-1,-1,-1],"split_conditions":[8.1925E0,1.55E4,5.5377436E-1,1.05522E1,4.728E0,8.20625E0,1.0076E1,9.75E0,2.8641975E0,7E0,4.14E1,7.54775E1,8.5839E1,-5.98E0,4E0,5.8217444E0,9.772E0,1.6920053E1,6.726728E-4,2.3979573E-1,1.2018055E0,8.9685E1,4.3288612E1,-2.874237E-1,5.5032887E0,4.541E1,5.9877598E1,3.778E1,1.22826E1,4.175E3,2.140607E1,1.6227374E-2,-1.0951669E-3,8.071299E-2,2.1574175E-2,-8.642192E-3,-3.9457507E-3,4.3740943E-2,7.083216E-5,-1.7563403E-3,9.2283875E-2,-6.6862945E-3,-3.2606358E-3,2.4868105E-2,-5.5935327E-3,4.4141483E-2,1.37943E-1,-8.996186E-3,-4.52148E-3,-6.9767623E-3,9.547684E-2,-7.1990257E-3,1.0852605E-2,3.775861E-2,5.403015E-3,-6.8352367E-3,3.55772E-3,-3.487049E-3,6.477952E-2,-2.9317508E-3,2.3909505E-2],"split_indices":[33,49,118,121,82,33,83,1,92,79,71,56,30,124,99,117,1,38,0,118,111,30,47,102,11,71,12,86,121,112,116,0,0,0,0,0,0,0,0,0,0,0,0,0,0,0,0,0,0,0,0,0,0,0,0,0,0,0,0,0,0],"split_type":[0,0,0,0,0,0,0,0,0,0,0,0,0,0,0,0,0,0,0,0,0,0,0,0,0,0,0,0,0,0,0,0,0,0,0,0,0,0,0,0,0,0,0,0,0,0,0,0,0,0,0,0,0,0,0,0,0,0,0,0,0],"sum_hessian":[2.02449E5,1.26204E5,7.6245E4,1.7431E4,1.08773E5,2.1199E4,5.5046E4,1.2972E4,4.459E3,2.289E3,1.06484E5,6.02E2,2.0597E4,1.8308E4,3.6738E4,1.1438E4,1.534E3,4.409E3,5E1,1.955E3,3.34E2,9.9881E4,6.603E3,2.76E2,3.26E2,2.44E2,2.0353E4,4.632E3,1.3676E4,7.238E3,2.95E4,6.484E3,4.954E3,3.34E2,1.2E3,4.337E3,7.2E1,2.22E2,1.733E3,1.26E2,2.08E2,6.943E4,3.0451E4,1.58E3,5.023E3,1.75E2,1.01E2,2.72E2,5.4E1,1.44E2,1E2,1.9642E4,7.11E2,1.26E3,3.372E3,1.1155E4,2.521E3,7.121E3,1.17E2,4.989E3,2.4511E4],"tree_param":{"num_deleted":"0","num_feature":"125","num_nodes":"61","size_leaf_vector":"1"}},{"base_weights":[2.5540052E-3,-1.2054867E-1,2.0325665E-1,5.893906E-1,-1.3941818E-1,-1.5642115E-1,3.4071735E-1,1.9558669E0,1.2989381E-1,1.0552389E-2,-1.8396069E-1,9.8058176E-1,-1.9130892E-1,-1.361925E-1,4.5035005E-1,2.2377467E0,-4.523669E-3,1.0685599E0,-1.6357328E-1,5.389006E-1,-6.467887E-2,-1.8795426E-1,1.2322313E0,3.366919E-1,1.0992644E-1,1.1455568E0,-2.0735478E-1,-1.6190314E-1,6.409816E-2,-8.1715755E-2,5.742168E-1,5.3953785E-2,9.791778E-2,-1.1952561E-3,5.5238947E-2,-7.978118E-4,-7.9133175E-3,2.8423676E-2,-7.142313E-3,-4.3368577E-3,1.9786058E-2,-5.9720194E-3,5.171705E-3,1.0925651E-1,-7.778271E-3,-7.227209E-3,7.621137E-2,-6.7073237E-3,9.161394E-2,-7.396834E-3,2.822943E-3,3.8490836E-2,-6.020427E-3,1.123621E-2,-5.923414E-3,4.121607E-3,2.3366444E-2],"categories":[],"categories_nodes":[],"categories_segments":[],"categories_sizes":[],"default_left":[0,0,0,0,0,0,0,0,0,0,0,0,0,0,0,0,0,0,0,0,0,0,0,0,0,0,0,0,0,0,0,0,0,0,0,0,0,0,0,0,0,0,0,0,0,0,0,0,0,0,0,0,0,0,0,0,0],"id":4,"left_children":[1,3,5,7,9,11,13,15,17,19,21,23,25,27,29,31,-1,33,35,37,39,41,43,45,-1,47,49,51,-1,53,55,-1,-1,-1,-1,-1,-1,-1,-1,-1,-1,-1,-1,-1,-1,-1,-1,-1,-1,-1,-1,-1,-1,-1,-1,-1,-1],"loss_changes":[4.980271E3,1.6738044E3,3.788908E3,2.0309749E3,8.130061E2,8.4074164E2,2.8989458E3,4.837102E2,6.6735736E2,1.1078597E3,5.309365E2,1.0891117E3,4.4127356E2,6.0596704E2,2.971121E3,3.177954E2,0E0,4.942765E2,2.5330994E1,1.1030063E3,1.4115793E3,3.7475E2,9.497637E2,6.497641E2,0E0,6.381666E2,2.4014722E2,5.745211E2,0E0,4.4963998E2,3.269207E3,0E0,0E0,0E0,0E0,0E0,0E0,0E0,0E0,0E0,0E0,0E0,0E0,0E0,0E0,0E0,0E0,0E0,0E0,0E0,0E0,0E0,0E0,0E0,0E0,0E0,0E0],"parents":[2147483647,0,0,1,1,2,2,3,3,4,4,5,5,6,6,7,7,8,8,9,9,10,10,11,11,12,12,13,13,14,14,15,15,17,17,18,18,19,19,20,20,21,21,22,22,23,23,25,25,26,26,27,27,29,29,30,30],"right_children":[2,4,6,8,10,12,14,16,18,20,22,24,26,28,30,32,-1,34,36,38,40,42,44,46,-1,48,50,52,-1,54,56,-1,-1,-1,-1,-1,-1,-1,-1,-1,-1,-1,-1,-1,-1,-1,-1,-1,-1,-1,-1,-1,-1,-1,-1,-1,-1],"split_conditions":[6.554E1,4.728E0,5.5377436E-1,3.2526806E-1,2.2E4,6.565E1,4E0,1.279E1,1.2220712E1,8.26464E1,4.3375E3,-2.874237E-1,8.5839E1,4.175E3,6.542171E2,2.22E4,-4.523669E-3,1.0260389E1,1.35848675E1,-7.337423E0,1.8145E1,2.3E4,4.89E4,5.1498705E-1,1.0992644E-1,4.541E1,2.6756548E1,1E0,6.409816E-2,1.542328E1,6.04E0,5.3953785E-2,9.791778E-2,-1.1952561E-3,5.5238947E-2,-7.978118E-4,-7.9133175E-3,2.8423676E-2,-7.142313E-3,-4.3368577E-3,1.9786058E-2,-5.9720194E-3,5.171705E-3,1.0925651E-1,-7.778271E-3,-7.227209E-3,7.621137E-2,-6.7073237E-3,9.161394E-2,-7.396834E-3,2.822943E-3,3.8490836E-2,-6.020427E-3,1.123621E-2,-5.923414E-3,4.121607E-3,2.3366444E-2],"split_indices":[32,82,118,118,90,32,99,5,100,30,43,102,30,112,72,90,0,100,101,102,46,70,14,93,0,71,115,74,0,101,35,0,0,0,0,0,0,0,0,0,0,0,0,0,0,0,0,0,0,0,0,0,0,0,0,0,0],"split_type":[0,0,0,0,0,0,0,0,0,0,0,0,0,0,0,0,0,0,0,0,0,0,0,0,0,0,0,0,0,0,0,0,0,0,0,0,0,0,0,0,0,0,0,0,0,0,0,0,0,0,0,0,0,0,0,0,0],"sum_hessian":[2.01571E5,1.24939E5,7.6632E4,3.234E3,1.21705E5,2.1189E4,5.5443E4,8.13E2,2.421E3,2.787E4,9.3835E4,6.3E2,2.0559E4,1.0363E4,4.508E4,7.17E2,9.6E1,5.76E2,1.845E3,3.473E3,2.4397E4,9.3572E4,2.63E2,5.09E2,1.21E2,2.43E2,2.0316E4,1.0248E4,1.15E2,8.513E3,3.6567E4,5.04E2,2.13E2,2.37E2,3.39E2,7.8E2,1.065E3,2.276E3,1.197E3,2.1974E4,2.423E3,9.0773E4,2.799E3,1E2,1.63E2,4.04E2,1.05E2,1.42E2,1.01E2,1.7978E4,2.338E3,2.67E2,9.981E3,1.722E3,6.791E3,1.1667E4,2.49E4],"tree_param":{"num_deleted":"0","num_feature":"125","num_nodes":"57","size_leaf_vector":"1"}},{"base_weights":[-3.001578E-3,-1.1281918E-1,1.7957826E-1,1.7534684E-1,-1.5833646E-1,-1.0726253E-1,3.3595872E-1,3.7372403E-2,6.564094E-1,-5.0350238E-2,-2.0507441E-1,7.950502E-1,-1.4438449E-1,-4.695248E-2,4.7592303E-1,1.6176894E0,-7.0555927E-3,2.6977414E-1,1.6323615E0,-1.0989256E-1,3.3583146E-1,6.452379E-1,-2.1008733E-1,2.268423E0,-1.8922707E-1,-1.6892655E-1,9.344727E-1,7.6410405E-2,-6.908032E-2,7.978851E-1,8.130177E-2,-8.74372E-3,8.990675E-2,-1.0269658E-3,7.917649E-2,4.220172E-2,-1.5170119E-3,-6.720794E-3,5.874224E-2,4.326882E-3,-5.085961E-3,-3.8152097E-3,2.693848E-2,1.0427877E-1,-7.1753636E-3,-6.596973E-3,-4.439727E-5,1.0223994E-1,2.2658285E-2,-7.727733E-3,7.481703E-3,-5.384104E-3,6.7488626E-2,6.5188664E-3,1.2458353E-1,-3.9269486E-3,1.7676884E-2,3.6085928E-3,2.9271504E-2,1.0100924E-2,-5.9329537E-3],"categories":[],"categories_nodes":[],"categories_segments":[],"categories_sizes":[],"default_left":[0,0,0,0,0,0,0,0,0,0,0,0,0,0,0,0,0,0,0,0,0,0,0,0,0,0,0,0,0,0,0,0,0,0,0,0,0,0,0,0,0,0,0,0,0,0,0,0,0,0,0,0,0,0,0,0,0,0,0,0,0],"id":5,"left_children":[1,3,5,7,9,11,13,15,17,19,21,23,25,27,29,31,33,35,37,39,41,43,45,47,49,51,53,-1,55,57,59,-1,-1,-1,-1,-1,-1,-1,-1,-1,-1,-1,-1,-1,-1,-1,-1,-1,-1,-1,-1,-1,-1,-1,-1,-1,-1,-1,-1,-1,-1],"loss_changes":[4.042859E3,1.6514644E3,3.3969587E3,1.1399546E3,5.487615E2,8.9511755E2,2.6266592E3,9.3717865E2,1.4440074E3,7.55303E2,3.2360254E2,1.5318486E3,6.796998E2,7.532492E2,4.5599966E3,9.6195496E2,9.338565E2,9.991043E2,6.570886E2,4.313405E2,1.1421501E3,1.1149054E3,1.5441528E2,7.268235E2,1.9075136E1,6.4033075E2,1.3170225E3,0E0,5.29524E2,2.3815361E3,1.149478E3,0E0,0E0,0E0,0E0,0E0,0E0,0E0,0E0,0E0,0E0,0E0,0E0,0E0,0E0,0E0,0E0,0E0,0E0,0E0,0E0,0E0,0E0,0E0,0E0,0E0,0E0,0E0,0E0,0E0,0E0],"parents":[2147483647,0,0,1,1,2,2,3,3,4,4,5,5,6,6,7,7,8,8,9,9,10,10,11,11,12,12,13,13,14,14,15,15,16,16,17,17,18,18,19,19,20,20,21,21,22,22,23,23,24,24,25,25,26,26,28,28,29,29,30,30],"right_children":[2,4,6,8,10,12,14,16,18,20,22,24,26,28,30,32,34,36,38,40,42,44,46,48,50,52,54,-1,56,58,60,-1,-1,-1,-1,-1,-1,-1,-1,-1,-1,-1,-1,-1,-1,-1,-1,-1,-1,-1,-1,-1,-1,-1,-1,-1,-1,-1,-1,-1,-1],"split_conditions":[6.559E1,1.55E4,2.1501686E1,4E0,1.68E4,-1.7429593E-1,1.0595E1,1.6393442E0,4.301135E-1,2.7790697E0,1.8360011E3,2.3337973E1,9.194364E1,4.63E4,6.1714603E1,3.6518285E0,2.1194338E3,8.22892E1,2.5536037E1,1.071128E1,2.825E3,7.71E0,2.5954575E3,1.7E3,-2.0995073E0,4.2E3,6.2E0,7.6410405E-2,7.3782776E2,4.1741028E-1,7.598901E1,-8.74372E-3,8.990675E-2,-1.0269658E-3,7.917649E-2,4.220172E-2,-1.5170119E-3,-6.720794E-3,5.874224E-2,4.326882E-3,-5.085961E-3,-3.8152097E-3,2.693848E-2,1.0427877E-1,-7.1753636E-3,-6.596973E-3,-4.439727E-5,1.0223994E-1,2.2658285E-2,-7.727733E-3,7.481703E-3,-5.384104E-3,6.7488626E-2,6.5188664E-3,1.2458353E-1,-3.9269486E-3,1.7676884E-2,3.6085928E-3,2.9271504E-2,1.0100924E-2,-5.9329537E-3],"split_indices":[32,49,116,110,49,111,83,92,6,92,16,85,100,14,47,40,16,30,101,101,112,34,16,112,102,112,73,0,27,114,47,0,0,0,0,0,0,0,0,0,0,0,0,0,0,0,0,0,0,0,0,0,0,0,0,0,0,0,0,0,0],"split_type":[0,0,0,0,0,0,0,0,0,0,0,0,0,0,0,0,0,0,0,0,0,0,0,0,0,0,0,0,0,0,0,0,0,0,0,0,0,0,0,0,0,0,0,0,0,0,0,0,0,0,0,0,0,0,0,0,0,0,0,0,0],"sum_hessian":[2.01632E5,1.25904E5,7.5728E4,1.7174E4,1.0873E5,2.6719E4,4.9009E4,1.3347E4,3.827E3,3.2845E4,7.5885E4,1.055E3,2.5664E4,1.3119E4,3.589E4,3.64E2,1.2983E4,2.742E3,1.085E3,2.8458E4,4.387E3,4.44E2,7.5441E4,4.22E2,6.33E2,2.5094E4,5.7E2,1.1E2,1.3009E4,1.9764E4,1.6126E4,1.53E2,2.11E2,1.2852E4,1.31E2,6.02E2,2.14E3,1.62E2,9.23E2,5.409E3,2.3049E4,2.406E3,1.981E3,1.05E2,3.39E2,7.2052E4,3.389E3,2.4E2,1.82E2,5.48E2,8.5E1,2.4986E4,1.08E2,4.67E2,1.03E2,1.1893E4,1.116E3,4.109E3,1.5655E4,8.42E3,7.706E3],"tree_param":{"num_deleted":"0","num_feature":"125","num_nodes":"61","size_leaf_vector":"1"}},{"base_weights":[-2.785038E-3,-1.258385E-1,1.2495375E-1,5.178523E-1,-1.4599216E-1,4.8584992E-1,4.0158365E-2,1.5902354E0,5.1682238E-2,1.2171585E-1,-1.8360877E-1,1.1494478E0,2.028005E-2,-1.7297524E-1,1.716293E-1,1.00091994E-1,1.955277E0,1.4417883E0,-1.7064373E-1,9.621407E-1,2.381086E-3,-1.9698025E-1,8.427737E-2,1.7270478E0,2.0546162E-1,-1.2947178E-2,1.7297328E0,-1.8930534E-1,8.66613E-1,9.28601E-3,4.2644748E-1,-3.9038819E-3,1.8823238E-2,9.454624E-2,4.4667616E-2,-1.4768763E-3,6.094468E-2,3.888345E-3,-6.0191886E-3,4.865301E-2,4.3035294E-3,-2.7321153E-3,3.854907E-2,-6.686173E-3,-2.1955725E-3,3.053192E-2,-5.086414E-3,1.4935373E-2,6.285231E-2,-3.8854752E-3,3.1220322E-2,2.0121494E-2,-3.158767E-3,3.757679E-2,6.711073E-2,-6.95391E-3,2.4941969E-3,-5.5383025E-3,6.2290754E-2,2.2680745E-2,-2.1352442E-3,2.3518533E-2,-4.159192E-4],"categories":[],"categories_nodes":[],"categories_segments":[],"categories_sizes":[],"default_left":[0,0,0,0,0,0,0,0,0,0,0,0,0,0,0,0,0,0,0,0,0,0,0,0,0,0,0,0,0,0,0,0,0,0,0,0,0,0,0,0,0,0,0,0,0,0,0,0,0,0,0,0,0,0,0,0,0,0,0,0,0,0,0],"id":6,"left_children":[1,3,5,7,9,11,13,15,17,19,21,23,25,27,29,31,33,35,37,39,41,43,45,47,49,51,53,55,57,59,61,-1,-1,-1,-1,-1,-1,-1,-1,-1,-1,-1,-1,-1,-1,-1,-1,-1,-1,-1,-1,-1,-1,-1,-1,-1,-1,-1,-1,-1,-1,-1,-1],"loss_changes":[3.170336E3,1.3327632E3,3.0284482E3,1.5591462E3,1.0031416E3,5.8169087E3,2.2454824E3,5.138506E2,6.724443E2,1.2308802E3,3.1287158E2,4.2323926E3,6.285754E2,5.19189E2,2.0503193E3,2.2784775E1,4.1874292E2,2.638764E2,1.6922054E1,8.238522E2,1.2883712E3,2.6662695E2,9.841567E2,2.1776309E3,8.249217E2,6.85442E2,4.8273865E1,3.4848804E2,6.019033E2,1.8191334E3,3.036192E3,0E0,0E0,0E0,0E0,0E0,0E0,0E0,0E0,0E0,0E0,0E0,0E0,0E0,0E0,0E0,0E0,0E0,0E0,0E0,0E0,0E0,0E0,0E0,0E0,0E0,0E0,0E0,0E0,0E0,0E0,0E0,0E0],"parents":[2147483647,0,0,1,1,2,2,3,3,4,4,5,5,6,6,7,7,8,8,9,9,10,10,11,11,12,12,13,13,14,14,15,15,16,16,17,17,18,18,19,19,20,20,21,21,22,22,23,23,24,24,25,25,26,26,27,27,28,28,29,29,30,30],"right_children":[2,4,6,8,10,12,14,16,18,20,22,24,26,28,30,32,34,36,38,40,42,44,46,48,50,52,54,56,58,60,62,-1,-1,-1,-1,-1,-1,-1,-1,-1,-1,-1,-1,-1,-1,-1,-1,-1,-1,-1,-1,-1,-1,-1,-1,-1,-1,-1,-1,-1,-1,-1,-1],"split_conditions":[4.6414948E0,4.728E0,1.115E1,4.3072188E-1,1.56E4,7.8971095E0,6.425315E-1,7.762775E0,3.035688E1,8.23614E0,4.14E1,2.1833298E1,4.425E3,6.037556E1,3.15E1,1E0,3.4516468E0,2.03231E1,-1.5903592E-1,4.93E3,3.668E1,1.3341664E3,1.759575E2,8.615735E0,1.8725E2,8.80834E1,8.086723E0,1.22318E1,1.025684E1,2.1077085E1,3.0299213E1,-3.9038819E-3,1.8823238E-2,9.454624E-2,4.4667616E-2,-1.4768763E-3,6.094468E-2,3.888345E-3,-6.0191886E-3,4.865301E-2,4.3035294E-3,-2.7321153E-3,3.854907E-2,-6.686173E-3,-2.1955725E-3,3.053192E-2,-5.086414E-3,1.4935373E-2,6.285231E-2,-3.8854752E-3,3.1220322E-2,2.0121494E-2,-3.158767E-3,3.757679E-2,6.711073E-2,-6.95391E-3,2.4941969E-3,-5.5383025E-3,6.2290754E-2,2.2680745E-2,-2.1352442E-3,2.3518533E-2,-4.159192E-4],"split_indices":[123,82,23,118,49,39,118,26,106,122,71,48,112,12,22,75,123,48,114,15,45,44,18,9,18,30,26,121,122,85,48,0,0,0,0,0,0,0,0,0,0,0,0,0,0,0,0,0,0,0,0,0,0,0,0,0,0,0,0,0,0,0,0],"split_type":[0,0,0,0,0,0,0,0,0,0,0,0,0,0,0,0,0,0,0,0,0,0,0,0,0,0,0,0,0,0,0,0,0,0,0,0,0,0,0,0,0,0,0,0,0,0,0,0,0,0,0,0,0,0,0,0,0,0,0,0,0,0,0],"sum_hessian":[2.0169E5,1.02729E5,9.8961E4,3.118E3,9.9611E4,1.8827E4,8.0134E4,9.44E2,2.174E3,1.2272E4,8.7339E4,7.762E3,1.1065E4,3.0572E4,4.9562E4,1.86E2,7.58E2,2.99E2,1.875E3,1.525E3,1.0747E4,8.3187E4,4.152E3,4.815E3,2.947E3,1.0855E4,2.1E2,3.01E4,4.72E2,3.0275E4,1.9287E4,1.3E2,5.6E1,2.11E2,5.47E2,8.5E1,2.14E2,1.7E2,1.705E3,8.44E2,6.81E2,1.0018E4,7.29E2,6.8797E4,1.439E4,8.87E2,3.265E3,1.11E3,3.705E3,2.104E3,8.43E2,1.291E3,9.564E3,1.1E2,1E2,2.6039E4,4.061E3,2.53E2,2.19E2,2.944E3,2.7331E4,1.0644E4,8.643E3],"tree_param":{"num_deleted":"0","num_feature":"125","num_nodes":"63","size_leaf_vector":"1"}},{"base_weights":[6.1161006E-3,-9.822639E-2,1.7632942E-1,8.659056E-2,-1.5690382E-1,-1.6275325E-1,3.064121E-1,-6.989187E-4,7.2346646E-1,-1.007899E-1,-2.1820785E-1,9.178257E-1,-1.9593777E-1,1.4467832E-1,5.807144E-1,4.223942E-1,-1.771867E-1,-1.9450991E-1,1.0627391E0,-1.611633E-1,2.0487791E-1,1.6505225E-1,-2.246551E-1,2.356935E0,-2.499696E-1,-2.3078005E-1,3.8653398E-1,-2.1077934E-1,2.763025E-1,7.951468E-1,-1.473378E-1,6.048945E-3,3.166424E-2,-6.5284534E-3,8.371133E-3,1.5916524E-3,-7.8255115E-3,7.393315E-2,2.2742799E-2,1.7731393E-2,-5.4232473E-3,-4.565749E-3,2.007513E-2,-7.460847E-3,6.994759E-2,-5.669063E-4,-6.860487E-3,9.865707E-2,-7.449893E-3,-8.378566E-3,-3.900327E-3,-7.378074E-3,-5.894377E-3,-7.070702E-3,3.907828E-2,-8.580387E-3,5.0550466E-3,1.3500238E-2,-4.1167294E-3,2.9924676E-2,-4.9754E-3,-7.290537E-3,1.5602224E-2],"categories":[],"categories_nodes":[],"categories_segments":[],"categories_sizes":[],"default_left":[0,0,0,0,0,0,0,0,0,0,0,0,0,0,0,0,0,0,0,0,0,0,0,0,0,0,0,0,0,0,0,0,0,0,0,0,0,0,0,0,0,0,0,0,0,0,0,0,0,0,0,0,0,0,0,0,0,0,0,0,0,0,0],"id":7,"left_children":[1,3,5,7,9,11,13,15,17,19,21,23,25,27,29,31,33,35,37,39,41,43,45,47,49,51,53,55,57,59,61,-1,-1,-1,-1,-1,-1,-1,-1,-1,-1,-1,-1,-1,-1,-1,-1,-1,-1,-1,-1,-1,-1,-1,-1,-1,-1,-1,-1,-1,-1,-1,-1],"loss_changes":[3.5967634E3,1.3615616E3,3.394838E3,1.6820089E3,3.2779712E2,7.654E2,2.4676602E3,1.987064E3,1.1360441E3,9.1824054E2,1.12568115E2,1.0694412E3,4.2028967E2,1.6373162E3,3.2211445E3,1.0945319E3,3.4641022E2,1.6191067E1,1.1352913E3,6.1305444E2,1.3606986E3,6.7646344E2,3.711377E1,6.925554E2,1.2015705E0,1.0108154E1,6.6664185E2,2.6990033E2,1.834504E3,3.0993037E3,2.9993997E2,0E0,0E0,0E0,0E0,0E0,0E0,0E0,0E0,0E0,0E0,0E0,0E0,0E0,0E0,0E0,0E0,0E0,0E0,0E0,0E0,0E0,0E0,0E0,0E0,0E0,0E0,0E0,0E0,0E0,0E0,0E0,0E0],"parents":[2147483647,0,0,1,1,2,2,3,3,4,4,5,5,6,6,7,7,8,8,9,9,10,10,11,11,12,12,13,13,14,14,15,15,16,16,17,17,18,18,19,19,20,20,21,21,22,22,23,23,24,24,25,25,26,26,27,27,28,28,29,29,30,30],"right_children":[2,4,6,8,10,12,14,16,18,20,22,24,26,28,30,32,34,36,38,40,42,44,46,48,50,52,54,56,58,60,62,-1,-1,-1,-1,-1,-1,-1,-1,-1,-1,-1,-1,-1,-1,-1,-1,-1,-1,-1,-1,-1,-1,-1,-1,-1,-1,-1,-1,-1,-1,-1,-1],"split_conditions":[8.1925E0,2.2E4,5.5377436E-1,9.75E1,4.8247904E-1,8.20625E0,1.133843E3,1.1993421E1,6.471748E2,1.3341664E3,1.5E2,7.54775E1,1.028216E1,9.06872E0,1.4771171E3,-2.29E0,4.558154E1,4.92E4,9.772E1,3.4828968E0,2.7906976E0,6.7909344E2,1E0,1.8872164E1,5.5032887E0,1.1070682E3,1.3425349E3,7.3045316E0,7E0,1.3367505E0,3.7E3,6.048945E-3,3.166424E-2,-6.5284534E-3,8.371133E-3,1.5916524E-3,-7.8255115E-3,7.393315E-2,2.2742799E-2,1.7731393E-2,-5.4232473E-3,-4.565749E-3,2.007513E-2,-7.460847E-3,6.994759E-2,-5.669063E-4,-6.860487E-3,9.865707E-2,-7.449893E-3,-8.378566E-3,-3.900327E-3,-7.378074E-3,-5.894377E-3,-7.070702E-3,3.907828E-2,-8.580387E-3,5.0550466E-3,1.3500238E-2,-4.1167294E-3,2.9924676E-2,-4.9754E-3,-7.290537E-3,1.5602224E-2],"split_indices":[33,90,118,0,93,33,72,101,27,44,72,56,122,122,44,124,12,14,0,123,113,27,74,101,11,72,72,40,103,114,112,0,0,0,0,0,0,0,0,0,0,0,0,0,0,0,0,0,0,0,0,0,0,0,0,0,0,0,0,0,0,0,0],"split_type":[0,0,0,0,0,0,0,0,0,0,0,0,0,0,0,0,0,0,0,0,0,0,0,0,0,0,0,0,0,0,0,0,0,0,0,0,0,0,0,0,0,0,0,0,0,0,0,0,0,0,0,0,0,0,0,0,0,0,0,0,0,0,0],"sum_hessian":[2.02513E5,1.2555E5,7.6963E4,3.0255E4,9.5295E4,2.1339E4,5.5624E4,2.6609E4,3.646E3,4.9755E4,4.554E4,6.35E2,2.0704E4,3.4993E4,2.0631E4,7.832E3,1.8777E4,9.84E2,2.662E3,4.1549E4,8.206E3,7.53E2,4.4787E4,2.84E2,3.51E2,1.9536E4,1.168E3,9.456E3,2.5537E4,1.5937E4,4.694E3,5.808E3,2.024E3,1.7249E4,1.528E3,2.08E2,7.76E2,4.74E2,2.188E3,1.055E3,4.0494E4,4.639E3,3.567E3,6.33E2,1.2E2,8.6E2,4.3927E4,2.09E2,7.5E1,2.81E2,7E1,1.3545E4,5.991E3,6.96E2,4.72E2,7.891E3,1.565E3,1.7983E4,7.554E3,1.3165E4,2.772E3,4.106E3,5.88E2],"tree_param":{"num_deleted":"0","num_feature":"125","num_nodes":"63","size_leaf_vector":"1"}},{"base_weights":[5.917573E-3,-9.982433E-2,1.8025963E-1,9.7236045E-2,-1.6276616E-1,-1.5386127E-1,3.1078032E-1,1.3628351E-2,7.0794886E-1,5.030792E-1,-1.6867644E-1,3.133309E-1,-2.3637234E-1,-1.8290305E-1,4.3159288E-1,2.3826516E-1,-2.0010617E-1,2.0341134E0,4.7509158E-1,8.967136E-2,1.0860372E-1,-1.7507775E-1,2.3257907E-1,1.314548E0,-1.708272E-1,3.155663E-1,-2.4898969E-1,-2.0629339E-1,5.126543E-2,7.082586E-2,6.4140415E-1,1.689499E-2,-2.7504154E-3,-6.5892576E-3,1.6374826E-2,-1.0296657E-2,7.916258E-2,-4.771746E-3,3.0377448E-2,3.9183516E-2,-4.134937E-3,-6.3663465E-4,-5.7597947E-3,-1.7836536E-3,3.7553713E-2,-7.7795316E-3,4.8058927E-2,-7.359689E-3,1.9205911E-2,-7.135498E-3,5.1320966E-2,-4.212055E-3,-7.597236E-3,-6.690289E-3,2.5384896E-2,2.8185299E-2,-3.2243927E-4,1.1388865E-2,3.2332804E-2],"categories":[],"categories_nodes":[],"categories_segments":[],"categories_sizes":[],"default_left":[0,0,0,0,0,0,0,0,0,0,0,0,0,0,0,0,0,0,0,0,0,0,0,0,0,0,0,0,0,0,0,0,0,0,0,0,0,0,0,0,0,0,0,0,0,0,0,0,0,0,0,0,0,0,0,0,0,0,0],"id":8,"left_children":[1,3,5,7,9,11,13,15,17,19,21,23,25,27,29,31,33,35,37,-1,39,41,43,45,47,49,51,53,-1,55,57,-1,-1,-1,-1,-1,-1,-1,-1,-1,-1,-1,-1,-1,-1,-1,-1,-1,-1,-1,-1,-1,-1,-1,-1,-1,-1,-1,-1],"loss_changes":[3.7296187E3,1.5619684E3,3.330912E3,1.5566144E3,3.7569238E2,8.2717126E2,3.27592E3,1.2875547E3,1.1326643E3,8.234236E2,2.4304224E2,1.561596E3,1.27074036E2,4.7819424E2,3.3399834E3,1.4016882E3,2.0037335E2,7.886179E2,1.064974E3,0E0,2.1442929E2,2.4234766E2,4.4237424E2,4.7538745E2,1.313847E2,3.1541925E2,8.195557E0,1.8787204E2,0E0,1.1498861E3,3.1865303E3,0E0,0E0,0E0,0E0,0E0,0E0,0E0,0E0,0E0,0E0,0E0,0E0,0E0,0E0,0E0,0E0,0E0,0E0,0E0,0E0,0E0,0E0,0E0,0E0,0E0,0E0,0E0,0E0],"parents":[2147483647,0,0,1,1,2,2,3,3,4,4,5,5,6,6,7,7,8,8,9,9,10,10,11,11,12,12,13,13,14,14,15,15,16,16,17,17,18,18,20,20,21,21,22,22,23,23,24,24,25,25,26,26,27,27,29,29,30,30],"right_children":[2,4,6,8,10,12,14,16,18,20,22,24,26,28,30,32,34,36,38,-1,40,42,44,46,48,50,52,54,-1,56,58,-1,-1,-1,-1,-1,-1,-1,-1,-1,-1,-1,-1,-1,-1,-1,-1,-1,-1,-1,-1,-1,-1,-1,-1,-1,-1,-1,-1],"split_conditions":[8.19875E0,2.2E4,8.98616E0,9.75E0,4.591E0,8.481E0,4E0,5.8217444E0,9.772E0,6.087372E-1,1.7816846E3,8.92676E1,8.57322E1,4.175E3,1.0076E1,8.57322E0,7E0,4E0,7.617574E-1,8.967136E-2,1.0992929E1,4.9E4,7.766565E-1,2.02E4,5.6963954E0,8.56768E1,9.77E0,2.62E4,5.126543E-2,-1.7429593E-1,1.133843E3,1.689499E-2,-2.7504154E-3,-6.5892576E-3,1.6374826E-2,-1.0296657E-2,7.916258E-2,-4.771746E-3,3.0377448E-2,3.9183516E-2,-4.134937E-3,-6.3663465E-4,-5.7597947E-3,-1.7836536E-3,3.7553713E-2,-7.7795316E-3,4.8058927E-2,-7.359689E-3,1.9205911E-2,-7.135498E-3,5.1320966E-2,-4.212055E-3,-7.597236E-3,-6.690289E-3,2.5384896E-2,2.8185299E-2,-3.2243927E-4,1.1388865E-2,3.2332804E-2],"split_indices":[33,90,122,1,82,82,99,117,1,36,72,30,30,112,83,122,81,97,118,0,100,14,53,70,123,30,34,90,0,111,72,0,0,0,0,0,0,0,0,0,0,0,0,0,0,0,0,0,0,0,0,0,0,0,0,0,0,0,0],"split_type":[0,0,0,0,0,0,0,0,0,0,0,0,0,0,0,0,0,0,0,0,0,0,0,0,0,0,0,0,0,0,0,0,0,0,0,0,0,0,0,0,0,0,0,0,0,0,0,0,0,0,0,0,0,0,0,0,0,0,0],"sum_hessian":[2.02307E5,1.25929E5,7.6378E4,3.0485E4,9.5444E4,2.1455E4,5.4923E4,2.6815E4,3.67E3,8.39E2,9.4605E4,3.22E3,1.8235E4,1.0798E4,4.4125E4,1.3074E4,1.3741E4,5.47E2,3.123E3,1.14E2,7.25E2,9.312E4,1.485E3,1.049E3,2.171E3,4.07E2,1.7828E4,1.0667E4,1.31E2,1.6226E4,2.7899E4,6.587E3,6.487E3,1.3391E4,3.5E2,1.11E2,4.36E2,1.433E3,1.69E3,1.23E2,6.02E2,9.224E3,8.3896E4,1.155E3,3.3E2,1.62E2,8.87E2,1.989E3,1.82E2,2.92E2,1.15E2,6.73E2,1.7155E4,1.0501E4,1.66E2,1.392E3,1.4834E4,1.7439E4,1.046E4],"tree_param":{"num_deleted":"0","num_feature":"125","num_nodes":"59","size_leaf_vector":"1"}},{"base_weights":[-3.8669938E-3,-8.728029E-2,1.4960052E-1,7.424386E-2,-1.6084193E-1,-1.8282159E-1,2.7494842E-1,6.196239E-3,7.2556525E-1,6.223233E-1,-1.686768E-1,3.5229373E-1,-2.2483653E-1,-1.7675416E-1,3.9150122E-1,3.038481E-1,-1.015128E-1,1.3354297E0,-6.1913975E-2,1.6074524E0,-1.7062937E-1,-1.793779E-1,7.8259096E-2,1.4579315E0,-2.4287835E-1,3.5081592E-1,-2.3677519E-1,-2.3181243E-1,4.8531365E-1,1.2945749E-1,6.3082904E-1,3.3204576E-3,2.3683442E-2,-3.874811E-3,3.585252E-2,4.9607616E-2,-7.7183647E-3,-5.014933E-3,3.0832138E-2,9.761068E-2,3.0589273E-2,-7.736794E-3,2.3483692E-3,-4.246162E-3,-6.8890937E-3,-2.7542603E-3,3.761997E-2,3.296908E-2,8.50121E-2,-8.9812215E-4,-7.690565E-3,-7.650072E-3,4.894069E-2,-5.5557624E-3,-7.516017E-3,-4.816632E-3,-7.2943694E-3,-3.7661185E-3,4.324467E-2,2.0256178E-2,1.2471282E-3,4.9344223E-2,1.2157962E-2],"categories":[],"categories_nodes":[],"categories_segments":[],"categories_sizes":[],"default_left":[0,0,0,0,0,0,0,0,0,0,0,0,0,0,0,0,0,0,0,0,0,0,0,0,0,0,0,0,0,0,0,0,0,0,0,0,0,0,0,0,0,0,0,0,0,0,0,0,0,0,0,0,0,0,0,0,0,0,0,0,0,0,0],"id":9,"left_children":[1,3,5,7,9,11,13,15,17,19,21,23,25,27,29,31,33,35,37,39,41,43,45,47,49,51,53,55,57,59,61,-1,-1,-1,-1,-1,-1,-1,-1,-1,-1,-1,-1,-1,-1,-1,-1,-1,-1,-1,-1,-1,-1,-1,-1,-1,-1,-1,-1,-1,-1,-1,-1],"loss_changes":[2.5833528E3,1.5534978E3,2.9610908E3,1.813251E3,5.513135E2,4.375728E2,2.7168755E3,1.1876217E3,1.858672E3,6.9550726E2,2.3504492E2,9.3280347E2,1.2408386E2,3.859601E2,2.5724614E3,9.232008E2,9.7524927E2,1.1056089E3,1.9399176E2,3.8084924E2,1.0750207E1,1.6208911E2,7.3895056E2,2.4184143E2,2.6376686E0,2.8512537E2,1.2499268E1,7.8535156E0,4.750385E2,9.392019E2,4.90279E3,0E0,0E0,0E0,0E0,0E0,0E0,0E0,0E0,0E0,0E0,0E0,0E0,0E0,0E0,0E0,0E0,0E0,0E0,0E0,0E0,0E0,0E0,0E0,0E0,0E0,0E0,0E0,0E0,0E0,0E0,0E0,0E0],"parents":[2147483647,0,0,1,1,2,2,3,3,4,4,5,5,6,6,7,7,8,8,9,9,10,10,11,11,12,12,13,13,14,14,15,15,16,16,17,17,18,18,19,19,20,20,21,21,22,22,23,23,24,24,25,25,26,26,27,27,28,28,29,29,30,30],"right_children":[2,4,6,8,10,12,14,16,18,20,22,24,26,28,30,32,34,36,38,40,42,44,46,48,50,52,54,56,58,60,62,-1,-1,-1,-1,-1,-1,-1,-1,-1,-1,-1,-1,-1,-1,-1,-1,-1,-1,-1,-1,-1,-1,-1,-1,-1,-1,-1,-1,-1,-1,-1,-1],"split_conditions":[6.598E1,1.64E4,8.98616E0,3.608E1,4.591E0,4.862897E0,5.5377436E-1,1.1993421E1,4.6427274E0,4.3072188E-1,1.94E4,8.8422E0,-3.4073263E-2,1.4795824E2,1.255E1,-2.65E0,2.1194338E3,-1.7E-1,2.38E4,8.5784E0,8.89E1,3.7074345E1,5.18014E1,2.28E4,8.904E0,8.796324E0,-4.15E0,2E0,1.028216E1,2.6105122E1,1.279E1,3.3204576E-3,2.3683442E-2,-3.874811E-3,3.585252E-2,4.9607616E-2,-7.7183647E-3,-5.014933E-3,3.0832138E-2,9.761068E-2,3.0589273E-2,-7.736794E-3,2.3483692E-3,-4.246162E-3,-6.8890937E-3,-2.7542603E-3,3.761997E-2,3.296908E-2,8.50121E-2,-8.9812215E-4,-7.690565E-3,-7.650072E-3,4.894069E-2,-5.5557624E-3,-7.516017E-3,-4.816632E-3,-7.2943694E-3,-3.7661185E-3,4.324467E-2,2.0256178E-2,1.2471282E-3,4.9344223E-2,1.2157962E-2],"split_indices":[32,49,122,45,82,123,118,101,2,118,49,31,111,88,5,124,16,124,70,121,56,12,28,70,31,40,124,74,122,12,5,0,0,0,0,0,0,0,0,0,0,0,0,0,0,0,0,0,0,0,0,0,0,0,0,0,0,0,0,0,0,0,0],"split_type":[0,0,0,0,0,0,0,0,0,0,0,0,0,0,0,0,0,0,0,0,0,0,0,0,0,0,0,0,0,0,0,0,0,0,0,0,0,0,0,0,0,0,0,0,0,0,0,0,0,0,0,0,0,0,0,0,0,0,0,0,0,0,0],"sum_hessian":[2.01803E5,1.30742E5,7.1061E4,4.0911E4,8.9831E4,1.9458E4,5.1603E4,3.7042E4,3.869E3,8.89E2,8.8942E4,1.416E3,1.8042E4,1.0584E4,4.1019E4,9.842E3,2.72E4,2.18E3,1.689E3,3.96E2,4.93E2,8.5248E4,3.694E3,4.95E2,9.21E2,3.66E2,1.7676E4,9.772E3,8.12E2,1.9581E4,2.1438E4,7.042E3,2.8E3,2.6633E4,5.67E2,1.817E3,3.63E2,1.541E3,1.48E2,1.03E2,2.93E2,3.65E2,1.28E2,4.8635E4,3.6613E4,3.228E3,4.66E2,3.94E2,1.01E2,5.5E1,8.66E2,2.49E2,1.17E2,3.725E3,1.3951E4,1.343E3,8.429E3,4.96E2,3.16E2,2.715E3,1.6866E4,3.9E3,1.7538E4],"tree_param":{"num_deleted":"0","num_feature":"125","num_nodes":"63","size_leaf_vector":"1"}},{"base_weights":[6.0579097E-3,-9.553085E-2,1.711725E-1,5.440038E-1,-1.1205745E-1,-1.5252733E-1,2.9466304E-1,1.7415096E0,4.6631746E-2,1.1661882E-1,-1.4989474E-1,8.719686E-1,-1.8404138E-1,2.463084E-1,1.196754E0,-1.1302364E-2,1.8964016E0,1.2459327E0,-1.6199423E-1,4.1458484E-2,1.0883013E0,-2.1223688E-1,-1.1068751E-1,2.7240863E-1,1.0423472E-1,-2.0777665E-1,2.5835758E-1,5.5684143E-1,7.4962586E-2,4.291424E-1,2.4405403E0,9.68795E-2,5.147185E-2,1.0779157E-3,5.856233E-2,-1.6381888E-3,-7.0052105E-3,2.0377815E-2,-2.5726086E-3,4.587135E-2,-5.595545E-3,-6.529098E-3,1.098079E-2,-3.8508314E-3,7.2243833E-3,-7.685809E-3,6.706115E-2,-6.5679904E-3,8.070919E-3,-7.402324E-3,4.279757E-2,2.5056796E-2,-1.1998946E-3,-1.3397222E-3,2.2221282E-2,2.3230655E-2,-5.8439095E-3,8.6783364E-2,-1.8009618E-3],"categories":[],"categories_nodes":[],"categories_segments":[],"categories_sizes":[],"default_left":[0,0,0,0,0,0,0,0,0,0,0,0,0,0,0,0,0,0,0,0,0,0,0,0,0,0,0,0,0,0,0,0,0,0,0,0,0,0,0,0,0,0,0,0,0,0,0,0,0,0,0,0,0,0,0,0,0,0,0],"id":10,"left_children":[1,3,5,7,9,11,13,15,17,19,21,23,25,27,29,-1,31,33,35,37,39,41,43,45,-1,47,49,51,53,55,57,-1,-1,-1,-1,-1,-1,-1,-1,-1,-1,-1,-1,-1,-1,-1,-1,-1,-1,-1,-1,-1,-1,-1,-1,-1,-1,-1,-1],"loss_changes":[3.3975134E3,1.3254233E3,3.0841091E3,1.8814379E3,1.0576893E3,6.880464E2,2.4357676E3,3.0486426E2,5.589103E2,1.2674249E3,2.5634302E2,9.9144763E2,2.1710858E2,2.8203833E3,2.7113828E3,0E0,2.0252979E2,2.8274854E2,1.4601555E1,1.3071615E3,7.0037366E2,1.2652014E2,4.0005035E2,5.380633E2,0E0,1.0442096E2,6.216999E2,3.131643E3,2.7204204E3,3.7880966E2,1.226021E3,0E0,0E0,0E0,0E0,0E0,0E0,0E0,0E0,0E0,0E0,0E0,0E0,0E0,0E0,0E0,0E0,0E0,0E0,0E0,0E0,0E0,0E0,0E0,0E0,0E0,0E0,0E0,0E0],"parents":[2147483647,0,0,1,1,2,2,3,3,4,4,5,5,6,6,7,7,8,8,9,9,10,10,11,11,12,12,13,13,14,14,16,16,17,17,18,18,19,19,20,20,21,21,22,22,23,23,25,25,26,26,27,27,28,28,29,29,30,30],"right_children":[2,4,6,8,10,12,14,16,18,20,22,24,26,28,30,-1,32,34,36,38,40,42,44,46,-1,48,50,52,54,56,58,-1,-1,-1,-1,-1,-1,-1,-1,-1,-1,-1,-1,-1,-1,-1,-1,-1,-1,-1,-1,-1,-1,-1,-1,-1,-1,-1,-1],"split_conditions":[6.554E1,4.728E0,5.5377436E-1,3.2526806E-1,1.56E4,6.565E1,6.2E0,7.0520186E0,3.035688E1,3.668E1,4.200397E0,8.796324E0,1.028216E1,3.416879E1,1.7464603E1,-1.1302364E-2,7.059152E0,4.06462E1,5.740722E1,8.26222E0,2.3894737E0,6.172E1,1.92E4,5.1498705E-1,1.0423472E-1,1.999047E1,1.4795824E2,1.807546E0,2.8185488E1,1.213E1,8.1763947E-1,9.68795E-2,5.147185E-2,1.0779157E-3,5.856233E-2,-1.6381888E-3,-7.0052105E-3,2.0377815E-2,-2.5726086E-3,4.587135E-2,-5.595545E-3,-6.529098E-3,1.098079E-2,-3.8508314E-3,7.2243833E-3,-7.685809E-3,6.706115E-2,-6.5679904E-3,8.070919E-3,-7.402324E-3,4.279757E-2,2.5056796E-2,-1.1998946E-3,-1.3397222E-3,2.2221282E-2,2.3230655E-2,-5.8439095E-3,8.6783364E-2,-1.8009618E-3],"split_indices":[32,82,118,118,49,32,73,55,106,45,123,40,122,85,9,0,55,47,106,122,113,32,49,93,0,9,88,24,115,5,54,0,0,0,0,0,0,0,0,0,0,0,0,0,0,0,0,0,0,0,0,0,0,0,0,0,0,0,0],"split_type":[0,0,0,0,0,0,0,0,0,0,0,0,0,0,0,0,0,0,0,0,0,0,0,0,0,0,0,0,0,0,0,0,0,0,0,0,0,0,0,0,0,0,0,0,0,0,0,0,0,0,0,0,0,0,0,0,0,0,0],"sum_hessian":[2.02547E5,1.25396E5,7.7151E4,3.158E3,1.22238E5,2.1305E4,5.5846E4,9.26E2,2.232E3,1.7354E4,1.04884E5,6.35E2,2.067E4,5.3006E4,2.84E3,6.3E1,8.63E2,3.3E2,1.902E3,1.6109E4,1.245E3,4.0493E4,6.4391E4,5.17E2,1.18E2,1.9618E4,1.052E3,1.8847E4,3.4159E4,1.757E3,1.083E3,1.01E2,7.62E2,1.22E2,2.08E2,7.61E2,1.141E3,2.678E3,1.3431E4,9.25E2,3.2E2,4.0119E4,3.74E2,6.1309E4,3.082E3,4.08E2,1.09E2,1.917E4,4.48E2,7.35E2,3.17E2,1.2852E4,5.995E3,2.8957E4,5.202E3,1.131E3,6.26E2,9.17E2,1.66E2],"tree_param":{"num_deleted":"0","num_feature":"125","num_nodes":"59","size_leaf_vector":"1"}},{"base_weights":[4.0974675E-4,-9.102933E-2,1.4953858E-1,1.8560989E-1,-1.3975489E-1,-1.4896089E-1,2.702805E-1,1.0242634E-1,1.2508463E0,3.9312452E-1,-1.4721403E-1,2.1053011E0,-1.6617553E-1,-1.4499411E-1,3.7474766E-1,3.0822837E-1,-2.3601364E-1,2.2477021E0,6.1236095E-1,3.08767E-2,1.8334448E0,-1.748165E-1,-4.113861E-2,1.0530094E-1,-8.74892E-3,6.141879E-1,-1.944817E-1,5.154062E-2,-1.6723698E-1,-5.435026E-3,5.307287E-1,1.3449395E-2,-7.377402E-3,-7.715043E-3,-5.1468904E-3,-1.7778702E-3,8.656762E-2,-8.904562E-4,3.2879625E-2,-3.1331186E-3,4.2439543E-2,7.576056E-2,8.2205294E-4,-5.4827607E-3,1.0086542E-2,8.016982E-3,-3.5373E-3,3.565562E-3,1.0303245E-1,-6.2218243E-3,3.3331357E-2,-5.5932146E-3,3.738466E-2,-3.1284501E-3,2.2526797E-2,3.8880894E-3,2.1278739E-2],"categories":[],"categories_nodes":[],"categories_segments":[],"categories_sizes":[],"default_left":[0,0,0,0,0,0,0,0,0,0,0,0,0,0,0,0,0,0,0,0,0,0,0,0,0,0,0,0,0,0,0,0,0,0,0,0,0,0,0,0,0,0,0,0,0,0,0,0,0,0,0,0,0,0,0,0,0],"id":11,"left_children":[1,3,5,7,9,11,13,15,17,19,21,23,25,27,29,31,33,35,37,39,41,43,45,-1,-1,47,49,-1,51,53,55,-1,-1,-1,-1,-1,-1,-1,-1,-1,-1,-1,-1,-1,-1,-1,-1,-1,-1,-1,-1,-1,-1,-1,-1,-1,-1],"loss_changes":[2.7600903E3,1.6913401E3,2.7728855E3,1.6649451E3,4.241079E2,8.6022E2,2.3764639E3,1.2141703E3,8.648701E2,7.684854E2,3.080476E2,5.666867E2,4.8588098E2,4.565699E2,2.595502E3,8.415853E2,8.9435425E0,7.8157886E2,2.5806552E2,2.2072128E2,3.698166E2,3.3891284E2,5.14375E2,0E0,0E0,1.0752507E3,3.5798132E2,0E0,2.955926E2,9.5207874E2,2.2228242E3,0E0,0E0,0E0,0E0,0E0,0E0,0E0,0E0,0E0,0E0,0E0,0E0,0E0,0E0,0E0,0E0,0E0,0E0,0E0,0E0,0E0,0E0,0E0,0E0,0E0,0E0],"parents":[2147483647,0,0,1,1,2,2,3,3,4,4,5,5,6,6,7,7,8,8,9,9,10,10,11,11,12,12,13,13,14,14,15,15,16,16,17,17,18,18,19,19,20,20,21,21,22,22,25,25,26,26,28,28,29,29,30,30],"right_children":[2,4,6,8,10,12,14,16,18,20,22,24,26,28,30,32,34,36,38,40,42,44,46,-1,-1,48,50,-1,52,54,56,-1,-1,-1,-1,-1,-1,-1,-1,-1,-1,-1,-1,-1,-1,-1,-1,-1,-1,-1,-1,-1,-1,-1,-1,-1,-1],"split_conditions":[6.554E1,1.56E4,4E0,3.668E1,4.591E0,-4.962258E-1,4E0,8.8097E0,1.6395121E3,7E0,6.357E1,1.3682104E3,4.7673917E0,2E0,3.6E1,5.2452957E1,1.2871807E1,1.8557603E0,1.2027703E1,2.073991E0,1.7E3,5.18014E1,1.9091444E1,1.0530094E-1,-8.74892E-3,6.68E1,7.5942707E0,5.154062E-2,7E0,1.5806E1,1.0096E1,1.3449395E-2,-7.377402E-3,-7.715043E-3,-5.1468904E-3,-1.7778702E-3,8.656762E-2,-8.904562E-4,3.2879625E-2,-3.1331186E-3,4.2439543E-2,7.576056E-2,8.2205294E-4,-5.4827607E-3,1.0086542E-2,8.016982E-3,-3.5373E-3,3.565562E-3,1.0303245E-1,-6.2218243E-3,3.3331357E-2,-5.5932146E-3,3.738466E-2,-3.1284501E-3,2.2526797E-2,3.8880894E-3,2.1278739E-2],"split_indices":[32,49,103,45,82,114,99,122,16,79,32,16,123,73,71,100,84,24,84,24,112,28,48,0,0,32,55,0,73,83,83,0,0,0,0,0,0,0,0,0,0,0,0,0,0,0,0,0,0,0,0,0,0,0,0,0,0],"split_type":[0,0,0,0,0,0,0,0,0,0,0,0,0,0,0,0,0,0,0,0,0,0,0,0,0,0,0,0,0,0,0,0,0,0,0,0,0,0,0,0,0,0,0,0,0,0,0,0,0,0,0,0,0,0,0,0,0],"sum_hessian":[2.02407E5,1.25473E5,7.6934E4,1.879E4,1.06683E5,2.2157E4,5.4777E4,1.743E4,1.36E3,1.472E3,1.05211E5,1.67E2,2.199E4,1.101E4,4.3767E4,1.0839E4,6.591E3,5.3E2,8.3E2,1.177E3,2.95E2,8.3486E4,2.1725E4,1.05E2,6.2E1,7.69E2,2.1221E4,1.29E2,1.0881E4,1.2733E4,3.1034E4,8.652E3,2.187E3,4.96E3,1.631E3,1.15E2,4.15E2,3.57E2,4.73E2,1.073E3,1.04E2,2.13E2,8.2E1,8.2209E4,1.277E3,4.33E3,1.7395E4,6.55E2,1.14E2,2.1014E4,2.07E2,1.0736E4,1.45E2,1.1262E4,1.471E3,9.56E3,2.1474E4],"tree_param":{"num_deleted":"0","num_feature":"125","num_nodes":"57","size_leaf_vector":"1"}},{"base_weights":[-1.3966039E-3,-6.127775E-2,1.9742914E-1,-1.6161735E-1,3.843587E-3,1.2757461E-2,6.48147E-1,2.2380412E-1,-1.811781E-1,1.1795926E0,-1.196079E-2,2.821423E-1,-1.6242695E-1,1.1538552E0,-1.6806161E-1,-1.335358E-1,1.2424898E0,-8.551764E-2,-2.0502675E-1,1.7708478E0,6.2481217E-2,-8.876692E-2,1.598663E-1,5.708507E-1,-1.8127146E-1,6.7698285E-3,-2.0232512E-1,1.2924628E0,-2.4231169E-1,7.8531265E-2,-2.5774643E-1,1.540666E-2,-6.755557E-3,-7.9637696E-4,6.3749716E-2,-3.8113988E-3,1.7279629E-2,-6.4014643E-3,4.528237E-3,2.2372242E-2,7.6076806E-2,-6.673962E-3,6.50575E-3,5.0552688E-3,-4.089599E-3,2.3648236E-2,2.6655109E-3,4.4737477E-2,9.069474E-3,-6.4170244E-3,3.0910628E-2,3.5019275E-2,-4.635125E-3,-6.4336904E-3,7.500721E-3,1.3847914E-2,4.458409E-2,2.3770719E-3,-8.159794E-3,-5.3311E-3,2.0366771E-2,-8.696878E-3,-5.4459707E-3],"categories":[],"categories_nodes":[],"categories_segments":[],"categories_sizes":[],"default_left":[0,0,0,0,0,0,0,0,0,0,0,0,0,0,0,0,0,0,0,0,0,0,0,0,0,0,0,0,0,0,0,0,0,0,0,0,0,0,0,0,0,0,0,0,0,0,0,0,0,0,0,0,0,0,0,0,0,0,0,0,0,0,0],"id":12,"left_children":[1,3,5,7,9,11,13,15,17,19,21,23,25,27,29,31,33,35,37,39,41,43,45,47,49,51,53,55,57,59,61,-1,-1,-1,-1,-1,-1,-1,-1,-1,-1,-1,-1,-1,-1,-1,-1,-1,-1,-1,-1,-1,-1,-1,-1,-1,-1,-1,-1,-1,-1,-1,-1],"loss_changes":[2.4093882E3,1.01625934E3,3.8987942E3,4.615254E2,1.7526107E3,1.5681425E3,5.619554E3,1.0765643E3,1.3288611E2,8.2617224E2,1.2282542E3,1.7519684E3,1.3592554E2,1.6270371E3,1.1522063E2,1.2999477E2,8.601588E2,3.1948596E2,1.3872205E2,6.396282E2,1.9139574E1,7.8690564E2,1.282956E3,1.9936289E3,1.9896068E2,7.194547E2,8.946234E1,1.2298447E3,7.2749786E0,2.1394891E2,9.3072815E0,0E0,0E0,0E0,0E0,0E0,0E0,0E0,0E0,0E0,0E0,0E0,0E0,0E0,0E0,0E0,0E0,0E0,0E0,0E0,0E0,0E0,0E0,0E0,0E0,0E0,0E0,0E0,0E0,0E0,0E0,0E0,0E0],"parents":[2147483647,0,0,1,1,2,2,3,3,4,4,5,5,6,6,7,7,8,8,9,9,10,10,11,11,12,12,13,13,14,14,15,15,16,16,17,17,18,18,19,19,20,20,21,21,22,22,23,23,24,24,25,25,26,26,27,27,28,28,29,29,30,30],"right_children":[2,4,6,8,10,12,14,16,18,20,22,24,26,28,30,32,34,36,38,40,42,44,46,48,50,52,54,56,58,60,62,-1,-1,-1,-1,-1,-1,-1,-1,-1,-1,-1,-1,-1,-1,-1,-1,-1,-1,-1,-1,-1,-1,-1,-1,-1,-1,-1,-1,-1,-1,-1,-1],"split_conditions":[1.21918E3,5.898098E-1,4.39E1,4.08578E1,5.9124845E-1,4.6881145E1,4.929E1,4.3454556E1,6.96522E-1,5.923659E0,3.757969E0,7.822604E-1,6.169183E0,1.4882876E3,5E0,7E0,6E0,2.0201695E0,1.94E4,1.0146E1,6.264461E0,2.13E4,7.4E3,1.2658989E3,1.0581582E1,4.735E1,1.999047E1,6.3850145E0,6.3137507E0,1.4298344E2,3.4106E2,1.540666E-2,-6.755557E-3,-7.9637696E-4,6.3749716E-2,-3.8113988E-3,1.7279629E-2,-6.4014643E-3,4.528237E-3,2.2372242E-2,7.6076806E-2,-6.673962E-3,6.50575E-3,5.0552688E-3,-4.089599E-3,2.3648236E-2,2.6655109E-3,4.4737477E-2,9.069474E-3,-6.4170244E-3,3.0910628E-2,3.5019275E-2,-4.635125E-3,-6.4336904E-3,7.500721E-3,1.3847914E-2,4.458409E-2,2.3770719E-3,-8.159794E-3,-5.3311E-3,2.0366771E-2,-8.696878E-3,-5.4459707E-3],"split_indices":[72,118,71,28,118,47,71,10,40,39,40,111,55,44,95,99,79,24,49,1,117,90,91,72,11,86,9,55,89,88,20,0,0,0,0,0,0,0,0,0,0,0,0,0,0,0,0,0,0,0,0,0,0,0,0,0,0,0,0,0,0,0,0],"split_type":[0,0,0,0,0,0,0,0,0,0,0,0,0,0,0,0,0,0,0,0,0,0,0,0,0,0,0,0,0,0,0,0,0,0,0,0,0,0,0,0,0,0,0,0,0,0,0,0,0,0,0,0,0,0,0,0,0,0,0,0,0,0,0],"sum_hessian":[2.02367E5,1.55527E5,4.684E4,6.1211E4,9.4316E4,3.3227E4,1.3613E4,2.956E3,5.8255E4,1.25E3,9.3066E4,1.3093E4,2.0134E4,8.405E3,5.208E3,2.189E3,7.67E2,1.1626E4,4.6629E4,8.17E2,4.33E2,6.4317E4,2.8749E4,8.067E3,5.026E3,3.842E3,1.6292E4,7.646E3,7.59E2,1.389E3,3.819E3,2.71E2,1.918E3,3.15E2,4.52E2,1.094E4,6.86E2,4.556E4,1.069E3,3.5E2,4.67E2,1.52E2,2.81E2,1.0033E4,5.4284E4,2.918E3,2.5831E4,1.821E3,6.246E3,4.895E3,1.31E2,4.68E2,3.374E3,1.5867E4,4.25E2,1.446E3,6.2E3,6.4E1,6.95E2,9.74E2,4.15E2,2.684E3,1.135E3],"tree_param":{"num_deleted":"0","num_feature":"125","num_nodes":"63","size_leaf_vector":"1"}},{"base_weights":[3.9138496E-3,-9.107562E-2,1.5857317E-1,1.6420051E-1,-1.24043E-1,9.466382E-3,4.1651562E-1,9.111134E-2,1.2137793E0,4.9384758E-1,-1.3773794E-1,-2.135433E-1,1.344938E-1,1.2344977E0,2.5331256E-1,6.631694E-2,8.358742E-2,3.4035435E-1,2.1729934E0,1.5522221E0,1.2993234E-2,-1.638177E-1,-2.5734048E-2,-2.2847457E-1,1.3377275E0,1.0691072E0,8.460033E-2,2.4349397E-1,1.8314577E0,1.4873749E-1,1.7075751E0,8.000755E-3,-5.467778E-3,6.650359E-4,4.5976985E-2,5.1422283E-2,1.11435704E-1,9.973962E-4,5.8319878E-2,4.0080447E-2,-3.7410443E-3,-5.2345013E-3,3.406804E-3,5.436897E-3,-6.2355935E-3,-6.4954506E-3,-8.698794E-3,7.158696E-2,-7.884596E-3,1.8297354E-2,1.2556392E-1,1.1206194E-1,2.1187465E-3,1.9090667E-2,-8.476648E-3,1.037834E-1,3.6648933E-2,-1.6915534E-3,1.5124565E-2,-2.6437226E-3,6.7479774E-2],"categories":[],"categories_nodes":[],"categories_segments":[],"categories_sizes":[],"default_left":[0,0,0,0,0,0,0,0,0,0,0,0,0,0,0,0,0,0,0,0,0,0,0,0,0,0,0,0,0,0,0,0,0,0,0,0,0,0,0,0,0,0,0,0,0,0,0,0,0,0,0,0,0,0,0,0,0,0,0,0,0],"id":13,"left_children":[1,3,5,7,9,11,13,15,17,19,21,23,25,27,29,31,-1,33,35,37,39,41,43,45,47,49,51,53,55,57,59,-1,-1,-1,-1,-1,-1,-1,-1,-1,-1,-1,-1,-1,-1,-1,-1,-1,-1,-1,-1,-1,-1,-1,-1,-1,-1,-1,-1,-1,-1],"loss_changes":[2.9683767E3,1.0534579E3,2.956875E3,1.0981873E3,9.381459E2,1.3584276E3,3.7592354E3,8.943251E2,7.800913E2,1.2234329E3,3.167964E2,4.0569495E2,1.4556394E3,2.7705596E3,3.5704229E3,6.607574E2,0E0,1.8546606E2,3.0773413E2,4.468518E2,3.014809E2,2.602754E2,7.721599E2,1.2684998E1,2.8088342E2,2.261315E3,1.51186E3,3.643225E2,2.8977012E3,1.5969814E3,1.5323916E3,0E0,0E0,0E0,0E0,0E0,0E0,0E0,0E0,0E0,0E0,0E0,0E0,0E0,0E0,0E0,0E0,0E0,0E0,0E0,0E0,0E0,0E0,0E0,0E0,0E0,0E0,0E0,0E0,0E0,0E0],"parents":[2147483647,0,0,1,1,2,2,3,3,4,4,5,5,6,6,7,7,8,8,9,9,10,10,11,11,12,12,13,13,14,14,15,15,17,17,18,18,19,19,20,20,21,21,22,22,23,23,24,24,25,25,26,26,27,27,28,28,29,29,30,30],"right_children":[2,4,6,8,10,12,14,16,18,20,22,24,26,28,30,32,-1,34,36,38,40,42,44,46,48,50,52,54,56,58,60,-1,-1,-1,-1,-1,-1,-1,-1,-1,-1,-1,-1,-1,-1,-1,-1,-1,-1,-1,-1,-1,-1,-1,-1,-1,-1,-1,-1,-1,-1],"split_conditions":[6.554E1,1.54E4,1.1113055E3,1.834E1,4.728E0,5.898098E-1,7.63675E1,2.1194338E3,9.19132E0,4.3072188E-1,1.3341664E3,5.189376E-1,3.6110585E0,6.3228784E0,6.2E0,4.0147907E1,8.358742E-2,2.1409633E0,1.5997026E0,7.762775E1,1.6340441E3,1.94E4,7.431091E0,5.5377436E-1,1.0749E1,1.9339403E0,1.5438153E1,4.3666595E1,1.775E3,4.8E0,1.4082442E2,8.000755E-3,-5.467778E-3,6.650359E-4,4.5976985E-2,5.1422283E-2,1.11435704E-1,9.973962E-4,5.8319878E-2,4.0080447E-2,-3.7410443E-3,-5.2345013E-3,3.406804E-3,5.436897E-3,-6.2355935E-3,-6.4954506E-3,-8.698794E-3,7.158696E-2,-7.884596E-3,1.8297354E-2,1.2556392E-1,1.1206194E-1,2.1187465E-3,1.9090667E-2,-8.476648E-3,1.037834E-1,3.6648933E-2,-1.6915534E-3,1.5124565E-2,-2.6437226E-3,6.7479774E-2],"split_indices":[32,49,72,46,82,118,56,16,122,118,44,93,39,55,73,100,0,36,114,25,16,49,39,118,1,36,10,47,112,73,88,0,0,0,0,0,0,0,0,0,0,0,0,0,0,0,0,0,0,0,0,0,0,0,0,0,0,0,0,0,0],"split_type":[0,0,0,0,0,0,0,0,0,0,0,0,0,0,0,0,0,0,0,0,0,0,0,0,0,0,0,0,0,0,0,0,0,0,0,0,0,0,0,0,0,0,0,0,0,0,0,0,0,0,0,0,0,0,0,0,0,0,0,0,0],"sum_hessian":[2.02052E5,1.25173E5,7.6879E4,1.4316E4,1.10857E5,4.8718E4,2.8161E4,1.3385E4,9.31E2,2.403E3,1.08454E5,1.7501E4,3.1217E4,4.683E3,2.3478E4,1.3264E4,1.21E2,4.88E2,4.43E2,7.5E2,1.653E3,8.797E4,2.0484E4,1.7335E4,1.66E2,1.581E3,2.9636E4,1.761E3,2.922E3,2.1904E4,1.574E3,7.344E3,5.92E3,3.86E2,1.02E2,3.43E2,1E2,1.54E2,5.96E2,1.55E2,1.498E3,8.4713E4,3.257E3,9.588E3,1.0896E4,1.4516E4,2.819E3,1E2,6.6E1,1.379E3,2.02E2,1.12E2,2.9524E4,1.008E3,7.53E2,7.95E2,2.127E3,1.3889E4,8.015E3,3.65E2,1.209E3],"tree_param":{"num_deleted":"0","num_feature":"125","num_nodes":"61","size_leaf_vector":"1"}},{"base_weights":[6.2874057E-3,-2.3174258E-2,4.373302E-1,1.4719072E-1,-8.922192E-2,-2.3105842E-1,8.934463E-1,2.5450211E-2,7.292767E-1,-1.4149186E-1,2.9060954E-2,-2.5733915E-1,-1.4981276E-1,1.4025424E0,2.1638162E-1,2.4497786E-1,-1.0169436E-1,1.4806203E0,3.7995774E-1,7.632422E-1,-1.5141754E-1,-1.8933351E-1,1.8419231E-1,-2.736004E-1,-2.181952E-1,-2.5060356E-1,-4.282535E-2,4.5216918E-1,2.0021281E0,7.7041805E-1,-2.5306237E-1,2.7828796E-3,2.5939839E-2,-3.81934E-3,1.9270834E-2,5.7260018E-2,-7.1340096E-3,-5.9803464E-3,2.1791324E-2,5.197851E-2,-3.947946E-3,-4.932074E-3,4.283654E-4,3.836847E-2,-6.1090677E-3,1.7809778E-2,8.6595863E-4,-7.374009E-3,-9.29198E-3,-7.1463487E-3,-2.788536E-3,-7.916967E-3,-2.5765433E-3,1.6437822E-3,-6.970826E-3,-9.988447E-4,2.899312E-2,6.666296E-2,1.0308182E-2,-8.112546E-3,3.534098E-2,-9.232006E-3,-3.3820975E-3],"categories":[],"categories_nodes":[],"categories_segments":[],"categories_sizes":[],"default_left":[0,0,0,0,0,0,0,0,0,0,0,0,0,0,0,0,0,0,0,0,0,0,0,0,0,0,0,0,0,0,0,0,0,0,0,0,0,0,0,0,0,0,0,0,0,0,0,0,0,0,0,0,0,0,0,0,0,0,0,0,0,0,0],"id":14,"left_children":[1,3,5,7,9,11,13,15,17,19,21,23,25,27,29,31,33,35,37,39,41,43,45,47,49,51,53,55,57,59,61,-1,-1,-1,-1,-1,-1,-1,-1,-1,-1,-1,-1,-1,-1,-1,-1,-1,-1,-1,-1,-1,-1,-1,-1,-1,-1,-1,-1,-1,-1,-1,-1],"loss_changes":[2.5737139E3,2.1345684E3,3.9530574E3,3.7556023E3,8.4519556E2,1.1192566E1,2.6562295E3,1.2234526E3,2.405395E3,8.515006E2,1.4194982E3,2.4692383E0,1.3878218E1,2.5057793E3,8.6082965E2,1.5162922E3,5.291426E2,2.1402124E3,1.2562124E3,8.9281946E2,2.0177539E2,3.6567273E2,1.5580237E3,2.7394104E0,2.9134789E0,1.4292984E0,1.1595044E1,4.2520087E2,9.831719E2,6.443453E2,1.3713127E1,0E0,0E0,0E0,0E0,0E0,0E0,0E0,0E0,0E0,0E0,0E0,0E0,0E0,0E0,0E0,0E0,0E0,0E0,0E0,0E0,0E0,0E0,0E0,0E0,0E0,0E0,0E0,0E0,0E0,0E0,0E0,0E0],"parents":[2147483647,0,0,1,1,2,2,3,3,4,4,5,5,6,6,7,7,8,8,9,9,10,10,11,11,12,12,13,13,14,14,15,15,16,16,17,17,18,18,19,19,20,20,21,21,22,22,23,23,24,24,25,25,26,26,27,27,28,28,29,29,30,30],"right_children":[2,4,6,8,10,12,14,16,18,20,22,24,26,28,30,32,34,36,38,40,42,44,46,48,50,52,54,56,58,60,62,-1,-1,-1,-1,-1,-1,-1,-1,-1,-1,-1,-1,-1,-1,-1,-1,-1,-1,-1,-1,-1,-1,-1,-1,-1,-1,-1,-1,-1,-1,-1,-1],"split_conditions":[1.4130302E2,2.2E4,9.7303085E1,3.398E1,3.8005836E0,4.75E0,7E0,5.34192E0,1.7577837E0,4.591E0,8.97604E0,3.9054348E0,5.34216E0,9.9539834E-1,6.9974494E-1,-2.65E0,6E0,4.663E1,9.5155567E-1,4.3072188E-1,1.4408331E3,1.1178039E1,1.627288E2,9.00292E0,3.225E3,1.0420046E0,1.3921522E0,8.81875E1,2.084548E2,4.8E0,4.144E1,2.7828796E-3,2.5939839E-2,-3.81934E-3,1.9270834E-2,5.7260018E-2,-7.1340096E-3,-5.9803464E-3,2.1791324E-2,5.197851E-2,-3.947946E-3,-4.932074E-3,4.283654E-4,3.836847E-2,-6.1090677E-3,1.7809778E-2,8.6595863E-4,-7.374009E-3,-9.29198E-3,-7.1463487E-3,-2.788536E-3,-7.916967E-3,-2.5765433E-3,1.6437822E-3,-6.970826E-3,-9.988447E-4,2.899312E-2,6.666296E-2,1.0308182E-2,-8.112546E-3,3.534098E-2,-9.232006E-3,-3.3820975E-3],"split_indices":[88,90,106,45,40,73,103,117,24,82,122,52,29,111,118,124,110,86,114,118,72,89,7,122,112,54,114,56,37,73,45,0,0,0,0,0,0,0,0,0,0,0,0,0,0,0,0,0,0,0,0,0,0,0,0,0,0,0,0,0,0,0,0],"split_type":[0,0,0,0,0,0,0,0,0,0,0,0,0,0,0,0,0,0,0,0,0,0,0,0,0,0,0,0,0,0,0,0,0,0,0,0,0,0,0,0,0,0,0,0,0,0,0,0,0,0,0,0,0,0,0,0,0,0,0,0,0,0,0],"sum_hessian":[2.02665E5,1.897E5,1.2965E4,5.2997E4,1.36703E5,5.259E3,7.706E3,4.3831E4,9.166E3,9.4807E4,4.1896E4,3.972E3,1.287E3,4.398E3,3.308E3,1.6075E4,2.7756E4,2.908E3,6.258E3,1.028E3,9.3779E4,1.74E4,2.4496E4,2.802E3,1.17E3,6.62E2,6.25E2,1.702E3,2.696E3,1.517E3,1.791E3,1.2906E4,3.169E3,2.6833E4,9.23E2,2.328E3,5.8E2,2.342E3,3.916E3,4.93E2,5.35E2,8.6964E4,6.815E3,1.67E2,1.7233E4,6.736E3,1.776E4,1.588E3,1.214E3,1.008E3,1.62E2,6.12E2,5E1,4.13E2,2.12E2,8.76E2,8.26E2,2.38E3,3.16E2,4.27E2,1.09E3,1.288E3,5.03E2],"tree_param":{"num_deleted":"0","num_feature":"125","num_nodes":"63","size_leaf_vector":"1"}},{"base_weights":[9.402405E-3,-7.7403866E-2,1.5113735E-1,4.3283224E-1,-9.0669766E-2,-1.0991936E-1,2.990696E-1,1.3696402E0,-2.5910897E-2,4.9150128E-2,-1.3311817E-1,7.629066E-1,-1.531893E-1,4.548549E-1,-3.9483425E-3,-2.9271416E-2,1.5948029E0,9.1815895E-1,-1.3693537E-1,-3.3171527E-2,6.351181E-1,-8.800971E-2,-1.8174739E-1,2.3999262E0,2.6569065E-1,-1.6215608E-1,5.999214E-2,-7.108686E-2,6.012545E-1,-1.0200053E-1,1.0571738E0,9.226446E-3,-1.03064E-2,7.8397E-2,3.791815E-2,-1.8524482E-3,5.7221E-2,-1.0138295E-3,-6.331215E-3,1.3098492E-2,-3.1630516E-3,3.462266E-2,-1.7939804E-3,-3.3158371E-3,2.2371735E-2,-4.429201E-4,-5.760326E-3,1.0378496E-1,-1.9210676E-3,-6.4120977E-3,2.8404867E-2,-5.3244103E-3,2.916249E-2,2.1241711E-2,-6.1196815E-3,2.1167135E-2,-5.7157883E-3,4.1751396E-3,-7.329019E-3,7.987096E-2,9.861201E-3],"categories":[],"categories_nodes":[],"categories_segments":[],"categories_sizes":[],"default_left":[0,0,0,0,0,0,0,0,0,0,0,0,0,0,0,0,0,0,0,0,0,0,0,0,0,0,0,0,0,0,0,0,0,0,0,0,0,0,0,0,0,0,0,0,0,0,0,0,0,0,0,0,0,0,0,0,0,0,0,0,0],"id":15,"left_children":[1,3,5,7,9,11,13,15,17,19,21,23,25,27,29,31,33,35,37,39,41,43,45,47,49,51,-1,53,55,57,59,-1,-1,-1,-1,-1,-1,-1,-1,-1,-1,-1,-1,-1,-1,-1,-1,-1,-1,-1,-1,-1,-1,-1,-1,-1,-1,-1,-1,-1,-1],"loss_changes":[2.4909993E3,8.4993567E2,2.9698499E3,1.3675135E3,7.263538E2,1.0506475E3,2.317143E3,3.295182E2,2.2411505E2,1.3748965E3,2.0591821E2,1.0688958E3,5.1195923E2,2.49623E3,1.7343356E3,1.5560352E1,3.0030005E2,2.1821744E2,1.4614468E1,8.484878E2,1.2662822E3,9.144795E2,7.7421265E1,7.9910974E2,3.296976E2,4.5893683E2,0E0,7.312088E2,2.0947676E3,5.237043E2,1.6478793E3,0E0,0E0,0E0,0E0,0E0,0E0,0E0,0E0,0E0,0E0,0E0,0E0,0E0,0E0,0E0,0E0,0E0,0E0,0E0,0E0,0E0,0E0,0E0,0E0,0E0,0E0,0E0,0E0,0E0,0E0],"parents":[2147483647,0,0,1,1,2,2,3,3,4,4,5,5,6,6,7,7,8,8,9,9,10,10,11,11,12,12,13,13,14,14,15,15,16,16,17,17,18,18,19,19,20,20,21,21,22,22,23,23,24,24,25,25,27,27,28,28,29,29,30,30],"right_children":[2,4,6,8,10,12,14,16,18,20,22,24,26,28,30,32,34,36,38,40,42,44,46,48,50,52,-1,54,56,58,60,-1,-1,-1,-1,-1,-1,-1,-1,-1,-1,-1,-1,-1,-1,-1,-1,-1,-1,-1,-1,-1,-1,-1,-1,-1,-1,-1,-1,-1,-1],"split_conditions":[6.554E1,4.728E0,2.1567537E1,4.3072188E-1,2.2E4,-1.7429593E-1,1.0759E2,2.3375E2,3.035688E1,9.75E1,4.8247904E-1,1.95E4,4.2E3,3.089E1,2.9621359E1,-4.1208524E-1,4.1763992E1,1.1548191E0,5.740722E1,8.26222E0,2.05E3,2.51732E3,1.625E1,4.7875233E1,-2.387133E-1,1.0424716E2,5.999214E-2,6.3850145E0,2.418092E1,3.9650673E1,1.225E3,9.226446E-3,-1.03064E-2,7.8397E-2,3.791815E-2,-1.8524482E-3,5.7221E-2,-1.0138295E-3,-6.331215E-3,1.3098492E-2,-3.1630516E-3,3.462266E-2,-1.7939804E-3,-3.3158371E-3,2.2371735E-2,-4.429201E-4,-5.760326E-3,1.0378496E-1,-1.9210676E-3,-6.4120977E-3,2.8404867E-2,-5.3244103E-3,2.916249E-2,2.1241711E-2,-6.1196815E-3,2.1167135E-2,-5.7157883E-3,4.1751396E-3,-7.329019E-3,7.987096E-2,9.861201E-3],"split_indices":[32,82,116,118,90,111,0,19,106,0,93,90,112,45,115,105,37,111,106,122,112,16,71,106,111,106,0,55,116,10,112,0,0,0,0,0,0,0,0,0,0,0,0,0,0,0,0,0,0,0,0,0,0,0,0,0,0,0,0,0,0],"split_type":[0,0,0,0,0,0,0,0,0,0,0,0,0,0,0,0,0,0,0,0,0,0,0,0,0,0,0,0,0,0,0,0,0,0,0,0,0,0,0,0,0,0,0,0,0,0,0,0,0,0,0,0,0,0,0,0,0,0,0,0,0],"sum_hessian":[2.02461E5,1.25561E5,7.69E4,3.181E3,1.2238E5,2.7815E4,4.9085E4,1.045E3,2.136E3,2.8501E4,9.3879E4,1.313E3,2.6502E4,3.2418E4,1.6667E4,1.45E2,9E2,2.24E2,1.912E3,2.4991E4,3.51E3,4.8704E4,4.5175E4,3.05E2,1.008E3,2.6393E4,1.09E2,7.059E3,2.5359E4,1.5258E4,1.409E3,7E1,7.5E1,2.19E2,6.81E2,1.13E2,1.11E2,8E2,1.112E3,3.331E3,2.166E4,2.009E3,1.501E3,4.7424E4,1.28E3,2.616E3,4.2559E4,2.13E2,9.2E1,5.92E2,4.16E2,2.6042E4,3.51E2,1.028E3,6.031E3,2.2407E4,2.952E3,5.662E3,9.596E3,4.39E2,9.7E2],"tree_param":{"num_deleted":"0","num_feature":"125","num_nodes":"61","size_leaf_vector":"1"}},{"base_weights":[-5.855343E-4,-2.6976237E-2,3.894946E-1,1.1081116E-1,-1.0260991E-1,1.7349049E0,1.8644038E-1,5.404231E-1,1.7756008E-2,-1.48961E-1,-3.8413855E-3,-1.412258E-1,2.0505164E0,-2.0811713E-1,7.275105E-1,-6.358829E-2,1.1277057E0,3.4825552E-1,-4.148152E-2,6.9601685E-2,-1.7134194E-1,1.1738633E0,-4.118481E-2,2.8987639E-2,-2.753569E-1,2.3160965E0,4.6760538E-1,-2.586137E-1,-9.7740166E-2,-2.3224092E-1,1.011318E0,-4.3390966E-3,4.632424E-2,7.6868504E-2,2.0974481E-2,2.4025546E-2,-1.2388544E-3,-3.3724809E-3,4.489306E-3,-1.5723886E-3,3.548922E-2,-5.4603093E-3,7.3192483E-3,5.164216E-2,-2.8470545E-3,2.413358E-3,-6.400943E-3,-3.9560506E-3,5.5917585E-3,-6.7158355E-3,-9.427657E-3,4.8145495E-2,9.019603E-2,2.925457E-2,-3.4124104E-4,-6.6874186E-3,-8.492344E-3,-6.444153E-3,9.0566796E-4,-4.4186427E-3,-8.463402E-3,8.735521E-3,4.3150034E-2],"categories":[],"categories_nodes":[],"categories_segments":[],"categories_sizes":[],"default_left":[0,0,0,0,0,0,0,0,0,0,0,0,0,0,0,0,0,0,0,0,0,0,0,0,0,0,0,0,0,0,0,0,0,0,0,0,0,0,0,0,0,0,0,0,0,0,0,0,0,0,0,0,0,0,0,0,0,0,0,0,0,0,0],"id":16,"left_children":[1,3,5,7,9,11,13,15,17,19,21,23,25,27,29,31,33,35,37,39,41,43,45,47,49,51,53,55,57,59,61,-1,-1,-1,-1,-1,-1,-1,-1,-1,-1,-1,-1,-1,-1,-1,-1,-1,-1,-1,-1,-1,-1,-1,-1,-1,-1,-1,-1,-1,-1,-1,-1],"loss_changes":[2.0826987E3,1.974777E3,3.5019888E3,2.6846462E3,5.600707E2,9.9565674E2,2.3783552E3,4.241168E3,1.080699E3,4.073097E2,1.7185922E3,5.555894E0,6.038584E2,3.5885803E1,1.2798977E3,7.6836365E2,3.7251099E3,1.4792664E3,6.3463696E2,1.0508441E3,3.3469922E2,8.3450085E2,7.932263E2,2.7590773E0,2.0207119E-1,6.001748E2,5.0576916E1,3.7972107E0,3.0317924E1,4.504547E0,1.1146094E3,0E0,0E0,0E0,0E0,0E0,0E0,0E0,0E0,0E0,0E0,0E0,0E0,0E0,0E0,0E0,0E0,0E0,0E0,0E0,0E0,0E0,0E0,0E0,0E0,0E0,0E0,0E0,0E0,0E0,0E0,0E0,0E0],"parents":[2147483647,0,0,1,1,2,2,3,3,4,4,5,5,6,6,7,7,8,8,9,9,10,10,11,11,12,12,13,13,14,14,15,15,16,16,17,17,18,18,19,19,20,20,21,21,22,22,23,23,24,24,25,25,26,26,27,27,28,28,29,29,30,30],"right_children":[2,4,6,8,10,12,14,16,18,20,22,24,26,28,30,32,34,36,38,40,42,44,46,48,50,52,54,56,58,60,62,-1,-1,-1,-1,-1,-1,-1,-1,-1,-1,-1,-1,-1,-1,-1,-1,-1,-1,-1,-1,-1,-1,-1,-1,-1,-1,-1,-1,-1,-1,-1,-1],"split_conditions":[1.4130302E2,4.3999653E1,1.4194754E2,7.63675E1,3.9725091E0,3.898E1,2.6756548E1,6.3926654E2,4.26638E1,8.28502E0,3.9921606E0,4.6575344E-1,2.484798E2,2.1325632E1,9.707432E1,1.0621E1,1.7E3,1.1407201E1,3.757969E0,7.21E0,5.66668E1,1.86E1,2.764188E1,1.91E1,1.86E1,5.65896E1,2.347355E0,4E0,9.89373E-1,2.1384394E1,9.794302E-1,-4.3390966E-3,4.632424E-2,7.6868504E-2,2.0974481E-2,2.4025546E-2,-1.2388544E-3,-3.3724809E-3,4.489306E-3,-1.5723886E-3,3.548922E-2,-5.4603093E-3,7.3192483E-3,5.164216E-2,-2.8470545E-3,2.413358E-3,-6.400943E-3,-3.9560506E-3,5.5917585E-3,-6.7158355E-3,-9.427657E-3,4.8145495E-2,9.019603E-2,2.925457E-2,-3.4124104E-4,-6.6874186E-3,-8.492344E-3,-6.444153E-3,9.0566796E-4,-4.4186427E-3,-8.463402E-3,8.735521E-3,4.3150034E-2],"split_indices":[88,47,88,56,40,71,115,27,28,122,40,93,7,115,100,1,112,101,40,108,28,21,101,21,21,28,36,99,111,116,111,0,0,0,0,0,0,0,0,0,0,0,0,0,0,0,0,0,0,0,0,0,0,0,0,0,0,0,0,0,0,0,0],"split_type":[0,0,0,0,0,0,0,0,0,0,0,0,0,0,0,0,0,0,0,0,0,0,0,0,0,0,0,0,0,0,0,0,0,0,0,0,0,0,0,0,0,0,0,0,0,0,0,0,0,0,0,0,0,0,0,0,0,0,0,0,0,0,0],"sum_hessian":[2.0231E5,1.89491E5,1.2819E4,6.7153E4,1.22338E5,1.68E3,1.1139E4,1.1955E4,5.5198E4,8.3263E4,3.9075E4,2.42E2,1.438E3,6.442E3,4.697E3,5.894E3,6.061E3,8.389E3,4.6809E4,7.734E3,7.5529E4,1.2E3,3.7875E4,1.07E2,1.35E2,1.231E3,2.07E2,4.419E3,2.023E3,1.072E3,3.625E3,5.612E3,2.82E2,1.393E3,4.668E3,3.88E3,4.509E3,3.4139E4,1.267E4,6.971E3,7.63E2,7.3638E4,1.891E3,8.38E2,3.62E2,2.2196E4,1.5679E4,5.3E1,5.4E1,6.1E1,7.4E1,6.08E2,6.23E2,1E2,1.07E2,1.801E3,2.618E3,1.056E3,9.67E2,3.98E2,6.74E2,1.35E3,2.275E3],"tree_param":{"num_deleted":"0","num_feature":"125","num_nodes":"63","size_leaf_vector":"1"}},{"base_weights":[-3.6944817E-3,-4.7144577E-2,2.3693824E-1,3.2569915E-2,-1.1258724E-1,-5.4149646E-3,7.90281E-1,-5.7452813E-2,1.8838347E-1,-1.3355845E-1,2.2968586E-1,5.68466E-1,-6.9559224E-2,1.2552739E0,-2.5225598E-1,4.709698E-2,-1.7994666E-1,3.308597E-1,-1.6112404E-1,-1.4115293E-1,3.493799E-1,1.287911E0,1.7145583E-2,1.0235846E0,-1.733879E-1,5.722435E-1,-1.0223271E-1,-2.5777334E-1,1.4321612E0,-2.7033788E-1,-1.1805522E-1,2.1073738E-2,2.3236402E-4,9.030611E-4,-6.676204E-3,-1.5766615E-4,1.6998865E-2,-6.2520173E-3,2.3320211E-2,-4.7098254E-3,1.3854146E-3,3.9303668E-2,-6.4634145E-3,-2.6369202E-3,5.3514894E-2,-3.7140776E-3,3.9361447E-2,9.4513055E-3,4.1625857E-2,-2.4757292E-3,-7.1427324E-3,-5.795373E-3,4.710093E-2,1.9830367E-2,-3.9405054E-3,-7.0095975E-3,-1.0834507E-2,3.5103887E-2,6.380984E-2,-7.280855E-3,-9.531072E-3,-7.5066453E-3,8.029495E-4],"categories":[],"categories_nodes":[],"categories_segments":[],"categories_sizes":[],"default_left":[0,0,0,0,0,0,0,0,0,0,0,0,0,0,0,0,0,0,0,0,0,0,0,0,0,0,0,0,0,0,0,0,0,0,0,0,0,0,0,0,0,0,0,0,0,0,0,0,0,0,0,0,0,0,0,0,0,0,0,0,0,0,0],"id":17,"left_children":[1,3,5,7,9,11,13,15,17,19,21,23,25,27,29,31,33,35,37,39,41,43,45,47,49,51,53,55,57,59,61,-1,-1,-1,-1,-1,-1,-1,-1,-1,-1,-1,-1,-1,-1,-1,-1,-1,-1,-1,-1,-1,-1,-1,-1,-1,-1,-1,-1,-1,-1,-1,-1],"loss_changes":[2.1088257E3,8.91261E2,4.13699E3,1.0804221E3,6.734739E2,7.897864E2,4.5552383E3,6.252319E2,1.4046135E3,3.2429333E2,1.218345E3,7.284486E2,4.0473633E2,1.7394854E3,7.002823E0,6.792886E2,2.0113751E2,1.5879263E3,3.625989E2,2.5830054E2,7.431747E2,6.1831104E2,8.236663E2,3.4433423E2,4.807146E0,7.1439E2,4.08204E2,1.6136627E0,1.0567842E3,3.2668E0,6.629258E0,0E0,0E0,0E0,0E0,0E0,0E0,0E0,0E0,0E0,0E0,0E0,0E0,0E0,0E0,0E0,0E0,0E0,0E0,0E0,0E0,0E0,0E0,0E0,0E0,0E0,0E0,0E0,0E0,0E0,0E0,0E0,0E0],"parents":[2147483647,0,0,1,1,2,2,3,3,4,4,5,5,6,6,7,7,8,8,9,9,10,10,11,11,12,12,13,13,14,14,15,15,16,16,17,17,18,18,19,19,20,20,21,21,22,22,23,23,24,24,25,25,26,26,27,27,28,28,29,29,30,30],"right_children":[2,4,6,8,10,12,14,16,18,20,22,24,26,28,30,32,34,36,38,40,42,44,46,48,50,52,54,56,58,60,62,-1,-1,-1,-1,-1,-1,-1,-1,-1,-1,-1,-1,-1,-1,-1,-1,-1,-1,-1,-1,-1,-1,-1,-1,-1,-1,-1,-1,-1,-1,-1,-1],"split_conditions":[1.348184E3,2.5395887E1,2.23E4,1.9734E0,1.4130302E2,7.37175E1,4.929E1,-6.3222175E0,4.234E1,6.6666665E0,1.4194754E2,4.6236935E-1,2.0032434E1,4.454E1,5.1666665E0,4.728E0,1.2127443E1,2.1567537E1,3.7E3,3.3513513E0,4.406E1,3.898E1,7.54E0,1.0399727E1,2.2823015E3,1.5570619E1,1.3496666E3,4.930989E0,1.8064117E1,9.306988E1,8.269913E0,2.1073738E-2,2.3236402E-4,9.030611E-4,-6.676204E-3,-1.5766615E-4,1.6998865E-2,-6.2520173E-3,2.3320211E-2,-4.7098254E-3,1.3854146E-3,3.9303668E-2,-6.4634145E-3,-2.6369202E-3,5.3514894E-2,-3.7140776E-3,3.9361447E-2,9.4513055E-3,4.1625857E-2,-2.4757292E-3,-7.1427324E-3,-5.795373E-3,4.710093E-2,1.9830367E-2,-3.9405054E-3,-7.0095975E-3,-1.0834507E-2,3.5103887E-2,6.380984E-2,-7.280855E-3,-9.531072E-3,-7.5066453E-3,8.029495E-4],"split_indices":[72,48,70,51,88,56,71,102,71,73,88,6,10,71,73,82,101,116,112,92,86,71,4,9,16,48,72,123,9,106,26,0,0,0,0,0,0,0,0,0,0,0,0,0,0,0,0,0,0,0,0,0,0,0,0,0,0,0,0,0,0,0,0],"split_type":[0,0,0,0,0,0,0,0,0,0,0,0,0,0,0,0,0,0,0,0,0,0,0,0,0,0,0,0,0,0,0,0,0,0,0,0,0,0,0,0,0,0,0,0,0,0,0,0,0,0,0,0,0,0,0,0,0,0,0,0,0,0,0],"sum_hessian":[2.01693E5,1.70845E5,3.0848E4,7.7024E4,9.3821E4,2.1453E4,9.395E3,4.8819E4,2.8205E4,8.8405E4,5.416E3,2.156E3,1.9297E4,6.497E3,2.898E3,2.6339E4,2.248E4,2.0037E4,8.168E3,8.7037E4,1.368E3,9.05E2,4.511E3,1.336E3,8.2E2,9.34E2,1.8363E4,6.8E2,5.817E3,2.553E3,3.45E2,1.491E3,2.4848E4,3.79E3,1.869E4,8.261E3,1.1776E4,7.777E3,3.91E2,8.0251E4,6.786E3,5.06E2,8.62E2,2.4E2,6.65E2,4.069E3,4.42E2,4.54E2,8.82E2,3.42E2,4.78E2,5.29E2,4.05E2,6.74E2,1.7689E4,5.54E2,1.26E2,4.226E3,1.591E3,1.616E3,9.37E2,1.8E2,1.65E2],"tree_param":{"num_deleted":"0","num_feature":"125","num_nodes":"63","size_leaf_vector":"1"}},{"base_weights":[6.3982746E-3,-7.070099E-2,1.3251407E-1,3.3857614E-2,-1.4904943E-1,-1.0157886E-1,2.64645E-1,-3.6186844E-2,3.6518145E-1,3.4298873E-1,-1.5160969E-1,5.286373E-1,-1.4994569E-1,-1.430194E-1,3.7786642E-1,1.3772019E0,-4.8738204E-2,-1.9777048E-1,7.191968E-1,-1.9157085E-1,4.8049558E-2,-1.6232459E-1,-2.955115E-2,-2.5745806E-1,1.1580348E0,-1.5849426E-1,8.242303E-1,-1.7654635E-1,1.2902944E0,-1.1340608E-1,4.855605E-1,-8.040242E-3,7.8148834E-2,-2.5303212E-3,9.612998E-3,5.4271617E-3,-6.286739E-3,2.9005205E-2,-1.4127736E-3,-6.6505955E-3,-1.8788347E-3,-1.5231052E-3,-5.1342146E-3,4.3690275E-2,-2.6459857E-3,-8.279887E-3,1.2803472E-3,5.945126E-2,3.4377435E-3,2.6726473E-2,-4.970844E-3,-7.575716E-3,6.27482E-2,1.7969266E-2,-6.0442914E-3,5.171119E-2,2.9004944E-2,1.834257E-2,-7.4570337E-3,3.071851E-3,1.997774E-2],"categories":[],"categories_nodes":[],"categories_segments":[],"categories_sizes":[],"default_left":[0,0,0,0,0,0,0,0,0,0,0,0,0,0,0,0,0,0,0,0,0,0,0,0,0,0,0,0,0,0,0,0,0,0,0,0,0,0,0,0,0,0,0,0,0,0,0,0,0,0,0,0,0,0,0,0,0,0,0,0,0],"id":18,"left_children":[1,3,5,7,9,11,13,15,17,19,21,23,25,27,29,31,33,35,37,39,-1,41,43,45,47,49,51,53,55,57,59,-1,-1,-1,-1,-1,-1,-1,-1,-1,-1,-1,-1,-1,-1,-1,-1,-1,-1,-1,-1,-1,-1,-1,-1,-1,-1,-1,-1,-1,-1],"loss_changes":[1.9680231E3,1.0290026E3,2.375212E3,1.2487103E3,9.050769E1,8.446013E2,2.2656384E3,7.880226E2,1.8715094E3,2.5059976E2,9.3420044E1,9.7746185E2,2.1442188E2,5.1297095E2,2.0325352E3,7.904876E2,5.787471E2,1.6223053E1,1.0940493E3,1.0035162E0,0E0,6.457361E1,5.0260797E2,4.902523E0,9.4259717E2,1.9289581E2,3.0621045E2,2.0171402E2,3.2540466E1,6.7691907E2,2.1774976E3,0E0,0E0,0E0,0E0,0E0,0E0,0E0,0E0,0E0,0E0,0E0,0E0,0E0,0E0,0E0,0E0,0E0,0E0,0E0,0E0,0E0,0E0,0E0,0E0,0E0,0E0,0E0,0E0,0E0,0E0],"parents":[2147483647,0,0,1,1,2,2,3,3,4,4,5,5,6,6,7,7,8,8,9,9,10,10,11,11,12,12,13,13,14,14,15,15,16,16,17,17,18,18,19,19,21,21,22,22,23,23,24,24,25,25,26,26,27,27,28,28,29,29,30,30],"right_children":[2,4,6,8,10,12,14,16,18,20,22,24,26,28,30,32,34,36,38,40,-1,42,44,46,48,50,52,54,56,58,60,-1,-1,-1,-1,-1,-1,-1,-1,-1,-1,-1,-1,-1,-1,-1,-1,-1,-1,-1,-1,-1,-1,-1,-1,-1,-1,-1,-1,-1,-1],"split_conditions":[6.554E1,1.69E4,2.1567537E1,1.3406505E3,1.8591395E3,1.1525E1,4E0,1.1224972E3,5.29E0,6E2,1.92E4,9.274E0,1.8371173E3,7E0,6.417749E2,2E0,1.8145E1,8.03138E0,2.7079885E1,8.98466E0,4.8049558E-2,1.72E1,9.477859E0,5.8333335E0,-2.301365E1,9.25E0,3.5205479E0,5.5999445E2,1.0088E1,1.0168356E1,6.04E0,-8.040242E-3,7.8148834E-2,-2.5303212E-3,9.612998E-3,5.4271617E-3,-6.286739E-3,2.9005205E-2,-1.4127736E-3,-6.6505955E-3,-1.8788347E-3,-1.5231052E-3,-5.1342146E-3,4.3690275E-2,-2.6459857E-3,-8.279887E-3,1.2803472E-3,5.945126E-2,3.4377435E-3,2.6726473E-2,-4.970844E-3,-7.575716E-3,6.27482E-2,1.7969266E-2,-6.0442914E-3,5.171119E-2,2.9004944E-2,1.834257E-2,-7.4570337E-3,3.071851E-3,1.997774E-2],"split_indices":[32,49,116,44,16,46,99,16,35,17,49,1,44,73,72,96,46,122,101,31,0,71,9,73,13,34,113,44,1,38,35,0,0,0,0,0,0,0,0,0,0,0,0,0,0,0,0,0,0,0,0,0,0,0,0,0,0,0,0,0,0],"split_type":[0,0,0,0,0,0,0,0,0,0,0,0,0,0,0,0,0,0,0,0,0,0,0,0,0,0,0,0,0,0,0,0,0,0,0,0,0,0,0,0,0,0,0,0,0,0,0,0,0,0,0,0,0,0,0,0,0,0,0,0,0],"sum_hessian":[2.02398E5,1.25609E5,7.6789E4,5.3805E4,7.1804E4,2.7705E4,4.9084E4,4.4416E4,9.389E3,3.71E2,7.1433E4,1.974E3,2.5731E4,1.0669E4,3.8415E4,3.9E2,4.4026E4,3.625E3,5.764E3,2.61E2,1.1E2,6.5668E4,5.765E3,8.78E2,1.096E3,2.5508E4,2.23E2,1.0426E4,2.43E2,6.907E3,3.1508E4,1.67E2,2.23E2,4.0154E4,3.872E3,1.09E2,3.516E3,4.356E3,1.408E3,2.11E2,5E1,4.81E3,6.0858E4,2.18E2,5.547E3,8.27E2,5.1E1,6.12E2,4.84E2,1.73E2,2.5335E4,1.21E2,1.02E2,3.24E2,1.0102E4,1.02E2,1.41E2,1.085E3,5.822E3,1.0085E4,2.1423E4],"tree_param":{"num_deleted":"0","num_feature":"125","num_nodes":"61","size_leaf_vector":"1"}},{"base_weights":[-3.419182E-4,-2.5429003E-2,3.7495217E-1,3.582755E-2,-1.5894683E-1,-2.1169001E-1,8.1936795E-1,-6.0673144E-2,2.4049395E-1,6.525471E-1,-1.6376212E-1,-1.74489E-1,-2.5983825E-1,1.9736757E0,4.1924757E-1,6.5785396E-1,-7.210789E-2,6.2053126E-1,1.0731182E-1,-2.2955424E-1,7.918202E-2,-1.769935E-1,-6.688897E-2,-2.129987E-1,-8.3968975E-2,-1.07617274E-1,-2.724337E-1,2.386674E0,2.7995262E-1,-8.815053E-2,8.953795E-1,6.173154E-2,6.947683E-3,1.2963535E-2,-2.676359E-3,-5.922982E-3,2.8142758E-2,-7.4251285E-3,7.8311525E-3,-1.0637457E-2,-5.865086E-3,-4.9140668E-3,-7.3365527E-3,2.5515696E-2,-3.9598076E-3,-6.7131463E-3,-4.373789E-3,-5.544033E-3,2.8804713E-3,-7.897213E-3,3.3010775E-3,-6.573919E-3,-9.097032E-3,6.288387E-2,1.19994715E-1,3.3267464E-2,-4.431879E-3,1.2098847E-2,-8.491104E-3,-8.7759E-3,3.347147E-2],"categories":[],"categories_nodes":[],"categories_segments":[],"categories_sizes":[],"default_left":[0,0,0,0,0,0,0,0,0,0,0,0,0,0,0,0,0,0,0,0,0,0,0,0,0,0,0,0,0,0,0,0,0,0,0,0,0,0,0,0,0,0,0,0,0,0,0,0,0,0,0,0,0,0,0,0,0,0,0,0,0],"id":19,"left_children":[1,3,5,7,9,11,13,15,17,19,21,23,25,27,29,31,33,35,37,39,-1,41,43,45,47,49,51,53,55,57,59,-1,-1,-1,-1,-1,-1,-1,-1,-1,-1,-1,-1,-1,-1,-1,-1,-1,-1,-1,-1,-1,-1,-1,-1,-1,-1,-1,-1,-1,-1],"loss_changes":[1.899295E3,1.546543E3,3.295586E3,2.5601074E3,2.3248682E2,9.714691E0,3.3208848E3,7.2380194E2,2.1021428E3,6.157706E2,7.576489E1,1.0708229E1,4.5204163E0,1.2941157E3,1.2906444E3,8.229865E2,7.478528E2,2.7998052E3,1.6776953E3,9.6947575E-1,0E0,4.631372E1,4.245378E2,1.5297623E0,1.6714125E1,6.22752E0,3.5306702E0,6.8903125E2,1.2921364E2,2.478866E2,7.2167993E2,0E0,0E0,0E0,0E0,0E0,0E0,0E0,0E0,0E0,0E0,0E0,0E0,0E0,0E0,0E0,0E0,0E0,0E0,0E0,0E0,0E0,0E0,0E0,0E0,0E0,0E0,0E0,0E0,0E0,0E0],"parents":[2147483647,0,0,1,1,2,2,3,3,4,4,5,5,6,6,7,7,8,8,9,9,10,10,11,11,12,12,13,13,14,14,15,15,16,16,17,17,18,18,19,19,21,21,22,22,23,23,24,24,25,25,26,26,27,27,28,28,29,29,30,30],"right_children":[2,4,6,8,10,12,14,16,18,20,22,24,26,28,30,32,34,36,38,40,-1,42,44,46,48,50,52,54,56,58,60,-1,-1,-1,-1,-1,-1,-1,-1,-1,-1,-1,-1,-1,-1,-1,-1,-1,-1,-1,-1,-1,-1,-1,-1,-1,-1,-1,-1,-1,-1],"split_conditions":[1.4130302E2,4.7533405E-1,9.159784E1,1.884E1,4.591E0,6.9974494E-1,6E0,2.14E1,1.115E1,1.3176066E0,8.7428266E-1,4.6666665E0,3.825E3,6.0598427E1,4.8E0,1.8598131E0,4.728E0,3.6E1,9.386E0,4.3072188E-1,7.918202E-2,4.7539945E0,8.773598E-1,3.225E3,4.703E1,3.8E3,4E0,1.02391785E2,1.115E1,8.68562E2,4.703E1,6.173154E-2,6.947683E-3,1.2963535E-2,-2.676359E-3,-5.922982E-3,2.8142758E-2,-7.4251285E-3,7.8311525E-3,-1.0637457E-2,-5.865086E-3,-4.9140668E-3,-7.3365527E-3,2.5515696E-2,-3.9598076E-3,-6.7131463E-3,-4.373789E-3,-5.544033E-3,2.8804713E-3,-7.897213E-3,3.3010775E-3,-6.573919E-3,-9.097032E-3,6.288387E-2,1.19994715E-1,3.3267464E-2,-4.431879E-3,1.2098847E-2,-8.491104E-3,-8.7759E-3,3.347147E-2],"split_indices":[88,6,100,3,82,118,103,22,23,11,118,73,43,47,73,113,82,71,82,118,0,123,118,112,71,43,99,100,23,72,71,0,0,0,0,0,0,0,0,0,0,0,0,0,0,0,0,0,0,0,0,0,0,0,0,0,0,0,0,0,0],"split_type":[0,0,0,0,0,0,0,0,0,0,0,0,0,0,0,0,0,0,0,0,0,0,0,0,0,0,0,0,0,0,0,0,0,0,0,0,0,0,0,0,0,0,0,0,0,0,0,0,0,0,0,0,0,0,0,0,0,0,0,0,0],"sum_hessian":[2.01728E5,1.89089E5,1.2639E4,1.29621E5,5.9468E4,5.448E3,7.191E3,8.8088E4,4.1533E4,3.5E2,5.9118E4,3.076E3,2.372E3,1.85E3,5.341E3,1.379E3,8.6709E4,1.0777E4,3.0756E4,2.43E2,1.07E2,5.2013E4,7.105E3,2.157E3,9.19E2,1.82E2,2.19E3,1.487E3,3.63E2,2.586E3,2.755E3,3.21E2,1.058E3,2.844E3,8.3865E4,3.014E3,7.763E3,9.297E3,2.1459E4,5E1,1.93E2,4.3519E4,8.494E3,4.7E2,6.635E3,1.857E3,3E2,5.89E2,3.3E2,1.06E2,7.6E1,8.05E2,1.385E3,1.262E3,2.25E2,1.23E2,2.4E2,7.34E2,1.852E3,4.31E2,2.324E3],"tree_param":{"num_deleted":"0","num_feature":"125","num_nodes":"61","size_leaf_vector":"1"}},{"base_weights":[7.5650853E-3,-1.90298E-2,3.981478E-1,3.9977644E-2,-1.4762601E-1,1.6611735E0,1.6319983E-1,-4.432235E-2,2.1898358E-1,4.455578E-1,-1.5225182E-1,-1.0903226E-1,1.9593333E0,-1.9525532E-1,7.411589E-1,1.155715E-1,-1.1185575E-1,-2.161588E-1,3.2392955E-1,6.851453E-2,-1.988642E-1,-1.6096537E-1,7.5998716E-2,-2.2484922E-1,4.6255685E-2,3.0718204E-1,2.1794193E0,-2.140175E-1,2.3410597E-1,-2.7020794E-1,1.0515313E0,1.9449428E-2,1.6335103E-3,-4.1643293E-3,4.831636E-3,-7.0618116E-3,-4.749272E-3,2.0391606E-3,1.7042277E-2,-4.3574944E-3,-6.2383693E-3,-7.190272E-4,-5.1388433E-3,-6.4441683E-3,4.650179E-2,-4.385642E-3,-9.831011E-3,-4.6568676E-3,5.560048E-3,2.4918972E-2,-9.593141E-3,-2.0735483E-3,6.871517E-2,-5.0387247E-3,-7.468517E-3,-8.488382E-3,1.2684316E-2,-9.615771E-3,-8.571915E-4,5.3328834E-2,1.7342E-2],"categories":[],"categories_nodes":[],"categories_segments":[],"categories_sizes":[],"default_left":[0,0,0,0,0,0,0,0,0,0,0,0,0,0,0,0,0,0,0,0,0,0,0,0,0,0,0,0,0,0,0,0,0,0,0,0,0,0,0,0,0,0,0,0,0,0,0,0,0,0,0,0,0,0,0,0,0,0,0,0,0],"id":20,"left_children":[1,3,5,7,9,11,13,15,17,19,21,23,25,27,29,31,33,35,37,-1,39,41,43,45,47,49,51,53,55,57,59,-1,-1,-1,-1,-1,-1,-1,-1,-1,-1,-1,-1,-1,-1,-1,-1,-1,-1,-1,-1,-1,-1,-1,-1,-1,-1,-1,-1,-1,-1],"loss_changes":[2.1048896E3,1.439619E3,3.8330847E3,1.9624447E3,1.6380774E2,1.0695449E3,2.2568738E3,9.5470123E2,1.9014384E3,5.477464E2,1.17777466E2,5.279999E0,6.2983984E2,5.421695E1,1.3092483E3,8.548436E2,4.5728625E2,8.965881E0,2.0962874E3,0E0,1.3680077E-1,8.070642E1,9.339616E2,1.3112793E0,3.559583E0,6.75423E1,3.8232422E2,1.0325073E1,2.76344E1,1.1906212E1,1.095978E3,0E0,0E0,0E0,0E0,0E0,0E0,0E0,0E0,0E0,0E0,0E0,0E0,0E0,0E0,0E0,0E0,0E0,0E0,0E0,0E0,0E0,0E0,0E0,0E0,0E0,0E0,0E0,0E0,0E0,0E0],"parents":[2147483647,0,0,1,1,2,2,3,3,4,4,5,5,6,6,7,7,8,8,9,9,10,10,11,11,12,12,13,13,14,14,15,15,16,16,17,17,18,18,20,20,21,21,22,22,23,23,24,24,25,25,26,26,27,27,28,28,29,29,30,30],"right_children":[2,4,6,8,10,12,14,16,18,20,22,24,26,28,30,32,34,36,38,-1,40,42,44,46,48,50,52,54,56,58,60,-1,-1,-1,-1,-1,-1,-1,-1,-1,-1,-1,-1,-1,-1,-1,-1,-1,-1,-1,-1,-1,-1,-1,-1,-1,-1,-1,-1,-1,-1],"split_conditions":[1.4130302E2,4.7533405E-1,1.4194754E2,1.884E1,7.71E0,3.898E1,2.7252855E1,5.34192E0,2.0478361E1,1.8360011E3,7.373806E0,2.5495E2,5.3803515E-1,6.2E0,9.85868E0,-6.792742E-2,5.6E0,-2.6E-1,6E0,6.851453E-2,8.16836E0,1.72E1,6.6093063E-1,2.4189444E1,4.5679516E-1,3.55811E-1,9.218585E1,4E0,2.6596286E2,7.1669366E2,2.3955789E0,1.9449428E-2,1.6335103E-3,-4.1643293E-3,4.831636E-3,-7.0618116E-3,-4.749272E-3,2.0391606E-3,1.7042277E-2,-4.3574944E-3,-6.2383693E-3,-7.190272E-4,-5.1388433E-3,-6.4441683E-3,4.650179E-2,-4.385642E-3,-9.831011E-3,-4.6568676E-3,5.560048E-3,2.4918972E-2,-9.593141E-3,-2.0735483E-3,6.871517E-2,-5.0387247E-3,-7.468517E-3,-8.488382E-3,1.2684316E-2,-9.615771E-3,-8.571915E-4,5.3328834E-2,1.7342E-2],"split_indices":[88,6,88,3,34,71,115,117,116,16,11,19,114,73,122,111,73,124,99,0,122,71,53,115,53,6,106,99,7,27,36,0,0,0,0,0,0,0,0,0,0,0,0,0,0,0,0,0,0,0,0,0,0,0,0,0,0,0,0,0,0],"split_type":[0,0,0,0,0,0,0,0,0,0,0,0,0,0,0,0,0,0,0,0,0,0,0,0,0,0,0,0,0,0,0,0,0,0,0,0,0,0,0,0,0,0,0,0,0,0,0,0,0,0,0,0,0,0,0,0,0,0,0,0,0],"sum_hessian":[2.02635E5,1.89718E5,1.2917E4,1.30046E5,5.9672E4,2.025E3,1.0892E4,8.8411E4,4.1635E4,4.61E2,5.9211E4,2.92E2,1.733E3,6.723E3,4.169E3,2.6253E4,6.2158E4,8.09E3,3.3545E4,1.19E2,3.42E2,5.7034E4,2.177E3,1.67E2,1.25E2,2.04E2,1.529E3,6.442E3,2.81E2,9.79E2,3.19E3,2.701E3,2.3552E4,5.6571E4,5.587E3,6.069E3,2.021E3,1.6377E4,1.7168E4,5.2E1,2.9E2,3.999E3,5.3035E4,1.819E3,3.58E2,9.6E1,7.1E1,5.1E1,7.4E1,1.11E2,9.3E1,7.2E1,1.457E3,2.781E3,3.661E3,7.5E1,2.06E2,8.1E2,1.69E2,1.258E3,1.932E3],"tree_param":{"num_deleted":"0","num_feature":"125","num_nodes":"61","size_leaf_vector":"1"}},{"base_weights":[8.314667E-3,7.06352E-2,-1.3477859E-1,-4.4311453E-2,2.13257E-1,-1.4480458E-1,3.350428E-1,6.669135E-2,-1.7291482E-1,-1.6632655E-1,3.2280037E-1,-1.6182296E-1,-2.4570847E-2,-1.6733986E-1,1.2577484E0,3.8884586E-1,-1.41170295E-2,8.213896E-1,-1.7809488E-1,-1.8248913E-1,5.2284393E-2,1.695017E-1,6.072592E-1,-1.1228276E-1,-1.8397568E-1,-6.1896585E-2,1.5700414E0,-2.0080593E-1,2.990075E-3,-4.4935476E-3,1.6287789E0,3.055592E-2,3.5987021E-3,-3.8011014E-3,7.062801E-3,-2.1397232E-3,4.7466848E-2,-5.5515515E-3,1.1509797E-2,1.0973831E-2,-6.235344E-3,1.7761411E-2,-1.6229639E-3,3.3454854E-2,1.1742311E-2,-4.229319E-3,2.0191502E-2,-5.102943E-3,-6.9546467E-3,-4.9104504E-3,1.4875288E-2,-6.695686E-3,8.391989E-2,-6.8250042E-3,4.656417E-3,5.8244485E-2,3.4249384E-2],"categories":[],"categories_nodes":[],"categories_segments":[],"categories_sizes":[],"default_left":[0,0,0,0,0,0,0,0,0,0,0,0,0,0,0,0,0,0,0,0,0,0,0,0,0,0,0,0,0,0,0,0,0,0,0,0,0,0,0,0,0,0,0,0,0,0,0,0,0,0,0,0,0,0,0,0,0],"id":21,"left_children":[1,3,5,7,9,11,13,15,17,19,21,23,25,27,29,31,33,35,37,39,-1,41,43,45,47,49,51,53,-1,-1,55,-1,-1,-1,-1,-1,-1,-1,-1,-1,-1,-1,-1,-1,-1,-1,-1,-1,-1,-1,-1,-1,-1,-1,-1,-1,-1],"loss_changes":[1.7988418E3,2.3036472E3,2.8832166E2,1.110761E3,2.6075896E3,1.2260535E2,5.930925E2,1.0872125E3,1.8580823E2,4.3369882E2,2.122083E3,5.7585693E1,4.423909E2,7.427746E0,2.3577325E2,1.4178944E3,9.381011E2,1.2712532E2,1.4021716E2,1.9370444E2,0E0,2.9880046E3,1.8678813E3,3.6565375E2,2.4043213E1,4.1234183E2,3.7476227E2,7.0395145E0,0E0,0E0,5.2164734E1,0E0,0E0,0E0,0E0,0E0,0E0,0E0,0E0,0E0,0E0,0E0,0E0,0E0,0E0,0E0,0E0,0E0,0E0,0E0,0E0,0E0,0E0,0E0,0E0,0E0,0E0],"parents":[2147483647,0,0,1,1,2,2,3,3,4,4,5,5,6,6,7,7,8,8,9,9,10,10,11,11,12,12,13,13,14,14,15,15,16,16,17,17,18,18,19,19,21,21,22,22,23,23,24,24,25,25,26,26,27,27,30,30],"right_children":[2,4,6,8,10,12,14,16,18,20,22,24,26,28,30,32,34,36,38,40,-1,42,44,46,48,50,52,54,-1,-1,56,-1,-1,-1,-1,-1,-1,-1,-1,-1,-1,-1,-1,-1,-1,-1,-1,-1,-1,-1,-1,-1,-1,-1,-1,-1,-1],"split_conditions":[4.7533405E-1,1.881E1,2.9621359E1,5.9859967E0,2.0671207E1,8.7428266E-1,-1.0033295E0,4.26116E1,2.2239103E1,1.8371173E3,4.8E0,5.11E0,7E0,1.9694743E0,5.47E1,4.2611057E-1,5.161344E0,1.758E1,7E0,2.1E4,5.2284393E-2,4.8649433E1,4.4113117E-1,5.1E0,4.7539945E0,5.9583616E0,2.1375E1,1.2232002E2,2.990075E-3,-4.4935476E-3,3.701E1,3.055592E-2,3.5987021E-3,-3.8011014E-3,7.062801E-3,-2.1397232E-3,4.7466848E-2,-5.5515515E-3,1.1509797E-2,1.0973831E-2,-6.235344E-3,1.7761411E-2,-1.6229639E-3,3.3454854E-2,1.1742311E-2,-4.229319E-3,2.0191502E-2,-5.102943E-3,-6.9546467E-3,-4.9104504E-3,1.4875288E-2,-6.695686E-3,8.391989E-2,-6.8250042E-3,4.656417E-3,5.8244485E-2,3.4249384E-2],"split_indices":[6,3,115,117,116,118,102,28,106,44,73,35,120,24,86,111,123,3,81,90,0,47,53,4,123,11,46,100,0,0,71,0,0,0,0,0,0,0,0,0,0,0,0,0,0,0,0,0,0,0,0,0,0,0,0,0,0],"split_type":[0,0,0,0,0,0,0,0,0,0,0,0,0,0,0,0,0,0,0,0,0,0,0,0,0,0,0,0,0,0,0,0,0,0,0,0,0,0,0,0,0,0,0,0,0,0,0,0,0,0,0,0,0,0,0,0,0],"sum_hessian":[2.01715E5,1.40517E5,6.1198E4,7.7808E4,6.2709E4,5.992E4,1.278E3,4.1762E4,3.6046E4,1.4044E4,4.8665E4,5.249E4,7.43E3,8.28E2,4.5E2,8.374E3,3.3388E4,1.86E2,3.586E4,1.3927E4,1.17E2,3.1624E4,1.7041E4,1.6221E4,3.6269E4,7.261E3,1.69E2,7.36E2,9.2E1,9.4E1,3.56E2,2.505E3,5.869E3,2.3008E4,1.038E4,8.6E1,1E2,3.5422E4,4.38E2,6.15E2,1.3312E4,1.0943E4,2.0681E4,5.081E3,1.196E4,1.565E4,5.71E2,2.8118E4,8.151E3,6.141E3,1.12E3,6.9E1,1E2,6.85E2,5.1E1,2.15E2,1.41E2],"tree_param":{"num_deleted":"0","num_feature":"125","num_nodes":"57","size_leaf_vector":"1"}},{"base_weights":[1.4998135E-3,-2.4698958E-2,3.7647447E-1,-8.142198E-2,1.0039431E-1,-1.4722836E-2,9.204148E-1,2.1472255E-2,-1.21261224E-1,-6.498124E-2,2.6668662E-1,-1.0314743E-1,1.8144305E0,-1.586988E-1,1.2032824E0,-4.991057E-2,4.2824063E-1,6.765615E-1,-1.2848283E-1,6.852311E-1,-1.00284286E-1,1.8194402E0,2.2693975E-1,-2.521289E-1,2.6676226E-1,3.4145985E0,-2.9961002E-1,6.71062E-2,-1.9817924E-1,1.4815373E0,3.0767137E-1,1.9536622E-2,-2.5730366E-3,1.06249526E-1,8.36765E-3,5.371267E-2,-5.2288724E-3,-4.0440476E-3,1.7306916E-2,-6.5996554E-3,5.4768812E-2,-4.8783156E-3,2.680516E-3,8.1041746E-2,9.107533E-3,-3.0165876E-3,1.21464785E-2,-6.4465236E-3,-1.004432E-2,2.7017811E-2,-5.47515E-3,9.1243476E-2,1.1261819E-1,-5.4884613E-3,-1.37695065E-2,-4.3827104E-3,1.0659495E-2,-6.7150355E-3,-1.6044793E-3,5.1256035E-2,9.048157E-3,-2.8867181E-3,3.4335345E-2],"categories":[],"categories_nodes":[],"categories_segments":[],"categories_sizes":[],"default_left":[0,0,0,0,0,0,0,0,0,0,0,0,0,0,0,0,0,0,0,0,0,0,0,0,0,0,0,0,0,0,0,0,0,0,0,0,0,0,0,0,0,0,0,0,0,0,0,0,0,0,0,0,0,0,0,0,0,0,0,0,0,0,0],"id":22,"left_children":[1,3,5,7,9,11,13,15,17,19,21,23,25,27,29,31,33,35,37,39,41,43,45,47,49,51,53,55,57,59,61,-1,-1,-1,-1,-1,-1,-1,-1,-1,-1,-1,-1,-1,-1,-1,-1,-1,-1,-1,-1,-1,-1,-1,-1,-1,-1,-1,-1,-1,-1,-1,-1],"loss_changes":[1.9792057E3,1.3362076E3,2.7996655E3,5.31111E2,1.6156824E3,1.2381615E3,1.6802666E3,1.0500892E3,5.3821716E2,7.80231E2,1.8075278E3,4.0247815E2,1.1951583E3,1.0211924E1,1.0863408E3,7.735342E2,2.5089597E3,7.945154E2,4.126416E2,1.3671785E3,3.3253662E2,9.764617E2,1.6646077E3,1.5959717E1,5.9730554E2,1.4034424E1,2.7607164E0,1.0559079E1,3.6037445E0,8.905918E2,3.4993582E2,0E0,0E0,0E0,0E0,0E0,0E0,0E0,0E0,0E0,0E0,0E0,0E0,0E0,0E0,0E0,0E0,0E0,0E0,0E0,0E0,0E0,0E0,0E0,0E0,0E0,0E0,0E0,0E0,0E0,0E0,0E0,0E0],"parents":[2147483647,0,0,1,1,2,2,3,3,4,4,5,5,6,6,7,7,8,8,9,9,10,10,11,11,12,12,13,13,14,14,15,15,16,16,17,17,18,18,19,19,20,20,21,21,22,22,23,23,24,24,25,25,26,26,27,27,28,28,29,29,30,30],"right_children":[2,4,6,8,10,12,14,16,18,20,22,24,26,28,30,32,34,36,38,40,42,44,46,48,50,52,54,56,58,60,62,-1,-1,-1,-1,-1,-1,-1,-1,-1,-1,-1,-1,-1,-1,-1,-1,-1,-1,-1,-1,-1,-1,-1,-1,-1,-1,-1,-1,-1,-1,-1,-1],"split_conditions":[1.4130302E2,3.729811E0,4.8E0,2.2E4,5.77898E-1,3.568418E1,9.358331E1,1.711E1,4.591E0,3.9921606E0,1.95E4,8.295466E1,1.15E3,3.5200933E-1,3.0299213E1,8.5254E0,4.351992E-1,3.2526806E-1,7.3782776E2,3.9769027E0,8.306749E-1,4.698826E0,8.88864E0,9.876054E1,4.011E1,1.1169E2,9.93446E0,1.3715E2,2.23E4,4.929E1,2.26E4,1.9536622E-2,-2.5730366E-3,1.06249526E-1,8.36765E-3,5.371267E-2,-5.2288724E-3,-4.0440476E-3,1.7306916E-2,-6.5996554E-3,5.4768812E-2,-4.8783156E-3,2.680516E-3,8.1041746E-2,9.107533E-3,-3.0165876E-3,1.21464785E-2,-6.4465236E-3,-1.004432E-2,2.7017811E-2,-5.47515E-3,9.1243476E-2,1.1261819E-1,-5.4884613E-3,-1.37695065E-2,-4.3827104E-3,1.0659495E-2,-6.7150355E-3,-1.6044793E-3,5.1256035E-2,9.048157E-3,-2.8867181E-3,3.4335345E-2],"split_indices":[88,40,73,90,53,115,106,46,82,40,90,25,112,118,48,121,93,118,27,40,118,40,122,106,71,0,122,41,70,71,70,0,0,0,0,0,0,0,0,0,0,0,0,0,0,0,0,0,0,0,0,0,0,0,0,0,0,0,0,0,0,0,0],"split_type":[0,0,0,0,0,0,0,0,0,0,0,0,0,0,0,0,0,0,0,0,0,0,0,0,0,0,0,0,0,0,0,0,0,0,0,0,0,0,0,0,0,0,0,0,0,0,0,0,0,0,0,0,0,0,0,0,0,0,0,0,0,0,0],"sum_hessian":[2.01467E5,1.88311E5,1.3156E4,1.29562E5,5.8749E4,7.653E3,5.503E3,3.6163E4,9.3399E4,2.9456E4,2.9293E4,7.301E3,3.52E2,1.143E3,4.36E3,3.0765E4,5.398E3,8.37E2,9.2562E4,1.323E3,2.8133E4,7.3E2,2.8563E4,5.205E3,2.096E3,2E2,1.52E2,1.7E2,9.73E2,3.326E3,1.034E3,1.496E3,2.9269E4,2.46E2,5.152E3,3.62E2,4.75E2,9.1741E4,8.21E2,7.38E2,5.85E2,2.1174E4,6.959E3,4.61E2,2.69E2,1.0056E4,1.8507E4,3.591E3,1.614E3,8.69E2,1.227E3,1E2,1E2,8.9E1,6.3E1,9.8E1,7.2E1,8.26E2,1.47E2,2.789E3,5.37E2,6.98E2,3.36E2],"tree_param":{"num_deleted":"0","num_feature":"125","num_nodes":"63","size_leaf_vector":"1"}},{"base_weights":[1.2512008E-2,-4.6163213E-2,1.5727228E-1,1.0670909E-1,-9.589037E-2,-1.6319546E-1,2.7279818E-1,1.876783E-2,5.4918045E-1,6.805815E-1,-1.0340039E-1,-1.9567738E-1,2.9130098E-1,-1.6976868E-1,3.6937603E-1,4.3526995E-1,-3.9659463E-2,8.754726E-1,-6.1292216E-2,1.541934E0,-1.0787177E-1,-1.6564904E-1,-6.229963E-2,-1.7905924E-1,-2.1626163E-1,-2.365159E-1,1.086794E0,1.4113543E0,-2.2208275E-1,5.265868E-1,1.7132336E-2,3.3838578E-2,2.533437E-3,4.9381793E-2,-1.541202E-3,-7.44451E-3,3.5364415E-2,-5.6705247E-3,4.499471E-2,7.029952E-2,2.6578471E-2,-5.4130964E-3,2.2409046E-3,-3.6290404E-3,-5.9279017E-3,-2.4658951E-3,1.7485851E-2,-3.4621265E-3,-5.484097E-3,-4.301478E-3,-6.843599E-3,-7.4724946E-3,-2.7204393E-3,3.4966778E-2,2.585985E-2,3.136352E-2,5.5507507E-2,-7.4511906E-3,3.652489E-2,2.1573447E-3,2.0887267E-2,-1.6115264E-3,2.4189726E-2],"categories":[],"categories_nodes":[],"categories_segments":[],"categories_sizes":[],"default_left":[0,0,0,0,0,0,0,0,0,0,0,0,0,0,0,0,0,0,0,0,0,0,0,0,0,0,0,0,0,0,0,0,0,0,0,0,0,0,0,0,0,0,0,0,0,0,0,0,0,0,0,0,0,0,0,0,0,0,0,0,0,0,0],"id":23,"left_children":[1,3,5,7,9,11,13,15,17,19,21,23,25,27,29,31,33,35,37,39,41,43,45,47,49,51,53,55,57,59,61,-1,-1,-1,-1,-1,-1,-1,-1,-1,-1,-1,-1,-1,-1,-1,-1,-1,-1,-1,-1,-1,-1,-1,-1,-1,-1,-1,-1,-1,-1,-1,-1],"loss_changes":[1.7238492E3,1.0978545E3,2.1671836E3,1.3792854E3,6.355145E2,2.2904453E2,1.8390862E3,7.196303E2,1.1707074E3,7.091846E2,2.7611987E2,4.913513E0,4.3482733E2,6.378805E2,1.9558335E3,8.83969E2,5.121878E2,1.3057141E3,4.086423E2,2.6024597E2,7.2469144E0,6.1243896E1,8.3453577E2,1.8893127E0,5.5519104E0,1.1192093E0,6.308014E0,3.773227E1,2.827163E2,1.8836631E3,6.095075E2,0E0,0E0,0E0,0E0,0E0,0E0,0E0,0E0,0E0,0E0,0E0,0E0,0E0,0E0,0E0,0E0,0E0,0E0,0E0,0E0,0E0,0E0,0E0,0E0,0E0,0E0,0E0,0E0,0E0,0E0,0E0,0E0],"parents":[2147483647,0,0,1,1,2,2,3,3,4,4,5,5,6,6,7,7,8,8,9,9,10,10,11,11,12,12,13,13,14,14,15,15,16,16,17,17,18,18,19,19,20,20,21,21,22,22,23,23,24,24,25,25,26,26,27,27,28,28,29,29,30,30],"right_children":[2,4,6,8,10,12,14,16,18,20,22,24,26,28,30,32,34,36,38,40,42,44,46,48,50,52,54,56,58,60,62,-1,-1,-1,-1,-1,-1,-1,-1,-1,-1,-1,-1,-1,-1,-1,-1,-1,-1,-1,-1,-1,-1,-1,-1,-1,-1,-1,-1,-1,-1,-1,-1],"split_conditions":[6.721E1,2.2E4,5.5377436E-1,9.75E0,4.591E0,1.028216E1,8.98616E0,8.26222E0,6.6768585E1,4.3072188E-1,2.5747128E0,2.1489403E1,1.4795824E2,8.57322E0,7E0,3.7223306E-1,1.84E4,2.0597729E1,2.775E0,4.1763992E1,2.0087757E0,2.552941E0,4.2375E3,2.5791931E1,2.4315789E0,1.9339074E0,1.1252671E2,4E0,2E0,2.1587053E1,7.190189E0,3.3838578E-2,2.533437E-3,4.9381793E-2,-1.541202E-3,-7.44451E-3,3.5364415E-2,-5.6705247E-3,4.499471E-2,7.029952E-2,2.6578471E-2,-5.4130964E-3,2.2409046E-3,-3.6290404E-3,-5.9279017E-3,-2.4658951E-3,1.7485851E-2,-3.4621265E-3,-5.484097E-3,-4.301478E-3,-6.843599E-3,-7.4724946E-3,-2.7204393E-3,3.4966778E-2,2.585985E-2,3.136352E-2,5.5507507E-2,-7.4511906E-3,3.652489E-2,2.1573447E-3,2.0887267E-2,-1.6115264E-3,2.4189726E-2],"split_indices":[32,90,118,1,82,122,122,122,106,118,113,116,88,31,103,111,90,116,92,37,24,92,43,85,113,24,106,96,104,116,55,0,0,0,0,0,0,0,0,0,0,0,0,0,0,0,0,0,0,0,0,0,0,0,0,0,0,0,0,0,0,0,0],"split_type":[0,0,0,0,0,0,0,0,0,0,0,0,0,0,0,0,0,0,0,0,0,0,0,0,0,0,0,0,0,0,0,0,0,0,0,0,0,0,0,0,0,0,0,0,0,0,0,0,0,0,0,0,0,0,0,0,0,0,0,0,0,0,0],"sum_hessian":[2.02951E5,1.44416E5,5.8535E4,3.5446E4,1.0897E5,1.551E4,4.3025E4,2.957E4,5.876E3,1.043E3,1.07927E5,1.4476E4,1.034E3,7.707E3,3.5318E4,3.637E3,2.5933E4,3.829E3,2.047E3,4.98E2,5.45E2,4.292E4,6.5007E4,8.015E3,6.461E3,6.22E2,4.12E2,2.46E2,7.461E3,2.4419E4,1.0899E4,1.222E3,2.415E3,1.78E2,2.5755E4,8.14E2,3.015E3,1.893E3,1.54E2,2.23E2,2.75E2,3.9E2,1.55E2,1.7896E4,2.5024E4,6.3063E4,1.944E3,4.47E2,7.568E3,9.06E2,5.555E3,5.72E2,5E1,3.02E2,1.1E2,1.36E2,1.1E2,7.328E3,1.33E2,6.636E3,1.7783E4,1.0002E4,8.97E2],"tree_param":{"num_deleted":"0","num_feature":"125","num_nodes":"63","size_leaf_vector":"1"}},{"base_weights":[1.9026764E-2,-1.47484485E-2,2.4253395E-1,-5.748754E-2,1.4728586E-1,-1.7288898E-1,6.055791E-1,5.2420676E-1,-6.926737E-2,-4.390297E-2,4.8865253E-1,-4.6774045E-2,-2.4187648E-1,1.0214747E0,-9.936721E-2,1.356343E0,-3.553617E-2,-9.925344E-2,9.9845804E-2,-1.488781E-1,1.36963E-1,1.2234476E0,1.9440362E-1,1.5784767E-1,-2.4651814E-1,-2.518696E-1,-1.6245991E-1,1.2205124E0,-1.55917E-1,1.267843E0,-1.898709E-1,-6.8139303E-3,4.551763E-2,-4.3686405E-3,3.857291E-2,3.7511676E-3,-3.6789107E-3,7.0129465E-3,-5.5278633E-3,-6.209381E-3,3.123914E-3,2.543147E-2,1.3290772E-3,4.7861055E-2,8.677345E-3,2.6480345E-2,-8.323112E-4,-2.9033192E-3,2.0165069E-2,-7.5209048E-3,-1.9929777E-3,-6.482255E-3,-8.179969E-3,-3.5434084E-3,-7.2217155E-3,3.9190162E-2,-4.255063E-3,-2.5306838E-3,-9.444323E-3,8.03683E-2,1.9198306E-2,-6.4862357E-3,1.778869E-2],"categories":[],"categories_nodes":[],"categories_segments":[],"categories_sizes":[],"default_left":[0,0,0,0,0,0,0,0,0,0,0,0,0,0,0,0,0,0,0,0,0,0,0,0,0,0,0,0,0,0,0,0,0,0,0,0,0,0,0,0,0,0,0,0,0,0,0,0,0,0,0,0,0,0,0,0,0,0,0,0,0,0,0],"id":24,"left_children":[1,3,5,7,9,11,13,15,17,19,21,23,25,27,29,31,33,35,37,39,41,43,45,47,49,51,53,55,57,59,61,-1,-1,-1,-1,-1,-1,-1,-1,-1,-1,-1,-1,-1,-1,-1,-1,-1,-1,-1,-1,-1,-1,-1,-1,-1,-1,-1,-1,-1,-1,-1,-1],"loss_changes":[1.5380149E3,1.2257133E3,4.0338638E3,9.597092E2,2.4109941E3,1.0851688E2,4.1847183E3,1.2949233E3,6.9612665E2,4.49619E2,2.8671738E3,1.8036609E2,6.358032E0,2.1039082E3,6.556785E2,2.8520972E2,2.420798E2,6.1137476E2,7.8667456E2,2.2028812E2,5.727349E2,1.3170674E3,1.4481248E3,2.855558E2,1.6637268E0,5.2709045E0,3.1090946E0,8.9805664E2,1.4743824E1,2.8978925E2,1.0257553E2,0E0,0E0,0E0,0E0,0E0,0E0,0E0,0E0,0E0,0E0,0E0,0E0,0E0,0E0,0E0,0E0,0E0,0E0,0E0,0E0,0E0,0E0,0E0,0E0,0E0,0E0,0E0,0E0,0E0,0E0,0E0,0E0],"parents":[2147483647,0,0,1,1,2,2,3,3,4,4,5,5,6,6,7,7,8,8,9,9,10,10,11,11,12,12,13,13,14,14,15,15,16,16,17,17,18,18,19,19,20,20,21,21,22,22,23,23,24,24,25,25,26,26,27,27,28,28,29,29,30,30],"right_children":[2,4,6,8,10,12,14,16,18,20,22,24,26,28,30,32,34,36,38,40,42,44,46,48,50,52,54,56,58,60,62,-1,-1,-1,-1,-1,-1,-1,-1,-1,-1,-1,-1,-1,-1,-1,-1,-1,-1,-1,-1,-1,-1,-1,-1,-1,-1,-1,-1,-1,-1,-1,-1],"split_conditions":[2.23E4,8.475256E-1,1.1620671E3,4.728E0,2.08E1,4.98E3,4.944E1,4.3072188E-1,5.11242E1,6.07E0,1.215E1,1.215E1,5E0,4.569075E-1,1.1672189E3,7.0520186E0,2.2E4,2.12E4,1.0485E1,2.725E3,1.7421618E1,6E0,8.873592E-1,6.04E0,5.8960827E1,5.563131E-1,1.8699851E0,1.4095374E0,4.7484884E0,-1.2881224E1,6E0,-6.8139303E-3,4.551763E-2,-4.3686405E-3,3.857291E-2,3.7511676E-3,-3.6789107E-3,7.0129465E-3,-5.5278633E-3,-6.209381E-3,3.123914E-3,2.543147E-2,1.3290772E-3,4.7861055E-2,8.677345E-3,2.6480345E-2,-8.323112E-4,-2.9033192E-3,2.0165069E-2,-7.5209048E-3,-1.9929777E-3,-6.482255E-3,-8.179969E-3,-3.5434084E-3,-7.2217155E-3,3.9190162E-2,-4.255063E-3,-2.5306838E-3,-9.444323E-3,8.03683E-2,1.9198306E-2,-6.4862357E-3,1.778869E-2],"split_indices":[70,118,72,82,87,15,71,118,28,4,23,23,110,6,72,55,70,90,82,112,12,103,118,4,12,118,24,114,123,102,73,0,0,0,0,0,0,0,0,0,0,0,0,0,0,0,0,0,0,0,0,0,0,0,0,0,0,0,0,0,0,0,0],"split_type":[0,0,0,0,0,0,0,0,0,0,0,0,0,0,0,0,0,0,0,0,0,0,0,0,0,0,0,0,0,0,0,0,0,0,0,0,0,0,0,0,0,0,0,0,0,0,0,0,0,0,0,0,0,0,0,0,0,0,0,0,0,0,0],"sum_hessian":[2.03736E5,1.76991E5,2.6745E4,1.40051E5,3.694E4,1.2473E4,1.4272E4,2.779E3,1.37272E5,2.3679E4,1.3261E4,4.411E3,8.062E3,8.976E3,5.296E3,1.117E3,1.662E3,1.16598E5,2.0674E4,1.4983E4,8.696E3,3.791E3,9.47E3,2.179E3,2.232E3,7.159E3,9.03E2,7.678E3,1.298E3,3.28E2,4.968E3,1.03E2,1.014E3,1.535E3,1.27E2,1.1005E4,1.05593E5,1.4051E4,6.623E3,1.2185E4,2.798E3,1.002E3,7.694E3,2.711E3,1.08E3,2.31E3,7.16E3,1.458E3,7.21E2,2.181E3,5.1E1,2.635E3,4.524E3,5.78E2,3.25E2,7.223E3,4.55E2,8.96E2,4.02E2,1E2,2.28E2,4.807E3,1.61E2],"tree_param":{"num_deleted":"0","num_feature":"125","num_nodes":"63","size_leaf_vector":"1"}},{"base_weights":[1.178485E-2,-1.213677E-2,3.6348203E-1,1.193813E-1,-6.2519245E-2,1.5410025E0,1.6140193E-1,1.5724944E-2,6.2726307E-1,-1.0350608E-1,3.068362E-2,6.2614757E-1,2.0550432E0,-1.8239924E-1,6.471185E-1,-7.835647E-2,3.0762184E-1,1.6323055E0,3.723055E-1,5.93146E-1,-1.1030145E-1,-1.4919077E-1,1.5776508E-1,-1.773724E-1,1.538535E0,1.101653E0,2.4252703E0,-1.9831122E-1,1.9398975E-1,-2.2973767E-1,9.121928E-1,1.445567E-2,-3.2135139E-3,6.1510775E-2,7.626408E-3,5.977296E-2,-7.528466E-3,1.9786822E-2,-3.5182347E-3,4.8894648E-2,-3.121941E-3,-3.4789816E-3,1.5445431E-2,3.6170207E-2,-4.865993E-3,5.5418664E-4,1.5925521E-2,-7.705497E-3,1.2967271E-3,5.1597834E-2,4.343561E-2,1.4341944E-2,4.5915365E-2,8.548355E-2,4.24078E-2,-4.650238E-3,-6.9101066E-3,-8.151105E-3,1.0565732E-2,2.8108056E-3,-7.5080735E-3,6.064656E-2,1.7813783E-2],"categories":[],"categories_nodes":[],"categories_segments":[],"categories_sizes":[],"default_left":[0,0,0,0,0,0,0,0,0,0,0,0,0,0,0,0,0,0,0,0,0,0,0,0,0,0,0,0,0,0,0,0,0,0,0,0,0,0,0,0,0,0,0,0,0,0,0,0,0,0,0,0,0,0,0,0,0,0,0,0,0,0,0],"id":25,"left_children":[1,3,5,7,9,11,13,15,17,19,21,23,25,27,29,31,33,35,37,39,41,43,45,47,49,51,53,55,57,59,61,-1,-1,-1,-1,-1,-1,-1,-1,-1,-1,-1,-1,-1,-1,-1,-1,-1,-1,-1,-1,-1,-1,-1,-1,-1,-1,-1,-1,-1,-1,-1,-1],"loss_changes":[1.7037462E3,1.2564224E3,3.0686372E3,2.7648623E3,5.2371857E2,8.870581E2,1.8385101E3,1.1978647E3,2.280469E3,4.5084204E2,9.5723157E2,4.9952866E2,4.2406982E2,3.8650146E1,1.060797E3,5.315405E2,9.890681E2,1.2219556E3,9.988629E2,6.651284E2,3.3400378E2,3.057675E2,1.2752307E3,6.37539E0,2.756958E0,9.019504E1,3.6931934E2,8.543152E0,1.9398092E1,7.062393E0,1.2364829E3,0E0,0E0,0E0,0E0,0E0,0E0,0E0,0E0,0E0,0E0,0E0,0E0,0E0,0E0,0E0,0E0,0E0,0E0,0E0,0E0,0E0,0E0,0E0,0E0,0E0,0E0,0E0,0E0,0E0,0E0,0E0,0E0],"parents":[2147483647,0,0,1,1,2,2,3,3,4,4,5,5,6,6,7,7,8,8,9,9,10,10,11,11,12,12,13,13,14,14,15,15,16,16,17,17,18,18,19,19,20,20,21,21,22,22,23,23,24,24,25,25,26,26,27,27,28,28,29,29,30,30],"right_children":[2,4,6,8,10,12,14,16,18,20,22,24,26,28,30,32,34,36,38,40,42,44,46,48,50,52,54,56,58,60,62,-1,-1,-1,-1,-1,-1,-1,-1,-1,-1,-1,-1,-1,-1,-1,-1,-1,-1,-1,-1,-1,-1,-1,-1,-1,-1,-1,-1,-1,-1,-1,-1],"split_conditions":[1.4130302E2,2.2E4,1.4194754E2,3.398E1,3.8005836E0,5.75E0,2.6756548E1,1.1620671E3,3.929522E0,4.591E0,8.97604E0,2.3620996E1,6.7010493E0,6.2E0,9.707432E0,4.728E0,1.95E4,1.7965E2,4.6754092E-1,3.2526806E-1,7.3782776E2,1.1178039E1,6.321347E-1,3.1923077E0,3.7888217E0,2E0,8.07865E-1,4E0,2.6380732E1,1.8588214E-1,6E0,1.445567E-2,-3.2135139E-3,6.1510775E-2,7.626408E-3,5.977296E-2,-7.528466E-3,1.9786822E-2,-3.5182347E-3,4.8894648E-2,-3.121941E-3,-3.4789816E-3,1.5445431E-2,3.6170207E-2,-4.865993E-3,5.5418664E-4,1.5925521E-2,-7.705497E-3,1.2967271E-3,5.1597834E-2,4.343561E-2,1.4341944E-2,4.5915365E-2,8.548355E-2,4.24078E-2,-4.650238E-3,-6.9101066E-3,-8.151105E-3,1.0565732E-2,2.8108056E-3,-7.5080735E-3,6.064656E-2,1.7813783E-2],"split_indices":[88,90,88,45,40,73,115,72,2,82,122,89,55,73,105,82,90,18,93,118,27,89,53,113,2,81,54,99,8,118,103,0,0,0,0,0,0,0,0,0,0,0,0,0,0,0,0,0,0,0,0,0,0,0,0,0,0,0,0,0,0,0,0],"split_type":[0,0,0,0,0,0,0,0,0,0,0,0,0,0,0,0,0,0,0,0,0,0,0,0,0,0,0,0,0,0,0,0,0,0,0,0,0,0,0,0,0,0,0,0,0,0,0,0,0,0,0,0,0,0,0,0,0,0,0,0,0,0,0],"sum_hessian":[2.02508E5,1.89612E5,1.2896E4,5.2518E4,1.37094E5,1.888E3,1.1008E4,4.3617E4,8.901E3,9.522E4,4.1874E4,6.8E2,1.208E3,6.446E3,4.562E3,3.2986E4,1.0631E4,1.8E3,7.101E3,9.19E2,9.4301E4,1.7336E4,2.4538E4,3.62E2,3.18E2,3.39E2,8.69E2,6.185E3,2.61E2,1.059E3,3.503E3,1.61E3,3.1376E4,3.15E2,1.0316E4,1.511E3,2.89E2,4.475E3,2.626E3,3.69E2,5.5E2,9.3455E4,8.46E2,1.64E2,1.7172E4,1.7868E4,6.67E3,2.66E2,9.6E1,1E2,2.18E2,1.39E2,2E2,6.11E2,2.58E2,2.632E3,3.553E3,6.6E1,1.95E2,6.3E1,9.96E2,7.8E2,2.723E3],