{"learner":{"attributes":{"best_iteration":"122","best_score":"0.6041325733570475"},"feature_names":["proj_sum","proj_mean","proj_std","proj_max","proj_min","proj_range","proj_cv","own_sum","own_mean","own_std","own_max","own_min","own_range","own_prod_log","sal_sum","sal_mean","sal_std","sal_unused","ceil85_sum","ceil95_sum","ceil99_sum","ceil85_mean","ceil85_max","ceil85_min","ceil_to_proj_ratio","std_sum","std_mean","var_sum","saber_team_sum","saber_team_mean","saber_game_sum","saber_game_mean","h_proj_sum","h_proj_mean","h_proj_max","h_proj_min","h_proj_std","h_own_sum","h_own_mean","h_own_std","h_own_min","h_ceil85_sum","h_ceil85_max","h_sal_mean","h_sal_std","p_proj_sum","p_proj_mean","p_own_sum","p_own_mean","p_sal_sum","p_n","proj_per_dollar","ceil85_per_dollar","proj_x_own_inverse","ceil_x_own_inverse","var_per_proj","ceil_minus_proj","primary_stack_size","secondary_stack_size","tertiary_stack_size","has_5_stack","has_4_stack","has_3_stack","has_4_secondary","has_3_secondary","num_teams","shape_5_3","shape_5_2","shape_4_4","shape_4_3","primary_stack_sal_sum","primary_stack_proj_sum","primary_stack_sal_std","primary_stack_order_mean","primary_stack_top4_orders","primary_stack_consecutive","bringback_count","has_bringback","has_bringback_2plus","game_stack_size","pitcher_anti_hitters","pitcher_team_hitters","proj_vs_slate_p50","proj_vs_slate_p90","own_vs_slate_median","own_vs_slate_p75","proj_top3_sum","proj_bot3_sum","own_top3_sum","own_bot3_sum","sal_top3_sum","sal_bot3_sum","stud_to_cheap_ratio","proj_top3_ratio","has_top3_proj_anchor","n_chalk_30plus","n_chalk_20plus","n_lev_5less","n_lev_10less","n_lev_15less","dev_sum","dev_max_over","dev_sum_under","dev_n_over","dev_n_under","dev_mean","dev_abs_sum","antipitcher_count","antipitcher_proj_sum","pitcher_x_pitcher_anti","stack_with_pitcher_corr","sal_skew","sal_p75_minus_p25","sal_top3_to_bot3","own_skew","own_p75_minus_p25","pos_proj_zscore_sum","pos_proj_zscore_max","pos_proj_zscore_min","num_games_in_lineup","num_teams_distinct","highest_game_total_in_lineup","lineup_avg_game_total","h_proj_excess_vs_slate_mean","p_proj_excess_vs_slate_max"],"feature_types":[],"gradient_booster":{"model":{"cats":{"enc":[],"feature_segments":[],"sorted_idx":[]},"gbtree_model_param":{"num_parallel_tree":"1","num_trees":"173"},"iteration_indptr":[0,1,2,3,4,5,6,7,8,9,10,11,12,13,14,15,16,17,18,19,20,21,22,23,24,25,26,27,28,29,30,31,32,33,34,35,36,37,38,39,40,41,42,43,44,45,46,47,48,49,50,51,52,53,54,55,56,57,58,59,60,61,62,63,64,65,66,67,68,69,70,71,72,73,74,75,76,77,78,79,80,81,82,83,84,85,86,87,88,89,90,91,92,93,94,95,96,97,98,99,100,101,102,103,104,105,106,107,108,109,110,111,112,113,114,115,116,117,118,119,120,121,122,123,124,125,126,127,128,129,130,131,132,133,134,135,136,137,138,139,140,141,142,143,144,145,146,147,148,149,150,151,152,153,154,155,156,157,158,159,160,161,162,163,164,165,166,167,168,169,170,171,172,173],"tree_info":[0,0,0,0,0,0,0,0,0,0,0,0,0,0,0,0,0,0,0,0,0,0,0,0,0,0,0,0,0,0,0,0,0,0,0,0,0,0,0,0,0,0,0,0,0,0,0,0,0,0,0,0,0,0,0,0,0,0,0,0,0,0,0,0,0,0,0,0,0,0,0,0,0,0,0,0,0,0,0,0,0,0,0,0,0,0,0,0,0,0,0,0,0,0,0,0,0,0,0,0,0,0,0,0,0,0,0,0,0,0,0,0,0,0,0,0,0,0,0,0,0,0,0,0,0,0,0,0,0,0,0,0,0,0,0,0,0,0,0,0,0,0,0,0,0,0,0,0,0,0,0,0,0,0,0,0,0,0,0,0,0,0,0,0,0,0,0,0,0,0,0,0,0],"trees":[{"base_weights":[1.0417392E0,-2.4221894E-1,1.0488557E0,1.0538713E0,-2.4214837E-1,1.0563998E0,-2.419139E-1,-2.418591E-1,3.1759992E-2],"categories":[],"categories_nodes":[],"categories_segments":[],"categories_sizes":[],"default_left":[0,0,0,0,0,0,0,0,0],"id":0,"left_children":[1,-1,3,5,-1,7,-1,-1,-1],"loss_changes":[1.200685E5,0E0,8.460325E4,4.2620625E4,0E0,3.819775E4,0E0,0E0,0E0],"parents":[2147483647,0,0,2,2,3,3,5,5],"right_children":[2,-1,4,6,-1,8,-1,-1,-1],"split_conditions":[3.9412483E1,-2.4221894E-1,4.944E1,9.727168E1,-2.4214837E-1,9.95681E-2,-2.419139E-1,-2.418591E-1,3.1759992E-2],"split_indices":[37,0,71,47,0,40,0,0,0],"split_type":[0,0,0,0,0,0,0,0,0],"sum_hessian":[1.8507324E6,1.442823E3,1.8492895E6,1.848274E6,1.01552875E3,1.8477625E6,5.1156015E2,4.5831104E2,1.8473041E6],"tree_param":{"num_deleted":"0","num_feature":"125","num_nodes":"9","size_leaf_vector":"1"}},{"base_weights":[1.0353135E0,-7.820686E0,1.0405084E0,-1.957339E-1,-2.4366447E-1,1.0450823E0,-7.8413363E0,-6.8293347E0,1.0495046E0,-8.028681E0,-1.9847359E-1,-1.9641794E-1,-2.2341242E-1,-2.2904836E-1,3.158267E-2,-2.135627E-1,-2.4453849E-1],"categories":[],"categories_nodes":[],"categories_segments":[],"categories_sizes":[],"default_left":[0,0,0,0,0,0,0,0,0,0,0,0,0,0,0,0,0],"id":1,"left_children":[1,3,5,-1,-1,7,9,11,13,15,-1,-1,-1,-1,-1,-1,-1],"loss_changes":[8.264525E4,3.5853906E2,7.2936E4,0E0,0E0,6.2488E4,1.590586E2,1.2675E2,5.0635875E4,3.0871094E1,0E0,0E0,0E0,0E0,0E0,0E0,0E0],"parents":[2147483647,0,0,1,1,2,2,5,5,6,6,7,7,8,8,9,9],"right_children":[2,4,6,-1,-1,8,10,12,14,16,-1,-1,-1,-1,-1,-1,-1],"split_conditions":[3.9769099E0,3.9412483E1,1.2081449E2,-1.957339E-1,-2.4366447E-1,-3.3593952E1,2.28E4,3.9412483E1,3E0,-2.8868542E1,-1.9847359E-1,-1.9641794E-1,-2.2341242E-1,-2.2904836E-1,3.158267E-2,-2.135627E-1,-2.4453849E-1],"split_indices":[115,37,106,0,0,13,70,37,99,13,0,0,0,0,0,0,0],"split_type":[0,0,0,0,0,0,0,0,0,0,0,0,0,0,0,0,0],"sum_hessian":[1.7962132E6,1.0521599E3,1.7951611E6,2.0280226E2,8.493577E2,1.794238E6,9.2309924E2,1.0062176E3,1.7932318E6,7.9588477E2,1.27214516E2,6.9875653E2,3.0746103E2,6.701543E2,1.7925616E6,1.0151708E2,6.943677E2],"tree_param":{"num_deleted":"0","num_feature":"125","num_nodes":"17","size_leaf_vector":"1"}},{"base_weights":[1.026938E0,-7.7690187E0,1.0313972E0,-1.7926241E-1,-8.004921E0,1.0361001E0,-6.366054E0,-2.0729207E-1,-2.4564645E-1,1.0398579E0,-7.4925E0,-5.7967496E0,-7.634967E0,3.1292457E-2,-2.408264E-1,-1.688262E-1,-2.3630717E-1,-1.6662645E-1,-1.9345206E-1,-1.9835196E-1,-2.4275398E-1],"categories":[],"categories_nodes":[],"categories_segments":[],"categories_sizes":[],"default_left":[0,0,0,0,0,0,0,0,0,0,0,0,0,0,0,0,0,0,0,0,0],"id":2,"left_children":[1,3,5,-1,7,9,11,-1,-1,13,15,17,19,-1,-1,-1,-1,-1,-1,-1,-1],"loss_changes":[6.7340625E4,3.202539E2,5.969675E4,0E0,9.716797E1,5.4960125E4,7.433242E2,0E0,0E0,5.011275E4,4.971328E2,8.37832E1,1.0285742E2,0E0,0E0,0E0,0E0,0E0,0E0,0E0,0E0],"parents":[2147483647,0,0,1,1,2,2,4,4,5,5,6,6,9,9,10,10,11,11,12,12],"right_children":[2,4,6,-1,8,10,12,-1,-1,14,16,18,20,-1,-1,-1,-1,-1,-1,-1,-1],"split_conditions":[2.0989645E-1,-3.2466988E1,2.3379273E0,-1.7926241E-1,8.5924846E-1,5.269553E-1,3.9412483E1,-2.0729207E-1,-2.4564645E-1,6E0,-3.3593952E1,-3.3593952E1,-3.2745277E1,3.1292457E-2,-2.408264E-1,-1.688262E-1,-2.3630717E-1,-1.6662645E-1,-1.9345206E-1,-1.9835196E-1,-2.4275398E-1],"split_indices":[118,13,54,0,54,93,37,0,0,119,13,13,13,0,0,0,0,0,0,0,0],"split_type":[0,0,0,0,0,0,0,0,0,0,0,0,0,0,0,0,0,0,0,0,0],"sum_hessian":[1.7166285E6,8.6895557E2,1.7157595E6,1.0406458E2,7.64891E2,1.7146704E6,1.0892341E3,1.15209854E2,6.4968115E2,1.713916E6,7.542809E2,7.557371E2,3.3349704E2,1.7133078E6,6.0830853E2,1.3157587E2,6.22705E2,5.576953E2,1.9804182E2,1.0771203E2,2.2578502E2],"tree_param":{"num_deleted":"0","num_feature":"125","num_nodes":"21","size_leaf_vector":"1"}},{"base_weights":[1.0277307E0,1.0332636E0,-6.584529E0,1.0382872E0,-5.5613036E0,-5.4532995E0,-7.0340953E0,1.0417252E0,-6.3410683E0,-6.1725087E0,-5.1934023E0,-1.5196155E-1,-1.7524076E-1,-2.4746163E-1,-6.55644E0,-2.494122E-1,3.131836E-2,-1.9390646E-1,-1.6898471E-1,-1.5959659E-1,-1.9227973E-1,-1.7530078E-1,-1.5278178E-1,-1.645943E-1,-2.0206256E-1],"categories":[],"categories_nodes":[],"categories_segments":[],"categories_sizes":[],"default_left":[0,0,0,0,0,0,0,0,0,0,0,0,0,0,0,0,0,0,0,0,0,0,0,0,0],"id":3,"left_children":[1,3,5,7,9,11,13,15,17,19,21,-1,-1,-1,23,-1,-1,-1,-1,-1,-1,-1,-1,-1,-1],"loss_changes":[7.5089375E4,5.9021125E4,6.201836E2,4.51675E4,2.7289453E2,2.6518555E1,4.8153516E2,3.6963625E4,3.551172E1,6.772266E1,2.6050781E1,0E0,0E0,0E0,9.087305E1,0E0,0E0,0E0,0E0,0E0,0E0,0E0,0E0,0E0,0E0],"parents":[2147483647,0,0,1,1,2,2,3,3,4,4,5,5,6,6,7,7,8,8,9,9,10,10,14,14],"right_children":[2,4,6,8,10,12,14,16,18,20,22,-1,-1,-1,24,-1,-1,-1,-1,-1,-1,-1,-1,-1,-1],"split_conditions":[5.22042E-1,1.2120101E0,1.14962906E2,5.145E1,6E0,3.884723E-1,5.269553E-1,5.7942047E0,1.2081449E2,2.874264E-1,2.395074E0,-1.5196155E-1,-1.7524076E-1,-2.4746163E-1,1.7890202E-1,-2.494122E-1,3.131836E-2,-1.9390646E-1,-1.6898471E-1,-1.5959659E-1,-1.9227973E-1,-1.7530078E-1,-1.5278178E-1,-1.645943E-1,-2.0206256E-1],"split_indices":[93,53,7,71,97,11,93,55,106,40,54,0,0,0,40,0,0,0,0,0,0,0,0,0,0],"split_type":[0,0,0,0,0,0,0,0,0,0,0,0,0,0,0,0,0,0,0,0,0,0,0,0,0],"sum_hessian":[1.7827081E6,1.7814141E6,1.2939166E3,1.780059E6,1.355167E3,3.7171417E2,9.222025E2,1.7792309E6,8.2808136E2,5.0327817E2,8.518888E2,1.9291974E2,1.7879442E2,2.5570468E2,6.664978E2,4.2123444E2,1.7788096E6,6.9906256E2,1.2901877E2,1.1450019E2,3.8877798E2,1.06606384E2,7.452824E2,1.0004835E2,5.6644946E2],"tree_param":{"num_deleted":"0","num_feature":"125","num_nodes":"25","size_leaf_vector":"1"}},{"base_weights":[1.0213696E0,1.0291137E0,-6.952961E0,-6.107336E0,1.0341011E0,-7.4914374E0,-5.4190326E0,-6.5495667E0,-1.3277005E-1,1.0381403E0,-4.8606896E0,-1.9808084E-1,-7.787443E0,-1.3824593E-1,-1.7490943E-1,-1.9989462E-1,-1.6716659E-1,3.1247377E-2,-1.6371755E-1,-1.3457339E-1,-1.6952121E-1,-2.543121E-1,-2.1213241E-1],"categories":[],"categories_nodes":[],"categories_segments":[],"categories_sizes":[],"default_left":[0,0,0,0,0,0,0,0,0,0,0,0,0,0,0,0,0,0,0,0,0,0,0],"id":4,"left_children":[1,3,5,7,9,11,13,15,-1,17,19,-1,21,-1,-1,-1,-1,-1,-1,-1,-1,-1,-1],"loss_changes":[1.065725E5,6.1367625E4,1.3423594E3,8.6651953E2,4.10245E4,2.7392188E2,1.1941699E2,6.8484375E1,0E0,3.846225E4,3.2409766E2,0E0,3.9560156E2,0E0,0E0,0E0,0E0,0E0,0E0,0E0,0E0,0E0,0E0],"parents":[2147483647,0,0,1,1,2,2,3,3,4,4,5,5,6,6,7,7,9,9,10,10,12,12],"right_children":[2,4,6,8,10,12,14,16,-1,18,20,-1,22,-1,-1,-1,-1,-1,-1,-1,-1,-1,-1],"split_conditions":[2.162E1,3.9769099E0,5.953539E-1,2.3379273E0,2.3379273E0,5.7942047E0,4.9265604E0,5.4857445E-1,-1.3277005E-1,5.145E1,4.9265604E0,-1.9808084E-1,5.9386797E0,-1.3824593E-1,-1.7490943E-1,-1.9989462E-1,-1.6716659E-1,3.1247377E-2,-1.6371755E-1,-1.3457339E-1,-1.6952121E-1,-2.543121E-1,-2.1213241E-1],"split_indices":[46,115,6,54,54,55,38,6,0,71,38,0,2,0,0,0,0,0,0,0,0,0,0],"split_type":[0,0,0,0,0,0,0,0,0,0,0,0,0,0,0,0,0,0,0,0,0,0,0],"sum_hessian":[1.7256476E6,1.7239742E6,1.6733212E3,1.2031431E3,1.7227711E6,1.2356644E3,4.376568E2,9.503369E2,2.5280612E2,1.7215922E6,1.1788322E3,3.145498E2,9.2111456E2,1.513929E2,2.8626392E2,8.461767E2,1.041602E2,1.7206821E6,9.1018353E2,8.0397644E2,3.748558E2,4.6379556E2,4.57319E2],"tree_param":{"num_deleted":"0","num_feature":"125","num_nodes":"23","size_leaf_vector":"1"}},{"base_weights":[1.0132374E0,-6.66817E0,1.0200797E0,-7.684792E0,-5.853774E0,1.0245656E0,-6.7040234E0,-2.0087817E-1,-8.275912E0,-6.18864E0,-1.3839327E-1,1.0299646E0,-4.3917556E0,-7.280977E0,-1.2916958E-1,-2.1508871E-1,-2.5915265E-1,-1.7033762E-1,-2.020753E-1,3.0976467E-2,-2.1722938E-1,-1.22952014E-1,-1.5019682E-1,-2.3934709E-1,-2.0360269E-1],"categories":[],"categories_nodes":[],"categories_segments":[],"categories_sizes":[],"default_left":[0,0,0,0,0,0,0,0,0,0,0,0,0,0,0,0,0,0,0,0,0,0,0,0,0],"id":5,"left_children":[1,3,5,7,9,11,13,-1,15,17,-1,19,21,23,-1,-1,-1,-1,-1,-1,-1,-1,-1,-1,-1],"loss_changes":[8.719475E4,1.1774531E3,5.7433125E4,3.2657812E2,3.137754E2,4.8442375E4,1.2999609E3,0E0,1.0039844E2,1.4226562E2,0E0,3.5377375E4,2.770078E2,2.1260547E2,0E0,0E0,0E0,0E0,0E0,0E0,0E0,0E0,0E0,0E0,0E0],"parents":[2147483647,0,0,1,1,2,2,3,3,4,4,5,5,6,6,8,8,9,9,11,11,12,12,13,13],"right_children":[2,4,6,8,10,12,14,-1,16,18,-1,20,22,24,-1,-1,-1,-1,-1,-1,-1,-1,-1,-1,-1],"split_conditions":[5.9342837E0,4.324E1,3.3367146E1,5.7942047E0,5.269553E-1,1.2120101E0,5.145E1,-2.0087817E-1,7.7025E0,5.7942047E0,-1.3839327E-1,9.202817E1,3.9412483E1,2.4059702E1,-1.2916958E-1,-2.1508871E-1,-2.5915265E-1,-1.7033762E-1,-2.020753E-1,3.0976467E-2,-2.1722938E-1,-1.22952014E-1,-1.5019682E-1,-2.3934709E-1,-2.0360269E-1],"split_indices":[55,45,89,55,93,53,71,0,33,55,0,47,37,8,0,0,0,0,0,0,0,0,0,0,0],"split_type":[0,0,0,0,0,0,0,0,0,0,0,0,0,0,0,0,0,0,0,0,0,0,0,0,0],"sum_hessian":[1.6588411E6,1.4754827E3,1.6573656E6,6.525095E2,8.2297314E2,1.6564045E6,9.61104E2,2.4873747E2,4.0377203E2,6.4491644E2,1.7805669E2,1.6547559E6,1.648657E3,7.730926E2,1.8801141E2,1.0478178E2,2.9899023E2,3.394631E2,3.0545337E2,1.6542399E6,5.160018E2,1.1212954E3,5.273615E2,3.14394E2,4.5869858E2],"tree_param":{"num_deleted":"0","num_feature":"125","num_nodes":"25","size_leaf_vector":"1"}},{"base_weights":[1.0095881E0,1.0137316E0,-4.9059677E0,1.0186335E0,-3.9009583E0,-4.366313E0,-5.1454554E0,1.0216808E0,-5.439601E0,-3.745497E0,-4.18654E0,-4.6021023E0,-1.1943375E-1,-5.686399E0,-1.4210488E-1,-2.466293E-1,3.0708658E-2,-1.8115191E-1,-1.3669084E-1,-1.0887559E-1,-1.1649829E-1,-1.194751E-1,-1.315537E-1,-1.2719311E-1,-1.4701091E-1,-1.5514117E-1,-1.778392E-1],"categories":[],"categories_nodes":[],"categories_segments":[],"categories_sizes":[],"default_left":[0,0,0,0,0,0,0,0,0,0,0,0,0,0,0,0,0,0,0,0,0,0,0,0,0,0,0],"id":6,"left_children":[1,3,5,7,9,11,13,15,17,19,21,23,-1,25,-1,-1,-1,-1,-1,-1,-1,-1,-1,-1,-1,-1,-1],"loss_changes":[4.01345E4,3.94175E4,1.2565625E2,3.21715E4,5.670117E1,1.4274902E1,1.4730078E2,2.9316125E4,3.802539E2,2.975586E0,5.477539E0,2.5888672E0,0E0,1.0924805E1,0E0,0E0,0E0,0E0,0E0,0E0,0E0,0E0,0E0,0E0,0E0,0E0,0E0],"parents":[2147483647,0,0,1,1,2,2,3,3,4,4,5,5,6,6,7,7,8,8,9,9,10,10,11,11,13,13],"right_children":[2,4,6,8,10,12,14,16,18,20,22,24,-1,26,-1,-1,-1,-1,-1,-1,-1,-1,-1,-1,-1,-1,-1],"split_conditions":[5.269553E-1,2.3379273E0,1.1712648E2,7E0,6.96522E-1,4.388E1,4.324E1,7E3,2.25E4,4.28784E0,2.7413397E0,9.792752E1,-1.1943375E-1,1.1915E2,-1.4210488E-1,-2.466293E-1,3.0708658E-2,-1.8115191E-1,-1.3669084E-1,-1.0887559E-1,-1.1649829E-1,-1.194751E-1,-1.315537E-1,-1.2719311E-1,-1.4701091E-1,-1.5514117E-1,-1.778392E-1],"split_indices":[93,54,7,96,11,45,45,70,70,29,39,7,0,41,0,0,0,0,0,0,0,0,0,0,0,0,0],"split_type":[0,0,0,0,0,0,0,0,0,0,0,0,0,0,0,0,0,0,0,0,0,0,0,0,0,0,0],"sum_hessian":[1.637166E6,1.6360209E6,1.1451288E3,1.6343915E6,1.629332E3,3.5789352E2,7.8723535E2,1.6336215E6,7.6999585E2,1.0641561E3,5.6517596E2,2.1520808E2,1.4268544E2,3.33211E2,4.5402432E2,3.4211404E2,1.6332794E6,4.55411E2,3.145848E2,5.9186017E2,4.7229593E2,2.8914496E2,2.7603098E2,1.0403723E2,1.1117085E2,1.1354488E2,2.1966612E2],"tree_param":{"num_deleted":"0","num_feature":"125","num_nodes":"27","size_leaf_vector":"1"}},{"base_weights":[1.0085685E0,-4.518022E0,1.0161322E0,-5.7043195E0,-3.387504E0,-5.480072E0,1.0207032E0,-6.4034157E0,-3.9278986E0,-9.930054E-2,-1.06484495E-1,-5.660846E0,-1.05511844E-1,1.0249978E0,-5.10531E0,-1.9899209E-1,-1.551819E-1,-1.257984E-1,-1.0952079E-1,-1.746973E-1,-1.2324093E-1,3.0842956E-2,-1.592405E-1,-1.8899664E-1,-1.3963689E-1],"categories":[],"categories_nodes":[],"categories_segments":[],"categories_sizes":[],"default_left":[0,0,0,0,0,0,0,0,0,0,0,0,0,0,0,0,0,0,0,0,0,0,0,0,0],"id":7,"left_children":[1,3,5,7,9,11,13,15,17,-1,-1,19,-1,21,23,-1,-1,-1,-1,-1,-1,-1,-1,-1,-1],"loss_changes":[7.016775E4,3.0575234E3,4.97785E4,1.3633242E3,3.0273438E0,3.983828E2,4.4074E4,1.919961E2,8.109375E0,0E0,0E0,2.4785156E2,0E0,3.287475E4,6.026211E2,0E0,0E0,0E0,0E0,0E0,0E0,0E0,0E0,0E0,0E0],"parents":[2147483647,0,0,1,1,2,2,3,3,4,4,5,5,6,6,7,7,8,8,11,11,13,13,14,14],"right_children":[2,4,6,8,10,12,14,16,18,-1,-1,20,-1,22,24,-1,-1,-1,-1,-1,-1,-1,-1,-1,-1],"split_conditions":[4.9265604E0,2.3379273E0,3.9769099E0,5.2561104E-1,3.5453236E0,1.2120101E0,5.22042E-1,1.1918769E0,4.324E1,-9.930054E-2,-1.06484495E-1,5.189303E-1,-1.05511844E-1,3.5530094E1,5.269553E-1,-1.9899209E-1,-1.551819E-1,-1.257984E-1,-1.0952079E-1,-1.746973E-1,-1.2324093E-1,3.0842956E-2,-1.592405E-1,-1.8899664E-1,-1.3963689E-1],"split_indices":[38,54,115,93,89,53,93,53,45,0,0,93,0,89,93,0,0,0,0,0,0,0,0,0,0],"split_type":[0,0,0,0,0,0,0,0,0,0,0,0,0,0,0,0,0,0,0,0,0,0,0,0,0],"sum_hessian":[1.6784955E6,2.2932222E3,1.6762022E6,1.1170311E3,1.176191E3,1.1777635E3,1.6750245E6,7.997077E2,3.1732336E2,8.1009906E2,3.6609195E2,1.0767241E3,1.0103951E2,1.6738519E6,1.1726323E3,6.702457E2,1.2946196E2,1.5490181E2,1.6242155E2,9.7228955E2,1.0443455E2,1.6730335E6,8.1829846E2,3.1769485E2,8.549375E2],"tree_param":{"num_deleted":"0","num_feature":"125","num_nodes":"25","size_leaf_vector":"1"}},{"base_weights":[1.0017346E0,-4.502034E0,1.0072949E0,-4.853083E0,-9.391387E-2,-6.3504105E0,1.011147E0,-5.0486126E0,-4.2629976E0,-4.248133E0,-8.197507E0,-4.1024995E0,1.0151834E0,-1.5449138E-1,-1.2479851E-1,-1.1247491E-1,-1.3829544E-1,-1.6376811E-1,-9.689724E-2,-2.7087325E-1,-1.9806294E-1,-1.5723073E-1,-9.621089E-2,-1.9373864E-1,3.0529775E-2],"categories":[],"categories_nodes":[],"categories_segments":[],"categories_sizes":[],"default_left":[0,0,0,0,0,0,0,0,0,0,0,0,0,0,0,0,0,0,0,0,0,0,0,0,0],"id":8,"left_children":[1,3,5,7,-1,9,11,13,15,17,19,21,23,-1,-1,-1,-1,-1,-1,-1,-1,-1,-1,-1,-1],"loss_changes":[4.945675E4,7.7015234E2,4.5762125E4,1.2810742E2,0E0,3.2460078E3,3.3308E4,6.5603516E1,4.1388184E1,4.7210107E2,5.356582E2,1.2808262E3,2.98355E4,0E0,0E0,0E0,0E0,0E0,0E0,0E0,0E0,0E0,0E0,0E0,0E0],"parents":[2147483647,0,0,1,1,2,2,3,3,5,5,6,6,7,7,8,8,9,9,10,10,11,11,12,12],"right_children":[2,4,6,8,-1,10,12,14,16,18,20,22,24,-1,-1,-1,-1,-1,-1,-1,-1,-1,-1,-1,-1],"split_conditions":[3.9769099E0,1.2120101E0,8.43E0,4.047E1,-9.391387E-2,-3.0765448E1,-3.3593952E1,5.4814E1,7.756412E1,1.2120101E0,3.5567223E1,1.2120101E0,1.2541096E-1,-1.5449138E-1,-1.2479851E-1,-1.1247491E-1,-1.3829544E-1,-1.6376811E-1,-9.689724E-2,-2.7087325E-1,-1.9806294E-1,-1.5723073E-1,-9.621089E-2,-1.9373864E-1,3.0529775E-2],"split_indices":[115,53,34,45,0,13,13,28,25,53,48,53,118,0,0,0,0,0,0,0,0,0,0,0,0],"split_type":[0,0,0,0,0,0,0,0,0,0,0,0,0,0,0,0,0,0,0,0,0,0,0,0,0],"sum_hessian":[1.6159712E6,1.6300715E3,1.6143411E6,1.2958617E3,3.3420975E2,8.4389905E2,1.6134972E6,9.6766345E2,3.281983E2,3.962295E2,4.4766956E2,1.2717936E3,1.6122255E6,8.6451587E2,1.03147575E2,1.3702086E2,1.9117744E2,1.7900626E2,2.1722322E2,2.9121524E2,1.564543E2,5.577728E2,7.140208E2,5.330691E2,1.6116924E6],"tree_param":{"num_deleted":"0","num_feature":"125","num_nodes":"25","size_leaf_vector":"1"}},{"base_weights":[9.969585E-1,-3.871815E0,1.0046244E0,-3.0719495E0,-4.6970506E0,-6.058869E0,1.0095803E0,-2.9271858E0,-3.4531953E0,-5.1603484E0,-3.6451614E0,-5.8144336E0,-2.4322772E-1,-4.327086E0,1.0140939E0,-8.6382404E-2,-9.663827E-2,-9.448418E-2,-1.06933296E-1,-1.2754357E-1,-1.6696882E-1,-1.22378536E-1,-9.9544734E-2,-1.7980862E-1,-1.316779E-1,-9.147006E-2,-1.3284014E-1,3.0521614E-2,-1.542848E-1],"categories":[],"categories_nodes":[],"categories_segments":[],"categories_sizes":[],"default_left":[0,0,0,0,0,0,0,0,0,0,0,0,0,0,0,0,0,0,0,0,0,0,0,0,0,0,0,0,0],"id":9,"left_children":[1,3,5,7,9,11,13,15,17,19,21,23,-1,25,27,-1,-1,-1,-1,-1,-1,-1,-1,-1,-1,-1,-1,-1,-1],"loss_changes":[5.9738125E4,1.6464219E3,5.59425E4,6.056836E1,5.838047E2,5.1398047E2,3.8468125E4,3.8569336E0,4.9414062E-1,2.9166602E2,4.062207E1,2.3023438E2,0E0,1.6057422E2,3.2356125E4,0E0,0E0,0E0,0E0,0E0,0E0,0E0,0E0,0E0,0E0,0E0,0E0,0E0,0E0],"parents":[2147483647,0,0,1,1,2,2,3,3,4,4,5,5,6,6,7,7,8,8,9,9,10,10,11,11,13,13,14,14],"right_children":[2,4,6,8,10,12,14,16,18,20,22,24,-1,26,28,-1,-1,-1,-1,-1,-1,-1,-1,-1,-1,-1,-1,-1,-1],"split_conditions":[3.9412483E1,7.486021E1,2.2579053E-1,-3.3593952E1,6.004223E-1,2.0989645E-1,3.9769099E0,6.9529144E1,5.0587964E0,-3.3593952E1,4.276E1,5.801474E0,-2.4322772E-1,7.3193974E0,5.797458E-1,-8.6382404E-2,-9.663827E-2,-9.448418E-2,-1.06933296E-1,-1.2754357E-1,-1.6696882E-1,-1.22378536E-1,-9.9544734E-2,-1.7980862E-1,-1.316779E-1,-9.147006E-2,-1.3284014E-1,3.0521614E-2,-1.542848E-1],"split_indices":[37,7,118,13,6,118,115,7,115,13,45,2,0,84,6,0,0,0,0,0,0,0,0,0,0,0,0,0,0],"split_type":[0,0,0,0,0,0,0,0,0,0,0,0,0,0,0,0,0,0,0,0,0,0,0,0,0,0,0,0,0],"sum_hessian":[1.6004456E6,2.515148E3,1.5979305E6,1.2796042E3,1.2355437E3,1.1194882E3,1.596811E6,9.337326E2,3.458717E2,8.550406E2,3.8050308E2,1.0035871E3,1.1590105E2,1.3485958E3,1.5954624E6,8.125352E2,1.2119738E2,1.005812E2,2.452905E2,2.6722995E2,5.8781067E2,1.58546E2,2.2195709E2,8.886512E2,1.1493593E2,1.0097782E2,1.2476179E3,1.5946102E6,8.5212256E2],"tree_param":{"num_deleted":"0","num_feature":"125","num_nodes":"29","size_leaf_vector":"1"}},{"base_weights":[9.873965E-1,9.916286E-1,-6.4877777E0,-3.719829E0,9.973372E-1,-1.05607845E-1,-7.071942E0,-8.39599E-2,-3.934349E0,1.0004358E0,-7.129344E0,-7.9758377E0,-1.3917896E-1,-1.2083005E-1,-8.157132E-2,-1.441089E-1,3.0137483E-2,-3.0005077E-1,-1.8352759E-1,-2.563254E-1,-1.8325116E-1],"categories":[],"categories_nodes":[],"categories_segments":[],"categories_sizes":[],"default_left":[0,0,0,0,0,0,0,0,0,0,0,0,0,0,0,0,0,0,0,0,0],"id":10,"left_children":[1,3,5,7,9,-1,11,-1,13,15,17,19,-1,-1,-1,-1,-1,-1,-1,-1,-1],"loss_changes":[4.704925E4,3.9975125E4,1.433918E3,3.4443164E2,3.738575E4,0E0,1.5068906E3,0E0,1.5423438E2,3.5718125E4,1.5833242E3,4.8966406E2,0E0,0E0,0E0,0E0,0E0,0E0,0E0,0E0,0E0],"parents":[2147483647,0,0,1,1,2,2,3,3,4,4,6,6,8,8,9,9,10,10,11,11],"right_children":[2,4,6,8,10,-1,12,-1,14,16,18,20,-1,-1,-1,-1,-1,-1,-1,-1,-1],"split_conditions":[8E0,3.9769099E0,4.9265604E0,7.657299E1,6.2582428E1,-1.05607845E-1,-1.52756E1,-8.39599E-2,5.269553E-1,1.04443975E-1,3.377E1,4.047E1,-1.3917896E-1,-1.2083005E-1,-8.157132E-2,-1.441089E-1,3.0137483E-2,-3.0005077E-1,-1.8352759E-1,-2.563254E-1,-1.8325116E-1],"split_indices":[79,115,38,7,10,0,13,0,93,11,45,45,0,0,0,0,0,0,0,0,0],"split_type":[0,0,0,0,0,0,0,0,0,0,0,0,0,0,0,0,0,0,0,0,0],"sum_hessian":[1.4869951E6,1.4861546E6,8.4053656E2,1.7977267E3,1.4843569E6,1.3940324E2,7.0113336E2,3.422262E2,1.4555005E3,1.483792E6,5.648793E2,5.0952917E2,1.9160416E2,1.3495579E3,1.0594259E2,1.0585597E3,1.4827335E6,1.4482892E2,4.2005038E2,3.8790057E2,1.2162862E2],"tree_param":{"num_deleted":"0","num_feature":"125","num_nodes":"21","size_leaf_vector":"1"}},{"base_weights":[9.882866E-1,-3.5301836E0,9.960499E-1,-4.2137527E0,-2.789631E0,1.0009075E0,-4.209413E0,-4.644452E0,-3.210364E0,-7.532326E-2,-2.8751144E0,1.004797E0,-4.8691664E0,-5.150728E0,-3.8430064E0,-1.2231475E-1,-1.4712144E-1,-8.709167E-2,-1.03375815E-1,-8.2527764E-2,-8.919586E-2,-1.9653928E-1,3.0213231E-2,-1.0843334E-1,-1.6005675E-1,-1.701124E-1,-1.3816836E-1,-8.595205E-2,-1.19753666E-1],"categories":[],"categories_nodes":[],"categories_segments":[],"categories_sizes":[],"default_left":[0,0,0,0,0,0,0,0,0,0,0,0,0,0,0,0,0,0,0,0,0,0,0,0,0,0,0,0,0],"id":11,"left_children":[1,3,5,7,9,11,13,15,17,-1,19,21,23,25,27,-1,-1,-1,-1,-1,-1,-1,-1,-1,-1,-1,-1,-1,-1],"loss_changes":[5.4332625E4,1.3331133E3,3.91E4,5.812676E2,2.3248047E1,3.527325E4,4.7744336E2,1.21822266E2,2.0215332E1,0E0,3.6533203E0,2.6960125E4,5.789531E2,8.748242E1,1.4012695E2,0E0,0E0,0E0,0E0,0E0,0E0,0E0,0E0,0E0,0E0,0E0,0E0,0E0,0E0],"parents":[2147483647,0,0,1,1,2,2,3,3,4,4,5,5,6,6,7,7,8,8,10,10,11,11,12,12,13,13,14,14],"right_children":[2,4,6,8,10,12,14,16,18,-1,20,22,24,26,28,-1,-1,-1,-1,-1,-1,-1,-1,-1,-1,-1,-1,-1,-1],"split_conditions":[3.9412483E1,2.3379273E0,5.22042E-1,5.22042E-1,1.04443975E-1,5.145E1,5.269553E-1,3.4786597E-1,3.4124976E-1,-7.532326E-2,2.6627546E1,3.3541248E0,3E0,4.324E1,1.04443975E-1,-1.2231475E-1,-1.4712144E-1,-8.709167E-2,-1.03375815E-1,-8.2527764E-2,-8.919586E-2,-1.9653928E-1,3.0213231E-2,-1.0843334E-1,-1.6005675E-1,-1.701124E-1,-1.3816836E-1,-8.595205E-2,-1.19753666E-1],"split_indices":[37,54,93,93,11,71,93,11,40,0,37,52,99,45,11,0,0,0,0,0,0,0,0,0,0,0,0,0,0],"split_type":[0,0,0,0,0,0,0,0,0,0,0,0,0,0,0,0,0,0,0,0,0,0,0,0,0,0,0,0,0],"sum_hessian":[1.5488026E6,2.6556887E3,1.5461469E6,1.3785366E3,1.2771521E3,1.5447062E6,1.4406703E3,9.619819E2,4.1655475E2,3.0677945E2,9.703727E2,1.5436842E6,1.0220181E3,3.9999838E2,1.0406719E3,3.072518E2,6.5473004E2,1.865048E2,2.3004993E2,4.4101437E2,5.293583E2,4.710726E2,1.5432131E6,2.791764E2,7.4284174E2,1.9996251E2,2.0003587E2,1.4009482E2,9.005771E2],"tree_param":{"num_deleted":"0","num_feature":"125","num_nodes":"29","size_leaf_vector":"1"}},{"base_weights":[9.728416E-1,9.7958404E-1,-4.197334E0,-3.4585485E0,9.8536533E-1,-6.068769E0,-3.3660107E0,-3.6889257E0,-2.5594573E0,9.885872E-1,-5.398684E0,-1.07443616E-1,-6.6354E0,-7.843543E-2,-3.5097172E0,-8.883148E-2,-1.12366654E-1,-7.3433146E-2,-8.316185E-2,-1.3259394E-1,2.9770607E-2,-1.2590648E-1,-1.6790165E-1,-2.1467187E-1,-1.4374833E-1,-1.2360826E-1,-1.0051984E-1],"categories":[],"categories_nodes":[],"categories_segments":[],"categories_sizes":[],"default_left":[0,0,0,0,0,0,0,0,0,0,0,0,0,0,0,0,0,0,0,0,0,0,0,0,0,0,0],"id":12,"left_children":[1,3,5,7,9,11,13,15,17,19,21,-1,23,-1,25,-1,-1,-1,-1,-1,-1,-1,-1,-1,-1,-1,-1],"loss_changes":[4.8368375E4,3.55555E4,2.7910684E3,3.639746E2,2.8468125E4,7.578867E2,1.26200195E2,4.7970703E1,2.0236816E0,2.8178625E4,1.4267773E2,0E0,3.9793945E2,0E0,8.8103516E1,0E0,0E0,0E0,0E0,0E0,0E0,0E0,0E0,0E0,0E0,0E0,0E0],"parents":[2147483647,0,0,1,1,2,2,3,3,4,4,5,5,6,6,7,7,8,8,9,9,10,10,12,12,14,14],"right_children":[2,4,6,8,10,12,14,16,18,20,22,-1,24,-1,26,-1,-1,-1,-1,-1,-1,-1,-1,-1,-1,-1,-1],"split_conditions":[5.9386797E0,3.9769099E0,5.22042E-1,2.251417E0,9.727168E1,3.9412483E1,-3.3593952E1,4.1083355E1,3.9412483E1,3.3541248E0,3.3406836E-1,-1.07443616E-1,2.4025284E1,-7.843543E-2,5.269553E-1,-8.883148E-2,-1.12366654E-1,-7.3433146E-2,-8.316185E-2,-1.3259394E-1,2.9770607E-2,-1.2590648E-1,-1.6790165E-1,-2.1467187E-1,-1.4374833E-1,-1.2360826E-1,-1.0051984E-1],"split_indices":[2,115,93,54,47,37,13,37,37,52,118,0,89,0,93,0,0,0,0,0,0,0,0,0,0,0,0],"split_type":[0,0,0,0,0,0,0,0,0,0,0,0,0,0,0,0,0,0,0,0,0,0,0,0,0,0,0],"sum_hessian":[1.3874101E6,1.385604E6,1.8061449E3,1.8018218E3,1.3838021E6,5.536021E2,1.2525428E3,1.4318348E3,3.69987E2,1.383105E6,6.971718E2,1.0407386E2,4.4952826E2,2.0415134E2,1.0483915E3,1.0720311E2,1.3246317E3,2.5076695E2,1.1922005E2,9.617132E2,1.3821432E6,1.0176982E2,5.95402E2,3.4834268E2,1.0118558E2,2.1152359E2,8.368679E2],"tree_param":{"num_deleted":"0","num_feature":"125","num_nodes":"27","size_leaf_vector":"1"}},{"base_weights":[9.714137E-1,9.7678405E-1,-5.584212E0,-3.1210446E0,9.827996E-1,-8.491785E0,-4.6905828E0,-3.8905668E0,-2.572817E0,-7.787039E0,9.852838E-1,-2.8392813E-1,-2.0761195E-1,-1.8961243E-1,-4.4680443E0,-1.3514821E-1,-7.9041265E-2,-7.514256E-2,-9.0293616E-2,-1.8017365E-1,-2.6189205E-1,-2.1673118E-1,2.9627912E-2,-1.5029235E-1,-1.1653905E-1],"categories":[],"categories_nodes":[],"categories_segments":[],"categories_sizes":[],"default_left":[0,0,0,0,0,0,0,0,0,0,0,0,0,0,0,0,0,0,0,0,0,0,0,0,0],"id":13,"left_children":[1,3,5,7,9,11,13,15,17,19,21,-1,-1,-1,23,-1,-1,-1,-1,-1,-1,-1,-1,-1,-1],"loss_changes":[4.8681125E4,3.405725E4,2.9010195E3,8.4438477E2,3.006025E4,3.3923633E2,2.8658008E2,6.367207E2,2.772461E1,6.037129E2,2.6197125E4,0E0,0E0,0E0,2.2297461E2,0E0,0E0,0E0,0E0,0E0,0E0,0E0,0E0,0E0,0E0],"parents":[2147483647,0,0,1,1,2,2,3,3,4,4,5,5,6,6,7,7,8,8,9,9,10,10,14,14],"right_children":[2,4,6,8,10,12,14,16,18,20,22,-1,-1,-1,24,-1,-1,-1,-1,-1,-1,-1,-1,-1,-1],"split_conditions":[7.485E1,-3.3593952E1,5.58388E1,1.2120101E0,8.5E2,2.05E4,2.08E4,5.22042E-1,4.9265604E0,4.3543026E1,-1.055E1,-2.8392813E-1,-2.0761195E-1,-1.8961243E-1,1.0958E1,-1.3514821E-1,-7.9041265E-2,-7.514256E-2,-9.0293616E-2,-1.8017365E-1,-2.6189205E-1,-2.1673118E-1,2.9627912E-2,-1.5029235E-1,-1.1653905E-1],"split_indices":[32,13,28,53,112,70,70,93,38,106,124,0,0,0,1,0,0,0,0,0,0,0,0,0,0],"split_type":[0,0,0,0,0,0,0,0,0,0,0,0,0,0,0,0,0,0,0,0,0,0,0,0,0],"sum_hessian":[1.3825905E6,1.3814596E6,1.130839E3,2.0242396E3,1.3794354E6,2.6385126E2,8.669877E2,8.396145E2,1.1846251E3,3.8975098E2,1.3790456E6,1.5988203E2,1.0396922E2,1.0086554E2,7.6612213E2,5.620627E2,2.7755185E2,1.0307944E3,1.5383064E2,1.3743489E2,2.5231609E2,3.8759683E2,1.3786581E6,3.9332712E2,3.72795E2],"tree_param":{"num_deleted":"0","num_feature":"125","num_nodes":"25","size_leaf_vector":"1"}},{"base_weights":[9.737271E-1,9.79828E-1,-5.0419827E0,-6.384911E0,9.8325664E-1,-5.808413E0,-4.156703E0,-1.13271944E-1,-7.112332E0,-2.924712E0,9.8870623E-1,-6.307956E0,-4.570084E0,-4.726324E0,-3.3829992E0,-1.9388033E-1,-2.4589193E-1,-7.756827E-2,-1.16132274E-1,-2.413544E-1,2.9720923E-2,-2.396526E-1,-1.6191068E-1,-1.5008365E-1,-1.2439586E-1,-1.7260128E-1,-1.2851748E-1,-1.16479054E-1,-9.2880465E-2],"categories":[],"categories_nodes":[],"categories_segments":[],"categories_sizes":[],"default_left":[0,0,0,0,0,0,0,0,0,0,0,0,0,0,0,0,0,0,0,0,0,0,0,0,0,0,0,0,0],"id":14,"left_children":[1,3,5,7,9,11,13,-1,15,17,19,21,23,25,27,-1,-1,-1,-1,-1,-1,-1,-1,-1,-1,-1,-1,-1,-1],"loss_changes":[5.336925E4,3.6684875E4,9.754883E2,1.2562793E3,3.092325E4,4.5808984E2,2.8685156E2,0E0,3.185547E2,6.3889453E2,2.608875E4,8.114414E2,2.1388184E1,1.5403906E2,3.026416E1,0E0,0E0,0E0,0E0,0E0,0E0,0E0,0E0,0E0,0E0,0E0,0E0,0E0,0E0],"parents":[2147483647,0,0,1,1,2,2,3,3,4,4,5,5,6,6,8,8,9,9,10,10,11,11,12,12,13,13,14,14],"right_children":[2,4,6,8,10,12,14,-1,16,18,20,22,24,26,28,-1,-1,-1,-1,-1,-1,-1,-1,-1,-1,-1,-1,-1,-1],"split_conditions":[-1.5888771E1,9E2,7E0,5.0013332E1,-3.3593952E1,2.28E4,9.35625E0,-1.13271944E-1,8.2792693E-1,3.9412483E1,1.8380952E0,3.3367146E1,9.55125E0,3.3367146E1,3.4060482E1,-1.9388033E-1,-2.4589193E-1,-7.756827E-2,-1.16132274E-1,-2.413544E-1,2.9720923E-2,-2.396526E-1,-1.6191068E-1,-1.5008365E-1,-1.2439586E-1,-1.7260128E-1,-1.2851748E-1,-1.16479054E-1,-9.2880465E-2],"split_indices":[13,112,96,37,13,70,33,0,118,37,113,89,33,89,89,0,0,0,0,0,0,0,0,0,0,0,0,0,0],"split_type":[0,0,0,0,0,0,0,0,0,0,0,0,0,0,0,0,0,0,0,0,0,0,0,0,0,0,0,0,0],"sum_hessian":[1.4540262E6,1.452554E6,1.4722823E3,6.750548E2,1.4518789E6,7.861301E2,6.861522E2,1.4852007E2,5.265347E2,2.0210474E3,1.4498579E6,5.5724347E2,2.2888664E2,3.9225497E2,2.9389722E2,3.3358624E2,1.9294847E2,1.4906478E3,5.303996E2,3.18614E2,1.4495392E6,1.9315219E2,3.6409128E2,1.0787257E2,1.2101408E2,1.1448129E2,2.7777368E2,1.0265192E2,1.9124529E2],"tree_param":{"num_deleted":"0","num_feature":"125","num_nodes":"29","size_leaf_vector":"1"}},{"base_weights":[9.5895696E-1,9.640128E-1,-6.164573E0,-3.13849E0,9.7271013E-1,-3.9372811E0,-7.255675E0,-2.4726067E0,-3.912344E0,9.7777325E-1,-3.8418906E0,-1.4125663E-1,-7.760301E-2,-8.505423E0,-1.347845E-1,-8.490335E-2,-6.796472E-2,-1.2796119E-1,-8.975175E-2,2.94395E-2,-1.723902E-1,-1.3829644E-1,-1.0547436E-1,-2.7830085E-1,-1.7903888E-1],"categories":[],"categories_nodes":[],"categories_segments":[],"categories_sizes":[],"default_left":[0,0,0,0,0,0,0,0,0,0,0,0,0,0,0,0,0,0,0,0,0,0,0,0,0],"id":15,"left_children":[1,3,5,7,9,11,13,15,17,19,21,-1,-1,23,-1,-1,-1,-1,-1,-1,-1,-1,-1,-1,-1],"loss_changes":[4.745225E4,4.6975125E4,2.2423945E3,1.4255312E3,3.202625E4,3.1014355E2,2.1233906E3,1.04637695E2,4.053418E2,3.1272625E4,3.294297E2,0E0,0E0,7.860371E2,0E0,0E0,0E0,0E0,0E0,0E0,0E0,0E0,0E0,0E0,0E0],"parents":[2147483647,0,0,1,1,2,2,3,3,4,4,5,5,6,6,7,7,8,8,9,9,10,10,13,13],"right_children":[2,4,6,8,10,12,14,16,18,20,22,-1,-1,24,-1,-1,-1,-1,-1,-1,-1,-1,-1,-1,-1],"split_conditions":[2.8273299E0,3.9412483E1,1.04443975E-1,-3.3593952E1,5.22042E-1,5.22042E-1,5.145E1,2.3379273E0,2.3379273E0,6.2582428E1,5.269553E-1,-1.4125663E-1,-7.760301E-2,5.057919E-1,-1.347845E-1,-8.490335E-2,-6.796472E-2,-1.2796119E-1,-8.975175E-2,2.94395E-2,-1.723902E-1,-1.3829644E-1,-1.0547436E-1,-2.7830085E-1,-1.7903888E-1],"split_indices":[36,37,11,13,93,93,71,54,54,10,93,0,0,93,0,0,0,0,0,0,0,0,0,0,0],"split_type":[0,0,0,0,0,0,0,0,0,0,0,0,0,0,0,0,0,0,0,0,0,0,0,0,0],"sum_hessian":[1.3173774E6,1.3164439E6,9.334752E2,2.7842039E3,1.3136596E6,3.084458E2,6.250294E2,1.498755E3,1.2854489E3,1.3122805E6,1.3792076E3,1.9474261E2,1.1370319E2,4.2892944E2,1.9609995E2,5.451327E2,9.536223E2,9.265226E2,3.5892624E2,1.3115901E6,6.903192E2,4.0714603E2,9.7206165E2,3.2690836E2,1.02021095E2],"tree_param":{"num_deleted":"0","num_feature":"125","num_nodes":"25","size_leaf_vector":"1"}},{"base_weights":[9.586405E-1,-6.166091E0,9.64122E-1,-8.158549E-2,-6.6899924E0,-2.949936E0,9.722736E-1,-9.742818E-2,-7.2433352E0,-3.5104423E0,-2.4071462E0,-3.3984845E0,9.771559E-1,-2.7230743E-1,-1.7592864E-1,-8.391038E-2,-1.1564619E-1,-6.728068E-2,-8.067964E-2,-1.03877306E-1,-7.7006795E-2,2.9436987E-2,-1.2472185E-1],"categories":[],"categories_nodes":[],"categories_segments":[],"categories_sizes":[],"default_left":[0,0,0,0,0,0,0,0,0,0,0,0,0,0,0,0,0,0,0,0,0,0,0],"id":16,"left_children":[1,3,5,-1,7,9,11,-1,13,15,17,19,21,-1,-1,-1,-1,-1,-1,-1,-1,-1,-1],"loss_changes":[5.2223125E4,1.8380625E3,4.2629375E4,0E0,1.6749805E3,8.363828E2,2.845375E4,0E0,1.8871836E3,3.243828E2,5.9583008E1,7.041016E1,2.7882875E4,0E0,0E0,0E0,0E0,0E0,0E0,0E0,0E0,0E0,0E0],"parents":[2147483647,0,0,1,1,2,2,4,4,5,5,6,6,8,8,9,9,10,10,11,11,12,12],"right_children":[2,4,6,-1,8,10,12,-1,14,16,18,20,22,-1,-1,-1,-1,-1,-1,-1,-1,-1,-1],"split_conditions":[2E0,3.9412483E1,3.9412483E1,-8.158549E-2,3.9769099E0,1.2120101E0,3.9769099E0,-9.742818E-2,1.0181754E2,2.2977967E0,3.2267692E0,2.3379273E0,5.145E1,-2.7230743E-1,-1.7592864E-1,-8.391038E-2,-1.1564619E-1,-6.728068E-2,-8.067964E-2,-1.03877306E-1,-7.7006795E-2,2.9436987E-2,-1.2472185E-1],"split_indices":[119,37,37,0,115,53,115,0,88,89,89,54,71,0,0,0,0,0,0,0,0,0,0],"split_type":[0,0,0,0,0,0,0,0,0,0,0,0,0,0,0,0,0,0,0,0,0,0,0],"sum_hessian":[1.337039E6,1.0270165E3,1.336012E6,1.36331E2,8.906854E2,2.7758962E3,1.3332361E6,1.2429658E2,7.6638885E2,1.362971E3,1.4129254E3,1.4868434E3,1.3317492E6,3.2658276E2,4.398061E2,4.4674216E2,9.1622876E2,8.983174E2,5.146081E2,1.377512E3,1.09331474E2,1.3306934E6,1.0558185E3],"tree_param":{"num_deleted":"0","num_feature":"125","num_nodes":"23","size_leaf_vector":"1"}},{"base_weights":[9.4487584E-1,-5.484391E0,9.5035416E-1,-6.459488E0,-3.6123612E0,9.5487005E-1,-4.785682E0,-6.7506847E0,-1.439482E-1,-1.3237406E-1,-8.51315E-2,-3.6936734E0,9.6035427E-1,-2.0044994E-1,-4.429227E0,-1.9156471E-1,-2.2712235E-1,-6.734772E-2,-1.412234E-1,-1.141545E-1,2.8959142E-2,-1.3993989E-1,-1.060757E-1],"categories":[],"categories_nodes":[],"categories_segments":[],"categories_sizes":[],"default_left":[0,0,0,0,0,0,0,0,0,0,0,0,0,0,0,0,0,0,0,0,0,0,0],"id":17,"left_children":[1,3,5,7,9,11,13,15,-1,-1,-1,17,19,-1,21,-1,-1,-1,-1,-1,-1,-1,-1],"loss_changes":[4.2539375E4,1.8536816E3,3.1259375E4,2.9405273E2,2.0715674E2,3.0739625E4,6.1200977E2,1.2287891E2,0E0,0E0,0E0,2.0763281E3,2.8413E4,0E0,1.5220996E2,0E0,0E0,0E0,0E0,0E0,0E0,0E0,0E0],"parents":[2147483647,0,0,1,1,2,2,3,3,4,4,5,5,6,6,7,7,11,11,12,12,14,14],"right_children":[2,4,6,8,10,12,14,16,-1,-1,-1,18,20,-1,22,-1,-1,-1,-1,-1,-1,-1,-1],"split_conditions":[5.851108E0,5.5600554E-1,4.6014084E1,1.716888E0,5.832449E-1,1.2100012E-1,1.878E1,5.7942047E0,-1.439482E-1,-1.3237406E-1,-8.51315E-2,3.9412483E1,2.4187849E0,-2.0044994E-1,3.5530094E1,-1.9156471E-1,-2.2712235E-1,-6.734772E-2,-1.412234E-1,-1.141545E-1,2.8959142E-2,-1.3993989E-1,-1.060757E-1],"split_indices":[55,6,48,114,6,40,3,55,0,0,0,37,39,0,89,0,0,0,0,0,0,0,0],"split_type":[0,0,0,0,0,0,0,0,0,0,0,0,0,0,0,0,0,0,0,0,0,0,0],"sum_hessian":[1.2076196E6,1.0272686E3,1.2065924E6,6.738337E2,3.534348E2,1.205644E6,9.483522E2,5.707265E2,1.0310719E2,1.7154982E2,1.81885E2,1.4199095E3,1.2042241E6,1.472717E2,8.010805E2,4.0095676E2,1.6976974E2,5.8587274E2,8.3403674E2,1.2488674E3,1.2029752E6,6.306571E2,1.7042339E2],"tree_param":{"num_deleted":"0","num_feature":"125","num_nodes":"23","size_leaf_vector":"1"}},{"base_weights":[9.519434E-1,9.5701545E-1,-5.897812E0,9.619475E-1,-4.856743E0,-6.6728272E0,-4.1293607E0,9.679175E-1,-2.7758083E0,-7.0699215E0,-4.0741353E0,-8.4473E-2,-7.357615E0,-1.4560278E-1,-1.0375181E-1,-1.4864244E-1,2.9127564E-2,-6.763921E-2,-1.22104466E-1,-1.7243798E-1,-2.35517E-1,-1.4645608E-1,-1.0971034E-1,-2.4483746E-1,-1.3013951E-1],"categories":[],"categories_nodes":[],"categories_segments":[],"categories_sizes":[],"default_left":[0,0,0,0,0,0,0,0,0,0,0,0,0,0,0,0,0,0,0,0,0,0,0,0,0],"id":18,"left_children":[1,3,5,7,9,11,13,15,17,19,21,-1,23,-1,-1,-1,-1,-1,-1,-1,-1,-1,-1,-1,-1],"loss_changes":[4.48445E4,3.69845E4,1.2814727E3,2.8756375E4,1.8648828E3,1.7289766E3,1.25876465E2,2.2873875E4,1.3771299E3,2.4822754E2,2.5507715E2,0E0,1.3282617E3,0E0,0E0,0E0,0E0,0E0,0E0,0E0,0E0,0E0,0E0,0E0,0E0],"parents":[2147483647,0,0,1,1,2,2,3,3,4,4,5,5,6,6,7,7,8,8,9,9,10,10,12,12],"right_children":[2,4,6,8,10,12,14,16,18,20,22,-1,24,-1,-1,-1,-1,-1,-1,-1,-1,-1,-1,-1,-1],"split_conditions":[1.20607956E2,3.3367146E1,2.5765747E1,1.2120101E0,2.2965162E1,5.21785E0,3.3367146E1,1.2541096E-1,4.9265604E0,3E0,4.29481E1,-8.4473E-2,5.9386797E0,-1.4560278E-1,-1.0375181E-1,-1.4864244E-1,2.9127564E-2,-6.763921E-2,-1.22104466E-1,-1.7243798E-1,-2.35517E-1,-1.4645608E-1,-1.0971034E-1,-2.4483746E-1,-1.3013951E-1],"split_indices":[100,89,38,53,8,38,89,118,38,99,85,0,2,0,0,0,0,0,0,0,0,0,0,0,0],"split_type":[0,0,0,0,0,0,0,0,0,0,0,0,0,0,0,0,0,0,0,0,0,0,0,0,0],"sum_hessian":[1.290618E6,1.2896639E6,9.54093E2,1.2885715E6,1.0923208E3,6.614448E2,2.9264822E2,1.2865174E6,2.0540986E3,2.832549E2,8.090659E2,1.004987E2,5.609461E2,1.3775656E2,1.5489166E2,6.507855E2,1.2858666E6,1.4663948E3,5.8770386E2,1.0826907E2,1.7498584E2,2.718814E2,5.371845E2,4.4169278E2,1.1925332E2],"tree_param":{"num_deleted":"0","num_feature":"125","num_nodes":"25","size_leaf_vector":"1"}},{"base_weights":[9.511264E-1,-2.7085333E0,9.594955E-1,-2.1777976E0,-3.295866E0,9.64991E-1,-3.547561E0,-2.5285125E0,-2.004795E0,-3.6061594E0,-2.5743678E0,-3.2885578E0,9.700345E-1,-4.1568804E0,-3.1326993E0,-8.183746E-2,-6.1774533E-2,-5.694036E-2,-6.1821748E-2,-1.17295995E-1,-8.0690384E-2,-6.387772E-2,-8.110125E-2,-1.012607E-1,-6.820692E-2,2.9227935E-2,-1.14083394E-1,-1.3621992E-1,-1.0580631E-1,-6.7892194E-2,-9.898277E-2],"categories":[],"categories_nodes":[],"categories_segments":[],"categories_sizes":[],"default_left":[0,0,0,0,0,0,0,0,0,0,0,0,0,0,0,0,0,0,0,0,0,0,0,0,0,0,0,0,0,0,0],"id":19,"left_children":[1,3,5,7,9,11,13,15,17,19,21,23,25,27,29,-1,-1,-1,-1,-1,-1,-1,-1,-1,-1,-1,-1,-1,-1,-1,-1],"loss_changes":[4.0175375E4,9.2577344E2,3.241675E4,9.050342E1,3.0834277E2,2.8043E4,3.8989258E2,4.2723633E1,2.4169922E0,2.6493262E2,1.8944824E1,1.287207E2,2.636075E4,1.3935449E2,1.306123E2,0E0,0E0,0E0,0E0,0E0,0E0,0E0,0E0,0E0,0E0,0E0,0E0,0E0,0E0,0E0,0E0],"parents":[2147483647,0,0,1,1,2,2,3,3,4,4,5,5,6,6,7,7,8,8,9,9,10,10,11,11,12,12,13,13,14,14],"right_children":[2,4,6,8,10,12,14,16,18,20,22,24,26,28,30,-1,-1,-1,-1,-1,-1,-1,-1,-1,-1,-1,-1,-1,-1,-1,-1],"split_conditions":[3.9412483E1,-3.3593952E1,5.22042E-1,1.2120101E0,1.2120101E0,3.9769099E0,5.797458E-1,5.269553E-1,3.3541248E0,5.231588E-1,4.5101757E0,1.2120101E0,5.145E1,5.9386797E0,1.2100012E-1,-8.183746E-2,-6.1774533E-2,-5.694036E-2,-6.1821748E-2,-1.17295995E-1,-8.0690384E-2,-6.387772E-2,-8.110125E-2,-1.012607E-1,-6.820692E-2,2.9227935E-2,-1.14083394E-1,-1.3621992E-1,-1.0580631E-1,-6.7892194E-2,-9.898277E-2],"split_indices":[37,13,93,53,53,115,6,93,52,93,115,53,71,2,40,0,0,0,0,0,0,0,0,0,0,0,0,0,0,0,0],"split_type":[0,0,0,0,0,0,0,0,0,0,0,0,0,0,0,0,0,0,0,0,0,0,0,0,0,0,0,0,0,0,0],"sum_hessian":[1.3116356E6,2.9919263E3,1.3086438E6,1.5741626E3,1.4177635E3,1.3070508E6,1.5929194E3,5.1550446E2,1.0586582E3,9.8860004E2,4.291635E2,1.5471819E3,1.3055036E6,6.4158514E2,9.513343E2,3.5842114E2,1.570833E2,3.759055E2,6.827527E2,7.4008203E2,2.4851797E2,1.0036877E2,3.2879477E2,1.4231531E3,1.2402886E2,1.3043484E6,1.1552172E3,3.9484622E2,2.4673889E2,1.5539363E2,7.959406E2],"tree_param":{"num_deleted":"0","num_feature":"125","num_nodes":"31","size_leaf_vector":"1"}},{"base_weights":[9.47553E-1,-2.8179395E0,9.537987E-1,-1.9584646E0,-3.0146568E0,9.5801854E-1,-4.354833E0,-6.367168E-2,-5.5670857E-2,-3.0832865E0,-6.1589584E-2,9.6227366E-1,-3.5104809E0,-1.6892305E-1,-4.100089E0,-9.460565E-2,-6.609335E-2,2.902189E-2,-8.238953E-2,-7.7211164E-2,-1.15452245E-1,-1.316074E-1,-1.0139732E-1],"categories":[],"categories_nodes":[],"categories_segments":[],"categories_sizes":[],"default_left":[0,0,0,0,0,0,0,0,0,0,0,0,0,0,0,0,0,0,0,0,0,0,0],"id":20,"left_children":[1,3,5,7,9,11,13,-1,-1,15,-1,17,19,-1,21,-1,-1,-1,-1,-1,-1,-1,-1],"loss_changes":[3.0073E4,3.5210938E2,2.8599E4,2.75354E0,1.0727344E2,2.425475E4,3.0651758E2,0E0,0E0,9.224902E1,0E0,2.4210875E4,3.7427246E2,0E0,1.6053809E2,0E0,0E0,0E0,0E0,0E0,0E0,0E0,0E0],"parents":[2147483647,0,0,1,1,2,2,3,3,4,4,5,5,6,6,9,9,11,11,12,12,14,14],"right_children":[2,4,6,8,10,12,14,-1,-1,16,-1,18,20,-1,22,-1,-1,-1,-1,-1,-1,-1,-1],"split_conditions":[3.9769099E0,4.9265604E0,9.202817E1,1.2120101E0,5.22042E-1,5.145E1,1.878E1,-6.367168E-2,-5.5670857E-2,1.2120101E0,-6.1589584E-2,1.2120101E0,3E0,-1.6892305E-1,-1.5888771E1,-9.460565E-2,-6.609335E-2,2.902189E-2,-8.238953E-2,-7.7211164E-2,-1.15452245E-1,-1.316074E-1,-1.0139732E-1],"split_indices":[115,38,47,53,93,71,3,0,0,53,0,53,99,0,13,0,0,0,0,0,0,0,0],"split_type":[0,0,0,0,0,0,0,0,0,0,0,0,0,0,0,0,0,0,0,0,0,0,0],"sum_hessian":[1.2785854E6,2.1165107E3,1.2764689E6,3.9624353E2,1.7202672E3,1.2754559E6,1.01304474E3,1.4511777E2,2.5112576E2,1.6036185E3,1.1664868E2,1.2742432E6,1.2125996E3,1.65084E2,8.4796075E2,1.4827196E3,1.20898926E2,1.2724862E6,1.7569683E3,3.237477E2,8.888519E2,6.027955E2,2.4516528E2],"tree_param":{"num_deleted":"0","num_feature":"125","num_nodes":"23","size_leaf_vector":"1"}},{"base_weights":[9.357862E-1,-5.66984E0,9.3934244E-1,-2.9973767E0,-7.1468873E0,-2.693036E0,9.4561654E-1,-6.461759E-2,-1.19121656E-1,-1.2476931E-1,-8.111164E0,-1.9100404E0,-2.8585799E0,9.4809675E-1,-7.466807E0,-1.9770789E-1,-2.6467603E-1,-6.1793473E-2,-5.4198373E-2,-8.729826E-2,-6.401181E-2,2.8510923E-2,-2.2311923E-1,-2.6030448E-1,-1.4580595E-1],"categories":[],"categories_nodes":[],"categories_segments":[],"categories_sizes":[],"default_left":[0,0,0,0,0,0,0,0,0,0,0,0,0,0,0,0,0,0,0,0,0,0,0,0,0],"id":21,"left_children":[1,3,5,7,9,11,13,-1,-1,-1,15,17,19,21,23,-1,-1,-1,-1,-1,-1,-1,-1,-1,-1],"loss_changes":[2.8197E4,2.5281191E3,2.7338E4,1.816101E2,1.1626895E3,2.6265527E2,2.4989625E4,0E0,0E0,0E0,2.803789E2,1.9163818E0,5.7286133E1,2.2766125E4,1.0712754E3,0E0,0E0,0E0,0E0,0E0,0E0,0E0,0E0,0E0,0E0],"parents":[2147483647,0,0,1,1,2,2,3,3,4,4,5,5,6,6,10,10,11,11,12,12,13,13,14,14],"right_children":[2,4,6,8,10,12,14,-1,-1,-1,16,18,20,22,24,-1,-1,-1,-1,-1,-1,-1,-1,-1,-1],"split_conditions":[1.392E1,4.8782906E1,3.9769099E0,3.6641773E1,1.8385574E-1,3.9412483E1,2.6E1,-6.461759E-2,-1.19121656E-1,-1.2476931E-1,7.7127223E0,1.2120101E0,1.2120101E0,9.1E0,1.5967914E2,-1.9770789E-1,-2.6467603E-1,-6.1793473E-2,-5.4198373E-2,-8.729826E-2,-6.401181E-2,2.8510923E-2,-2.2311923E-1,-2.6030448E-1,-1.4580595E-1],"split_indices":[71,37,115,37,11,37,42,0,0,0,115,53,53,108,37,0,0,0,0,0,0,0,0,0,0],"split_type":[0,0,0,0,0,0,0,0,0,0,0,0,0,0,0,0,0,0,0,0,0,0,0,0,0],"sum_hessian":[1.2000929E6,6.44886E2,1.199448E6,2.3063002E2,4.1425598E2,2.06747E3,1.1973806E6,1.2528049E2,1.0534953E2,1.023688E2,3.1188718E2,3.6301355E2,1.7044564E3,1.1970285E6,3.5202472E2,1.02661736E2,2.0922543E2,1.40575E2,2.2243855E2,1.5888574E3,1.1559893E2,1.1967059E6,3.2269824E2,2.3882942E2,1.1319531E2],"tree_param":{"num_deleted":"0","num_feature":"125","num_nodes":"25","size_leaf_vector":"1"}},{"base_weights":[9.313723E-1,9.3737465E-1,-4.280184E0,9.4539493E-1,-2.816052E0,-6.9444075E0,-3.482896E0,9.5036024E-1,-4.673618E0,-2.1502469E0,-4.2706194E0,-2.4397871E-1,-1.3546503E-1,-3.878633E0,-2.6107538E0,-1.4804332E-1,2.8620856E-2,-1.6588338E-1,-9.850015E-2,-9.1097794E-2,-6.0837742E-2,-2.1429719E-1,-1.0306984E-1,-1.5390672E-1,-1.0680859E-1,-8.709075E-2,-6.892037E-2],"categories":[],"categories_nodes":[],"categories_segments":[],"categories_sizes":[],"default_left":[0,0,0,0,0,0,0,0,0,0,0,0,0,0,0,0,0,0,0,0,0,0,0,0,0,0,0],"id":22,"left_children":[1,3,5,7,9,11,13,15,17,19,21,-1,-1,23,25,-1,-1,-1,-1,-1,-1,-1,-1,-1,-1,-1,-1],"loss_changes":[3.6703062E4,3.527875E4,2.8430488E3,3.262875E4,2.4108574E3,8.5766406E2,3.491377E2,2.5226375E4,1.2104121E3,1.7991455E2,1.8550234E3,0E0,0E0,2.6620898E2,2.3371826E1,0E0,0E0,0E0,0E0,0E0,0E0,0E0,0E0,0E0,0E0,0E0,0E0],"parents":[2147483647,0,0,1,1,2,2,3,3,4,4,5,5,6,6,7,7,8,8,9,9,10,10,13,13,14,14],"right_children":[2,4,6,8,10,12,14,16,18,20,22,-1,-1,24,26,-1,-1,-1,-1,-1,-1,-1,-1,-1,-1,-1,-1],"split_conditions":[9.35625E0,1.1518502E0,2.07E4,3.3367146E1,3.9412483E1,2.9968866E1,7E0,5.7942047E0,4.1647182E1,1.2120101E0,2.3379273E0,-2.4397871E-1,-1.3546503E-1,2.28E4,3.4060482E1,-1.4804332E-1,2.8620856E-2,-1.6588338E-1,-9.850015E-2,-9.1097794E-2,-6.0837742E-2,-2.1429719E-1,-1.0306984E-1,-1.5390672E-1,-1.0680859E-1,-8.709075E-2,-6.892037E-2],"split_indices":[33,53,70,89,37,89,96,55,48,53,54,0,0,70,89,0,0,0,0,0,0,0,0,0,0,0,0],"split_type":[0,0,0,0,0,0,0,0,0,0,0,0,0,0,0,0,0,0,0,0,0,0,0,0,0,0,0],"sum_hessian":[1.173175E6,1.1718261E6,1.3488247E3,1.1693282E6,2.4978572E3,3.08898E2,1.0399266E3,1.1682968E6,1.031546E3,1.7152206E3,7.8263654E2,2.0584886E2,1.0304913E2,7.129682E2,3.269585E2,7.269243E2,1.1675698E6,6.36656E2,3.9489E2,2.0511717E2,1.5101034E3,1.7455066E2,6.080859E2,1.415083E2,5.714599E2,1.6490866E2,1.6204982E2],"tree_param":{"num_deleted":"0","num_feature":"125","num_nodes":"27","size_leaf_vector":"1"}},{"base_weights":[9.267371E-1,-4.580288E0,9.328445E-1,-6.574511E-2,-4.9529805E0,-2.574432E0,9.4143337E-1,-5.465191E0,-3.780719E0,-3.1615548E0,-1.9756818E0,-5.6271434E0,9.456588E-1,-1.7332295E-1,-1.01146184E-1,-8.907E-2,-1.2643187E-1,-1.0305372E-1,-7.386933E-2,-5.5951465E-2,-6.4837135E-2,-1.1997827E-1,-2.1309789E-1,2.8478894E-2,-1.4661826E-1],"categories":[],"categories_nodes":[],"categories_segments":[],"categories_sizes":[],"default_left":[0,0,0,0,0,0,0,0,0,0,0,0,0,0,0,0,0,0,0,0,0,0,0,0,0],"id":23,"left_children":[1,3,5,-1,7,9,11,13,15,17,19,21,23,-1,-1,-1,-1,-1,-1,-1,-1,-1,-1,-1,-1],"loss_changes":[3.9157E4,1.1373828E3,3.5030312E4,0E0,6.487656E2,9.9243555E2,3.2200375E4,4.8626172E2,1.0796973E2,2.6560352E2,2.489795E1,1.7638047E3,2.4601625E4,0E0,0E0,0E0,0E0,0E0,0E0,0E0,0E0,0E0,0E0,0E0,0E0],"parents":[2147483647,0,0,1,1,2,2,4,4,5,5,6,6,7,7,8,8,9,9,10,10,11,11,12,12],"right_children":[2,4,6,-1,8,10,12,14,16,18,20,22,24,-1,-1,-1,-1,-1,-1,-1,-1,-1,-1,-1,-1],"split_conditions":[2.0989645E-1,3.9412483E1,3.9412483E1,-6.574511E-2,4.278394E1,1.2120101E0,3.05661E2,5.801474E0,1.1241946E1,5.917798E0,3.2267692E0,1.04443975E-1,6.2582428E1,-1.7332295E-1,-1.01146184E-1,-8.907E-2,-1.2643187E-1,-1.0305372E-1,-7.386933E-2,-5.5951465E-2,-6.4837135E-2,-1.1997827E-1,-2.1309789E-1,2.8478894E-2,-1.4661826E-1],"split_indices":[118,37,37,0,85,53,20,2,39,2,89,11,10,0,0,0,0,0,0,0,0,0,0,0,0],"split_type":[0,0,0,0,0,0,0,0,0,0,0,0,0,0,0,0,0,0,0,0,0,0,0,0,0],"sum_hessian":[1.1640972E6,1.2887457E3,1.1628085E6,1.7485938E2,1.1138864E3,2.8398782E3,1.1599686E6,7.726298E2,3.412565E2,1.4317004E3,1.4081777E3,7.4484534E2,1.1592238E6,6.708255E2,1.01804306E2,1.21565865E2,2.1969064E2,1.0262731E3,4.0542746E2,8.891168E2,5.190609E2,3.5597955E2,3.8886575E2,1.1585021E6,7.216617E2],"tree_param":{"num_deleted":"0","num_feature":"125","num_nodes":"25","size_leaf_vector":"1"}},{"base_weights":[9.160561E-1,9.2771846E-1,-4.8002033E0,-3.0583217E0,9.361675E-1,-6.579521E0,-2.9481401E0,-2.6009092E0,-6.8733006E0,-3.9551013E0,9.4095975E-1,-4.7495112E0,-7.3735175E0,-2.2600605E0,-3.1268752E0,-5.474645E-2,-8.3891176E-2,-2.8058782E-1,-1.3186975E-1,-6.300809E-2,-1.4047381E-1,2.8373979E-2,-9.6246175E-2,-1.19002245E-1,-1.5400982E-1,-2.5847238E-1,-1.6845125E-1,-6.222342E-2,-7.255328E-2,-6.885059E-2,-9.707856E-2],"categories":[],"categories_nodes":[],"categories_segments":[],"categories_sizes":[],"default_left":[0,0,0,0,0,0,0,0,0,0,0,0,0,0,0,0,0,0,0,0,0,0,0,0,0,0,0,0,0,0,0],"id":24,"left_children":[1,3,5,7,9,11,13,15,17,19,21,23,25,27,29,-1,-1,-1,-1,-1,-1,-1,-1,-1,-1,-1,-1,-1,-1,-1,-1],"loss_changes":[7.189025E4,3.6244438E4,7.2162188E3,3.9544805E3,2.5174688E4,1.5909297E3,1.2546777E2,3.0346777E2,1.4524521E3,1.408459E3,2.1545062E4,8.229932E1,1.6524219E3,1.6342773E0,6.9956055E1,0E0,0E0,0E0,0E0,0E0,0E0,0E0,0E0,0E0,0E0,0E0,0E0,0E0,0E0,0E0,0E0],"parents":[2147483647,0,0,1,1,2,2,3,3,4,4,5,5,6,6,7,7,8,8,9,9,10,10,11,11,12,12,13,13,14,14],"right_children":[2,4,6,8,10,12,14,16,18,20,22,24,26,28,30,-1,-1,-1,-1,-1,-1,-1,-1,-1,-1,-1,-1,-1,-1,-1,-1],"split_conditions":[4.324E1,4.2463183E0,5.22042E-1,3.9769099E0,7.450722E0,5.7942047E0,1.1642408E1,7.9286714E0,4E0,7.480238E0,5.145E1,8.008269E0,5.9621615E0,1.0562596E1,4.5101757E0,-5.474645E-2,-8.3891176E-2,-2.8058782E-1,-1.3186975E-1,-6.300809E-2,-1.4047381E-1,2.8373979E-2,-9.6246175E-2,-1.19002245E-1,-1.5400982E-1,-2.5847238E-1,-1.6845125E-1,-6.222342E-2,-7.255328E-2,-6.885059E-2,-9.707856E-2],"split_indices":[45,115,93,115,26,55,84,84,97,84,71,115,2,84,115,0,0,0,0,0,0,0,0,0,0,0,0,0,0,0,0],"split_type":[0,0,0,0,0,0,0,0,0,0,0,0,0,0,0,0,0,0,0,0,0,0,0,0,0,0,0,0,0,0,0],"sum_hessian":[1.0783084E6,1.0761138E6,2.1946655E3,2.275398E3,1.0738382E6,1.1180132E3,1.0766523E3,2.0332902E3,2.4210788E2,1.0502664E3,1.072788E6,3.4041138E2,7.776018E2,2.2481645E2,8.518359E2,4.111765E2,1.6221136E3,1.19618576E2,1.224893E2,2.9693716E2,7.5332916E2,1.071539E6,1.2490807E3,1.15791954E2,2.2461943E2,4.534056E2,3.241962E2,1.0989327E2,1.1492318E2,1.0130368E2,7.505322E2],"tree_param":{"num_deleted":"0","num_feature":"125","num_nodes":"31","size_leaf_vector":"1"}},{"base_weights":[9.2143303E-1,-2.438152E0,9.3053347E-1,-2.9437025E0,-1.9145259E0,9.36662E-1,-3.3500917E0,-3.1682773E0,-2.1887732E0,-1.8125081E0,-2.0822136E0,-6.784503E0,9.392692E-1,-3.9498742E0,-2.916124E0,-5.6505956E-2,-9.898052E-2,-5.7627946E-2,-6.914844E-2,-5.0318263E-2,-5.5923294E-2,-4.9907524E-2,-6.536817E-2,-9.87791E-2,-2.4134016E-1,-2.230133E-1,2.824779E-2,-7.279448E-2,-1.2640636E-1,-6.139758E-2,-9.05508E-2],"categories":[],"categories_nodes":[],"categories_segments":[],"categories_sizes":[],"default_left":[0,0,0,0,0,0,0,0,0,0,0,0,0,0,0,0,0,0,0,0,0,0,0,0,0,0,0,0,0,0,0],"id":25,"left_children":[1,3,5,7,9,11,13,15,17,19,21,23,25,27,29,-1,-1,-1,-1,-1,-1,-1,-1,-1,-1,-1,-1,-1,-1,-1,-1],"loss_changes":[3.4759812E4,8.0743555E2,2.974675E4,2.576875E2,2.208496E1,2.2797375E4,4.104375E2,1.9598633E2,6.8083496E0,3.4855957E0,1.9255615E1,1.6557109E3,2.2029062E4,2.6200098E2,7.777783E1,0E0,0E0,0E0,0E0,0E0,0E0,0E0,0E0,0E0,0E0,0E0,0E0,0E0,0E0,0E0,0E0],"parents":[2147483647,0,0,1,1,2,2,3,3,4,4,5,5,6,6,7,7,8,8,9,9,10,10,11,11,12,12,13,13,14,14],"right_children":[2,4,6,8,10,12,14,16,18,20,22,24,26,28,30,-1,-1,-1,-1,-1,-1,-1,-1,-1,-1,-1,-1,-1,-1,-1,-1],"split_conditions":[4.9265604E0,1.2120101E0,5.22042E-1,5.269553E-1,3.2267692E0,-1.055E1,5.9621615E0,3.9769099E0,1.7890202E-1,9.95681E-2,4.060097E0,4.596034E0,-3.4807914E-1,1.7890202E-1,1.2100012E-1,-5.6505956E-2,-9.898052E-2,-5.7627946E-2,-6.914844E-2,-5.0318263E-2,-5.5923294E-2,-4.9907524E-2,-6.536817E-2,-9.87791E-2,-2.4134016E-1,-2.230133E-1,2.824779E-2,-7.279448E-2,-1.2640636E-1,-6.139758E-2,-9.05508E-2],"split_indices":[38,53,93,93,89,124,2,115,40,40,115,115,114,40,40,0,0,0,0,0,0,0,0,0,0,0,0,0,0,0,0],"split_type":[0,0,0,0,0,0,0,0,0,0,0,0,0,0,0,0,0,0,0,0,0,0,0,0,0,0,0,0,0,0,0],"sum_hessian":[1.1368481E6,3.070451E3,1.1337778E6,1.5598376E3,1.5106134E3,1.1321576E6,1.6201194E3,1.1997437E3,3.6009393E2,9.465569E2,5.640565E2,3.8128873E2,1.1317764E6,6.7672394E2,9.433954E2,1.1249286E2,1.0872509E3,1.14242485E2,2.4585146E2,2.706831E2,6.758738E2,1.0928167E2,4.5477484E2,1.0207013E2,2.792186E2,3.1314066E2,1.1314631E6,1.0135223E2,5.753717E2,1.0146163E2,8.419338E2],"tree_param":{"num_deleted":"0","num_feature":"125","num_nodes":"31","size_leaf_vector":"1"}},{"base_weights":[9.09488E-1,-4.181664E0,9.1598904E-1,-6.1132032E-2,-4.500787E0,-4.591753E0,9.216819E-1,-4.742701E0,-6.956164E-2,-5.3289146E0,-2.265107E0,9.24351E-1,-8.37951E0,-1.556312E-1,-1.029889E-1,-1.4660327E-1,-1.931166E-1,-5.9252106E-2,-7.2859555E-2,2.7871886E-2,-1.2052409E-1,-3.00595E-1,-1.5133719E-1],"categories":[],"categories_nodes":[],"categories_segments":[],"categories_sizes":[],"default_left":[0,0,0,0,0,0,0,0,0,0,0,0,0,0,0,0,0,0,0,0,0,0,0],"id":26,"left_children":[1,3,5,-1,7,9,11,13,-1,15,17,19,21,-1,-1,-1,-1,-1,-1,-1,-1,-1,-1],"loss_changes":[3.532E4,9.2196484E2,3.3418188E4,0E0,6.139004E2,1.8754434E3,2.64365E4,6.0274023E2,0E0,3.7771094E2,7.845703E0,2.4785938E4,1.6206719E3,0E0,0E0,0E0,0E0,0E0,0E0,0E0,0E0,0E0,0E0],"parents":[2147483647,0,0,1,1,2,2,4,4,5,5,6,6,7,7,9,9,10,10,11,11,12,12],"right_children":[2,4,6,-1,8,10,12,14,-1,16,18,20,22,-1,-1,-1,-1,-1,-1,-1,-1,-1,-1],"split_conditions":[2.0989645E-1,3.9412483E1,5.851108E0,-6.1132032E-2,5.22042E-1,5.22042E-1,2.0018984E1,2.0458356E2,-6.956164E-2,5.7942047E0,-2.670833E1,9.202817E1,2.16E4,-1.556312E-1,-1.029889E-1,-1.4660327E-1,-1.931166E-1,-5.9252106E-2,-7.2859555E-2,2.7871886E-2,-1.2052409E-1,-3.00595E-1,-1.5133719E-1],"split_indices":[118,37,55,0,93,93,39,7,0,55,13,47,70,0,0,0,0,0,0,0,0,0,0],"split_type":[0,0,0,0,0,0,0,0,0,0,0,0,0,0,0,0,0,0,0,0,0,0,0],"sum_hessian":[1.0670311E6,1.3599585E3,1.0656711E6,1.7715843E2,1.1828E3,1.0995186E3,1.0645716E6,1.0636996E3,1.191004E2,8.339912E2,2.6552734E2,1.0642671E6,3.0450366E2,7.917337E2,2.719659E2,6.000296E2,2.3396161E2,1.0045442E2,1.6507292E2,1.0632541E6,1.0129877E3,2.0276637E2,1.0173731E2],"tree_param":{"num_deleted":"0","num_feature":"125","num_nodes":"23","size_leaf_vector":"1"}},{"base_weights":[9.183244E-1,-2.4864228E0,9.249545E-1,-5.083888E-2,-2.6524663E0,-5.6782846E0,9.27889E-1,-2.7074146E0,-5.7556454E-2,-4.468858E0,-2.8573978E-1,-3.37871E0,9.3224424E-1,-5.858806E-2,-8.304273E-2,-1.04122676E-1,-1.4459006E-1,-5.8868762E-2,-1.264597E-1,2.8086731E-2,-1.1194093E-1],"categories":[],"categories_nodes":[],"categories_segments":[],"categories_sizes":[],"default_left":[0,0,0,0,0,0,0,0,0,0,0,0,0,0,0,0,0,0,0,0,0],"id":27,"left_children":[1,3,5,-1,7,9,11,13,-1,15,-1,17,19,-1,-1,-1,-1,-1,-1,-1,-1],"loss_changes":[2.5284188E4,2.817129E2,2.1664812E4,0E0,6.730664E1,2.2678857E3,2.0959625E4,7.1052734E1,0E0,1.1623682E2,0E0,1.3295869E3,2.072175E4,0E0,0E0,0E0,0E0,0E0,0E0,0E0,0E0],"parents":[2147483647,0,0,1,1,2,2,4,4,5,5,6,6,7,7,9,9,11,11,12,12],"right_children":[2,4,6,-1,8,10,12,14,-1,16,-1,18,20,-1,-1,-1,-1,-1,-1,-1,-1],"split_conditions":[3.9769099E0,3.9412483E1,1.664763E0,-5.083888E-2,1.2120101E0,5.851108E0,9.427981E-2,5.9342837E0,-5.7556454E-2,6.502E1,-2.8573978E-1,4.2596252E1,7E0,-5.858806E-2,-8.304273E-2,-1.04122676E-1,-1.4459006E-1,-5.8868762E-2,-1.264597E-1,2.8086731E-2,-1.1194093E-1],"split_indices":[115,37,24,0,53,55,11,55,0,32,0,37,96,0,0,0,0,0,0,0,0],"split_type":[0,0,0,0,0,0,0,0,0,0,0,0,0,0,0,0,0,0,0,0,0],"sum_hessian":[1.1199691E6,2.1759521E3,1.1177931E6,3.7914954E2,1.7968025E3,4.9566702E2,1.1172975E6,1.6691448E3,1.276578E2,3.787404E2,1.16926636E2,1.1279999E3,1.1161695E6,1.2671395E2,1.5424308E3,1.01331825E2,2.7740854E2,4.2010016E2,7.0789966E2,1.1152185E6,9.509862E2],"tree_param":{"num_deleted":"0","num_feature":"125","num_nodes":"21","size_leaf_vector":"1"}},{"base_weights":[8.9819133E-1,9.0842086E-1,-4.161668E0,-2.9680278E0,9.146447E-1,-5.2210555E0,-3.41854E0,-2.4000862E0,-6.297433E0,-3.706109E0,9.193361E-1,-6.989918E0,-3.3456798E0,-3.990217E0,-2.770147E0,-5.800011E-2,-1.02352045E-1,-2.4792892E-1,-1.08681455E-1,-6.60737E-2,-1.3193573E-1,2.7656619E-2,-2.0156136E-1,-2.6314732E-1,-1.7317237E-1,-1.2613851E-1,-8.8908784E-2,-1.4528897E-1,-1.064565E-1,-8.9910455E-2,-6.217814E-2],"categories":[],"categories_nodes":[],"categories_segments":[],"categories_sizes":[],"default_left":[0,0,0,0,0,0,0,0,0,0,0,0,0,0,0,0,0,0,0,0,0,0,0,0,0,0,0,0,0,0,0],"id":28,"left_children":[1,3,5,7,9,11,13,15,17,19,21,23,25,27,29,-1,-1,-1,-1,-1,-1,-1,-1,-1,-1,-1,-1,-1,-1,-1,-1],"loss_changes":[5.2193562E4,2.4280438E4,1.583875E3,3.0354316E3,2.1782E4,2.752832E3,4.3325488E2,6.4492334E2,1.2036074E3,1.0504072E3,1.9563562E4,8.8159375E2,1.21473145E2,2.2187988E2,8.318652E1,0E0,0E0,0E0,0E0,0E0,0E0,0E0,0E0,0E0,0E0,0E0,0E0,0E0,0E0,0E0,0E0],"parents":[2147483647,0,0,1,1,2,2,3,3,4,4,5,5,6,6,7,7,8,8,9,9,10,10,11,11,12,12,13,13,14,14],"right_children":[2,4,6,8,10,12,14,16,18,20,22,24,26,28,30,-1,-1,-1,-1,-1,-1,-1,-1,-1,-1,-1,-1,-1,-1,-1,-1],"split_conditions":[-1.625659E1,1.8340217E0,3.3367146E1,-3.3593952E1,7.450722E1,2.28E4,7E0,3.9412483E1,5.504111E-1,3.9412483E1,9.1E0,3.41E1,7.485E1,4.278394E1,7.641E1,-5.800011E-2,-1.02352045E-1,-2.4792892E-1,-1.08681455E-1,-6.60737E-2,-1.3193573E-1,2.7656619E-2,-2.0156136E-1,-2.6314732E-1,-1.7317237E-1,-1.2613851E-1,-8.8908784E-2,-1.4528897E-1,-1.064565E-1,-8.9910455E-2,-6.217814E-2],"split_indices":[13,89,89,13,25,70,96,37,6,37,108,45,32,85,32,0,0,0,0,0,0,0,0,0,0,0,0,0,0,0,0],"split_type":[0,0,0,0,0,0,0,0,0,0,0,0,0,0,0,0,0,0,0,0,0,0,0,0,0,0,0,0,0,0,0],"sum_hessian":[1.0083016E6,1.00626806E6,2.0335554E3,1.6122711E3,1.0046558E6,8.358949E2,1.1976605E3,1.3787926E3,2.3347847E2,1.0181732E3,1.0036376E6,4.287596E2,4.0713528E2,6.337445E2,5.63916E2,9.4548224E2,4.333104E2,1.3333801E2,1.0014046E2,3.221344E2,6.960388E2,1.0033034E6,3.342401E2,1.7153546E2,2.5722415E2,1.22261154E2,2.848741E2,2.1283943E2,4.209051E2,4.2303278E2,1.4088326E2],"tree_param":{"num_deleted":"0","num_feature":"125","num_nodes":"31","size_leaf_vector":"1"}},{"base_weights":[9.0110224E-1,-5.6794915E0,9.0499276E-1,-8.408643E-2,-6.722189E0,-2.412365E0,9.1185653E-1,-7.4729867E0,-1.2543406E-1,-1.6570423E0,-2.5641592E0,9.1748464E-1,-2.4953578E0,-1.7482595E-1,-2.448952E-1,-5.3081203E-2,-4.7425114E-2,-7.836498E-2,-5.632987E-2,-1.9430679E-1,2.7604837E-2,-5.8449E-2,-1.1604709E-1],"categories":[],"categories_nodes":[],"categories_segments":[],"categories_sizes":[],"default_left":[0,0,0,0,0,0,0,0,0,0,0,0,0,0,0,0,0,0,0,0,0,0,0],"id":29,"left_children":[1,3,5,-1,7,9,11,13,-1,15,17,19,21,-1,-1,-1,-1,-1,-1,-1,-1,-1,-1],"loss_changes":[2.5992688E4,1.7805156E3,2.3101125E4,0E0,8.074043E2,2.3593945E2,1.94155E4,3.363496E2,0E0,2.2790527E-1,5.2524414E1,2.0009438E4,1.2465225E3,0E0,0E0,0E0,0E0,0E0,0E0,0E0,0E0,0E0,0E0],"parents":[2147483647,0,0,1,1,2,2,4,4,5,5,6,6,7,7,9,9,10,10,11,11,12,12],"right_children":[2,4,6,-1,8,10,12,14,-1,16,18,20,22,-1,-1,-1,-1,-1,-1,-1,-1,-1,-1],"split_conditions":[7.2E3,4.9362267E1,3.9769099E0,-8.408643E-2,5.2529985E-1,3.9412483E1,1.2120101E0,1.03747055E2,-1.2543406E-1,1.2120101E0,1.2120101E0,-1.055E1,3.9412483E1,-1.7482595E-1,-2.448952E-1,-5.3081203E-2,-4.7425114E-2,-7.836498E-2,-5.632987E-2,-1.9430679E-1,2.7604837E-2,-5.8449E-2,-1.1604709E-1],"split_indices":[70,37,115,0,6,37,53,7,0,53,53,124,37,0,0,0,0,0,0,0,0,0,0],"split_type":[0,0,0,0,0,0,0,0,0,0,0,0,0,0,0,0,0,0,0,0,0,0,0],"sum_hessian":[1.0150583E6,5.988984E2,1.01445944E6,1.6031277E2,4.3858557E2,2.0939126E3,1.0123655E6,3.3705576E2,1.0152982E2,3.523826E2,1.74153E3,1.01069675E6,1.6687549E3,1.02391174E2,2.3466457E2,1.3345003E2,2.1893257E2,1.6250819E3,1.16448074E2,3.6484064E2,1.01033194E6,1.1949974E3,4.7375745E2],"tree_param":{"num_deleted":"0","num_feature":"125","num_nodes":"23","size_leaf_vector":"1"}},{"base_weights":[8.94403E-1,-4.0845103E0,9.006468E-1,-4.625752E0,-2.503823E0,-2.3338976E0,9.0764713E-1,-8.9172944E-2,-4.8629184E0,-5.84576E-2,-2.7653024E0,-4.8888814E-2,-2.4781659E0,-3.010378E0,9.1325396E-1,-1.3448973E-1,-1.7313302E-1,-7.133209E-2,-9.262937E-2,-7.584633E-2,-5.611312E-2,-7.327112E-2,-1.8107568E-1,2.7555604E-2,-9.273523E-2],"categories":[],"categories_nodes":[],"categories_segments":[],"categories_sizes":[],"default_left":[0,0,0,0,0,0,0,0,0,0,0,0,0,0,0,0,0,0,0,0,0,0,0,0,0],"id":30,"left_children":[1,3,5,7,9,11,13,-1,15,-1,17,-1,19,21,23,-1,-1,-1,-1,-1,-1,-1,-1,-1,-1],"loss_changes":[3.0724125E4,1.0474648E3,2.234975E4,3.466621E2,4.0769165E1,2.1254785E2,2.163725E4,0E0,2.5148828E2,0E0,1.9362305E1,0E0,4.9023438E1,2.404125E3,2.074125E4,0E0,0E0,0E0,0E0,0E0,0E0,0E0,0E0,0E0,0E0],"parents":[2147483647,0,0,1,1,2,2,3,3,4,4,5,5,6,6,8,8,10,10,12,12,13,13,14,14],"right_children":[2,4,6,8,10,12,14,-1,16,-1,18,-1,20,22,24,-1,-1,-1,-1,-1,-1,-1,-1,-1,-1],"split_conditions":[5.851108E0,5.9386797E0,3.9769099E0,4.9392014E0,-2.7114746E1,4.9265604E0,1.8340217E0,-8.9172944E-2,5.7942047E0,-5.84576E-2,1.7695E1,-4.8888814E-2,2.251417E0,-3.3593952E1,5.145E1,-1.3448973E-1,-1.7313302E-1,-7.133209E-2,-9.262937E-2,-7.584633E-2,-5.611312E-2,-7.327112E-2,-1.8107568E-1,2.7555604E-2,-9.273523E-2],"split_indices":[55,2,115,115,13,38,89,0,55,0,21,0,54,13,71,0,0,0,0,0,0,0,0,0,0],"split_type":[0,0,0,0,0,0,0,0,0,0,0,0,0,0,0,0,0,0,0,0,0,0,0,0,0],"sum_hessian":[9.88197E5,1.2368792E3,9.869601E5,9.1995264E2,3.1692654E2,2.1306782E3,9.8482944E5,1.1710825E2,8.0284436E2,1.0417319E2,2.1275337E2,3.643477E2,1.7663306E3,1.4065508E3,9.834229E5,5.7023114E2,2.3261324E2,1.0040673E2,1.1234664E2,1.6290236E3,1.3730699E2,1.1857448E3,2.2080598E2,9.8213206E5,1.2908171E3],"tree_param":{"num_deleted":"0","num_feature":"125","num_nodes":"25","size_leaf_vector":"1"}},{"base_weights":[8.897138E-1,8.96738E-1,-3.8313067E0,-3.1238902E0,9.029918E-1,-6.2980795E0,-2.664814E0,-2.2013288E0,-6.817819E0,-6.7498975E0,9.056504E-1,-1.1204932E-1,-7.330186E0,-2.0121217E0,-2.948904E0,-5.347396E-2,-7.998731E-2,-1.6332471E-1,-2.6748934E-1,-1.1134752E-1,-2.415099E-1,-1.2744902E-1,2.728342E-2,-2.3773746E-1,-1.8116969E-1,-6.6752285E-2,-5.424715E-2,-8.249262E-2,-9.399618E-2],"categories":[],"categories_nodes":[],"categories_segments":[],"categories_sizes":[],"default_left":[0,0,0,0,0,0,0,0,0,0,0,0,0,0,0,0,0,0,0,0,0,0,0,0,0,0,0,0,0],"id":31,"left_children":[1,3,5,7,9,11,13,15,17,19,21,-1,23,25,27,-1,-1,-1,-1,-1,-1,-1,-1,-1,-1,-1,-1,-1,-1],"loss_changes":[3.2181375E4,2.436525E4,4.1318906E3,5.1136924E3,1.9688812E4,1.1952227E3,1.7589502E2,2.3003613E2,8.170342E2,1.2979863E3,1.8929E4,0E0,2.0421875E2,9.025024E0,1.6382812E1,0E0,0E0,0E0,0E0,0E0,0E0,0E0,0E0,0E0,0E0,0E0,0E0,0E0,0E0],"parents":[2147483647,0,0,1,1,2,2,3,3,4,4,5,5,6,6,7,7,8,8,9,9,10,10,12,12,13,13,14,14],"right_children":[2,4,6,8,10,12,14,16,18,20,22,-1,24,26,28,-1,-1,-1,-1,-1,-1,-1,-1,-1,-1,-1,-1,-1,-1],"split_conditions":[9.35625E0,2.4187849E0,5.145E1,3.9412483E1,5.4414496E2,3E0,3E0,7.486021E1,4.9808163E1,5.0013332E1,3.94E0,-1.1204932E-1,2.5081726E2,3.5530094E1,4E0,-5.347396E-2,-7.998731E-2,-1.6332471E-1,-2.6748934E-1,-1.1134752E-1,-2.415099E-1,-1.2744902E-1,2.728342E-2,-2.3773746E-1,-1.8116969E-1,-6.6752285E-2,-5.424715E-2,-8.249262E-2,-9.399618E-2],"split_indices":[33,39,71,37,44,99,99,7,100,37,4,0,7,89,99,0,0,0,0,0,0,0,0,0,0,0,0,0,0],"split_type":[0,0,0,0,0,0,0,0,0,0,0,0,0,0,0,0,0,0,0,0,0,0,0,0,0,0,0,0,0],"sum_hessian":[9.7034806E5,9.689073E5,1.4407764E3,1.5039547E3,9.674034E5,4.6116193E2,9.7961444E2,1.2046808E3,2.9927393E2,3.350734E2,9.6706825E5,1.3371556E2,3.2744635E2,2.9953052E2,6.800839E2,6.362697E2,5.6841113E2,1.8304678E2,1.1622715E2,1.0158517E2,2.3348822E2,7.111109E2,9.663572E5,2.2070741E2,1.06738945E2,1.4165721E2,1.578733E2,3.3452652E2,3.4555743E2],"tree_param":{"num_deleted":"0","num_feature":"125","num_nodes":"29","size_leaf_vector":"1"}},{"base_weights":[8.954164E-1,-2.230302E0,9.02317E-1,-4.751866E-2,-2.358642E0,9.07723E-1,-2.9232042E0,-2.40359E0,-4.9580965E-2,9.135437E-1,-2.4232771E0,-2.0130215E0,-3.2314677E0,-7.3448636E-2,-5.374092E-2,2.7558846E-2,-8.506704E-2,-5.6725845E-2,-1.0779644E-1,-5.0989535E-2,-7.110266E-2,-1.1319971E-1,-8.513827E-2],"categories":[],"categories_nodes":[],"categories_segments":[],"categories_sizes":[],"default_left":[0,0,0,0,0,0,0,0,0,0,0,0,0,0,0,0,0,0,0,0,0,0,0],"id":32,"left_children":[1,3,5,-1,7,9,11,13,-1,15,17,19,21,-1,-1,-1,-1,-1,-1,-1,-1,-1,-1],"loss_changes":[2.1593562E4,1.7920508E2,2.0659375E4,0E0,5.4347656E1,1.934075E4,3.8903418E2,4.284082E1,0E0,1.8982562E4,1.0771328E3,3.6176636E1,2.1349219E2,0E0,0E0,0E0,0E0,0E0,0E0,0E0,0E0,0E0,0E0],"parents":[2147483647,0,0,1,1,2,2,4,4,5,5,6,6,7,7,9,9,10,10,11,11,12,12],"right_children":[2,4,6,-1,8,10,12,14,-1,16,18,20,22,-1,-1,-1,-1,-1,-1,-1,-1,-1,-1],"split_conditions":[3.9769099E0,4.9265604E0,5.269553E-1,-4.751866E-2,5.22042E-1,1.2120101E0,2.555403E-1,1.2120101E0,-4.9580965E-2,5.145E1,4.9265604E0,9.427981E-2,4.324E1,-7.3448636E-2,-5.374092E-2,2.7558846E-2,-8.506704E-2,-5.6725845E-2,-1.0779644E-1,-5.0989535E-2,-7.110266E-2,-1.1319971E-1,-8.513827E-2],"split_indices":[115,38,93,0,93,53,40,53,0,71,38,11,45,0,0,0,0,0,0,0,0,0,0],"split_type":[0,0,0,0,0,0,0,0,0,0,0,0,0,0,0,0,0,0,0,0,0,0,0],"sum_hessian":[1.0010303E6,2.2043813E3,9.9882594E5,3.674035E2,1.8369778E3,9.974172E5,1.4087395E3,1.7247568E3,1.1222102E2,9.9567806E5,1.7391492E3,3.583123E2,1.0504271E3,1.6046067E3,1.2015006E2,9.943303E5,1.347737E3,1.1970234E3,5.421258E2,1.9390062E2,1.6441167E2,4.3831323E2,6.1211395E2],"tree_param":{"num_deleted":"0","num_feature":"125","num_nodes":"23","size_leaf_vector":"1"}},{"base_weights":[8.9021504E-1,-4.550835E0,8.963603E-1,-2.240436E0,-7.55881E0,-2.1851501E0,9.030769E-1,-2.6763663E0,-1.6588594E0,-8.779592E0,-1.4256057E-1,-4.6737216E-2,-2.2778428E0,-3.9142058E0,9.069591E-1,-6.405453E-2,-8.782325E-2,-4.6443522E-2,-5.3939752E-2,-1.6893484E-1,-3.039673E-1,-6.9411784E-2,-5.24663E-2,-7.320922E-2,-1.2658189E-1,2.728577E-2,-1.8383035E-1],"categories":[],"categories_nodes":[],"categories_segments":[],"categories_sizes":[],"default_left":[0,0,0,0,0,0,0,0,0,0,0,0,0,0,0,0,0,0,0,0,0,0,0,0,0,0,0],"id":33,"left_children":[1,3,5,7,9,11,13,15,17,19,-1,-1,21,23,25,-1,-1,-1,-1,-1,-1,-1,-1,-1,-1,-1,-1],"loss_changes":[3.2778562E4,7.66916E3,2.026675E4,1.545061E2,1.6031016E3,1.2027637E2,1.8274625E4,4.222119E1,1.3955078E0,1.3626016E3,0E0,0E0,3.1132812E1,3.436621E2,1.7630375E4,0E0,0E0,0E0,0E0,0E0,0E0,0E0,0E0,0E0,0E0,0E0,0E0],"parents":[2147483647,0,0,1,1,2,2,3,3,4,4,5,5,6,6,7,7,8,8,9,9,12,12,13,13,14,14],"right_children":[2,4,6,8,10,12,14,16,18,20,-1,-1,22,24,26,-1,-1,-1,-1,-1,-1,-1,-1,-1,-1,-1,-1],"split_conditions":[8.43E0,4.9265604E0,3.9769099E0,1.2120101E0,3.7639214E1,4.9265604E0,1.2541096E-1,-3.3593952E1,-3.584741E1,3.07651E2,-1.4256057E-1,-4.6737216E-2,1.2120101E0,-2.9453442E1,9.1E0,-6.405453E-2,-8.782325E-2,-4.6443522E-2,-5.3939752E-2,-1.6893484E-1,-3.039673E-1,-6.9411784E-2,-5.24663E-2,-7.320922E-2,-1.2658189E-1,2.728577E-2,-1.8383035E-1],"split_indices":[34,38,115,53,48,38,118,13,13,20,0,0,53,13,108,0,0,0,0,0,0,0,0,0,0,0,0],"split_type":[0,0,0,0,0,0,0,0,0,0,0,0,0,0,0,0,0,0,0,0,0,0,0,0,0,0,0],"sum_hessian":[9.802028E5,1.1049727E3,9.790978E5,6.259391E2,4.790335E2,2.128751E3,9.7696906E5,3.5570935E2,2.7022974E2,3.3235263E2,1.4668091E2,2.7637225E2,1.8523788E3,7.858882E2,9.761832E5,1.15735435E2,2.399739E2,1.5721886E2,1.130109E2,1.014292E2,2.3092342E2,1.7315422E3,1.2083662E2,1.3635703E2,6.495311E2,9.7582806E5,3.5515643E2],"tree_param":{"num_deleted":"0","num_feature":"125","num_nodes":"27","size_leaf_vector":"1"}},{"base_weights":[8.6522394E-1,-4.194976E0,8.740981E-1,-3.909929E0,-2.1029815E-1,-2.5899162E0,8.858357E-1,-5.7325527E-2,-4.180502E0,-2.374558E0,-1.7066005E-1,8.929285E-1,-3.3341696E0,-1.1112036E-1,-1.514406E-1,-8.609892E-2,-5.389487E-2,-2.0137446E-1,2.6867848E-2,-1.1898871E-1,-8.6585335E-2],"categories":[],"categories_nodes":[],"categories_segments":[],"categories_sizes":[],"default_left":[0,0,0,0,0,0,0,0,0,0,0,0,0,0,0,0,0,0,0,0,0],"id":34,"left_children":[1,3,5,7,-1,9,11,-1,13,15,-1,17,19,-1,-1,-1,-1,-1,-1,-1,-1],"loss_changes":[3.9782875E4,1.2170996E3,3.5957188E4,7.5501953E2,0E0,1.9795293E3,2.6382188E4,0E0,4.9454688E2,7.9502637E2,0E0,1.7848625E4,4.0738086E2,0E0,0E0,0E0,0E0,0E0,0E0,0E0,0E0],"parents":[2147483647,0,0,1,1,2,2,3,3,5,5,6,6,8,8,9,9,11,11,12,12],"right_children":[2,4,6,8,-1,10,12,-1,14,16,-1,18,20,-1,-1,-1,-1,-1,-1,-1,-1],"split_conditions":[2.2579053E-1,2.0989645E-1,4.1083355E1,3.9412483E1,-2.1029815E-1,3.9412483E1,5.22042E-1,-5.7325527E-2,1.2541096E-1,2.2961216E0,-1.7066005E-1,5.4414496E2,5.797458E-1,-1.1112036E-1,-1.514406E-1,-8.609892E-2,-5.389487E-2,-2.0137446E-1,2.6867848E-2,-1.1898871E-1,-8.6585335E-2],"split_indices":[118,118,37,37,0,37,93,0,118,54,0,44,6,0,0,0,0,0,0,0,0],"split_type":[0,0,0,0,0,0,0,0,0,0,0,0,0,0,0,0,0,0,0,0,0],"sum_hessian":[8.8584894E5,1.5499878E3,8.8429894E5,1.4096351E3,1.4035268E2,2.9855347E3,8.8131344E5,1.6900858E2,1.2406266E3,2.7931797E3,1.9235506E2,8.7983544E5,1.477999E3,8.0418994E2,4.3643665E2,1.5019917E3,1.2911881E3,3.0747797E2,8.7952794E5,6.097633E2,8.682357E2],"tree_param":{"num_deleted":"0","num_feature":"125","num_nodes":"21","size_leaf_vector":"1"}},{"base_weights":[8.726292E-1,-3.1664732E0,8.7829876E-1,-2.0147662E0,-4.717571E0,8.8345546E-1,-3.528032E0,-1.7361E0,-8.677399E-2,-3.5813832E0,-2.0855479E-1,-5.598926E0,8.868779E-1,-1.7122857E-1,-3.0701659E0,-4.8187066E-2,-6.7662515E-2,-8.700553E-2,-1.336948E-1,-1.0974374E-1,-1.97605E-1,-6.4436E-2,2.6802681E-2,-1.02464825E-1,-5.3430073E-2],"categories":[],"categories_nodes":[],"categories_segments":[],"categories_sizes":[],"default_left":[0,0,0,0,0,0,0,0,0,0,0,0,0,0,0,0,0,0,0,0,0,0,0,0,0],"id":35,"left_children":[1,3,5,7,9,11,13,15,-1,17,-1,19,21,-1,23,-1,-1,-1,-1,-1,-1,-1,-1,-1,-1],"loss_changes":[2.1203938E4,2.3091377E3,2.1010062E4,1.7758838E2,1.3771992E3,2.0492125E4,1.0611562E3,3.4763794E1,0E0,2.065664E2,0E0,9.1045605E2,1.8333562E4,0E0,3.9253906E2,0E0,0E0,0E0,0E0,0E0,0E0,0E0,0E0,0E0,0E0],"parents":[2147483647,0,0,1,1,2,2,3,3,4,4,5,5,6,6,7,7,9,9,11,11,12,12,14,14],"right_children":[2,4,6,8,10,12,14,16,-1,18,-1,20,22,-1,24,-1,-1,-1,-1,-1,-1,-1,-1,-1,-1],"split_conditions":[3.364E0,-3.1970041E1,3.5530094E1,-3.3593952E1,3.0286E2,7E3,2.2965162E1,6.8675203E0,-8.677399E-2,1.2100012E-1,-2.0855479E-1,-2.9333551E1,3.9769099E0,-1.7122857E-1,5.145E1,-4.8187066E-2,-6.7662515E-2,-8.700553E-2,-1.336948E-1,-1.0974374E-1,-1.97605E-1,-6.4436E-2,2.6802681E-2,-1.02464825E-1,-5.3430073E-2],"split_indices":[52,13,89,13,20,70,8,39,0,40,0,13,115,0,71,0,0,0,0,0,0,0,0,0,0],"split_type":[0,0,0,0,0,0,0,0,0,0,0,0,0,0,0,0,0,0,0,0,0,0,0,0,0],"sum_hessian":[9.2581775E5,1.2969349E3,9.245208E5,7.4561017E2,5.513248E2,9.2344094E5,1.0798871E3,5.6819E2,1.7742012E2,3.6719693E2,1.8412791E2,4.864227E2,9.229545E5,1.854797E2,8.944074E2,4.5780173E2,1.10388306E2,2.0890005E2,1.5829686E2,1.656657E2,3.20757E2,1.9854904E3,9.20969E5,7.0414E2,1.9026738E2],"tree_param":{"num_deleted":"0","num_feature":"125","num_nodes":"25","size_leaf_vector":"1"}},{"base_weights":[8.80198E-1,-2.751148E0,8.86243E-1,-1.7788856E0,-4.0071383E0,8.880983E-1,-3.17371E-1,-2.048487E0,-4.604725E-2,-4.6164355E0,-5.9155613E-2,-6.0265503E0,8.9113444E-1,-6.6107E-2,-5.1029667E-2,-1.0861124E-1,-1.9614488E-1,-2.2624889E-1,-7.89115E-2,2.6878813E-2,-9.850335E-2],"categories":[],"categories_nodes":[],"categories_segments":[],"categories_sizes":[],"default_left":[0,0,0,0,0,0,0,0,0,0,0,0,0,0,0,0,0,0,0,0,0],"id":36,"left_children":[1,3,5,7,9,11,-1,13,-1,15,-1,17,19,-1,-1,-1,-1,-1,-1,-1,-1],"loss_changes":[2.0649188E4,1.9019805E3,1.99835E4,5.493701E1,8.358379E2,1.9715438E4,0E0,1.8696533E1,0E0,9.7863184E2,0E0,2.101044E3,1.8909125E4,0E0,0E0,0E0,0E0,0E0,0E0,0E0,0E0],"parents":[2147483647,0,0,1,1,2,2,3,3,4,4,5,5,7,7,9,9,11,11,12,12],"right_children":[2,4,6,8,10,12,-1,14,-1,16,-1,18,20,-1,-1,-1,-1,-1,-1,-1,-1],"split_conditions":[1.8340217E0,3.9412483E1,1.784825E3,2.3379273E0,5.22042E-1,3.725E3,-3.17371E-1,5.269553E-1,-4.604725E-2,-3.3593952E1,-5.9155613E-2,5.22042E-1,3.5530094E1,-6.6107E-2,-5.1029667E-2,-1.0861124E-1,-1.9614488E-1,-2.2624889E-1,-7.89115E-2,2.6878813E-2,-9.850335E-2],"split_indices":[89,37,72,54,93,43,0,93,0,13,0,93,89,0,0,0,0,0,0,0,0],"split_type":[0,0,0,0,0,0,0,0,0,0,0,0,0,0,0,0,0,0,0,0,0],"sum_hessian":[9.40562E5,1.5623672E3,9.389996E5,8.8201526E2,6.803519E2,9.388486E5,1.5100235E2,4.1549066E2,4.6652463E2,5.2262646E2,1.5772545E2,4.1118472E2,9.3843744E5,2.835902E2,1.3190045E2,3.4611407E2,1.7651239E2,2.8349353E2,1.276912E2,9.373546E5,1.0828373E3],"tree_param":{"num_deleted":"0","num_feature":"125","num_nodes":"21","size_leaf_vector":"1"}},{"base_weights":[8.55383E-1,-4.0083423E0,8.6266625E-1,-4.534429E0,-2.408987E0,8.6874425E-1,-3.798354E0,-9.17972E-2,-4.78602E0,-8.2529634E-2,-5.7608042E-2,8.7203425E-1,-7.592343E0,-4.2529974E0,-2.9136322E0,-1.6680862E-1,-1.2528297E-1,-6.2316213E-2,2.6379077E-2,-1.298901E-1,-2.7841833E-1,-1.4954454E-1,-1.1482424E-1,-7.417632E-2,-9.841337E-2],"categories":[],"categories_nodes":[],"categories_segments":[],"categories_sizes":[],"default_left":[0,0,0,0,0,0,0,0,0,0,0,0,0,0,0,0,0,0,0,0,0,0,0,0,0],"id":37,"left_children":[1,3,5,7,9,11,13,-1,15,-1,-1,17,19,21,23,-1,-1,-1,-1,-1,-1,-1,-1,-1,-1],"loss_changes":[2.9762062E4,1.0461074E3,2.3767062E4,3.3563086E2,4.7047363E1,2.3326375E4,4.270879E2,0E0,3.568379E2,0E0,0E0,1.7952438E4,1.7539531E3,2.0499219E2,5.2410156E1,0E0,0E0,0E0,0E0,0E0,0E0,0E0,0E0,0E0,0E0],"parents":[2147483647,0,0,1,1,2,2,3,3,4,4,5,5,6,6,8,8,11,11,12,12,13,13,14,14],"right_children":[2,4,6,8,10,12,14,-1,16,-1,-1,18,20,22,24,-1,-1,-1,-1,-1,-1,-1,-1,-1,-1],"split_conditions":[5.851108E0,5.9386797E0,9.202817E1,7.450722E0,5.910423E-1,1.9488787E1,7.0637026E0,-9.17972E-2,4.318E1,-8.2529634E-2,-5.7608042E-2,3.9769099E0,3.9238077E-1,5.290977E1,3E0,-1.6680862E-1,-1.2528297E-1,-6.2316213E-2,2.6379077E-2,-1.298901E-1,-2.7841833E-1,-1.4954454E-1,-1.1482424E-1,-7.417632E-2,-9.841337E-2],"split_indices":[55,2,47,26,6,9,11,0,45,0,0,115,11,12,99,0,0,0,0,0,0,0,0,0,0],"split_type":[0,0,0,0,0,0,0,0,0,0,0,0,0,0,0,0,0,0,0,0,0,0,0,0,0],"sum_hessian":[8.400762E5,1.255279E3,8.388209E5,9.431931E2,3.1208594E2,8.377293E5,1.0916002E3,1.3939421E2,8.037989E2,1.808794E2,1.3120654E2,8.3740456E5,3.2471704E2,7.18545E2,3.7305524E2,3.5060483E2,4.5319406E2,2.0579775E3,8.3534656E5,1.1194384E2,2.1277321E2,2.602494E2,4.582956E2,1.7289366E2,2.0016158E2],"tree_param":{"num_deleted":"0","num_feature":"125","num_nodes":"25","size_leaf_vector":"1"}},{"base_weights":[8.645302E-1,-5.440478E0,8.7237346E-1,-6.943307E-2,-5.95504E0,8.7755924E-1,-5.408513E0,-6.616851E0,-9.330997E-2,-3.7486815E0,8.829212E-1,-6.5148056E-2,-6.13007E0,-2.261988E-1,-1.1255895E-1,-7.4877456E-2,-1.559993E-1,-1.4259982E-1,2.660751E-2,-2.3642828E-1,-1.0737071E-1],"categories":[],"categories_nodes":[],"categories_segments":[],"categories_sizes":[],"default_left":[0,0,0,0,0,0,0,0,0,0,0,0,0,0,0,0,0,0,0,0,0],"id":38,"left_children":[1,3,5,-1,7,9,11,13,-1,15,17,-1,19,-1,-1,-1,-1,-1,-1,-1,-1],"loss_changes":[4.3306438E4,1.7363926E3,2.848975E4,0E0,1.7371289E3,2.1679312E4,1.6720742E3,1.9724336E3,0E0,1.8266328E3,1.9660875E4,0E0,2.60492E3,0E0,0E0,0E0,0E0,0E0,0E0,0E0,0E0],"parents":[2147483647,0,0,1,1,2,2,4,4,5,5,6,6,7,7,9,9,10,10,12,12],"right_children":[2,4,6,-1,8,10,12,14,-1,16,18,-1,20,-1,-1,-1,-1,-1,-1,-1,-1],"split_conditions":[2E0,4.17428E1,8E0,-6.943307E-2,1.9715009E2,1.566E1,3.9412483E1,4.388E1,-9.330997E-2,2.6156268E-1,-4.07337E0,-6.5148056E-2,2.2964615E1,-2.261988E-1,-1.1255895E-1,-7.4877456E-2,-1.559993E-1,-1.4259982E-1,2.660751E-2,-2.3642828E-1,-1.0737071E-1],"split_indices":[119,37,79,0,37,87,37,45,0,40,100,0,84,0,0,0,0,0,0,0,0],"split_type":[0,0,0,0,0,0,0,0,0,0,0,0,0,0,0,0,0,0,0,0,0],"sum_hessian":[8.756303E5,1.0870503E3,8.7454325E5,1.5442046E2,9.326299E2,8.738226E5,7.206039E2,7.5553204E2,1.7709781E2,1.0108132E3,8.728118E5,1.3208388E2,5.8852E2,5.7017975E2,1.8535233E2,5.439727E2,4.6684048E2,6.174896E2,8.721943E5,3.4775455E2,2.4076546E2],"tree_param":{"num_deleted":"0","num_feature":"125","num_nodes":"21","size_leaf_vector":"1"}},{"base_weights":[8.3223605E-1,8.4766316E-1,-4.261728E0,-5.91287E0,8.5509276E-1,-5.8868065E0,-3.296713E0,-4.3353643E0,-8.542756E0,8.6353517E-1,-3.6477988E0,-3.7820904E0,-8.466761E0,-3.9715896E0,-2.478509E0,-8.468888E-2,-1.4538613E-1,-1.5979646E-1,-3.0893785E-1,-1.2792063E-1,2.6118657E-2,-1.9715376E-1,-9.101876E-2,-9.38778E-2,-1.19177215E-1,-1.9629142E-1,-2.7741057E-1,-7.887548E-2,-1.3198803E-1,-5.8676187E-2,-8.154692E-2],"categories":[],"categories_nodes":[],"categories_segments":[],"categories_sizes":[],"default_left":[0,0,0,0,0,0,0,0,0,0,0,0,0,0,0,0,0,0,0,0,0,0,0,0,0,0,0,0,0,0,0],"id":39,"left_children":[1,3,5,7,9,11,13,15,17,19,21,23,25,27,29,-1,-1,-1,-1,-1,-1,-1,-1,-1,-1,-1,-1,-1,-1,-1,-1],"loss_changes":[6.0326562E4,3.8444062E4,3.6155312E3,3.4487988E3,2.9064188E4,4.65042E3,7.944463E2,3.936543E2,1.7176934E3,2.7730438E4,2.5481152E3,4.684912E1,5.197969E2,4.4608984E2,7.750195E1,0E0,0E0,0E0,0E0,0E0,0E0,0E0,0E0,0E0,0E0,0E0,0E0,0E0,0E0,0E0,0E0],"parents":[2147483647,0,0,1,1,2,2,3,3,4,4,5,5,6,6,7,7,8,8,9,9,10,10,11,11,12,12,13,13,14,14],"right_children":[2,4,6,8,10,12,14,16,18,20,22,24,26,28,30,-1,-1,-1,-1,-1,-1,-1,-1,-1,-1,-1,-1,-1,-1,-1,-1],"split_conditions":[4.324E1,5.9468956E0,5.9386797E0,5.851108E0,7.485E1,5.851108E0,5.953539E-1,7.450722E1,7.597179E1,8.43E0,5.50664E1,3E0,8.008269E0,5.851108E0,3.9412483E1,-8.468888E-2,-1.4538613E-1,-1.5979646E-1,-3.0893785E-1,-1.2792063E-1,2.6118657E-2,-1.9715376E-1,-9.101876E-2,-9.38778E-2,-1.19177215E-1,-1.9629142E-1,-2.7741057E-1,-7.887548E-2,-1.3198803E-1,-5.8676187E-2,-8.154692E-2],"split_indices":[45,55,2,55,32,55,6,25,25,34,28,103,115,55,37,0,0,0,0,0,0,0,0,0,0,0,0,0,0,0,0],"split_type":[0,0,0,0,0,0,0,0,0,0,0,0,0,0,0,0,0,0,0,0,0,0,0,0,0,0,0,0,0,0,0],"sum_hessian":[7.6761056E5,7.652937E5,2.3168687E3,8.3923114E2,7.6445444E5,8.613166E2,1.455552E3,5.26228E2,3.1300308E2,7.630247E5,1.4297795E3,4.7570465E2,3.856119E2,7.955266E2,6.600254E2,1.3451295E2,3.9171506E2,1.1193196E2,2.0107114E2,1.0522881E3,7.619724E5,2.4639313E2,1.1833864E3,1.113864E2,3.6431827E2,1.1398055E2,2.7163138E2,1.9405118E2,6.014754E2,2.1042363E2,4.4960175E2],"tree_param":{"num_deleted":"0","num_feature":"125","num_nodes":"31","size_leaf_vector":"1"}},{"base_weights":[8.45161E-1,8.5969824E-1,-3.9289646E0,8.669331E-1,-4.812907E0,-5.0673385E0,-3.070919E0,-8.800759E0,8.705284E-1,-2.60698E0,-5.892926E0,-4.1311264E0,-6.175943E0,-3.6568532E0,-2.396947E0,-1.2835827E-1,-3.3127192E-1,-7.058703E-2,2.6426984E-2,-9.2706956E-2,-5.3746182E-2,-2.271466E-1,-8.700057E-2,-1.102849E-1,-1.5686646E-1,-1.2367026E-1,-2.0896833E-1,-8.57095E-2,-1.2653637E-1,-5.3826362E-2,-7.7310584E-2],"categories":[],"categories_nodes":[],"categories_segments":[],"categories_sizes":[],"default_left":[0,0,0,0,0,0,0,0,0,0,0,0,0,0,0,0,0,0,0,0,0,0,0,0,0,0,0,0,0,0,0],"id":40,"left_children":[1,3,5,7,9,11,13,15,17,19,21,23,25,27,29,-1,-1,-1,-1,-1,-1,-1,-1,-1,-1,-1,-1,-1,-1,-1,-1],"loss_changes":[5.6528062E4,3.3328E4,2.3996562E3,2.8194438E4,2.4491016E3,1.0758789E3,5.4901855E2,3.0096328E3,2.7102062E4,1.2914941E2,3.462877E3,2.6962598E2,7.5591016E2,3.2616016E2,6.698657E1,0E0,0E0,0E0,0E0,0E0,0E0,0E0,0E0,0E0,0E0,0E0,0E0,0E0,0E0,0E0,0E0],"parents":[2147483647,0,0,1,1,2,2,3,3,4,4,5,5,6,6,7,7,8,8,9,9,10,10,11,11,12,12,13,13,14,14],"right_children":[2,4,6,8,10,12,14,16,18,20,22,24,26,28,30,-1,-1,-1,-1,-1,-1,-1,-1,-1,-1,-1,-1,-1,-1,-1,-1],"split_conditions":[2.162E1,2.8273299E0,5.9621615E0,2.3333333E0,1.04443975E-1,7.901776E1,5.953539E-1,-2.8868542E1,4.9265604E0,5.797458E-1,5.145E1,1.7074882E0,1.664763E0,1.848E2,-3.1134657E1,-1.2835827E-1,-3.3127192E-1,-7.058703E-2,2.6426984E-2,-9.2706956E-2,-5.3746182E-2,-2.271466E-1,-8.700057E-2,-1.102849E-1,-1.5686646E-1,-1.2367026E-1,-2.0896833E-1,-8.57095E-2,-1.2653637E-1,-5.3826362E-2,-7.7310584E-2],"split_indices":[46,36,2,73,11,25,6,13,38,6,71,24,24,18,13,0,0,0,0,0,0,0,0,0,0,0,0,0,0,0,0],"split_type":[0,0,0,0,0,0,0,0,0,0,0,0,0,0,0,0,0,0,0,0,0,0,0,0,0,0,0,0,0,0,0],"sum_hessian":[8.144449E5,8.1197325E5,2.4716423E3,8.109398E5,1.0334276E3,1.0601846E3,1.4114579E3,3.0055576E2,8.1063925E5,3.4078723E2,6.926404E2,5.773453E2,4.8283923E2,7.5267535E2,6.5878253E2,1.00573425E2,1.9998233E2,2.599061E3,8.080402E5,2.1222652E2,1.2856071E2,4.427731E2,2.4986726E2,4.1125165E2,1.6609364E2,1.3582771E2,3.470115E2,3.1280026E2,4.398751E2,1.5406476E2,5.0471777E2],"tree_param":{"num_deleted":"0","num_feature":"125","num_nodes":"31","size_leaf_vector":"1"}},{"base_weights":[8.425493E-1,-4.0416827E0,8.5486436E-1,-3.3313892E0,-5.5781713E0,8.638558E-1,-3.828223E0,-3.6721077E0,-2.1637495E0,-7.0101385E0,-3.4093473E0,-6.3523545E0,8.694314E-1,-7.0948644E0,-3.1429522E0,-1.22874685E-1,-9.682622E-2,-7.317399E-2,-5.242194E-2,-2.3766603E-1,-1.628411E-1,-1.3268766E-1,-7.1459234E-2,-5.2725416E-2,-2.2370559E-1,-9.611726E-2,2.6275443E-2,-2.8580138E-1,-1.5558648E-1,-1.2895206E-1,-8.3693214E-2],"categories":[],"categories_nodes":[],"categories_segments":[],"categories_sizes":[],"default_left":[0,0,0,0,0,0,0,0,0,0,0,0,0,0,0,0,0,0,0,0,0,0,0,0,0,0,0,0,0,0,0],"id":41,"left_children":[1,3,5,7,9,11,13,15,17,19,21,23,25,27,29,-1,-1,-1,-1,-1,-1,-1,-1,-1,-1,-1,-1,-1,-1,-1,-1],"loss_changes":[4.8214562E4,2.1816406E3,3.3668562E4,5.4153516E2,1.9508945E3,3.2111938E4,3.407752E3,1.8791309E2,3.1788696E1,5.0828125E2,2.5481177E2,3.1141172E3,2.0843938E4,1.1801611E3,5.0560547E2,0E0,0E0,0E0,0E0,0E0,0E0,0E0,0E0,0E0,0E0,0E0,0E0,0E0,0E0,0E0,0E0],"parents":[2147483647,0,0,1,1,2,2,3,3,4,4,5,5,6,6,7,7,8,8,9,9,10,10,11,11,12,12,13,13,14,14],"right_children":[2,4,6,8,10,12,14,16,18,20,22,24,26,28,30,-1,-1,-1,-1,-1,-1,-1,-1,-1,-1,-1,-1,-1,-1,-1,-1],"split_conditions":[5.9342837E0,5.851108E0,3.2641293E1,5.9386797E0,5.4857445E-1,9E2,2.2271147E2,4.324E1,5.910423E-1,4.324E1,5.832449E-1,3.9769099E0,3.05113E2,3.5530094E1,3.5530094E1,-1.22874685E-1,-9.682622E-2,-7.317399E-2,-5.242194E-2,-2.3766603E-1,-1.628411E-1,-1.3268766E-1,-7.1459234E-2,-5.2725416E-2,-2.2370559E-1,-9.611726E-2,2.6275443E-2,-2.8580138E-1,-1.5558648E-1,-1.2895206E-1,-8.3693214E-2],"split_indices":[55,55,89,2,6,112,7,45,6,45,6,115,20,89,89,0,0,0,0,0,0,0,0,0,0,0,0,0,0,0,0],"split_type":[0,0,0,0,0,0,0,0,0,0,0,0,0,0,0,0,0,0,0,0,0,0,0,0,0,0,0,0,0,0,0],"sum_hessian":[8.015211E5,2.0150396E3,7.9950606E5,1.3801754E3,6.3486414E2,7.979748E5,1.531276E3,1.0667513E3,3.134241E2,3.8104608E2,2.5381808E2,6.1520233E2,7.973596E5,2.6390494E2,1.2673711E3,5.419797E2,5.247716E2,1.8572388E2,1.2770022E2,2.391637E2,1.4188239E2,1.2610329E2,1.277148E2,1.1972481E2,4.9547757E2,1.2533243E3,7.961063E5,1.1429189E2,1.4961304E2,2.9408353E2,9.7328754E2],"tree_param":{"num_deleted":"0","num_feature":"125","num_nodes":"31","size_leaf_vector":"1"}},{"base_weights":[8.359429E-1,8.4398115E-1,-2.216987E0,8.5041934E-1,-2.7645016E0,-1.7260411E0,-3.251816E0,8.52871E-1,-2.5722933E-1,-3.01953E0,-1.7807125E0,-1.5039787E0,-1.8482223E0,-2.3794777E0,-3.7081916E0,2.5742441E-2,-1.0461223E-1,-1.0770057E-1,-8.203304E-2,-6.2242396E-2,-4.8234176E-2,-4.116335E-2,-4.6997212E-2,-4.8258774E-2,-5.815898E-2,-6.127153E-2,-7.9930745E-2,-1.0033806E-1,-1.3608311E-1],"categories":[],"categories_nodes":[],"categories_segments":[],"categories_sizes":[],"default_left":[0,0,0,0,0,0,0,0,0,0,0,0,0,0,0,0,0,0,0,0,0,0,0,0,0,0,0,0,0],"id":42,"left_children":[1,3,5,7,9,11,13,15,-1,17,19,21,23,25,27,-1,-1,-1,-1,-1,-1,-1,-1,-1,-1,-1,-1,-1,-1],"loss_changes":[1.89025E4,1.784875E4,1.02208203E3,1.7725312E4,3.3793848E2,3.4502197E1,2.4985352E2,1.7338062E4,0E0,1.6669043E2,1.1109741E1,1.9204102E0,1.5987549E1,1.6257935E1,1.1269922E2,0E0,0E0,0E0,0E0,0E0,0E0,0E0,0E0,0E0,0E0,0E0,0E0,0E0,0E0],"parents":[2147483647,0,0,1,1,2,2,3,3,4,4,5,5,6,6,7,7,9,9,10,10,11,11,12,12,13,13,14,14],"right_children":[2,4,6,8,10,12,14,16,-1,18,20,22,24,26,28,-1,-1,-1,-1,-1,-1,-1,-1,-1,-1,-1,-1,-1,-1],"split_conditions":[1.2120101E0,5.145E1,3.9412483E1,1.1341523E0,3.2254444E1,1.8340217E0,1.686E1,9.727168E1,-2.5722933E-1,7.485E1,3.5530094E1,1.665075E1,1.6685E1,4.057922E0,7.153875E0,2.5742441E-2,-1.0461223E-1,-1.0770057E-1,-8.203304E-2,-6.2242396E-2,-4.8234176E-2,-4.116335E-2,-4.6997212E-2,-4.8258774E-2,-5.815898E-2,-6.127153E-2,-7.9930745E-2,-1.0033806E-1,-1.3608311E-1],"split_indices":[53,71,37,118,89,89,21,47,0,32,89,21,21,89,84,0,0,0,0,0,0,0,0,0,0,0,0,0,0],"split_type":[0,0,0,0,0,0,0,0,0,0,0,0,0,0,0,0,0,0,0,0,0,0,0,0,0,0,0,0,0],"sum_hessian":[7.701949E5,7.6817306E5,2.0218423E3,7.668057E5,1.3673649E3,1.3730874E3,6.4875494E2,7.666072E5,1.9850792E2,1.0842297E3,2.8313513E2,4.9206906E2,8.810183E2,2.2496321E2,4.2379172E2,7.656887E5,9.1845184E2,3.5742123E2,7.268085E2,1.0077103E2,1.8236412E2,1.6576897E2,3.263001E2,2.4651703E2,6.345013E2,1.06780785E2,1.1818243E2,2.9797256E2,1.2581914E2],"tree_param":{"num_deleted":"0","num_feature":"125","num_nodes":"29","size_leaf_vector":"1"}},{"base_weights":[8.380272E-1,-2.4480062E0,8.511999E-1,-2.2447264E0,-5.237265E0,-2.8358996E0,8.610277E-1,-1.7333711E0,-2.7427874E0,-1.00554675E-1,-2.0753059E-1,-2.1524746E0,-7.1190143E0,8.686326E-1,-3.129148E0,-6.081715E-2,-4.593685E-2,-9.046302E-2,-5.8814984E-2,-4.394059E-2,-6.587982E-2,-2.62063E-1,-1.23977035E-1,-2.9784605E-1,2.612441E-2,-1.1781423E-1,-7.92723E-2],"categories":[],"categories_nodes":[],"categories_segments":[],"categories_sizes":[],"default_left":[0,0,0,0,0,0,0,0,0,0,0,0,0,0,0,0,0,0,0,0,0,0,0,0,0,0,0],"id":43,"left_children":[1,3,5,7,9,11,13,15,17,-1,-1,19,21,23,25,-1,-1,-1,-1,-1,-1,-1,-1,-1,-1,-1,-1],"loss_changes":[3.3758562E4,1.7538535E3,2.814825E4,7.3489746E2,6.44626E2,6.029549E3,2.351E4,8.21792E1,3.0751465E2,0E0,0E0,5.0131836E1,1.333581E3,1.8216375E4,5.6208887E2,0E0,0E0,0E0,0E0,0E0,0E0,0E0,0E0,0E0,0E0,0E0,0E0],"parents":[2147483647,0,0,1,1,2,2,3,3,4,4,5,5,6,6,7,7,8,8,11,11,12,12,13,13,14,14],"right_children":[2,4,6,8,10,12,14,16,18,-1,-1,20,22,24,26,-1,-1,-1,-1,-1,-1,-1,-1,-1,-1,-1,-1],"split_conditions":[4.1083355E1,3.9412483E1,4.3547616E0,-3.3593952E1,8.437196E1,3.9769099E0,5.22042E-1,2.3379273E0,2.3379273E0,-1.00554675E-1,-2.0753059E-1,5.9468956E0,3.7994507E1,7.97696E0,5.9386797E0,-6.081715E-2,-4.593685E-2,-9.046302E-2,-5.8814984E-2,-4.394059E-2,-6.587982E-2,-2.62063E-1,-1.23977035E-1,-2.9784605E-1,2.612441E-2,-1.1781423E-1,-7.92723E-2],"split_indices":[37,37,115,13,7,115,93,54,54,0,0,55,48,122,2,0,0,0,0,0,0,0,0,0,0,0,0],"split_type":[0,0,0,0,0,0,0,0,0,0,0,0,0,0,0,0,0,0,0,0,0,0,0,0,0,0,0],"sum_hessian":[7.798464E5,3.1129497E3,7.7673344E5,2.9031726E3,2.0977702E2,2.0640786E3,7.746693E5,1.4346794E3,1.4684932E3,1.00269104E2,1.0950792E2,1.7813452E3,2.8273346E2,7.731965E5,1.4728594E3,5.810068E2,8.5367267E2,1.086846E3,3.8164716E2,1.08068504E2,1.6732767E3,1.8219504E2,1.0053842E2,1.5524237E2,7.7304125E5,5.553349E2,9.1752454E2],"tree_param":{"num_deleted":"0","num_feature":"125","num_nodes":"27","size_leaf_vector":"1"}},{"base_weights":[8.448806E-1,8.528648E-1,-3.4070313E0,-4.0400167E0,8.586809E-1,-5.317261E0,-2.4140515E0,-5.066869E0,-2.600012E0,8.617874E-1,-6.9140553E0,-9.571257E-2,-6.1312313E0,-1.8065641E0,-2.6594546E0,-1.9982937E-1,-1.1533869E-1,-9.967012E-2,-6.9651626E-2,2.607636E-2,-6.4193115E-2,-2.5841755E-1,-9.5680855E-2,-1.9481383E-1,-1.5750125E-1,-4.8329618E-2,-6.0905848E-2,-8.2370505E-2,-7.0070855E-2],"categories":[],"categories_nodes":[],"categories_segments":[],"categories_sizes":[],"default_left":[0,0,0,0,0,0,0,0,0,0,0,0,0,0,0,0,0,0,0,0,0,0,0,0,0,0,0,0,0],"id":44,"left_children":[1,3,5,7,9,11,13,15,17,19,21,-1,23,25,27,-1,-1,-1,-1,-1,-1,-1,-1,-1,-1,-1,-1,-1,-1],"loss_changes":[2.7074688E4,2.2654688E4,2.8225977E3,1.3844717E3,1.9202E4,8.6411426E2,1.4209668E2,1.0473721E3,7.178906E1,1.7712188E4,1.9841514E3,0E0,8.350195E1,9.2664795E0,1.312207E1,0E0,0E0,0E0,0E0,0E0,0E0,0E0,0E0,0E0,0E0,0E0,0E0,0E0,0E0],"parents":[2147483647,0,0,1,1,2,2,3,3,4,4,5,5,6,6,7,7,8,8,9,9,10,10,12,12,13,13,14,14],"right_children":[2,4,6,8,10,12,14,16,18,20,22,-1,24,26,28,-1,-1,-1,-1,-1,-1,-1,-1,-1,-1,-1,-1,-1,-1],"split_conditions":[7.485E1,3E0,5.145E1,8.130052E1,9E0,3E0,3E0,7.3045316E0,4.7549887E0,1.2120101E0,5.394846E-1,-9.571257E-2,6E0,1E0,6.321538E0,-1.9982937E-1,-1.1533869E-1,-9.967012E-2,-6.9651626E-2,2.607636E-2,-6.4193115E-2,-2.5841755E-1,-9.5680855E-2,-1.9481383E-1,-1.5750125E-1,-4.8329618E-2,-6.0905848E-2,-8.2370505E-2,-7.0070855E-2],"split_indices":[32,99,71,47,103,99,99,40,40,53,6,0,96,97,40,0,0,0,0,0,0,0,0,0,0,0,0,0,0],"split_type":[0,0,0,0,0,0,0,0,0,0,0,0,0,0,0,0,0,0,0,0,0,0,0,0,0,0,0,0,0],"sum_hessian":[7.9745025E5,7.9595644E5,1.4938351E3,9.442041E2,7.950122E5,5.094443E2,9.8439075E2,5.4970013E2,3.9450394E2,7.946955E5,3.1671857E2,1.4236772E2,3.6707657E2,2.8564566E2,6.987451E2,2.3662837E2,3.1307178E2,1.06677185E2,2.8782675E2,7.927353E5,1.9602047E3,2.1656894E2,1.0014963E2,2.5555836E2,1.1151822E2,1.5675722E2,1.2888843E2,5.458775E2,1.528676E2],"tree_param":{"num_deleted":"0","num_feature":"125","num_nodes":"29","size_leaf_vector":"1"}},{"base_weights":[8.283364E-1,8.3838135E-1,-2.6945443E0,8.466174E-1,-3.1951673E0,-3.2983818E0,-2.336252E0,8.5662156E-1,-2.445862E0,-4.735109E0,-2.316407E0,-6.015378E-2,-3.633654E0,-1.8647515E0,-2.5284615E0,-1.12011686E-1,2.588101E-2,-5.3442594E-2,-1.12838715E-1,-1.6751671E-1,-1.0238013E-1,-5.2908834E-2,-7.6096825E-2,-6.825005E-2,-1.16966866E-1,-4.577274E-2,-6.0130488E-2,-5.2408323E-2,-7.956529E-2],"categories":[],"categories_nodes":[],"categories_segments":[],"categories_sizes":[],"default_left":[0,0,0,0,0,0,0,0,0,0,0,0,0,0,0,0,0,0,0,0,0,0,0,0,0,0,0,0,0],"id":45,"left_children":[1,3,5,7,9,11,13,15,17,19,21,-1,23,25,27,-1,-1,-1,-1,-1,-1,-1,-1,-1,-1,-1,-1,-1,-1],"loss_changes":[2.6850281E4,2.5135312E4,4.590459E2,2.48705E4,2.075499E3,3.4000977E2,1.18302246E2,2.1006875E4,1.9925098E3,6.086455E2,1.15228516E2,0E0,2.1990723E2,1.57248535E1,8.833057E1,0E0,0E0,0E0,0E0,0E0,0E0,0E0,0E0,0E0,0E0,0E0,0E0,0E0,0E0],"parents":[2147483647,0,0,1,1,2,2,3,3,4,4,5,5,6,6,7,7,8,8,9,9,10,10,12,12,13,13,14,14],"right_children":[2,4,6,8,10,12,14,16,18,20,22,-1,24,26,28,-1,-1,-1,-1,-1,-1,-1,-1,-1,-1,-1,-1,-1,-1],"split_conditions":[5.22042E-1,7.485E1,5.9386797E0,1.1518502E0,5.145E1,-3.153407E1,7.619161E0,3E0,5.032628E0,-1.6007233E1,3E0,-6.015378E-2,7.543917E0,7.434015E0,-3.303636E1,-1.12011686E-1,2.588101E-2,-5.3442594E-2,-1.12838715E-1,-1.6751671E-1,-1.0238013E-1,-5.2908834E-2,-7.6096825E-2,-6.825005E-2,-1.16966866E-1,-4.577274E-2,-6.0130488E-2,-5.2408323E-2,-7.956529E-2],"split_indices":[93,32,2,53,71,13,26,99,38,13,99,0,26,26,13,0,0,0,0,0,0,0,0,0,0,0,0,0,0],"split_type":[0,0,0,0,0,0,0,0,0,0,0,0,0,0,0,0,0,0,0,0,0,0,0,0,0,0,0,0,0],"sum_hessian":[7.5869475E5,7.565384E5,2.1563823E3,7.549975E5,1.5408315E3,7.999697E2,1.3564125E3,7.527112E5,2.286358E3,5.58219E2,9.8261255E2,1.6613037E2,6.3383936E2,3.9591406E2,9.604985E2,9.946593E2,7.517165E5,1.5206233E3,7.657347E2,3.380351E2,2.2018388E2,2.8244336E2,7.001692E2,1.05093506E2,5.2874585E2,1.189621E2,2.7695197E2,1.3333446E2,8.27164E2],"tree_param":{"num_deleted":"0","num_feature":"125","num_nodes":"29","size_leaf_vector":"1"}},{"base_weights":[8.386884E-1,-3.8116314E0,8.4691495E-1,-5.568332E-2,-4.0693154E0,-3.9910614E0,8.537425E-1,-4.4726534E0,-2.826672E0,-2.0069475E0,-6.247426E0,8.570375E-1,-5.5897455E0,-1.4328633E-1,-7.969591E-2,-1.0529367E-1,-7.346813E-2,-7.081363E-2,-4.2276062E-2,-2.1644524E-1,-1.1662228E-1,2.5891243E-2,-7.851223E-2,-1.0291532E-1,-1.8983641E-1],"categories":[],"categories_nodes":[],"categories_segments":[],"categories_sizes":[],"default_left":[0,0,0,0,0,0,0,0,0,0,0,0,0,0,0,0,0,0,0,0,0,0,0,0,0],"id":46,"left_children":[1,3,5,-1,7,9,11,13,15,17,19,21,23,-1,-1,-1,-1,-1,-1,-1,-1,-1,-1,-1,-1],"loss_changes":[2.9546062E4,6.7971484E2,2.5466438E4,0E0,5.9093164E2,4.851717E3,1.6348375E4,4.8757812E2,6.825073E1,1.1915088E2,1.1315742E3,1.6050875E4,6.055781E2,0E0,0E0,0E0,0E0,0E0,0E0,0E0,0E0,0E0,0E0,0E0,0E0],"parents":[2147483647,0,0,1,1,2,2,4,4,5,5,6,6,7,7,8,8,9,9,10,10,11,11,12,12],"right_children":[2,4,6,-1,8,10,12,14,16,18,20,22,24,-1,-1,-1,-1,-1,-1,-1,-1,-1,-1,-1,-1],"split_conditions":[2.0989645E-1,4.0261024E1,8.43E0,-5.568332E-2,3.7994507E1,4.1083355E1,9.1E0,2.784405E0,2.37E4,1.2120101E0,3.7639214E1,5.145E1,-2.7557487E1,-1.4328633E-1,-7.969591E-2,-1.0529367E-1,-7.346813E-2,-7.081363E-2,-4.2276062E-2,-2.1644524E-1,-1.1662228E-1,2.5891243E-2,-7.851223E-2,-1.0291532E-1,-1.8983641E-1],"split_indices":[118,37,34,0,48,37,108,36,90,53,48,71,13,0,0,0,0,0,0,0,0,0,0,0,0],"split_type":[0,0,0,0,0,0,0,0,0,0,0,0,0,0,0,0,0,0,0,0,0,0,0,0,0],"sum_hessian":[7.722362E5,1.3628811E3,7.708733E5,1.5963583E2,1.2032454E3,1.0855271E3,7.6978775E5,9.0643506E2,2.9681024E2,5.786159E2,5.0691122E2,7.693952E5,3.925768E2,7.752287E2,1.3120636E2,1.02732E2,1.9407825E2,3.6173608E2,2.1687979E2,3.5807315E2,1.4883807E2,7.6806856E5,1.3266381E3,1.0145179E2,2.9112503E2],"tree_param":{"num_deleted":"0","num_feature":"125","num_nodes":"25","size_leaf_vector":"1"}},{"base_weights":[8.358437E-1,-3.5886848E0,8.4383446E-1,-5.4046586E-2,-3.8126092E0,-2.2030895E0,8.5431087E-1,-4.1621523E0,-2.6991897E0,-1.6369029E0,-2.6890268E0,8.567228E-1,-2.581152E-1,-1.3233814E-1,-7.4468054E-2,-9.42849E-2,-7.180192E-2,-4.4883944E-2,-5.764314E-2,-9.127168E-2,-6.1994527E-2,2.5845794E-2,-1.0562833E-1],"categories":[],"categories_nodes":[],"categories_segments":[],"categories_sizes":[],"default_left":[0,0,0,0,0,0,0,0,0,0,0,0,0,0,0,0,0,0,0,0,0,0,0],"id":47,"left_children":[1,3,5,-1,7,9,11,13,15,17,19,21,-1,-1,-1,-1,-1,-1,-1,-1,-1,-1,-1],"loss_changes":[2.7593062E4,5.5618555E2,2.4866938E4,0E0,4.750332E2,7.3004395E2,1.771625E4,3.8622266E2,3.3362305E1,4.6611572E1,3.093828E2,1.63235625E4,0E0,0E0,0E0,0E0,0E0,0E0,0E0,0E0,0E0,0E0,0E0],"parents":[2147483647,0,0,1,1,2,2,4,4,5,5,6,6,7,7,8,8,9,9,10,10,11,11],"right_children":[2,4,6,-1,8,10,12,14,16,18,20,22,-1,-1,-1,-1,-1,-1,-1,-1,-1,-1,-1],"split_conditions":[2.0989645E-1,4.0261024E1,3.9412483E1,-5.4046586E-2,7.598901E1,7.657299E1,3.7272727E0,2.805615E0,2.2647075E3,-3.3593952E1,5.832449E-1,9.727168E1,-2.581152E-1,-1.3233814E-1,-7.4468054E-2,-9.42849E-2,-7.180192E-2,-4.4883944E-2,-5.764314E-2,-9.127168E-2,-6.1994527E-2,2.5845794E-2,-1.0562833E-1],"split_indices":[118,37,37,0,47,7,113,36,16,13,6,47,0,0,0,0,0,0,0,0,0,0,0],"split_type":[0,0,0,0,0,0,0,0,0,0,0,0,0,0,0,0,0,0,0,0,0,0,0],"sum_hessian":[7.8036375E5,1.4059958E3,7.7895775E5,1.5756009E2,1.2484358E3,2.6684426E3,7.762893E5,9.480652E2,3.003706E2,1.2344731E3,1.4339695E3,7.760923E5,1.9700128E2,8.242125E2,1.2385265E2,1.18775085E2,1.8159552E2,8.3006384E2,4.0440927E2,9.1226794E2,5.217015E2,7.7524244E5,8.498874E2],"tree_param":{"num_deleted":"0","num_feature":"125","num_nodes":"23","size_leaf_vector":"1"}},{"base_weights":[8.287752E-1,8.353931E-1,-3.372031E0,-4.716559E0,8.397674E-1,-3.8858888E0,-2.2240174E0,-6.396131E-2,-5.9824905E0,8.464086E-1,-2.4147897E0,-1.6436563E-1,-3.624424E0,-7.7306695E-2,-2.0661967E0,-1.4684233E-1,-2.4294722E-1,2.5582293E-2,-7.486207E-2,-5.1452998E-2,-7.762103E-2,-8.85807E-2,-1.1199066E-1,-6.9049224E-2,-5.5999085E-2],"categories":[],"categories_nodes":[],"categories_segments":[],"categories_sizes":[],"default_left":[0,0,0,0,0,0,0,0,0,0,0,0,0,0,0,0,0,0,0,0,0,0,0,0,0],"id":48,"left_children":[1,3,5,7,9,11,13,-1,15,17,19,-1,21,-1,23,-1,-1,-1,-1,-1,-1,-1,-1,-1,-1],"loss_changes":[2.0547188E4,1.7923031E4,6.771758E2,1.8882559E3,1.5937094E4,3.140791E2,1.4824951E1,0E0,8.566299E2,1.557725E4,1.7688477E2,0E0,3.9433594E1,0E0,7.687134E0,0E0,0E0,0E0,0E0,0E0,0E0,0E0,0E0,0E0,0E0],"parents":[2147483647,0,0,1,1,2,2,3,3,4,4,5,5,6,6,8,8,9,9,10,10,12,12,14,14],"right_children":[2,4,6,8,10,12,14,-1,16,18,20,-1,22,-1,24,-1,-1,-1,-1,-1,-1,-1,-1,-1,-1],"split_conditions":[9.202817E1,-1.055E1,3.3367146E1,5.059562E1,5.269553E-1,9.727168E1,5.8217444E0,-6.396131E-2,-1.075E1,5.145E1,-3.1970041E1,-1.6436563E-1,7.677593E1,-7.7306695E-2,3.7730488E1,-1.4684233E-1,-2.4294722E-1,2.5582293E-2,-7.486207E-2,-5.1452998E-2,-7.762103E-2,-8.85807E-2,-1.1199066E-1,-6.9049224E-2,-5.5999085E-2],"split_indices":[47,124,89,37,93,47,117,0,124,71,13,0,25,0,89,0,0,0,0,0,0,0,0,0,0],"split_type":[0,0,0,0,0,0,0,0,0,0,0,0,0,0,0,0,0,0,0,0,0,0,0,0,0],"sum_hessian":[7.3899475E5,7.378332E5,1.16157E3,5.800256E2,7.372532E5,8.007601E2,3.6080984E2,1.9158058E2,3.8844498E2,7.3575256E5,1.500621E3,1.1008946E2,6.906706E2,1.0676498E2,2.5404488E2,2.58737E2,1.2970798E2,7.3436125E5,1.3912653E3,2.990616E2,1.2015593E3,1.0004308E2,5.906275E2,1.11712E2,1.4233287E2],"tree_param":{"num_deleted":"0","num_feature":"125","num_nodes":"25","size_leaf_vector":"1"}},{"base_weights":[8.309938E-1,8.38642E-1,-4.4880924E0,-5.1576324E0,8.427264E-1,-2.5642374E0,-5.2684155E0,-5.967721E0,-5.9313513E-2,8.5822016E-1,-6.445264E-1,-9.21413E-2,-5.13047E-2,-6.5189505E0,-3.2132666E0,-2.0614678E-1,-1.1092228E-1,2.5997402E-2,-2.0321214E-1,-1.01495855E-1,2.8751645E-2,-2.2075522E-1,-1.0210983E-1,-1.3432108E-1,-7.419428E-2],"categories":[],"categories_nodes":[],"categories_segments":[],"categories_sizes":[],"default_left":[0,0,0,0,0,0,0,0,0,0,0,0,0,0,0,0,0,0,0,0,0,0,0,0,0],"id":49,"left_children":[1,3,5,7,9,11,13,15,-1,17,19,-1,-1,21,23,-1,-1,-1,-1,-1,-1,-1,-1,-1,-1],"loss_changes":[3.0687438E4,1.8450062E4,1.6124844E3,1.3094521E3,1.734375E4,1.3096606E2,1.9569941E3,8.122451E2,0E0,4.7531125E4,3.4070895E4,0E0,0E0,1.2238379E3,2.6316455E2,0E0,0E0,0E0,0E0,0E0,0E0,0E0,0E0,0E0,0E0],"parents":[2147483647,0,0,1,1,2,2,3,3,4,4,5,5,6,6,7,7,9,9,10,10,13,13,14,14],"right_children":[2,4,6,8,10,12,14,16,-1,18,20,-1,-1,22,24,-1,-1,-1,-1,-1,-1,-1,-1,-1,-1],"split_conditions":[2.8273299E0,7E3,9.95681E-2,1.1918769E0,8E0,5.832449E-1,2.3E4,5.182589E-1,-5.9313513E-2,2.4246452E0,2.8356817E0,-9.21413E-2,-5.13047E-2,5.3004897E-1,7.206E1,-2.0614678E-1,-1.1092228E-1,2.5997402E-2,-2.0321214E-1,-1.01495855E-1,2.8751645E-2,-2.2075522E-1,-1.0210983E-1,-1.3432108E-1,-7.419428E-2],"split_indices":[36,70,40,53,98,6,70,6,0,114,114,0,0,6,32,0,0,0,0,0,0,0,0,0,0],"split_type":[0,0,0,0,0,0,0,0,0,0,0,0,0,0,0,0,0,0,0,0,0,0,0,0,0],"sum_hessian":[7.5423675E5,7.531546E5,1.0821091E3,5.1180875E2,7.526428E5,3.1349234E2,7.686168E2,4.0721365E2,1.0459509E2,7.4488325E5,7.759545E3,1.9506796E2,1.1842439E2,4.7650003E2,2.9211682E2,2.8981006E2,1.1740358E2,7.440691E5,8.141494E2,2.8644175E3,4.8951274E3,3.7427295E2,1.0222706E2,1.0600865E2,1.8610817E2],"tree_param":{"num_deleted":"0","num_feature":"125","num_nodes":"25","size_leaf_vector":"1"}},{"base_weights":[8.068188E-1,8.109658E-1,-6.363223E0,-3.326473E0,8.180983E-1,-9.190799E-2,-7.5991063E0,-4.190755E0,-2.257741E0,-2.037732E0,8.2653666E-1,-2.9366237E-1,-1.250694E-1,-7.885751E-2,-2.1210417E-1,-8.395263E-2,-6.0350332E-2,-4.075859E-2,-6.474528E-2,2.4966583E-2,-1.0275076E-1],"categories":[],"categories_nodes":[],"categories_segments":[],"categories_sizes":[],"default_left":[0,0,0,0,0,0,0,0,0,0,0,0,0,0,0,0,0,0,0,0,0],"id":50,"left_children":[1,3,5,7,9,-1,11,13,15,17,19,-1,-1,-1,-1,-1,-1,-1,-1,-1,-1],"loss_changes":[2.0463E4,2.0295156E4,1.5990166E3,1.0837891E3,1.6544188E4,0E0,2.127873E3,2.9196172E3,6.506372E1,1.6250977E2,1.6539125E4,0E0,0E0,0E0,0E0,0E0,0E0,0E0,0E0,0E0,0E0],"parents":[2147483647,0,0,1,1,2,2,3,3,4,4,6,6,7,7,8,8,9,9,10,10],"right_children":[2,4,6,8,10,-1,12,14,16,18,20,-1,-1,-1,-1,-1,-1,-1,-1,-1,-1],"split_conditions":[2.6E1,7.0404625E-1,2.7703834E-1,5.145E1,3.9769099E0,-9.190799E-2,1.5769868E2,3E0,7.485E1,4.1083355E1,4.6014084E1,-2.9366237E-1,-1.250694E-1,-7.885751E-2,-2.1210417E-1,-8.395263E-2,-6.0350332E-2,-4.075859E-2,-6.474528E-2,2.4966583E-2,-1.0275076E-1],"split_indices":[42,54,118,71,115,0,37,99,32,37,48,0,0,0,0,0,0,0,0,0,0],"split_type":[0,0,0,0,0,0,0,0,0,0,0,0,0,0,0,0,0,0,0,0,0],"sum_hessian":[6.8803106E5,6.8763425E5,3.9682227E2,1.182574E3,6.864517E5,1.09078316E2,2.8774396E2,6.522108E2,5.3036316E2,2.0216332E3,6.8443006E5,1.7449826E2,1.1324568E2,4.2405725E2,2.2815358E2,1.6263307E2,3.6773007E2,3.0638614E2,1.715247E3,6.8351725E5,9.1280444E2],"tree_param":{"num_deleted":"0","num_feature":"125","num_nodes":"21","size_leaf_vector":"1"}},{"base_weights":[8.2133204E-1,-3.1573293E0,8.2805383E-1,-3.8964825E0,-2.2077339E0,-2.1064103E0,8.3564085E-1,-6.362224E0,-2.4620318E0,-8.151017E-2,-1.9625868E0,-1.6310536E0,-3.2746959E0,-4.7701063E0,8.3955073E-1,-2.3620962E-1,-1.3354358E-1,-1.02815636E-1,-6.424736E-2,-6.3686E-2,-4.561478E-2,-5.7639822E-2,-4.2714193E-2,-5.7351153E-2,-1.16043136E-1,-2.3994601E-1,-1.13517374E-1,2.5342872E-2,-9.594892E-2],"categories":[],"categories_nodes":[],"categories_segments":[],"categories_sizes":[],"default_left":[0,0,0,0,0,0,0,0,0,0,0,0,0,0,0,0,0,0,0,0,0,0,0,0,0,0,0,0,0],"id":51,"left_children":[1,3,5,7,9,11,13,15,17,-1,19,21,23,25,27,-1,-1,-1,-1,-1,-1,-1,-1,-1,-1,-1,-1,-1,-1],"loss_changes":[1.9454781E4,8.526045E2,1.61683125E4,2.420003E3,6.200244E1,1.034752E3,1.58780625E4,6.945703E2,1.2781543E2,0E0,2.2826172E1,7.746777E1,4.2989258E2,1.5772559E3,1.5233469E4,0E0,0E0,0E0,0E0,0E0,0E0,0E0,0E0,0E0,0E0,0E0,0E0,0E0,0E0],"parents":[2147483647,0,0,1,1,2,2,3,3,4,4,5,5,6,6,7,7,8,8,10,10,11,11,12,12,13,13,14,14],"right_children":[2,4,6,8,10,12,14,16,18,-1,20,22,24,26,28,-1,-1,-1,-1,-1,-1,-1,-1,-1,-1,-1,-1,-1,-1],"split_conditions":[7.0404625E-1,5.145E1,-3.3593952E1,1.0712E1,9.35625E0,3.9412483E1,8.481E0,-1.4565823E1,3.485335E1,-8.151017E-2,3.3367146E1,2.3379273E0,7.32791E1,3.582261E1,9.202817E1,-2.3620962E-1,-1.3354358E-1,-1.02815636E-1,-6.424736E-2,-6.3686E-2,-4.561478E-2,-5.7639822E-2,-4.2714193E-2,-5.7351153E-2,-1.16043136E-1,-2.3994601E-1,-1.13517374E-1,2.5342872E-2,-9.594892E-2],"split_indices":[54,71,13,83,33,37,121,13,89,0,89,54,7,85,47,0,0,0,0,0,0,0,0,0,0,0,0,0,0],"split_type":[0,0,0,0,0,0,0,0,0,0,0,0,0,0,0,0,0,0,0,0,0,0,0,0,0,0,0,0,0],"sum_hessian":[7.2735475E5,1.2259724E3,7.261288E5,6.87628E2,5.383444E2,1.8718535E3,7.2425694E5,2.5163905E2,4.3598895E2,1.7165756E2,3.666869E2,1.3321992E3,5.3965436E2,5.0394937E2,7.23753E5,1.3875917E2,1.1287989E2,1.0625873E2,3.2973022E2,2.663285E2,1.0035839E2,5.51495E2,7.8070416E2,1.6496664E2,3.7468768E2,1.162663E2,3.8768307E2,7.228208E5,9.321624E2],"tree_param":{"num_deleted":"0",