tree
version=v4
num_class=1
num_tree_per_iteration=1
label_index=0
max_feature_idx=32
objective=binary sigmoid:1
feature_names=Column_0 Column_1 Column_2 Column_3 Column_4 Column_5 Column_6 Column_7 Column_8 Column_9 Column_10 Column_11 Column_12 Column_13 Column_14 Column_15 Column_16 Column_17 Column_18 Column_19 Column_20 Column_21 Column_22 Column_23 Column_24 Column_25 Column_26 Column_27 Column_28 Column_29 Column_30 Column_31 Column_32
feature_infos=[75.560000000000002:122.75] [40300:51900] [14.01:269.75999999999999] [1.401:26.975999999999999] [1.179184:17.745042000000002] [137.74000000000001:215.10749999999999] [45.335999999999999:73.650000000000006] [0.66345799999999999:1.0528489999999999] [-21.29044:6.5267999999999997] [0.72134900000000002:1.058573] [1.5142279999999999:2.4946060000000001] [0.244724:0.97031999999999996] [2:6] [0:1] [1:4] [0:1] [0:1] [0:1] [0:1] [0:6] [0:10] [3.6899999999999999:49.450000000000003] [0:15.65] [-2.1449639999999999:2.6651210000000001] [0:3] [0:7] [0:6] [0:5] [0:7] [7.1399999999999997:88.390000000000001] [8000:23600] [0.050000000000000003:88.390000000000001] [193.24530999999999:2058.518885]
tree_sizes=3347 3439 3441 3422 3441 3437 3446 3435 3444 3449 3443 3458 3453 3447 3454 3455 3445 3449 3455 3446 3459 3462 3453 3459 3457 3461 3437 3470 3465 3468 3459 3448 3464 3458 3445 3470 3455 3465 3479 3461 3461 3464 3461 3455 3463 3466 3455 3474 3460 3364 3459 3365 2930 3154 3447 3141 3141 3452 3459 3456 3481 3460 3462 3012 2824 3472 3448 3216 3066 2800 3358 3468 3473 3481 3440 3038 3475 3467 3472 3365 3459 2925 3484 3356 3439 3128 3486 3483 3467 3247 3466 3147 3334 3463 3489 2086 3448 3475 3240 3492 3481 3482 3245 3476 3443 3445 3501 3034 3476 3450 3262 2929 3152 3037 2721 3488 1872 3462 3480 3024 3470 3496 3022 3480 3443 3468 3491 3448 3473 2635 2401 3470 3129 2999 3465 3467 1979 3457 2810 3483 3476 3160 2838 3480 3222 2701 3438 1979 3449 3468 3472 3002 3460 3491 3470 3458 3118 3495 3465 2473 3481 3494 3464 3244 3497 3472 3490 3456 3475 3467 3481 3465 3444 3459 3464 3448 3472 3150 3470 3251 3481 3479 3508 3483 3473 2922 3478 3475 2280 3431 3479 3480 3475 3440 3466 3475 3366 3462 2393 3474 3447 3482 3467 3448 3482 3451 3436 3461 3490 3458 3457 3460 3455 3424 3126 3465 3472 3456 3445 3477 3498 3470 3474 3503 3465 3474 3427 3207 3227 3465 3482 3448 3477 3478 3446 3452 3493 3030 3473 3473 3459 3461 3458 3485 3467 3437 3481 3434 3487 3468 3449 3483 3493 3496 3455 3422 3445 3496 3470 3445 3428 3470 3390 3121 3455 3455 3447 3453 3467 3473 3191 3499 3463 3454 2929 2828 3477 3474 3398 3429 3443 3467 3304 3462 3453 3447 3459 3489 3475 3447 3464 3450 3035 3447 3444 3444 3454 3457 3479 3495

Tree=0
num_leaves=31
num_cat=0
split_feature=9 1 9 5 31 1 13 9 2 13 9 5 8 1 8 31 22 5 2 1 30 22 13 1 1 5 32 31 2 2
split_gain=4626.92 2816.97 1478.84 1426.53 774.324 328.3 325.726 420.511 323.517 351.497 283.418 278.499 212.999 192.496 145.799 128.204 118.263 110.541 103.549 95.4154 70.5778 68.2255 65.682 59.5158 50.2553 38.9793 37.4483 35.8507 26.1024 36.2077
threshold=0.95351850000000005 47950.000000000007 0.98141450000000008 178.10375000000002 62.670000000000009 50200.000000000007 0.97619050000000007 0.92483450000000011 96.475000000000009 0.94427200000000011 0.9116280000000001 176.00375000000003 1.8525100000000003 49750.000000000007 1.2206500000000002 37.810000000000009 1.0000000180025095e-35 193.50375000000003 157.57500000000002 48950.000000000007 16150.000000000002 1.9750000000000003 0.97619050000000007 49250.000000000007 49850.000000000007 182.10375000000002 1208.2722680000004 28.305000000000003 98.215000000000018 179.28500000000003
decision_type=2 2 2 2 2 2 2 2 2 2 2 2 2 2 2 2 2 2 2 2 2 2 2 2 2 2 2 2 2 2
left_child=1 -1 8 5 6 15 7 -5 25 11 24 21 22 -12 -13 23 -17 20 -14 -8 -11 -10 28 -3 -6 -2 -24 -19 -4 -30
right_child=2 3 12 4 10 -7 19 -9 9 17 13 14 18 -15 -16 16 -18 27 -20 -21 -22 -23 26 -25 -26 -27 -28 -29 29 -31
leaf_value=-1.3275939346230832 -1.6610728409990541 -1.6544622160315117 -1.5256290197916251 -1.6451824669408763 -1.642889875511484 -1.3319261885565674 -1.5972765879276589 -1.6004238141966947 -1.4593733456062179 -1.6549540656107593 -1.5965979625159021 -1.5269994555287385 -1.3276285721173671 -1.5486678709049706 -1.4223693327595273 -1.6823594303817135 -1.6550327985095108 -1.6572926101313015 -1.4492606037018139 -1.6683991063393191 -1.5964491998088155 -1.6203546690331754 -1.4666697519127001 -1.6789842068061303 -1.5971574985337964 -1.5828368006457421 -1.5637437213954619 -1.5431817136143831 -1.3819452031475798 -1.4691582477261149
leaf_weight=69.174635708332062 94.739174991846085 286.95170029997826 7.3822733759880057 1535.6495709717274 262.48083114624023 7.2455646097660056 49.625282138586044 797.01210707426071 6.9721470773220053 63.569576293230057 567.34137982130051 476.01992398500443 64.799955189228058 332.8858457505703 35.954405516386032 474.10600125789642 2414.9603553116322 7.2455646097660056 25.154412984848022 897.0829239487648 269.17956069111824 97.199932783842087 19.139227271080017 1847.2088491916656 77.787287980318069 19.002518504858017 21.599985063076019 106.4961288869381 27.888588309288025 23.377199023962021
leaf_count=506 693 2099 54 11232 1920 53 363 5828 51 465 4148 3480 473 2435 263 3467 17665 53 183 6562 1968 711 140 13512 569 139 158 779 204 171
internal_value=-1.63305 -1.64528 -1.54694 -1.64759 -1.6272 -1.6659 -1.63993 -1.62989 -1.56783 -1.55925 -1.59355 -1.53477 -1.41727 -1.57886 -1.5196 -1.66639 -1.65952 -1.59306 -1.36134 -1.66466 -1.60764 -1.60938 -1.46816 -1.67569 -1.63244 -1.64793 -1.51772 -1.55051 -1.43407 -1.42122
internal_weight=10985.2 9619.51 1365.72 9550.34 4519.87 5030.47 3279.37 2332.66 1176.38 1062.64 1240.5 616.146 189.342 900.227 511.974 5023.23 2889.07 446.491 89.9544 946.708 332.749 104.172 99.3873 2134.16 340.268 113.742 40.7392 113.742 58.6481 51.2658
internal_count=80344 70359 9985 69853 33057 36796 23985 17060 8602 7770 9072 4505 1383 6583 3743 36743 21132 3265 656 6925 2433 762 727 15611 2489 832 298 832 429 375
is_linear=0
shrinkage=1


Tree=1
num_leaves=31
num_cat=0
split_feature=9 1 9 5 31 31 13 9 1 1 5 13 9 2 1 8 31 22 8 10 9 13 1 2 1 13 2 30 1 9
split_gain=4018.88 2049.86 1199.05 1117.91 578.429 365.437 281.567 317.187 275.274 255.528 247.811 303.942 207.977 191.911 145.678 125.323 122.555 113.151 103.127 91.3198 89.0998 83.4589 80.4746 97.8196 57.3075 52.0409 49.8431 47.8992 41.1614 31.729
threshold=0.94859250000000006 47950.000000000007 0.98141450000000008 178.10375000000002 62.670000000000009 41.785000000000004 0.97619050000000007 0.92483450000000011 49350.000000000007 50200.000000000007 180.95375000000004 0.81385300000000005 0.90723100000000012 136.59500000000003 49750.000000000007 2.3773000000000004 37.810000000000009 1.0000000180025095e-35 0.81501000000000012 2.2139515000000007 0.96361900000000011 0.35828850000000007 49550.000000000007 103.39500000000002 49250.000000000007 0.94987450000000007 93.945000000000007 18050.000000000004 49850.000000000007 0.95921000000000012
decision_type=2 2 2 2 2 2 2 2 2 2 2 2 2 2 2 2 2 2 2 2 2 2 2 2 2 2 2 2 2 2
left_child=1 -1 5 9 6 8 7 -5 13 16 22 21 28 -2 -14 25 24 -18 26 -8 -13 -12 27 -24 -3 -4 -10 -7 -6 -15
right_child=2 3 15 4 12 10 19 -9 18 -11 11 20 14 29 -16 -17 17 -19 -20 -21 -22 -23 23 -25 -26 -27 -28 -29 -30 -31
leaf_value=0.23823757144374463 0.26406587938033393 -0.020746951982540503 0.17285995449344951 -0.01161879849176959 -0.0145961382467449 0.027439550879066212 -0.036492325162713127 0.029433019775616201 -0.042520990151194211 0.23614901068602695 0.20253681132191456 0.042385985153684316 0.029403734320839384 -0.015523780269999586 0.071585895815252418 0.22735302369000362 -0.048478655113316407 -0.021292286656753312 0.16983206360748426 0.041038757001031607 0.079020257219988274 0.10861647636418248 -0.026474920972652485 0.090613960692672163 -0.045129186889451417 0.10860682052647191 0.00075982706018226057 -0.025070781505386691 0.03075517433965029 0.10880534044104209
leaf_weight=80.005680128931999 16.088538646697998 279.72926259040833 83.956544145941734 1523.1325398385525 217.55931696295738 88.956791043281555 807.73411081731319 680.73758482933044 102.08972038328648 8.756999194622038 25.936419948935509 406.86504605412483 549.0616055727005 12.575541257858278 327.13273355364799 80.848252385854721 458.4775675535202 2330.1744073629379 7.6992766559123984 39.713118270039558 282.10941168665886 296.95080307126045 24.101734817028046 67.479272499680519 1789.5305313915014 52.632699131965637 189.93657046556473 84.639908775687218 64.832819059491158 8.480945020914076
leaf_count=483 114 2076 536 11232 1602 636 6035 4872 748 53 179 2871 3926 92 2269 493 3467 17300 52 297 1957 2043 174 477 13505 354 1368 610 463 60
internal_value=-5.62781e-05 -0.0135802 0.0675566 -0.015803 0.00306242 0.0526951 -0.00835674 0.00105989 0.00635211 -0.0321233 0.0649145 0.0761914 0.033139 0.134561 0.0451648 0.177767 -0.0326128 -0.0257653 -0.00955971 -0.0328487 0.0574029 0.116237 0.0218528 0.0597494 -0.0418367 0.148235 -0.014363 0.0018088 -0.00415929 0.0345937
internal_weight=10987.9 9156.58 1831.35 9076.57 4209.9 1613.91 3051.32 2203.87 336.871 4866.67 1277.04 1011.86 1158.59 37.145 876.194 217.437 4857.91 2788.65 299.726 847.447 688.974 322.887 265.178 91.581 2069.26 136.589 292.026 173.597 282.392 21.0565
internal_count=80344 67580 12764 67097 30696 11381 22436 16104 2434 36401 8947 7050 8260 266 6195 1383 36348 20767 2168 6332 4828 2222 1897 651 15581 890 2116 1246 2065 152
is_linear=0
shrinkage=0.05


Tree=2
num_leaves=31
num_cat=0
split_feature=9 1 9 31 9 31 5 1 13 1 8 5 29 5 1 1 13 1 21 5 5 2 13 10 8 1 2 13 8 10
split_gain=3504.26 1556.41 1192.63 737.018 461.421 414.87 352.54 278.364 253.306 230.157 202.025 199.297 182.011 175.981 173.997 171.265 169.32 120.215 116.767 87.6668 87.5951 80.6495 74.2007 73.5526 71.4029 71.0059 103.344 65.531 62.7936 51.1317
threshold=0.93962350000000006 47950.000000000007 0.97436650000000002 51.150000000000013 0.89588850000000009 41.785000000000004 178.85375000000002 49850.000000000007 0.94427200000000011 49350.000000000007 1.8525100000000003 170.65875000000003 45.905000000000008 177.10875000000001 47950.000000000007 50200.000000000007 0.94427200000000011 49550.000000000007 43.410000000000004 184.60375000000002 191.65375000000003 157.57500000000002 0.94427200000000011 2.0853510000000006 -4.164299999999999 49250.000000000007 102.02500000000002 0.11145500000000001 0.64698000000000011 2.1533670000000007
decision_type=2 2 2 2 2 2 2 2 2 2 2 2 2 2 2 2 2 2 2 2 2 2 2 2 2 2 2 2 2 2
left_child=1 -1 5 13 15 9 14 11 18 12 22 -6 -2 25 -7 27 19 -16 -8 -15 -10 -12 -4 -9 -11 26 -3 -5 -26 -18
right_child=2 3 10 4 7 6 8 23 20 24 21 -13 -14 16 17 -17 29 -19 -20 -21 -22 -23 -24 -25 28 -27 -28 -29 -30 -31
leaf_value=0.19832043277367631 0.21503860078207229 0.0018382503899652654 0.12643336004738445 0.010173735998014103 -0.041976520708986095 0.23897131624775259 0.080909540542628722 0.039509370067258825 0.013124744288188063 0.03431013326495122 0.20358489123734494 0.012828344757076207 0.030043904704451466 -0.013928539097269769 -0.024832854236178224 0.19815113072694768 -0.043287603230236581 0.042690088806282465 0.040003876488476531 0.020828592089580385 0.060388028725748971 0.11861094881797085 0.07391641203360641 0.087458856836525101 -0.026236689871560456 -0.040831967967594369 -0.042292862189975897 -0.031333264139947768 0.095982256609918937 0.00085525531542885488
leaf_weight=83.446459636092186 19.01376610994339 259.17923361063004 151.19805251061916 105.67292633652687 190.63460423052311 7.342398226261138 762.33570124208927 328.03441475331783 334.29413083195686 62.396953910589218 93.647596269845963 1272.0010821819305 44.091221839189529 1181.6826348155737 230.92667444050312 8.4045851826667768 629.50026905536652 92.110022827982903 227.35614441335201 214.13176900148392 138.90050211548805 41.070413619279861 123.46199779212475 106.24434845149517 400.6399032920599 2586.2931298613548 271.1901912689209 930.4647972881794 10.679931685328482 72.979359522461891
leaf_count=443 122 1960 933 798 1438 45 5095 2328 2368 447 505 9200 312 8759 1697 45 4803 652 1513 1551 951 245 809 737 2977 19916 2053 7022 70 550
internal_value=-9.85274e-05 -0.0163865 0.0488899 -0.0185861 0.00142489 0.0350555 0.0465985 0.0161215 0.0571333 -0.00349633 0.127592 0.00567948 0.0861146 -0.0298739 -3.65468e-05 -0.0252587 -0.0186737 -0.00555677 0.0715226 -0.00859176 0.0270187 0.177824 0.10288 0.0512689 -0.0154598 -0.0374121 -0.0207213 -0.0270947 -0.0230286 -0.0386951
internal_weight=10979.3 8239.86 2739.47 8156.41 2941.46 2330.09 1793.27 1896.91 1462.89 536.822 409.378 1462.64 63.105 5214.96 330.379 1044.54 2098.29 323.037 989.692 1395.81 473.195 134.718 274.66 434.279 473.717 3116.66 530.369 1036.14 411.32 702.48
internal_count=80344 61603 18741 61160 21568 16249 12321 13703 9927 3928 2492 10638 434 39592 2394 7865 15663 2349 6608 10310 3319 750 1742 3065 3494 23929 4013 7820 3047 5353
is_linear=0
shrinkage=0.05


Tree=3
num_leaves=31
num_cat=0
split_feature=9 1 5 9 31 2 13 13 9 1 2 1 9 1 13 0 8 5 1 1 1 2 8 31 8 13 31 10 14 23
split_gain=3103.18 1377.27 969.796 724.371 468.71 273.163 284.693 244.496 263.611 234.596 210.251 184.102 159.065 140.653 123.731 127.829 121.379 110.909 106.157 93.2894 89.1909 69.175 57.648 55.8131 40.1671 34.9785 34.1259 28.0399 23.017 14.1832
threshold=0.94859250000000006 47950.000000000007 178.10375000000002 0.98141450000000008 62.670000000000009 97.795000000000016 0.97619050000000007 0.97619050000000007 0.9190115000000002 49350.000000000007 148.20500000000001 50200.000000000007 0.90723100000000012 49750.000000000007 0.17914450000000001 103.98500000000001 1.2206500000000002 193.10875000000001 49750.000000000007 48950.000000000007 48950.000000000007 142.38500000000002 -5.1658199999999992 46.365000000000009 0.39274000000000003 0.53137250000000014 54.045000000000009 2.0798585000000007 2.5000000000000004 0.37179650000000003
decision_type=2 2 2 2 2 2 2 2 2 2 2 2 2 2 2 2 2 2 2 2 2 2 2 2 2 2 2 2 2 2
left_child=1 -1 11 5 7 9 10 8 -4 -2 16 14 25 -12 19 -16 -7 23 -14 -3 -9 24 -11 -8 -5 -6 29 -19 -28 -23
right_child=3 2 4 21 12 6 17 20 -10 22 13 -13 18 -15 15 -17 -18 27 -20 -21 -22 26 -24 -25 -26 -27 28 -29 -30 -31
leaf_value=0.17243148592377694 0.2190492987959404 0.05650588204137931 -0.01349525469353699 0.08732827188048442 0.015859580810363337 0.090774536121833227 -0.014574839523563235 0.035222018714407055 0.021651014906724646 0.087879282314013568 0.033927953752766839 0.17570119402919149 0.025742113452979911 0.081340841929688962 -0.034996515289639964 0.047045678044934439 0.20348233663950405 0.15346911506274186 0.060691460879178205 -0.015590181326771039 -0.035357648487067524 0.019932731465251471 -0.037689235474865072 0.023674507077318427 0.17403103353283256 -0.019623017055226458 0.13933763044248368 0.055622125984953114 0.09009382361312529 0.092245784045935378
leaf_weight=99.358211934566498 9.9432484209537488 48.677762895822525 1310.5883397459984 15.976908311247824 124.90557898581028 306.63698840141296 156.08620376884937 47.387105524539948 899.63653674721718 9.6171659827232343 433.462656006217 10.706361413002012 568.74905215203762 245.44829207658768 3998.794323079288 47.91453817486763 25.989384397864342 7.7948914617300025 352.62292978167534 557.23331221193075 766.77188362181187 12.504516661167147 150.18003068864346 244.49015608429909 103.96815937757492 156.05147139728069 73.345728784799576 124.80606010556221 37.473068863153458 15.465745151042936
leaf_count=483 57 367 9790 90 917 1930 1124 352 6314 64 2852 53 3926 1546 31280 366 148 50 2269 4335 5980 75 1110 1683 515 1148 407 817 208 88
internal_value=-0.000131706 -0.0125957 -0.0146661 0.0566465 0.00267908 0.0448682 0.0514845 -0.00781788 0.00080854 -0.0153087 0.0670701 -0.0303881 0.0290861 0.0510861 -0.0308671 -0.0340227 0.0996544 0.0218992 0.0391283 -0.0097815 -0.0312397 0.134627 -0.0300506 0.0087581 0.162606 -0.00383063 0.110311 0.061523 0.122827 0.0602815
internal_weight=10962.6 8989.4 8890.04 1973.19 4226.71 1714.46 1544.71 3024.38 2210.22 169.74 1011.54 4663.33 1202.33 678.911 4652.62 4046.71 332.626 533.177 921.372 605.911 814.159 258.734 159.797 400.576 119.945 280.957 138.789 132.601 110.819 27.9703
internal_count=80344 67580 67097 12764 30696 11381 10150 22436 16104 1231 6476 36401 8260 4398 36348 31646 2078 3674 6195 4702 6332 1383 1174 2807 605 2065 778 867 615 163
is_linear=0
shrinkage=0.05


Tree=4
num_leaves=31
num_cat=0
split_feature=9 1 9 31 31 9 5 13 8 1 1 1 1 21 21 1 2 5 1 1 5 13 0 11 8 13 22 2 2 21
split_gain=2799.93 1059.99 960.185 541.9 415.606 332.661 332.389 208.192 178.496 178.405 175.555 142.81 137.378 136.58 575.328 124.811 119.804 118.209 116.768 109.417 102.983 113.2 98.5098 87.5295 74.5957 65.9106 60.3436 58.2383 55.8386 76.4916
threshold=0.93412000000000017 47950.000000000007 0.96915700000000016 51.150000000000013 41.785000000000004 0.89588850000000009 178.10375000000002 0.81385300000000005 1.8525100000000003 49850.000000000007 49250.000000000007 47950.000000000007 49250.000000000007 40.615000000000002 43.410000000000004 50200.000000000007 136.59500000000003 170.65875000000003 49250.000000000007 49550.000000000007 175.30375000000004 0.97619050000000007 104.42500000000003 0.86283550000000009 -4.164299999999999 0.94427200000000011 1.0000000180025095e-35 157.57500000000002 98.585000000000022 39.215000000000011
decision_type=2 2 2 2 2 2 2 2 2 2 2 2 2 2 2 2 2 2 2 2 2 2 2 2 2 2 2 2 2 2
left_child=1 -1 4 12 10 15 11 18 25 17 16 -6 13 22 -15 26 -2 -7 -8 -13 -14 -22 -3 -9 -12 28 -5 -10 -4 -30
right_child=2 3 8 5 6 9 7 23 27 -11 24 19 20 14 -16 -17 -18 -19 -20 -21 21 -23 -24 -25 -26 -27 -28 -29 29 -31
leaf_value=0.15235547195247701 0.14949531695606574 -0.018512356389866619 0.025848208621388626 -0.047162459285079526 0.18668165433312101 -0.040103126403632061 0.10956617684574677 0.021330326369432384 0.15718342371891658 0.042407637320989219 0.016978792338140897 -0.029630411757079745 -0.04138894248916461 0.31247827286575736 -0.03769406376638975 0.15244451471158399 0.0093650218995637372 0.0089652200386913065 0.055211534607093771 0.032195978708835518 -0.018369498380810659 -0.046181511292855908 0.13559849967043491 0.057994579539206892 -0.027344641840007351 0.054724925391193793 -0.018549478631847319 0.092524247775787286 0.12871337324925727 0.072966031820731803
leaf_weight=90.768887519836426 26.658141024410725 727.33479650318623 28.528113812208176 244.10192167758942 9.0880661308765394 138.05150270462036 116.29711821675301 794.60872103273869 113.28707472980022 386.33896952867508 118.08330978453159 264.46254719793797 1987.2443015575409 16.436881877481937 40.229872316122055 9.8425043374299985 35.698513641953468 1099.0385503470898 669.38880178332329 97.939842462539673 1483.0119019076228 486.29898332804441 10.413424052298067 205.05326309800148 480.29839219152927 201.48054630309343 757.20791068673134 51.794480726122856 120.58903403580189 128.14583016932011
leaf_count=412 157 5631 180 1973 47 1099 733 5296 522 2627 832 2001 16115 123 311 45 256 7902 4221 686 11359 3938 78 1348 3667 1253 5847 281 666 738
internal_value=-0.000155961 -0.0173696 0.037022 -0.0194583 0.0244294 -0.00126864 0.0350583 0.0440118 0.0921107 0.012751 -0.0102585 -0.00795867 -0.0295438 -0.0105583 0.0641611 -0.0237816 0.0694957 0.00348266 0.0632764 -0.0129037 -0.0333541 -0.0252419 -0.0163122 0.028861 -0.0185882 0.0765978 -0.0255338 0.136995 0.0924488 0.100054
internal_weight=10937.7 7476.32 3461.4 7385.55 2817.58 2634.58 2156.84 1785.35 643.825 1623.43 660.738 371.49 4750.97 794.415 56.6668 1011.15 62.3567 1237.09 785.686 362.402 3956.56 1969.31 737.748 999.662 598.382 478.744 1001.31 165.082 277.263 248.735
internal_count=80344 57460 22884 57048 19244 19493 14332 11598 3640 11628 4912 2734 37555 6143 434 7865 413 9001 4954 2687 31412 15297 5709 6644 4499 2837 7820 803 1584 1404
is_linear=0
shrinkage=0.05


Tree=5
num_leaves=31
num_cat=0
split_feature=9 1 9 31 31 5 9 13 9 1 1 1 1 21 21 5 1 31 5 13 5 0 1 2 2 8 14 13 29 22
split_gain=2506.34 905.584 837.193 461.872 382.564 311.111 278.478 207.004 203.798 144.437 138.147 126.801 126.748 114.521 402.934 109.336 109.3 102.872 97.1628 114.656 96.9213 93.3752 91.4483 89.7529 102.17 78.3205 66.0376 59.6113 59.2689 58.4738
threshold=0.93222050000000012 47950.000000000007 0.96512550000000019 51.150000000000013 41.785000000000004 178.10375000000002 0.89588850000000009 0.67543900000000012 0.98446700000000009 49250.000000000007 49850.000000000007 47950.000000000007 49250.000000000007 40.615000000000002 43.410000000000004 173.65375000000003 50200.000000000007 66.080000000000013 181.65375000000003 0.97619050000000007 170.65875000000003 102.77500000000002 49550.000000000007 98.585000000000022 129.77500000000003 -4.164299999999999 2.5000000000000004 0.11145500000000001 51.895000000000003 4.5150000000000006
decision_type=2 2 2 2 2 2 2 2 2 2 2 2 2 2 2 2 2 2 2 2 2 2 2 2 2 2 2 2 2 2
left_child=1 -1 4 12 9 11 16 29 23 15 20 -6 13 21 -15 -2 27 -9 -14 -20 -8 -3 -13 -4 -25 -11 -26 -5 -17 -7
right_child=2 3 8 6 5 7 10 17 -10 25 -12 22 18 14 -16 28 -18 -19 19 -21 -22 -23 -24 24 26 -27 -28 -29 -30 -31
leaf_value=0.13787949509863581 -0.01701958606259096 -0.018999338667525848 -0.0069687749465357053 0.010900919707391828 0.1601929266479378 0.075641387107155927 -0.039065373863750544 0.018510549694553239 0.1168780136135949 0.012749761274229172 0.037390656710684776 -0.03226800665296304 -0.036350071880715693 0.24233579955887141 -0.036434226497721968 0.16385788207161373 0.13796047689920785 0.046972101643528996 0.0011898021230265258 -0.04183760548724675 0.0074362367034512857 0.090849030120231489 0.023221721843166499 0.12356180649007918 0.072531668047859377 -0.030056621134272828 0.034907801463713126 -0.028962720572623932 0.036695431455491589 0.022661622541859706
leaf_weight=92.624728351831436 28.426979258656502 699.24175732582808 43.986324310302734 104.73690951615572 10.378171935677527 387.26664641499519 125.24612858146429 842.56324661523104 230.03230914473534 138.02634909749031 373.39188343286514 256.64481154084206 3130.7185248434544 19.395079597830772 38.553869940340519 22.614061385393143 10.328737184405325 510.50956527888775 406.68052704632282 249.68942994624376 1055.4897414892912 19.784323468804359 104.26997291296721 70.307386070489883 329.92355743050575 470.17833670973778 181.866648837924 878.7481976673007 15.676323033869265 60.62052971124649
leaf_count=401 203 5487 301 798 49 2379 1026 5559 1096 979 2477 1994 25703 119 306 126 45 3171 3030 2083 7555 143 731 373 1953 3675 1081 7022 106 373
internal_value=-0.000178629 -0.0173623 0.0332499 -0.0193868 0.02021 0.0304265 -0.0023309 0.0390184 0.0766034 -0.0126642 0.0108852 -0.0112346 -0.0289071 -0.0105003 0.0570386 0.0571001 -0.0230023 0.0292554 -0.0326818 -0.0151745 0.00249647 -0.0159576 -0.0162209 0.0617816 0.0669856 -0.0203334 0.0591811 -0.0247117 0.112158 0.0684885
internal_weight=10907.9 7204.63 3703.29 7112.01 2847.17 2172.25 2547.94 1800.96 856.116 674.922 1554.13 371.293 4564.06 776.975 57.9489 66.7174 993.814 1353.07 3787.09 656.37 1180.74 719.026 360.915 626.084 582.098 608.205 511.79 983.485 38.2904 447.887
internal_count=80344 56195 24149 55794 19345 14256 18923 11482 4804 5089 11058 2774 36871 6055 425 435 7865 8730 30816 5113 8581 5630 2725 3708 3407 4654 3034 7820 232 2752
is_linear=0
shrinkage=0.05


Tree=6
num_leaves=31
num_cat=0
split_feature=9 1 9 31 31 5 9 8 13 1 1 13 1 30 23 5 1 11 1 5 26 8 29 1 5 13 2 13 22 29
split_gain=2249.35 777.207 767.959 382.115 363.668 294.97 230.173 177.679 167.757 137.503 118.791 112.181 110.366 148.029 128.532 106.711 104.18 98.7129 96.8216 92.1237 86.5436 85.0554 84.5935 84.3378 84.0789 94.2197 67.3222 68.2406 60.7728 60.3528
threshold=0.92915200000000009 47950.000000000007 0.96512550000000019 50.215000000000011 41.785000000000004 177.30375000000004 0.89588850000000009 1.4950000000000003 0.81385300000000005 49250.000000000007 47950.000000000007 0.13809500000000005 48950.000000000007 17650.000000000004 0.62314300000000011 173.65375000000003 49250.000000000007 0.85995400000000011 50200.000000000007 182.10375000000002 2.5000000000000004 -4.164299999999999 63.45000000000001 49550.000000000007 173.40375000000003 0.94427200000000011 94.375000000000014 0.79473700000000014 1.0000000180025095e-35 51.895000000000003
decision_type=2 2 2 2 2 2 2 2 2 2 2 2 2 2 2 2 2 2 2 2 2 2 2 2 2 2 2 2 2 2
left_child=1 -1 4 12 9 10 18 26 16 15 -6 -8 13 20 -15 -2 -7 -10 28 -13 -3 -11 -9 -12 -14 -26 -4 -28 -5 -17
right_child=2 3 7 6 5 8 11 22 17 21 23 19 24 14 -16 29 -18 -19 -20 -21 -22 -23 -24 -25 25 -27 27 -29 -30 -31
leaf_value=0.12654518092350739 -0.017629570456304141 -0.023371127265367792 -0.0066167409147507034 -0.046053733968291877 0.14326672170471996 0.087463813203176199 0.078878795262262213 0.1327960002067963 0.013424940489611542 0.010132742596229124 -0.032465362948583598 -0.0050004093967172562 -0.040881661639469602 -0.021236906112283585 0.26015228570050913 0.1464891303261206 0.042457274929542876 0.051421337524678035 0.1266062270464651 0.021131234387941782 0.034527987372225892 -0.030077608999644814 0.070349399318668335 0.021322968247750707 -0.019926629539933766 -0.043558701785216564 0.087202064797596304 0.050388925724704006 -0.017210518062674887 0.031789210144218351
leaf_weight=91.727262496948242 34.715085536241531 282.51219306141138 39.019846215844154 237.98639286309481 11.655590981245039 152.40440359711647 54.425026133656502 138.3750159740448 869.80780993402004 177.02209416031837 273.35612741112709 818.74195251613855 1508.1392628550529 6.9091135710477856 9.5823222622275335 26.999888777732849 834.55547197908163 212.90740294754505 10.691014394164084 573.14810447394848 83.495984435081482 509.14429514110088 90.615258827805519 99.158908277750015 1738.409485898912 557.78067693859339 177.44185492396355 441.2456284314394 790.48941323906183 20.227109767496586
leaf_count=384 254 2239 267 2030 52 904 383 595 5714 1278 2182 6018 12869 56 70 145 5086 1351 45 3888 643 4085 470 691 14000 4738 952 2520 6299 136
internal_value=-0.000196165 -0.0179211 0.0289828 -0.0199098 0.0176395 0.0270382 -0.00437734 0.0701883 0.0345073 -0.0123793 -0.0131865 0.00851745 -0.029129 -0.0035116 0.142545 0.0487829 0.0494203 0.0209053 -0.0223283 0.00575715 -0.0101434 -0.0196966 0.108148 -0.0181323 -0.0317032 -0.0256711 0.05695 0.0609675 -0.0238934 0.0976403
internal_weight=10872.7 6764.04 4108.65 6672.31 3221.95 2453.85 2485.48 886.698 2069.68 768.108 384.171 1446.32 4186.83 382.5 16.4914 81.9421 986.96 1082.72 1039.17 1391.89 366.008 686.166 228.99 372.515 3804.33 2296.19 657.707 618.687 1028.48 47.227
internal_count=80344 53662 26682 53278 21878 15980 18663 4804 13055 5898 2925 10289 34615 3008 126 535 5990 7065 8374 9906 2882 5363 1065 2873 31607 18738 3739 3472 8329 281
is_linear=0
shrinkage=0.05


Tree=7
num_leaves=31
num_cat=0
split_feature=9 1 5 9 13 5 13 9 1 0 8 31 1 13 7 30 11 31 1 9 1 5 0 13 8 14 13 8 8 2
split_gain=2028.22 771.164 534.068 503.255 287.678 238.756 278.903 194.314 132.363 122.204 123.469 119.355 117.179 115.594 102.332 99.8471 99.4503 90.4614 77.7164 75.9683 71.9266 71.9259 70.2745 50.1927 48.8243 47.1926 45.5232 40.397 32.6561 23.4532
threshold=0.93962350000000006 47950.000000000007 177.05375000000004 0.97436650000000002 0.53137250000000014 181.30375000000004 0.97619050000000007 0.91521550000000007 47950.000000000007 103.61500000000002 -3.1344099999999995 54.635000000000005 50200.000000000007 0.17914450000000001 0.93132900000000018 15750.000000000002 0.72233800000000004 62.670000000000009 48950.000000000007 0.98826800000000004 48950.000000000007 191.10375000000002 104.98500000000001 0.94987450000000007 1.4950000000000003 2.5000000000000004 0.94427200000000011 0.98698000000000008 -1.2383399999999998 97.365000000000023
decision_type=2 2 2 2 2 2 2 2 2 2 2 2 2 2 2 2 2 2 2 2 2 2 2 2 2 2 2 2 2 2
left_child=1 -1 12 5 16 8 14 23 -2 10 -10 -9 13 20 15 -7 17 -4 28 26 -3 -20 -15 -6 -16 -18 29 -11 -8 -5
right_child=3 2 4 19 7 6 18 11 9 27 -12 -13 -14 22 24 -17 25 -19 21 -21 -22 -23 -24 -25 -26 -27 -28 -29 -30 -31
leaf_value=0.11902907246826828 0.14169327496590617 0.04950473473505581 0.0020749718827375858 0.01899608665785674 -0.018145856644211058 0.0030466638029371159 0.16768869306257195 -0.0099444284331084674 0.02775431474626492 0.059010737755277543 -0.017289555543897502 0.018275539225324735 0.12784121713110072 -0.03397864148456492 0.030209114821398556 0.069603234004298298 0.11568198292799857 0.034411891424225682 -0.010089638597981706 0.1050404408860775 -0.014100364762975668 0.027446175594914107 0.070419360186499427 -0.039739992085212422 0.11859570880899462 0.036941579828816462 0.043339040623687458 0.18307935554324073 0.047302980717297903 0.086487124857931919
leaf_weight=107.77477318048477 16.679414093494415 48.803912326693535 494.65302206575871 14.207068681716917 1151.43825622648 62.56217135488987 9.4133950173854846 878.03171499818563 211.91696880757809 27.357625558972359 538.26795323193073 653.36556975543499 11.718964368104933 3132.163785263896 488.23208354413509 583.09267447888851 37.501922130584717 384.71045406162739 352.19905832409859 187.47677293419838 485.38828033208847 199.96145979315042 16.082311391830444 352.10193880647421 16.100923657417297 39.311411440372467 140.32963541150093 8.7116233408451063 14.506960988044737 169.75242137908936
leaf_count=443 74 357 3764 83 8889 392 58 6720 1414 169 3968 4247 50 26829 2798 3390 256 2600 2485 822 4068 1279 122 2983 82 275 765 48 92 822
internal_value=-0.000209003 -0.0137232 -0.015587 0.0344235 -0.00290458 0.0252684 0.0357462 -0.0104405 0.00273624 -0.000222846 -0.00455661 0.00209267 -0.0292871 -0.029792 0.0499714 0.0631633 0.021008 0.01623 0.00733727 0.0796421 -0.00827185 0.00349718 -0.0334415 -0.0232084 0.0330637 0.0755498 0.0649156 0.089538 0.0953875 0.0813152
internal_weight=10833.8 7793.05 7685.27 3040.77 3991.11 2529 1726.07 3034.94 802.934 786.254 750.185 1531.4 3694.16 3682.44 1149.99 645.655 956.177 879.363 576.081 511.766 534.192 552.161 3148.25 1503.54 504.333 76.8133 324.289 36.0692 23.9204 183.959
internal_count=80344 61603 61160 18741 29734 16249 10576 22839 5673 5599 5382 10967 31426 31376 6662 3782 6895 6364 3914 2492 4425 3764 26951 11872 2880 531 1670 217 150 905
is_linear=0
shrinkage=0.05


Tree=8
num_leaves=31
num_cat=0
split_feature=9 9 1 31 31 5 1 9 5 8 29 13 5 8 1 1 8 22 1 29 13 1 22 2 18 5 1 28 30 13
split_gain=1843.43 636.039 609.749 329.534 292.298 243.724 214.435 212.138 174.496 154.937 153.349 122.68 141.883 120.624 105.375 105.199 97.0019 82.457 79.4205 75.5813 70.0047 68.2955 69.4927 68.031 65.639 56.1774 54.3546 89.7439 176.575 45.6467
threshold=0.92533300000000007 0.96361900000000011 47950.000000000007 51.850000000000009 37.810000000000009 173.71125000000004 49250.000000000007 0.89588850000000009 173.65375000000003 1.4950000000000003 51.895000000000003 0.54195850000000012 184.10875000000001 0.98698000000000008 49850.000000000007 50200.000000000007 -4.1224599999999993 1.0000000180025095e-35 47950.000000000007 63.45000000000001 0.05012550000000001 47950.000000000007 1.7850000000000004 95.585000000000022 1.0000000180025095e-35 200.13625000000002 48950.000000000007 1.0000000180025095e-35 15750.000000000002 0.79473700000000014
decision_type=2 2 2 2 2 2 2 2 2 2 2 2 2 2 2 2 2 2 2 2 2 2 2 2 2 2 2 2 2 2
left_child=2 3 -1 6 26 21 8 15 -2 23 -10 20 -13 16 18 17 -8 -6 -7 -11 -9 -5 -23 -3 29 -16 27 -4 -29 -25
right_child=1 9 4 5 7 14 13 11 10 19 -12 12 -14 -15 25 -17 -18 -19 -20 -21 -22 22 -24 24 -26 -27 -28 28 -30 -31
leaf_value=0.10985416380744442 -0.022881723935077394 -0.0065124419327316878 -0.035348464733551188 0.11458109885776989 -0.044711876956460839 0.13638031404150136 0.0082553039288425344 0.10629983978371152 0.14105851295582919 0.11609087082232208 0.035958967306376703 -0.018065529732948532 0.026209241549516833 0.15381091460634091 0.051398756962530462 0.11898441390310968 -0.020222915934735668 -0.019356534240202276 0.025475857287528349 0.059135651604533913 0.01240158709890582 0.039692994740568296 -0.03457068656878938 0.066219783344255184 0.081211816604749437 0.13905000271299439 -0.036975430234830062 0.00090452803386179405 0.23012942156075328 0.035038054763375931
leaf_weight=91.731582283973694 69.587867021560669 53.946148619055748 89.300439909100533 9.2271874845027906 408.18018868565559 16.287596002221107 434.00712943077087 20.300212472677231 53.20452206581831 146.0372963398695 100.31470982730389 1038.6730056777596 218.95043016970158 11.04003121703863 435.71326512098312 12.702411472797392 959.49163745343685 1504.3011267706752 1220.2990940064192 98.298293337225914 762.89568025618792 37.036103054881096 206.10500023514032 164.9230033159256 149.13315577805042 19.101995542645454 1995.6789384111762 41.855597399175167 10.42531645298004 414.23264503479004
leaf_count=370 542 369 728 38 3662 71 3075 146 297 601 655 8008 1554 63 2537 53 7324 12509 7512 481 5691 301 1667 838 796 112 17638 338 79 2289
internal_value=-0.000217623 0.0237672 -0.0180203 0.0137944 -0.0199448 0.0276922 -0.00280038 -0.0119098 0.0427195 0.0584528 0.0724835 -0.000675648 -0.0103519 -0.0100372 0.034532 -0.0238155 -0.0113498 -0.0247728 0.0269516 0.0932313 0.014855 -0.0181246 -0.0232264 0.0475726 0.051586 0.0551208 -0.0348513 -0.00487032 0.0470617 0.043936
internal_weight=10793 4597.99 6194.99 3571.42 6103.26 1943.77 1627.65 3966 223.107 1026.57 153.519 2040.82 1257.62 1404.54 1691.4 1925.18 1393.5 1912.48 1236.59 244.336 783.196 252.368 243.141 782.235 728.289 454.815 2137.26 141.581 52.2809 579.156
internal_count=80344 29568 50776 24194 50406 12238 11956 31623 1494 5374 952 15399 9562 10462 10232 16224 10399 16171 7583 1082 5837 2006 1968 4292 3923 2649 18783 1145 417 3127
is_linear=0
shrinkage=0.05


Tree=9
num_leaves=31
num_cat=0
split_feature=9 9 1 31 31 5 9 1 13 2 11 8 1 5 1 13 1 2 26 1 1 8 5 13 10 22 29 14 12 5
split_gain=1664.89 555.257 550.005 327.995 278.036 216.025 156.567 140.561 120.003 110.324 102.304 96.181 89.837 87.3788 84.2956 76.7909 75.3087 70.3827 73.7895 69.9768 66.466 66.265 65.7682 78.1403 65.3512 56.1269 52.384 49.76 48.1315 42.4373
threshold=0.92533300000000007 0.96915700000000016 47950.000000000007 41.785000000000004 50.215000000000011 174.70375000000004 0.89588850000000009 49250.000000000007 0.81385300000000005 100.69500000000001 0.84538950000000013 1.8525100000000003 49150.000000000007 173.65375000000003 47950.000000000007 0.13809500000000005 49450.000000000007 119.48500000000001 1.5000000000000002 50200.000000000007 49750.000000000007 -4.8794199999999988 173.40375000000003 0.94427200000000011 2.1366500000000004 1.0000000180025095e-35 51.895000000000003 2.5000000000000004 4.5000000000000009 180.67375000000001
decision_type=2 2 2 2 2 2 2 2 2 2 2 2 2 2 2 2 2 2 2 2 2 2 2 2 2 2 2 2 2 2
left_child=2 3 -1 7 12 14 19 13 9 -7 -10 27 17 -2 -5 -8 -16 18 -4 25 -17 -9 -14 -24 -19 -6 -15 -3 -29 -13
right_child=1 11 4 5 6 8 15 21 10 -11 -12 29 22 26 16 20 -18 24 -20 -21 -22 -23 23 -25 -26 -27 -28 28 -30 -31
leaf_value=0.10361706088868616 -0.017032054137532712 0.061334330191687159 -0.02301520864247332 0.11301119539804211 -0.044053004064462969 0.0022013049198569331 0.065230422040733357 0.010106947448094799 0.008499688126518341 0.044245534431075824 0.039417412348127706 -0.0066446068434433212 -0.039425004717710634 0.11653157680346374 -0.03381129491172729 -0.0046587458174978435 0.019476940590220131 -0.035931844118709227 0.024165068196053074 0.10350034629510632 0.020107475455538173 -0.025867224198278763 -0.019267093067543054 -0.043567628293690291 0.11100420584883819 -0.015235195268571325 0.027614265097624397 0.054380398321906068 0.0016112336947593333 0.09803947664383042
leaf_weight=92.37707257270813 39.010515481233597 383.23070222139359 139.36963845044374 12.399987012147902 217.52644296735525 181.46741366386414 52.950776159763336 159.55767002701759 965.25228840857744 1124.4312676340342 370.44741703569889 10.121249049901961 1312.6089123338461 37.200703009963036 241.77937074750662 796.70778633654118 91.134245961904526 219.37264200299978 203.99281267076731 11.188686296343802 410.22388007491827 642.70242428779602 1450.3607787936926 429.33773405849934 7.7268508523702613 761.87490621209145 30.254661366343498 89.723882377147675 83.672724559903145 180.85229340195656
leaf_count=370 298 1944 1162 51 2030 1217 343 1172 6168 6452 2230 50 12132 185 2037 5866 651 1819 1658 45 2763 5271 12283 3954 52 6299 196 455 438 753
internal_value=-0.000225579 0.0223387 -0.0173863 0.0147617 -0.0192477 0.0227645 -0.00534245 -0.0115369 0.0276267 0.0384075 0.0170806 0.0618075 -0.0275626 0.0424038 -0.0144136 0.00634848 -0.0192073 -0.009272 0.00499907 -0.0202158 0.00375587 -0.0187059 -0.0308292 -0.0248222 -0.0308638 -0.0216446 0.0768249 0.0512656 0.028961 0.0924647
internal_weight=10748.9 4643.24 6105.62 3895.64 6013.24 2986.91 2250.47 908.726 2641.6 1305.9 1335.7 747.601 3762.77 106.466 345.314 1259.88 332.914 570.462 343.362 990.59 1206.93 802.26 3192.31 1879.7 227.099 979.401 67.4554 556.627 173.397 190.974
internal_count=80344 29568 50776 25928 50406 18806 17346 7122 16067 7669 8398 3640 33060 679 2739 8972 2688 4691 2820 8374 8629 6443 28369 16237 1871 8329 381 2837 893 803
is_linear=0
shrinkage=0.05


Tree=10
num_leaves=31
num_cat=0
split_feature=9 1 9 31 31 9 5 13 1 1 1 21 21 9 5 13 21 2 1 5 1 1 1 8 13 13 13 13 23 29
split_gain=1508.16 522.865 416.9 343.074 234.946 182.677 170.404 126.497 112.333 108.973 102.11 100.101 296.483 91.1921 89.7755 103.094 89.6487 85.3894 82.9655 75.3218 70.9062 82.6019 63.4413 59.0883 58.0785 54.7209 48.9164 39.9713 35.3281 32.9065
threshold=0.93222050000000012 47950.000000000007 0.96915700000000016 51.150000000000013 41.785000000000004 0.89588850000000009 178.10375000000002 0.67543900000000012 49250.000000000007 49350.000000000007 49850.000000000007 40.615000000000002 43.410000000000004 0.98446700000000009 181.65375000000003 0.97619050000000007 35.010000000000005 110.52500000000002 49250.000000000007 170.65875000000003 47950.000000000007 49550.000000000007 50200.000000000007 -4.164299999999999 0.36602850000000003 0.11145500000000001 0.35828850000000007 0.94427200000000011 1.0031715000000003 74.180000000000021
decision_type=2 2 2 2 2 2 2 2 2 2 2 2 2 2 2 2 2 2 2 2 2 2 2 2 2 2 2 2 2 2
left_child=1 -1 4 8 9 22 20 26 11 17 19 16 -13 27 24 -16 -3 -2 -9 -7 -6 -22 25 -11 -10 -5 -8 29 -12 -4
right_child=2 3 13 5 6 10 7 18 14 23 28 12 -14 -15 15 -17 -18 -19 -20 -21 21 -23 -24 -25 -26 -27 -28 -29 -30 -31
leaf_value=0.098759543396026161 0.12053485306724541 -0.00023373978679576583 0.069833367938979721 0.013684797150261399 0.11001655679855256 -0.036864872897674365 0.079794702144340618 0.047217525909494323 -0.020630346687190909 0.010920883320082203 0.058304589133722134 0.19802936061632148 -0.033801069616813777 0.081741226047503113 0.0038437709416810034 -0.038732972925662218 -0.039206757873132408 0.012515170964839112 0.016843120751525217 0.005421995017748594 -0.026868361545977066 0.023722824488805409 0.0982045325198347 -0.026644758068839383 -0.036988410237248949 -0.02527213917514198 0.042413012477977324 0.028220116481723907 0.022494620147816349 0.035209419882382562
leaf_weight=100.18614241480827 24.028497226536274 460.28583012521267 185.67994166910648 101.27896959334612 12.41825810074806 116.5700838714838 111.91587567329407 271.64537388086319 738.78202302008867 136.4110636934638 89.284215539693832 22.345470115542412 35.636840179562569 258.61782598495483 392.26639828830957 222.7338145300746 217.25957347452641 76.363252326846123 1311.450854793191 1080.1836256012321 256.13500395417213 117.58286768198013 11.207096025347708 446.9085451439023 2065.8221281841397 804.31407404690981 411.58523805439472 207.059226334095 306.05674715340137 110.6030109077692
leaf_count=401 115 3802 898 798 51 1026 603 1571 6760 942 553 119 306 1096 3030 2083 1828 510 7812 7555 2126 783 45 3753 18943 7022 2243 1109 1924 537
internal_value=-0.000230824 -0.0145531 0.0243662 -0.0162588 0.0163954 -0.00165678 0.0235175 0.0291147 -0.0250742 -0.00956307 0.00857914 -0.00733748 0.0556438 0.0575813 -0.0288874 -0.0115719 -0.012742 0.0385134 0.0220609 0.00129612 -0.00700512 -0.0109354 -0.0194367 -0.017851 -0.0326821 -0.0209088 0.0504279 0.0451442 0.0306073 0.0569413
internal_weight=10702.6 6764.21 3938.4 6664.03 3176.44 2508.89 2492.73 2106.6 4155.13 683.711 1592.09 735.528 57.9823 761.96 3419.6 615 677.545 100.392 1583.1 1196.75 386.136 373.718 916.8 583.32 2804.6 905.593 523.501 503.342 395.341 296.283
internal_count=80344 56195 24149 55794 20509 18923 15189 12229 36871 5320 11058 6055 425 3640 30816 5113 5630 625 9383 8581 2960 2909 7865 4695 25703 7820 2846 2544 2477 1435
is_linear=0
shrinkage=0.05


Tree=11
num_leaves=31
num_cat=0
split_feature=9 1 9 31 31 22 1 5 1 8 19 5 29 8 1 2 29 13 21 1 21 13 23 0 22 1 8 1 28 30
split_gain=1370.06 453.315 452.105 260.86 222.58 186.96 196.622 162.823 153.179 152.605 148.36 120.593 98.3294 89.5608 88.2575 87.2802 73.5396 73.2583 69.5456 63.7006 60.5831 58.4564 57.2523 54.9149 54.7429 60.135 54.6712 48.8386 78.0046 129.503
threshold=0.92533300000000007 47950.000000000007 0.95921000000000012 37.810000000000009 51.850000000000009 1.0000000180025095e-35 50200.000000000007 173.71125000000004 49250.000000000007 1.4950000000000003 1.5000000000000002 173.65375000000003 51.895000000000003 -4.3792399999999985 49850.000000000007 94.375000000000014 64.115000000000009 0.94427200000000011 27.895000000000007 49850.000000000007 43.410000000000004 0.53137250000000014 1.1166415000000003 103.98500000000001 1.7850000000000004 47950.000000000007 -3.8190499999999994 48950.000000000007 1.0000000180025095e-35 15750.000000000002
decision_type=2 2 2 2 2 2 2 2 2 2 2 2 2 2 2 2 2 2 2 2 2 2 2 2 2 2 2 2 2 2
left_child=1 -1 4 27 8 6 18 24 11 15 23 -2 -13 22 -10 -4 -11 19 -5 -17 -15 -12 -9 -7 -6 -26 -16 28 -3 -30
right_child=2 3 9 5 7 10 -8 13 14 16 21 12 -14 20 26 17 -18 -19 -20 -21 -22 -23 -24 -25 25 -27 -28 -29 29 -31
leaf_value=0.093773477481809669 -0.021253211211264993 -0.033787734756405001 -0.01834545878275479 0.028003781047691162 0.039184089503330584 -0.016147710293858166 0.13309765576421873 0.077982781154582972 -0.019388234828489902 0.10052943933902481 0.018742963663555764 0.11302657331593645 0.028905777517617165 0.02831354986938155 0.031226104212990914 0.039648841190188126 0.046535010586107428 0.023177180543388763 -0.047709696498895338 0.074175280569817204 0.0039156533729027753 -0.0027775602759832294 0.035711517142202658 0.020367193778911705 0.096270136777720838 -0.032660108980090502 -0.0065815107955854496 -0.034765116509463068 0.00085828668602272299 0.18568110645727315
leaf_weight=92.113651931285858 66.991133868694305 85.360508963465691 69.399472430348396 32.183030650019646 37.161191374063492 1940.3135521560907 16.234744921326637 116.70867255330086 902.12261737138033 153.96817210316658 607.79962996393442 54.382803186774254 96.7830855473876 836.80391408503056 162.20709285140038 439.09440354257822 108.03770136088133 416.77871053665876 489.64028840512037 193.20008361339569 366.36567434668541 655.38165732473135 258.96899761259556 108.5329899340868 9.3706706613302213 194.97275035828352 232.27644861489534 1856.2389613240957 41.764293015003204 12.1814988553524
leaf_count=370 542 728 490 297 301 16506 74 658 6901 624 4492 275 602 4830 1132 2277 504 2368 4483 940 2129 4933 1492 838 38 1667 1798 17638 338 79
internal_value=-0.000235051 -0.0162145 0.0198847 -0.0179501 0.00992172 -0.0103436 -0.0376789 0.0217046 -0.00423543 0.0439484 -0.00590028 0.0345124 0.0592565 0.0275541 -0.0107609 0.0358883 0.0783102 0.0394822 -0.0430261 0.0502165 0.0208895 0.00757409 0.0488741 -0.0142101 -0.0165117 -0.026679 0.00895585 -0.032622 -0.00402524 0.042952
internal_weight=10653.3 5937.74 4715.59 5845.63 3335.12 3850.09 538.058 1820.35 1514.76 1380.48 3312.03 218.157 151.166 1578.85 1296.61 1118.47 262.006 1049.07 521.823 632.294 1203.17 1263.18 375.678 2048.85 241.505 204.343 394.484 1995.55 139.306 53.9458
internal_count=80344 50776 29568 50406 22365 31623 4854 11115 11250 7203 26769 1419 877 9109 9831 6075 1128 5585 4780 3217 6959 9425 2150 17344 2006 1705 2930 18783 1145 417
is_linear=0
shrinkage=0.05


Tree=12
num_leaves=31
num_cat=0
split_feature=5 1 9 31 13 1 9 13 22 10 23 2 10 21 1 14 5 13 1 31 20 1 9 5 14 1 7 9 4 2
split_gain=1251.17 542.055 447.904 276.016 240.717 201.761 146.646 144.244 135.454 116.92 106.67 102.369 93.2979 82.1892 81.5805 77.7094 73.864 72.0185 66.4758 62.2909 60.4227 58.7919 54.519 69.6594 51.6972 50.4058 48.2618 47.2469 46.5848 42.4656
threshold=182.10375000000002 47950.000000000007 0.95525600000000011 37.810000000000009 0.97619050000000007 49850.000000000007 0.88674000000000019 0.97619050000000007 1.0000000180025095e-35 2.1276105000000007 1.1477205000000004 148.20500000000001 2.1734675000000006 27.895000000000007 49250.000000000007 2.5000000000000004 185.10875000000001 0.65686300000000009 48950.000000000007 65.420000000000016 1.5000000000000002 49150.000000000007 0.91521550000000007 173.40375000000003 2.5000000000000004 48850.000000000007 0.8348135000000001 0.89385100000000006 12.468573500000002 94.375000000000014
decision_type=2 2 2 2 2 2 2 2 2 2 2 2 2 2 2 2 2 2 2 2 2 2 2 2 2 2 2 2 2 2
left_child=1 -1 4 14 6 8 -2 11 13 -10 17 29 25 -5 22 -13 20 -7 -14 21 -8 -9 26 -24 -18 28 -3 -12 -6 -4
right_child=2 3 7 5 12 10 16 19 9 -11 27 15 18 -15 -16 -17 24 -19 -20 -21 -22 -23 23 -25 -26 -27 -28 -29 -30 -31
leaf_value=0.095610601374216744 -0.020873918816789985 0.001984602617099328 0.013270282390535125 0.040128927458342685 0.00094668934009926398 0.062299672702517163 -0.0081496981537984257 0.087914903660037638 -0.01250880422703784 0.055834403499032452 -0.015884844412501289 0.056620830469465512 0.14614433792717232 -0.050348512499403392 -0.035122622169513777 0.016392764410912392 0.038214265494254093 0.012057372052713865 0.010548711428798574 0.048733637799026105 0.02037039580734807 0.0043188449605072341 -0.023067892493290165 0.088813425172648133 0.015578877440747367 -0.029246932277089799 -0.041897231639633367 0.012103974151994094 0.13487654560000581 0.079891890628703957
leaf_weight=110.07628473639488 220.82805647701025 143.32454495131969 25.861313387751579 27.011776141822338 30.044002287089825 143.74018365889788 279.27203745394945 22.478486150503159 2800.9817898198962 63.888445094227791 258.50244018435478 315.05918166041374 9.5858578011393529 332.792589828372 1790.5348555669188 194.75289019197226 738.00358297675848 142.18275195360184 138.09934636950493 151.12542742490768 552.78882829844952 310.41036570817232 25.600291177630424 30.143801525235176 384.90806025266647 521.3191829174757 110.93393562734127 361.5017112493515 8.2104943916201574 360.41051661968231
leaf_count=449 1830 1213 149 241 197 976 1890 117 22456 414 2350 1545 51 3212 17369 977 4360 1004 1027 773 3607 1832 209 174 2329 4371 967 2573 46 1636
internal_value=-0.000237854 -0.0143203 0.0207076 -0.0162646 0.0094917 -0.00875817 0.0177298 0.044132 -0.0146159 -0.0109811 0.0120865 0.0560154 -0.0158436 -0.0435329 -0.031022 0.0412694 0.0220937 0.0373458 0.0194766 0.0221142 0.0107921 0.0100034 -0.00731748 0.0373935 0.0304619 -0.0251762 -0.0171505 0.000425668 0.0300989 0.075449
internal_weight=10604.4 6341.22 4263.16 6231.14 2883.06 4130.6 2175.8 1380.1 3224.67 2864.87 905.927 896.084 707.259 359.804 2100.54 509.812 1954.97 285.923 147.685 484.014 832.061 332.889 310.003 55.7441 1122.91 559.574 254.258 620.004 38.2545 386.272
internal_count=80344 53607 26737 53158 19708 33226 14016 7029 26323 22870 6903 4307 5692 3453 19932 2522 12186 1980 1078 2722 5497 1949 2563 383 6689 4614 2180 4923 243 1785
is_linear=0
shrinkage=0.05


Tree=13
num_leaves=31
num_cat=0
split_feature=9 1 5 8 13 5 13 10 13 13 7 2 8 11 1 13 5 1 31 1 9 10 1 9 1 31 8 22 9 13
split_gain=1149.2 440.658 388.898 260.432 237.675 152.171 157.333 130.279 120.67 98.8341 86.6936 86.208 85.9306 84.6394 83.6942 75.4038 70.8649 66.6129 65.729 61.2943 58.8422 54.8669 52.9764 116.667 48.0326 44.73 40.155 38.5576 29.6594 28.6118
threshold=0.93962350000000006 47950.000000000007 176.10375000000002 1.4950000000000003 0.53137250000000014 181.30375000000004 0.97619050000000007 2.2139515000000007 0.94427200000000011 0.17914450000000001 0.92782200000000015 157.57500000000002 -3.0868199999999999 0.72233800000000004 49250.000000000007 0.91608400000000012 193.50375000000003 50200.000000000007 62.670000000000009 47950.000000000007 0.96729400000000021 2.1276105000000007 48950.000000000007 0.88015750000000004 49750.000000000007 65.420000000000016 -5.9708199999999989 0.24500000000000002 0.87649400000000011 0.41640900000000008
decision_type=2 2 2 2 2 2 2 2 2 2 2 2 2 2 2 2 2 2 2 2 2 2 2 2 2 2 2 2 2 2
left_child=1 -1 9 5 13 12 10 8 -6 22 14 -5 15 18 -7 29 25 21 -4 -14 -21 -11 23 -3 -12 -8 -15 -9 -24 -2
right_child=3 2 4 11 7 6 16 27 -10 17 24 -13 19 26 -16 -17 -18 -19 -20 20 -22 -23 28 -25 -26 -27 -28 -29 -30 -31
leaf_value=0.088925382812984233 0.081647952106319588 0.0101193525999052 0.002104105581253091 0.094092923309133741 -0.0058253383533356387 0.088401554166646967 -0.008362292448786628 -0.029989333197358321 -0.028477099420683868 -0.03148988062116282 0.013409086278807231 0.037264954690183476 0.10730700951561395 0.10652600821043906 0.041732484594800494 -0.037749468949762915 0.035068295183689653 0.097506932691313344 0.027821367912729374 -0.017091911766550678 0.029452874584103908 0.093627580513283029 -0.02082361011152295 0.22185420306879189 0.039508220739054425 0.02868977767647132 0.036303253269506466 0.065373950098113143 0.0072323392453260476 0.031037162207740013
leaf_weight=108.21724809706211 33.901189364492893 41.116805337369442 590.12538862973452 164.36002299189568 2282.3386065214872 115.26202538609505 424.9784437417984 12.293731957674025 792.30185448378325 2479.1954422816634 409.01728376746178 113.27892392873764 11.121869280934332 34.416007317602634 586.62459743767977 37.117979265749454 180.15146087855101 10.004860043525694 429.63169918209314 491.66852978616953 78.621327921748161 8.679533548653124 274.66793213784695 7.6449909359216681 311.06454268842936 100.64868506789207 50.833054147660732 71.827540390193462 142.95097567886114 163.22376973927021
leaf_count=443 191 299 4679 679 17219 564 2910 98 7091 23994 2113 531 46 238 3115 265 975 42 2777 3790 402 64 2576 51 1542 574 311 464 1257 1044
internal_value=-0.000240103 -0.0111714 -0.0126719 0.0246551 -0.00300016 0.0202846 0.0273234 -0.00998327 -0.0116648 -0.0265815 0.0369027 0.0709464 0.00191573 0.0169563 0.049415 0.0274823 0.00801404 -0.0305268 0.0129456 -0.00837904 -0.0106623 -0.0310476 -0.005438 0.0438041 0.0246944 -0.00125383 0.0648032 0.0513588 -0.0112087 0.0398035
internal_weight=10557.3 7336.25 7228.03 3221.04 4263.77 2943.4 2127.75 3158.76 3074.64 2964.26 1421.97 277.639 815.655 1105.01 701.887 234.243 705.779 2497.88 1019.76 581.412 570.29 2487.87 466.381 48.7618 720.082 525.627 85.2491 84.1213 417.619 197.125
internal_count=80344 61603 61160 18741 32877 17531 11793 24872 24310 28283 7334 1210 5738 8005 3679 1500 4459 24100 7456 4238 4192 24058 4183 350 3655 3484 549 562 3833 1235
is_linear=0
shrinkage=0.05


Tree=14
num_leaves=31
num_cat=0
split_feature=9 1 9 31 31 22 1 0 19 9 8 1 2 8 21 1 2 2 13 23 1 28 30 1 2 22 14 30 13 8
split_gain=1054.6 348.174 325.07 225.648 187.193 165.979 168.044 134.299 122.073 97.476 92.2891 92.733 87.8602 82.7666 63.9049 58.8398 56.5614 53.0689 52.2472 50.8931 46.8831 71.6931 98.962 45.4768 62.9234 45.1983 44.5527 38.3046 38.5615 34.19
threshold=0.92533300000000007 47950.000000000007 0.96361900000000011 37.810000000000009 41.785000000000004 1.0000000180025095e-35 50200.000000000007 92.545000000000016 1.5000000000000002 0.98446700000000009 -3.8190499999999994 49250.000000000007 101.14500000000002 -4.164299999999999 27.895000000000007 47950.000000000007 98.585000000000022 129.77500000000003 0.083916000000000018 0.53031600000000012 48950.000000000007 1.0000000180025095e-35 15750.000000000002 49350.000000000007 97.795000000000016 1.4450000000000001 2.5000000000000004 16950.000000000004 0.94427200000000011 -8.2366299999999981
decision_type=2 2 2 2 2 2 2 2 2 2 2 2 2 2 2 2 2 2 2 2 2 2 2 2 2 2 2 2 2 2
left_child=1 -1 4 20 13 6 14 15 19 16 11 -9 -12 27 -5 -6 -4 -18 -10 -7 21 -3 -23 24 -15 -17 -19 -2 -29 -22
right_child=2 3 9 5 7 8 -8 10 18 -11 12 -13 -14 23 -16 25 17 26 -20 -21 29 22 -24 -25 -26 -27 -28 28 -30 -31
leaf_value=0.083404365977446951 0.00045727338406605507 -0.031833823853171253 -0.014153268195355321 0.025698702957725073 0.090888872267282081 0.030280140033286163 0.12106252780650791 0.076547595938968593 0.050943961974924568 0.067445593943545504 -0.033790697850305272 0.026932358734617513 0.015894554245619075 0.14168524030104809 -0.046235531601541507 0.043576580889774688 0.0708676492497783 0.040513926092580553 0.0046675144442095973 -0.014292802561200239 -0.025256548368204641 0.003199322935141526 0.15939982116237078 -0.028221781570222822 -0.0026275059508622956 -0.027423448394658097 0.013833486046057723 0.062077332089041572 -0.032715021403303707 -0.039348423366922278
leaf_weight=88.889901638031006 205.5728422254324 80.670943841338158 60.066048912703991 32.983068913221359 12.134266451001166 66.078462205827236 16.362003102898598 109.38523802161217 64.181939259171486 262.35251758992672 93.806084685027599 682.956996075809 1678.2299500852823 8.3983097821474058 452.12816767394543 24.462871484458447 96.517494224011898 450.90284536778927 1205.7018412277102 1929.9637645855546 822.38188029825687 40.370420902967453 13.474481225013731 469.31624855101109 67.383017465472221 252.0209658369422 240.84437338262796 55.087604396045208 13.175561629235743 912.54950626939535
leaf_count=370 1513 728 395 297 50 558 74 596 453 1096 682 3961 9820 39 4483 189 432 2224 8972 16786 8279 338 79 4256 457 2149 1227 376 106 9359
internal_value=-0.000239838 -0.0147167 0.0170907 -0.0162663 0.00991911 -0.00921703 -0.0359985 0.0159681 -0.0051023 0.0407926 0.0196084 0.033797 0.0132598 -0.0111477 -0.0413301 -0.016354 0.0325371 0.0361026 0.00701416 -0.0128133 -0.0304685 -0.00199085 0.0426036 -0.0224157 0.0134654 -0.0211099 0.0312352 0.0112641 0.0436871 -0.0326734
internal_weight=10508.3 5725.74 4782.61 5636.85 3671.93 3767.4 501.473 2853 3265.93 1110.68 2564.38 792.342 1772.04 818.934 485.111 288.618 848.331 788.265 1269.88 1996.04 1869.45 134.516 53.8449 545.098 75.7813 276.484 691.747 273.836 68.2632 1734.93
internal_count=80344 50776 29568 50406 24194 31623 4854 17447 26769 5374 15059 4557 10502 6747 4780 2388 4278 3883 9425 17344 18783 1145 417 4752 496 2338 3451 1995 482 17638
is_linear=0
shrinkage=0.05


Tree=15
num_leaves=31
num_cat=0
split_feature=5 1 9 31 13 1 22 9 13 10 23 2 10 1 21 11 22 14 14 13 1 2 9 31 1 1 13 22 9 2
split_gain=964.721 423.141 321.781 237.527 188.108 178.628 118.827 118.007 112.735 98.7651 85.6063 82.3669 81.0137 76.5625 76.0913 66.7754 106.446 62.7582 62.3594 57.7972 53.8087 48.6989 81.0732 47.2948 48.9437 45.2627 41.3731 41.2617 38.9427 34.125
threshold=182.10375000000002 47950.000000000007 0.95525600000000011 37.810000000000009 0.97619050000000007 49850.000000000007 1.0000000180025095e-35 0.88674000000000019 0.97619050000000007 2.1276105000000007 1.1477205000000004 148.20500000000001 2.1734675000000006 49250.000000000007 27.895000000000007 0.84106100000000017 4.5150000000000006 2.5000000000000004 2.5000000000000004 0.65686300000000009 48950.000000000007 113.06500000000001 0.91398900000000005 66.52500000000002 48950.000000000007 48850.000000000007 0.27922050000000004 1.0850000000000002 0.89385100000000006 94.375000000000014
decision_type=2 2 2 2 2 2 2 2 2 2 2 2 2 2 2 2 2 2 2 2 2 2 2 2 2 2 2 2 2 2
left_child=1 -1 4 13 7 6 14 26 11 -8 19 29 25 21 -5 16 -9 -17 -13 -7 -14 22 -3 24 -10 27 -2 -6 -12 -4
right_child=2 3 8 5 12 10 9 15 23 -11 28 18 20 -15 -16 17 -18 -19 -20 -21 -22 -23 -24 -25 -26 -27 -28 -29 -30 -31
leaf_value=0.085818310016166979 0.059670453179763674 -0.0023345968028292059 0.009944525825408515 0.037330202099420257 0.10237041020367153 0.05582045661254878 -0.01156054302417181 0.02131897282850093 0.1216974671264768 0.050037351246749663 -0.014065093117061651 0.048082519620093904 0.12884296767502099 -0.033127641823420845 -0.049000786522123987 0.067747072825449881 -0.011523589821448531 0.016000472582172919 0.012634891831377046 0.011231756648658763 0.0098502040168819693 -0.031265245903503477 0.09739681567875734 0.041461109439107295 0.004781865800905752 -0.027624863929702904 -0.025803298071822817 -0.0074855305009974204 0.011606214727195379 0.068856853532524631
leaf_weight=106.33863632380962 15.108110159635542 161.52134864777327 26.588303998112679 27.725367456674576 12.603176057338713 149.18225163221359 2748.6817307770252 1469.9666034132242 9.1019116789102537 66.527474440634251 249.05696003884077 329.39358052611351 10.115309357643126 1675.12302044034 303.74169215559959 128.40476671606302 296.19160199165344 108.40439781546593 199.86427472531796 142.40207162499428 138.82819258421659 114.49068173766136 23.205482259392738 150.90790124237537 337.34514011442661 499.75502352416515 200.41654168814421 25.871017001569271 362.6999074369669 369.15856258571148
leaf_count=449 120 1418 149 241 72 976 22456 8943 44 414 2350 1545 51 17369 3212 770 1788 685 977 1004 1027 1011 134 735 1943 4371 1710 171 2573 1636
internal_value=-0.000239657 -0.0129992 0.0178331 -0.0147457 0.00829167 -0.00781173 -0.0134386 0.015373 0.0373193 -0.0101014 0.0117826 0.0476441 -0.0145616 -0.0289658 -0.0417555 0.0191571 0.015808 0.0440968 0.0347108 0.034073 0.018046 -0.00564667 0.0102126 0.018101 0.00790215 -0.023596 -0.0197636 0.028543 0.00114621 0.064915
internal_weight=10458.7 6130.7 4328.02 6024.36 2905.66 4050.02 3146.68 2218.49 1422.36 2815.21 903.341 925.005 687.173 1974.34 331.467 2002.97 1766.16 236.809 529.258 291.584 148.944 299.218 184.727 497.355 346.447 538.229 215.525 38.4742 611.757 395.747
internal_count=80344 53607 26737 53158 19708 33226 26323 14016 7029 22870 6903 4307 5692 19932 3453 12186 10731 1455 2522 1980 1078 2563 1552 2722 1987 4614 1830 243 4923 1785
is_linear=0
shrinkage=0.05


Tree=16
num_leaves=31
num_cat=0
split_feature=9 1 8 31 31 1 1 22 1 2 5 23 1 5 29 1 5 1 21 13 5 22 8 12 1 11 1 5 0 5
split_gain=885.681 295.643 274.602 203.127 200.124 195.571 169.507 149.211 149.81 136.84 115.693 108.672 103.687 99.4086 93.1421 91.4818 76.5121 69.6014 57.1793 56.3969 53.5142 47.4954 44.1246 43.5525 38.9478 92.4219 38.6746 30.7879 28.7528 22.3378
threshold=0.92533300000000007 47950.000000000007 0.98698000000000008 52.800000000000004 37.810000000000009 49250.000000000007 49750.000000000007 1.0000000180025095e-35 50200.000000000007 148.72500000000002 173.65375000000003 1.7945615000000001 49850.000000000007 173.71125000000004 51.895000000000003 48950.000000000007 172.00375000000003 47950.000000000007 27.895000000000007 0.45804150000000005 200.13625000000002 2.6850000000000005 -8.2366299999999981 3.5000000000000004 48950.000000000007 0.65202750000000009 47950.000000000007 173.55375000000004 93.785000000000011 179.70375000000004
decision_type=2 2 2 2 2 2 2 2 2 2 2 2 2 2 2 2 2 2 2 2 2 2 2 2 2 2 2 2 2 2
left_child=1 -1 3 5 22 10 13 8 18 29 -2 16 21 26 -12 -13 -9 -15 -6 -8 -21 -7 24 -14 25 -3 -5 -26 -11 -4
right_child=2 4 9 6 7 12 19 11 -10 28 14 15 23 17 -16 -17 -18 -19 -20 20 -22 -23 -24 -25 27 -27 -28 -29 -30 -31
leaf_value=0.078416147970329461 -0.019771464040338603 -0.0042706568557678171 0.15494967619116454 0.079349798213889502 0.021752211052026613 -0.024634007710043301 0.069447949540126466 -0.021425963444260933 0.11333998619935724 -0.0095318741066150042 0.10135112675368677 0.047000887466797016 0.076683259072122784 0.1080965518321311 0.031741862098338951 -0.02195449553842363 0.0050871126927784427 0.01452265478493624 -0.045091435282877568 0.030313213515968329 0.089122696019747663 -0.0040787157829887772 -0.036428998585060171 0.0083458458495643938 -0.032415142556284762 0.18987621751428999 -0.027220757394650831 -0.012490156443530751 0.037330900527148957 0.08297430844914977
leaf_weight=85.520773604512215 63.775067411363125 52.038774989545345 11.795245476067064 8.805835619568823 34.435146830976009 613.59266389906406 124.27617439627647 316.70172739773989 16.375528633594513 39.516607977449894 75.723889887332916 50.527706913650036 24.358713611960411 20.099104344844818 132.51625596731901 950.45384040474892 1927.9942828416824 1314.4763053357601 424.85859923809767 779.72537592053413 40.74323333799839 519.73639387637377 939.58724980801344 511.35110025852919 439.35238925367594 6.8414820358157149 185.42320223152637 349.19508105516434 185.16570822149515 165.55458405613899
leaf_count=370 542 435 61 38 297 4858 624 2898 74 229 355 429 154 83 771 8473 14969 7200 4483 4021 202 3600 10022 3570 4842 47 1718 3437 844 698
internal_value=-0.000239189 -0.0137724 0.0154767 0.0118718 -0.0152059 -0.000233103 0.0213724 -0.00859939 -0.034751 0.055036 0.0390696 -0.00476426 -0.00664349 0.0110773 0.0571149 -0.0184644 0.0013434 0.0159436 -0.0400654 0.038024 0.0332502 -0.0152131 -0.0289596 0.0114762 -0.0206687 0.0184868 -0.0223251 -0.0236007 0.029066 0.0878741
internal_weight=10410.5 5593.88 4816.64 4414.6 5508.36 1941.05 2473.55 3721.35 475.669 402.032 272.015 3245.68 1669.04 1528.8 208.24 1000.98 2244.7 1334.58 459.294 944.745 820.469 1133.33 1787.01 535.71 847.428 58.8803 194.229 788.547 224.682 177.35
internal_count=80344 50776 29568 27736 50406 13850 13886 31623 4854 1832 1668 26769 12182 9039 1126 8902 17867 7283 4780 4847 4223 8458 18783 3724 8761 482 1756 8279 1073 759
is_linear=0
shrinkage=0.05


Tree=17
num_leaves=31
num_cat=0
split_feature=5 1 9 31 13 1 8 22 9 10 1 2 30 8 1 8 10 21 1 23 9 11 1 4 30 31 1 13 13 2
split_gain=811.225 353.758 286.952 193.39 161.433 142.784 122.413 96.2632 94.2975 89.874 86.5648 102.025 81.996 78.8618 114.429 75.9895 70.2283 69.8341 66.9127 64.4739 57.9123 49.2005 45.9294 45.8642 45.1084 63.4481 44.9977 42.1322 35.3776 34.2099
threshold=181.30375000000004 47950.000000000007 0.95070500000000002 37.810000000000009 0.97619050000000007 49850.000000000007 1.4950000000000003 1.0000000180025095e-35 0.88585550000000002 2.1276105000000007 48950.000000000007 172.00500000000002 15850.000000000002 -5.2464099999999991 48950.000000000007 -2.8064999999999993 2.1734675000000006 27.895000000000007 49250.000000000007 1.1419995000000001 0.93479250000000003 0.85011400000000015 48850.000000000007 12.468573500000002 14750.000000000002 34.445000000000007 48950.000000000007 0.59411750000000008 0.32456100000000004 152.68500000000003
decision_type=2 2 2 2 2 2 2 2 2 2 2 2 2 2 2 2 2 2 2 2 2 2 2 2 2 2 2 2 2 2
left_child=1 -1 4 18 8 7 10 17 28 -9 11 -4 -12 14 -10 -14 22 -5 24 27 -15 -13 23 -6 -3 -26 -18 -7 -2 -8
right_child=2 3 6 5 16 19 29 9 13 -11 12 21 15 20 -16 -17 26 -19 -20 -21 -22 -23 -24 -25 25 -27 -28 -29 -30 -31
leaf_value=0.08046533783066942 0.035237577674404198 -0.035121399839801407 0.12412668091653062 0.033768869618540122 -0.0026159186148383608 0.052306425581832239 0.081135218088225658 -0.011698702954327815 0.094644210780385513 0.055199240507049607 -0.0083027823967951209 -0.021483615767821249 0.053995413340457092 -0.0040468605171477432 0.021319348820582257 0.021672628131446575 0.12748352968256124 -0.048109834261094164 -0.032313233401100608 0.00056546781802768102 0.017848040473319306 0.093725338018606316 -0.02939451242191303 0.1241390497047036 0.031891243546557459 -0.026171382199848065 0.0083881538935372604 0.011941824604006133 -0.026942334495403449 0.04253098722849661
leaf_weight=99.038639083504677 25.779896683990955 89.73576333373785 46.970804899930954 28.655258767306805 31.470935769379139 120.93157497793436 133.30226746201515 2515.7292946875095 56.714902974665165 51.105826579034328 185.10047412663698 27.926040053367615 220.3979218006134 631.59492760896683 853.27031100541353 1047.8091818541288 8.4090163037180883 271.86044818907976 1531.9728574454784 557.22153928875923 578.11698565632105 13.721647083759306 473.25061654299498 9.100843742489813 113.06622405350208 80.371629372239113 119.67413415759802 139.80912581831217 193.9541162699461 102.82010988891125
leaf_count=434 203 823 211 239 212 780 568 21061 343 310 1121 140 1094 4034 5680 5322 41 3118 16750 4588 3093 65 4378 47 936 736 902 968 1707 440
internal_value=-0.000237843 -0.0131381 0.0149384 -0.0148258 0.00545474 -0.00824377 0.0308361 -0.013501 0.0115505 -0.0103627 0.0256936 0.0736721 0.0227597 0.014784 0.0259047 0.0272977 -0.016752 -0.0402771 -0.0281854 0.0101785 0.00641311 0.016488 -0.0250122 0.0259295 -0.00583252 0.00773987 0.0163395 0.030695 -0.0196117 0.0643712
internal_weight=10358.9 5599.5 4759.39 5500.46 2981.34 3685.31 1778.05 2867.35 2339.43 2566.84 1541.93 88.6185 1453.31 2119.7 909.985 1268.21 641.906 300.516 1815.15 817.962 1209.71 41.6477 513.822 40.5718 283.174 193.438 128.083 260.741 219.734 236.122
internal_count=80344 50743 29601 50309 20640 31064 8961 24728 15060 21371 7953 416 7537 13150 6023 6416 5580 3357 19245 6336 7127 205 4637 259 2495 1672 943 1748 1910 1008
is_linear=0
shrinkage=0.05


Tree=18
num_leaves=31
num_cat=0
split_feature=9 1 5 8 13 1 1 9 13 5 5 1 31 2 13 13 12 13 1 9 1 10 0 8 13 8 9 0 13 9
split_gain=747.646 285.568 269.828 184.67 181.344 117.446 112.069 94.4782 94.3983 88.7803 81.7761 94.0111 78.6862 75.3592 61.757 82.3062 60.0719 54.9319 47.166 45.5123 85.1294 45.386 40.2978 38.0026 35.0773 34.5951 24.7573 21.6642 20.4082 19.5598
threshold=0.93732300000000002 47950.000000000007 176.10375000000002 1.4950000000000003 0.53137250000000014 49850.000000000007 47950.000000000007 0.91436650000000008 0.17914450000000001 186.40875000000003 181.10875000000001 49250.000000000007 56.485000000000007 152.68500000000003 0.46410250000000003 0.45804150000000005 4.5000000000000009 0.36602850000000003 50200.000000000007 0.87649400000000011 48950.000000000007 2.1276105000000007 84.175000000000026 -3.1344099999999995 0.94987450000000007 -3.9097899999999997 0.95847350000000009 93.945000000000007 0.59411750000000008 0.9604330000000002
decision_type=2 2 2 2 2 2 2 2 2 2 2 2 2 2 2 2 2 2 2 2 2 2 2 2 2 2 2 2 2 2
left_child=1 -1 8 5 14 6 -2 24 19 -9 17 -12 23 -5 15 -4 -16 -8 21 22 -21 -10 -3 28 -6 -14 -25 -15 -7 -27
right_child=3 2 4 13 7 12 10 9 18 -11 11 -13 25 27 16 -17 -18 -19 -20 20 -22 -23 -24 26 -26 29 -28 -29 -30 -31
leaf_value=0.075952617787282253 0.10031589005302091 0.078549082342646667 0.014676670633094871 0.082964171401606862 -0.014620082761468881 0.067621682453788898 0.045153527910998859 -0.0064995740415199959 -0.028417446319174207 0.024522434222883315 0.037082260545336823 0.0076516996093101211 0.079766487568994529 -0.01485276950017572 0.0062394597606191824 -0.035905550163496405 0.070900420009522944 -0.010897112755321315 0.083892981595307684 0.15459148153415436 0.009632186874767433 0.08160178160561278 -0.01738654625323854 -0.0091158546759460488 -0.034144819598421923 0.028705386811577978 0.019792678698879032 0.039483256876428736 0.025049182905471385 0.050811817023284779
leaf_weight=95.331147328019142 33.150869771838188 11.276437878608702 839.10933450609446 143.13675408065319 1132.0589216798544 37.599990926682949 46.915311738848686 1214.8702160865068 2240.8224112391472 284.5575313642621 344.1856437921524 1284.7471532970667 61.350528389215469 21.827723190188408 60.946734070777893 88.803762421011925 88.077698990702629 617.95850279927254 9.3489119708538038 10.846317671239374 137.50871814787388 9.296600826084612 280.61082787811756 152.67277573049068 289.50573079288006 210.34682792425156 143.43781137466431 109.52985933423042 115.297871991992 194.78499032557011
leaf_count=429 140 110 6078 622 9810 193 315 8932 23759 1966 1698 7142 287 123 447 636 619 4725 42 66 1253 64 2750 1126 3100 1069 795 469 701 878
internal_value=-0.000235807 -0.00992446 -0.0111487 0.0184761 -0.0029001 0.0151393 0.00916677 -0.00936707 -0.0233613 -0.00060772 0.00784296 0.0138752 0.030312 0.057854 0.014635 0.00982708 0.0445114 -0.00692831 -0.0274884 -0.00216718 0.0203609 -0.0279571 -0.0136375 0.0153489 -0.018602 0.0446976 0.00487269 0.0304118 0.0355885 0.0393563
internal_weight=10309.9 6792.97 6697.64 3516.94 3997.93 3242.45 2326.96 2920.99 2699.71 1499.43 2293.81 1628.93 915.491 274.494 1076.94 927.913 149.024 664.874 2259.47 440.242 148.355 2250.12 291.887 449.008 1421.56 466.482 296.111 131.358 152.898 405.132
internal_count=80344 60061 59632 20283 31588 19069 14020 23808 28044 10898 13880 8840 5049 1214 7780 6714 1066 5040 23865 4179 1319 23823 2860 2815 12910 2234 1921 592 894 1947
is_linear=0
shrinkage=0.05


Tree=19
num_leaves=31
num_cat=0
split_feature=9 9 1 31 0 22 1 31 8 8 1 1 29 1 1 0 2 1 13 0 1 1 21 8 1 22 8 1 21 1
split_gain=684.267 257.522 209.041 175.397 117.069 110.07 123.301 112.06 106.707 87.8267 86.387 78.7613 66.5685 65.7019 92.6461 62.1116 54.5198 70.4174 62.5579 51.9681 48.1305 48.009 130.46 45.0978 40.2904 43.6641 37.0476 35.9424 32.5168 30.0815
threshold=0.91521550000000007 0.95921000000000012 47950.000000000007 41.785000000000004 92.545000000000016 1.0000000180025095e-35 50200.000000000007 37.810000000000009 -5.5795799999999991 2.3773000000000004 49250.000000000007 49250.000000000007 41.090000000000011 49850.000000000007 49250.000000000007 107.89500000000002 94.375000000000014 49350.000000000007 0.81385300000000005 103.70500000000001 49850.000000000007 48750.000000000007 27.895000000000007 -8.2366299999999981 47950.000000000007 1.7550000000000001 -4.4651199999999989 49850.000000000007 39.910000000000004 48950.000000000007
decision_type=2 2 2 2 2 2 2 2 2 2 2 2 2 2 2 2 2 2 2 2 2 2 2 2 2 2 2 2 2 2
left_child=2 3 -1 11 24 6 21 23 10 16 -6 12 -2 14 -9 -10 17 -3 -18 -15 -13 22 -4 29 -5 -26 -22 -20 -14 -7
right_child=1 9 5 4 8 7 -8 13 15 -11 -12 20 28 19 -16 -17 18 -19 27 -21 26 -23 -24 -25 25 -27 -28 -29 -30 -31
leaf_value=0.072390297513674484 0.10174759126337003 0.12845332746012619 0.08805286990543125 0.074812267231649798 0.093692551694847082 0.022164227787141763 0.10368622957929852 0.007036958491915696 0.0068232497689753105 0.067635126054574932 0.027385603787219177 -0.02623843358800771 -0.00010526819678206565 0.0022543463693916179 -0.018122402687807716 0.032908072513200846 0.044295592311564651 -0.0360668578582772 0.013077528721304136 0.049024661609103848 0.021065765813622631 -0.046363499557483513 -0.045552059596240202 -0.035644994055080835 0.015317591416891247 -0.032046072475434034 -0.01656210741035467 0.034878247950516604 0.10742268313232142 -0.019512129985623669
leaf_weight=67.168282091617584 21.917172938585281 7.1792163401842108 25.811740316450596 10.954340770840643 55.575405202805996 46.094909280538559 15.166257575154303 495.05471428483725 2310.5933495163918 135.00566816329956 425.08260481059551 620.38705775141716 108.30610316991806 512.9071933850646 1399.3084904253483 253.30624511092901 389.22768261283636 60.488005928695202 585.90764504671097 67.118034064769745 111.86247733235359 487.00494315475225 61.829139143228531 575.1327558606863 61.014554485678673 236.8306373283267 157.2112949937582 280.12241269648075 7.4121094793081275 670.23654519766569
leaf_count=314 112 31 218 50 314 379 70 4172 14045 598 2610 5932 800 4296 12398 1403 1802 459 2962 462 930 5640 724 6607 514 2191 1484 1351 38 7438
internal_value=-0.000231965 0.0110054 -0.015067 0.00494562 0.0104836 -0.0164184 -0.0365061 -0.0132701 0.0134599 0.0292075 0.0350805 -0.0131296 0.0220405 -0.00703556 -0.0115448 0.00940349 0.0252773 -0.0183744 0.0276357 0.00768254 -0.0185793 -0.0402322 -0.00609062 -0.0252097 -0.0188397 -0.0223248 -0.000898421 0.0201381 0.00682586 -0.0168206
internal_weight=10261.2 5838.38 4422.83 4380.45 3353.36 4355.66 589.812 3765.85 3044.56 1457.93 480.658 1027.1 137.635 2474.39 1894.36 2563.9 1322.92 67.6672 1255.26 580.025 889.461 574.646 87.6409 1291.46 308.8 297.845 269.074 866.03 115.718 716.331
internal_count=80344 37626 42718 30423 21127 42404 6652 35752 18372 7203 2924 9296 950 21328 16570 15448 6605 490 6115 4758 8346 6582 942 14424 2755 2705 2414 4313 838 7817
is_linear=0
shrinkage=0.05


Tree=20
num_leaves=31
num_cat=0
split_feature=9 1 9 31 31 1 1 9 13 5 1 2 11 1 22 1 10 13 13 5 13 23 30 21 21 2 1 32 1 10
split_gain=625.828 218.376 192.802 177.659 122.513 109.6 113.806 100.171 115.269 85.6553 77.2217 67.8418 70.4531 65.0621 63.747 59.4283 57.0732 53.829 47.5356 49.5969 42.5198 35.129 30.5674 26.3978 23.8629 18.8796 16.8689 14.2029 14.0053 13.8018
threshold=0.92762350000000005 47950.000000000007 0.97540600000000011 50.215000000000011 31.570000000000004 49850.000000000007 47950.000000000007 0.86678250000000012 0.11145500000000001 172.80375000000004 49150.000000000007 119.48500000000001 0.60125450000000014 49850.000000000007 1.0000000180025095e-35 49350.000000000007 2.0404685000000007 0.97619050000000007 0.94427200000000011 196.95375000000004 0.94987450000000007 1.6393615000000004 18250.000000000004 22.155000000000005 39.910000000000004 94.375000000000014 49850.000000000007 1047.5790535000003 49750.000000000007 2.1466735000000003
decision_type=2 2 2 2 2 2 2 2 2 2 2 2 2 2 2 2 2 2 2 2 2 2 2 2 2 2 2 2 2 2
left_child=1 -1 4 10 15 6 -6 -5 22 -8 11 12 -3 -10 -12 23 -13 -16 21 -20 24 -7 -9 -2 25 -4 -17 -22 -26 -29
right_child=2 3 20 7 5 18 9 8 13 -11 14 16 -14 -15 17 26 -18 -19 19 -21 27 -23 -24 -25 28 -27 -28 29 -30 -31
leaf_value=0.071110405460000942 0.10144291759087241 -0.0072929169673650006 0.0036035042327109204 -0.028286593308600436 0.090929213753885976 0.036961291293538 -0.025252820104338655 0.039229843390710714 -0.0057700365413802124 0.0085188769065916055 -0.047477410017533105 -0.037392990728791035 0.040627828691538678 0.015764871252189543 -0.018252404104304936 -0.035384632434075698 0.02873527641105755 -0.040654426316579957 0.0019716697883964693 0.070000457973080799 0.042453914779128639 0.0022490119694480227 0.10453708613985851 0.012293618892419146 0.012791665472481071 0.065428448648891899 -0.0093508619481463169 0.026505478650590622 0.052612108525188973 -0.0085218700808290214
leaf_weight=78.91200153529644 11.015862122178076 190.43626018613577 13.274809762835501 309.72846678644419 39.911324948072433 656.49365960806608 202.93946520984173 67.975831113755703 1404.4598342999816 2485.1575757563114 250.85163675993681 169.18359258025885 128.14879633486271 467.35615103691816 2182.2326250597835 200.49392911791801 40.25400760024786 306.27604497969151 256.99557930976152 29.835752181708813 62.139058187603951 82.348944664001465 24.602911800146103 33.653315849602222 47.933802396059036 220.5911181718111 91.183687388896942 71.725093021988869 41.667076960206032 45.874893113970757
leaf_count=378 52 1735 68 3086 172 3360 1972 475 11328 14681 3085 1628 1109 3179 22589 1883 325 3634 1652 144 275 491 164 229 205 963 778 333 172 199
internal_value=-0.000229699 -0.0114188 0.0134605 -0.0125962 0.0098652 0.0124565 0.0072147 -0.00186261 0.00230237 0.00596656 -0.0200651 -0.00254587 0.0119739 -0.000389962 -0.02344 -0.0190341 -0.0246516 -0.0210131 0.0263912 0.00908728 0.0426655 0.0331 0.0567333 0.0345679 0.0535115 0.0619435 -0.0272691 0.0230999 0.0314031 0.0128035
internal_weight=10213.7 5620.42 4593.23 5541.51 4090.03 3753.68 2728.01 2274.12 1964.39 2688.1 3267.38 528.023 318.585 1871.82 2739.36 336.347 209.438 2488.51 1025.67 286.831 503.206 738.843 92.5787 44.6692 323.467 233.866 291.678 179.739 89.6009 117.6
internal_count=80344 52715 27629 52337 25414 22472 16825 18232 15146 16653 34105 4797 2844 14507 29308 2942 1953 26223 5647 1796 2215 3851 639 281 1408 1031 2661 807 377 532
is_linear=0
shrinkage=0.05


Tree=21
num_leaves=31
num_cat=0
split_feature=5 1 9 31 13 1 8 22 10 9 13 1 5 11 30 21 8 1 10 13 23 13 30 31 12 1 1 2 13 13
split_gain=582.48 261.703 193.442 160.897 131.605 111.966 95.9851 83.6435 74.4234 74.2348 70.3075 69.4257 86.7409 68.9567 68.3871 67.0956 62.3624 59.5873 59.5579 57.3833 49.8173 48.2501 41.4582 56.2839 39.2735 45.944 37.5414 33.7958 33.7592 31.431
threshold=181.30375000000004 47950.000000000007 0.95070500000000002 37.810000000000009 0.97619050000000007 49850.000000000007 1.4950000000000003 1.0000000180025095e-35 2.1276105000000007 0.8775805000000001 0.53137250000000014 48950.000000000007 188.95375000000004 0.83923250000000016 15450.000000000002 27.895000000000007 -2.8064999999999993 49250.000000000007 2.1734675000000006 0.46410250000000003 1.1477205000000004 0.84412950000000009 14750.000000000002 35.135000000000012 4.5000000000000009 48550.000000000007 48950.000000000007 152.68500000000003 0.65686300000000009 0.41640900000000008
decision_type=2 2 2 2 2 2 2 2 2 2 2 2 2 2 2 2 2 2 2 2 2 2 2 2 2 2 2 2 2 2
left_child=1 -1 4 17 9 7 11 15 -9 -2 19 12 -4 -12 -13 -5 -16 22 24 -11 28 -14 -3 -24 25 -6 -20 -8 -7 -19
right_child=2 3 6 5 18 20 27 8 -10 10 13 14 21 -15 16 -17 -18 29 26 -21 -22 -23 23 -25 -26 -27 -28 -29 -30 -31
leaf_value=0.073045538414135205 -0.021538983390533104 -0.033456752598189796 0.12054514162427554 0.034379715287654843 0.084193231831890231 0.043548934789383972 0.073631831828445668 -0.01020001999977997 0.049627904471066187 0.020985299533980345 0.0036165964828598998 -0.015622122621078208 -0.019881411058264298 0.033189405449216162 0.0450407220029274 -0.046614603319498724 0.016784909557034555 -0.017562845380786857 0.11507707856366137 0.065047542365972655 0.00061952870847694567 0.075406829884526683 0.0304409367819404 -0.025305821374313548 -0.033212573223828395 -0.011336252324660831 0.0071055434221893449 0.034775824185713282 0.0079688533254259255 -0.034391386751521195
leaf_weight=89.793825075030327 172.66962015628815 84.643626004457474 38.290265187621117 28.421477444469929 13.716955527663229 142.60622589290142 122.24646404385567 2445.1746115684509 52.985947132110596 411.59667272120714 1461.8304647952318 134.52455443143845 30.107397153973579 227.86631765216589 236.88386862725019 243.64488817751408 1120.208397872746 381.93468387424946 8.540340952575205 90.239328846335411 551.08008883148432 23.554200023412704 115.4854446798563 74.26807114481926 339.96325766295195 140.82240410894156 120.95256472378969 105.00297132134438 125.97304537147284 1032.0770544111729
leaf_count=434 1557 823 163 239 78 888 568 21061 310 2354 9253 819 143 1387 1144 3118 5574 4502 41 509 4569 110 959 713 3273 1286 902 440 879 12248
internal_value=-0.000225682 -0.0115417 0.0124311 -0.012983 0.00461425 -0.00699389 0.0253267 -0.0117978 -0.00892713 0.0100063 0.0124949 0.0209583 0.0631262 0.00760936 0.0183514 -0.0381256 0.0217237 -0.0257128 -0.0158055 0.0289298 0.00923543 0.0219138 -0.00436676 0.00859391 -0.0237132 -0.00277573 0.0143484 0.0557232 0.0268884 -0.029851
internal_weight=10167.1 5368.09 4799.02 5278.3 2988.2 3589.89 1810.82 2770.23 2498.16 2364.2 2191.53 1583.57 91.9519 1689.7 1491.62 272.066 1357.09 1688.41 623.996 501.836 819.659 53.6616 274.397 189.754 494.503 154.539 129.493 227.249 268.579 1414.01
internal_count=80344 50743 29601 50309 20640 31064 8961 24728 21371 15060 13503 7953 416 10640 7537 3357 6718 19245 5580 2863 6336 253 2495 1672 4637 1364 943 1008 1767 16750
is_linear=0
shrinkage=0.05


Tree=22
num_leaves=31
num_cat=0
split_feature=9 9 13 1 21 10 2 8 11 2 1 5 22 1 8 9 22 1 13 1 1 22 5 26 1 2 1 13 8 8
split_gain=537.96 223.859 172.856 165.712 168.786 152.596 133.112 230.109 98.6041 98.1762 162.9 97.7621 85.566 100.013 79.7617 76.6919 72.1842 73.5253 70.7294 67.3361 67.283 59.8114 57.3362 51.6225 49.4072 44.4694 65.3837 56.703 44.0227 42.745
threshold=0.90604750000000012 0.95921000000000012 0.54195850000000012 48950.000000000007 44.495000000000012 2.0102225000000007 102.02500000000002 -8.5116799999999966 0.61362450000000013 89.225000000000009 49350.000000000007 180.40375000000003 1.0000000180025095e-35 50200.000000000007 -9.4374699999999994 0.98446700000000009 1.0000000180025095e-35 48950.000000000007 0.52506300000000017 47950.000000000007 48350.000000000007 2.5950000000000002 177.10875000000001 1.5000000000000002 49850.000000000007 98.585000000000022 49350.000000000007 0.71008400000000005 0.98698000000000008 -4.2497299999999987
decision_type=2 2 2 2 2 2 2 2 2 2 2 2 2 2 2 2 2 2 2 2 2 2 2 2 2 2 2 2 2 2
left_child=3 2 9 4 6 19 7 8 -1 10 -2 14 13 -5 -8 25 -7 -18 23 -4 -6 28 -21 -14 -25 26 -3 -27 -11 -12
right_child=1 15 5 12 20 16 11 -9 -10 21 29 -13 18 -15 -16 -17 17 -19 -20 22 -22 -23 -24 24 -26 27 -28 -29 -30 -31
leaf_value=0.0025601738560877465 0.14249251773525093 0.11700513670730038 0.074833218820450645 -0.045807342481638341 0.082927054957242938 -0.041647203031524499 0.14458817726959936 0.20032722546684109 0.14642789504959411 0.03173667335182466 0.0034056829852443108 0.17556138822487005 -0.025736456709440931 0.092509079779589096 -0.025397810148933022 0.050606506959658938 0.035082077758602753 0.0050788384780805843 -0.024705928365170285 -0.027387348896234023 0.27167287613892577 0.0057347456767794201 -0.0078069826675971517 -0.0093290638028783578 0.01661751416797197 0.048745401584988697 -0.030623506296638292 0.017910117836333114 0.13683587144548734 -0.039200902475044597
leaf_weight=106.56687444448471 16.518960624933243 8.247386157512663 21.251538634300232 402.51301693916321 13.235957875847818 74.783980645239353 6.9985994547605506 20.33007875084877 13.320407979190348 750.85241428762674 109.4432600364089 6.4207802638411513 316.60148563235998 13.394125774502752 240.65127425640821 249.14727500081062 228.61649695038795 1912.9816814959049 1381.4274801015854 568.29728127270937 7.4698365032672873 270.13111258298159 1096.0777046307921 684.55659374594688 250.47299276292324 176.71297653019428 73.212851002812386 962.83419506251812 10.038651779294012 126.74608682841063
leaf_count=922 106 35 103 5147 86 571 43 122 81 4728 993 37 3507 63 2334 1096 1299 12473 14423 5802 62 1708 8370 6555 2246 812 542 4718 47 1313
internal_value=-0.000222062 0.00809392 0.00321026 -0.0162022 0.0134306 -0.00202469 0.00609178 0.0451898 0.0186954 0.0191251 -0.00878663 -0.0154754 -0.0202374 -0.0413197 -0.0205174 0.0253155 0.00659666 0.00828552 -0.016904 -0.0133633 0.152238 0.0259715 -0.0144969 -0.00828779 -0.00237219 0.020147 -0.0154905 0.0227001 0.0331476 -0.019444
internal_weight=10119.9 6655.89 5185.74 3463.96 414.994 3902.01 394.288 140.217 119.887 1283.73 252.708 254.071 3048.97 415.907 247.65 1470.15 2216.38 2141.6 2633.06 1685.63 20.7058 1031.02 1664.37 1251.63 935.03 1221.01 81.4602 1139.55 760.891 236.189
internal_count=80344 44716 37513 35628 3687 28618 3539 1125 1003 8895 2412 2414 31941 5210 2377 7203 14343 13772 26731 14275 148 6483 14172 12308 8801 6107 577 5530 4775 2306
is_linear=0
shrinkage=0.05


Tree=23
num_leaves=31
num_cat=0
split_feature=5 1 31 9 13 1 22 9 10 8 10 10 1 14 11 21 7 1 30 1 1 2 12 1 1 13 1 22 13 26
split_gain=491.751 232.965 157.404 150.726 135.588 121.564 88.4964 70.2213 69.0305 67.375 63.8223 62.5698 56.079 55.4227 79.9568 54.6707 50.0084 47.1392 43.155 42.8332 41.6944 38.1926 36.4218 41.8654 33.7262 33.5397 31.47 31.3153 29.5122 25.8374
threshold=182.10375000000002 47950.000000000007 31.570000000000004 0.9604330000000002 0.97619050000000007 49850.000000000007 1.0000000180025095e-35 0.88674000000000019 2.0817160000000006 2.3773000000000004 2.1734675000000006 2.0872855000000006 49250.000000000007 2.5000000000000004 0.8524845000000002 27.895000000000007 0.93211750000000004 50200.000000000007 15250.000000000002 48950.000000000007 48950.000000000007 145.00500000000002 4.5000000000000009 49150.000000000007 48950.000000000007 0.32456100000000004 49750.000000000007 0.97500000000000009 0.41640900000000008 3.5000000000000004
decision_type=2 2 2 2 2 2 2 2 2 2 2 2 2 2 2 2 2 2 2 2 2 2 2 2 2 2 2 2 2 2
left_child=1 -1 12 4 7 6 15 25 -8 16 22 17 18 14 -9 -4 20 -7 -3 -20 -5 -15 23 -6 -12 -2 -18 -13 -14 -26
right_child=3 2 5 9 10 11 8 13 -10 -11 24 27 28 21 -16 -17 26 -19 19 -21 -22 -23 -24 -25 29 -27 -28 -29 -30 -31
leaf_value=0.07062697615112544 0.040014682816258126 -0.023087291688235555 0.010523179681574877 0.10141198134323011 0.053346976301487763 0.0037735855275012904 -0.010918342132476208 0.017122020480500596 0.020257826206663228 0.064060461495264162 0.094173873245000844 -0.016174961314499147 -0.017088483771698949 0.015562265177809032 0.060243146232917578 -0.046043016817344393 0.0050581428013147418 0.09524050382335271 0.081738604005503743 -0.00022128019243289207 0.034112153534536276 -0.0066403970537808306 -0.027841604058082621 -0.01170240360851117 -0.0017291018135998277 -0.023560961406967187 0.026908507398088762 0.07971552802487708 -0.037395178065507628 0.045633203177611402
leaf_weight=88.114682644605637 23.380749620497227 90.275325529277325 50.784651845693588 24.725639775395393 29.796785853803158 968.00890330970287 2899.4433888271451 1421.0036935955286 188.94246610254049 115.99963368475437 12.174709394574164 10.485655948519705 238.38457304239273 371.53302875906229 116.35387156158686 263.154297567904 341.87852472066879 14.200799152255057 24.867898717522621 43.756561771035194 339.06863357126713 404.08494602143764 408.88313829898834 143.12139561772346 135.34433946758509 175.54168128222227 319.34386179596186 42.741513818502426 733.27678352594376 36.4154107645154
leaf_count=449 180 874 488 104 185 7934 26011 8076 1277 548 56 75 2905 2221 625 3546 1586 68 162 392 1632 2318 3683 1249 945 1650 1433 248 9178 246
internal_value=-0.000220455 -0.00998405 -0.0112618 0.012277 0.00682597 -0.00701689 -0.0115827 0.0124417 -0.00900882 0.0279291 -0.0115884 0.00798056 -0.0279177 0.0148945 0.0203926 -0.0368762 0.0238294 0.00511067 -0.000348333 0.029482 0.0387266 0.00398921 -0.0197076 -0.00044002 0.014063 -0.016047 0.015621 0.0607366 -0.0324206 0.00830397
internal_weight=10075.1 5656.44 5568.32 4418.65 3277.63 4437.76 3402.32 2511.9 3088.39 1141.02 765.736 1035.44 1130.56 2312.98 1537.36 313.939 1025.02 982.21 158.9 68.6245 363.794 775.618 581.801 172.918 183.934 198.922 661.222 53.2272 971.661 171.76
internal_count=80344 53607 53158 26737 21434 39647 31322 15070 27288 5303 6364 8325 13511 13240 8701 4034 4755 8002 1428 554 1736 4539 5117 1434 1247 1830 3019 323 12083 1191
is_linear=0
shrinkage=0.05


Tree=24
num_leaves=31
num_cat=0
split_feature=9 8 31 1 1 5 21 1 2 8 2 2 1 8 11 22 1 23 5 5 30 13 11 0 13 26 1 1 31 5
split_gain=459.203 183.984 192.351 216.216 148.412 144.059 139.605 138.537 117.769 191.931 113.558 112.466 110.84 87.3 85.3225 82.7234 87.4396 70.1339 70.052 67.5048 67.932 65.0828 61.7418 58.4691 52.1258 47.5174 46.3753 42.5672 38.7702 30.4137
threshold=0.90604750000000012 0.98698000000000008 56.485000000000007 49250.000000000007 48950.000000000007 172.71125000000004 44.495000000000012 49650.000000000007 102.02500000000002 -8.5116799999999966 148.72500000000002 131.59500000000003 49750.000000000007 -9.5095499999999991 0.61362450000000013 1.0000000180025095e-35 50200.000000000007 1.1103735000000003 180.40375000000003 172.80375000000004 16450.000000000004 0.52506300000000017 0.64902250000000017 89.50500000000001 0.94427200000000011 1.5000000000000002 47950.000000000007 49850.000000000007 31.570000000000004 176.10375000000002
decision_type=2 2 2 2 2 2 2 2 2 2 2 2 2 2 2 2 2 2 2 2 2 2 2 2 2 2 2 2 2 2
left_child=4 2 3 5 6 26 8 19 9 14 -3 -7 28 -10 -1 16 -6 22 -15 -4 -21 25 -9 -8 -14 -17 -2 -27 -5 -23
right_child=1 10 7 12 15 11 23 17 13 -11 -12 -13 24 18 -16 21 -18 -19 -20 20 -22 29 -24 -25 -26 27 -28 -29 -30 -31
leaf_value=0.0025453432207029076 0.075639581117104976 0.073383728706072918 -0.026002812613547945 -0.033662341981485593 -0.044916817737688436 0.071781292494378188 0.011836919123190327 0.078529719656579483 0.16443398960941752 0.18065880895062647 0.018428917134131667 0.018741107464563551 0.0093565386900799578 -0.023849304294169902 0.13600866515770713 -0.024628848260723535 0.087249888852261925 0.015013879237161751 0.15488775149504538 -0.03307208601650332 0.010962190993433294 -0.032629500267608705 0.031953515737822312 0.18974311532277319 -0.011791511137263067 -0.0085098145415079471 -0.033592037928761663 0.015512672861113859 -0.013623733766730635 -0.017260191338891562
leaf_weight=105.43024744838476 10.603808328509329 158.07946271449327 164.11782307177782 302.87030556052923 378.66367553919554 166.95917049795389 6.731987580657008 80.798073343932629 6.5118763223290435 21.255930759012699 232.7571385204792 249.90439189970493 866.70694644749165 235.09872278571129 13.422846741974352 307.29219853132963 12.827057272195814 709.07373805344105 5.5075382217764846 93.927256241440773 1270.3929872810841 544.03064595162868 607.29806219786406 15.155060447752474 438.70297619700432 674.6137370467186 103.55415920913219 253.60230339318514 1199.9360566437244 795.38494104892015
leaf_count=922 52 760 1682 3307 5147 996 53 424 38 122 1078 1597 6277 2345 81 3507 63 3757 31 564 7174 6603 3016 95 3678 6555 1054 2246 9300 7820
internal_value=-0.000216332 0.00740165 0.00532402 -0.00287534 -0.0152383 0.0263777 0.012983 0.0146841 0.00600888 0.0426219 0.0406821 0.0400085 -0.00840949 -0.0147383 0.0177619 -0.0191325 -0.0405525 0.0260643 -0.0196745 0.00427702 0.00792476 -0.0158724 0.0374405 0.135553 0.00224522 -0.00758882 -0.0233447 -0.00194017 -0.0176675 -0.0235084
internal_weight=10031.2 6655.68 6264.85 3339.24 3375.53 531.022 409.114 2925.61 387.227 140.109 390.837 416.864 2808.22 247.118 118.853 2966.41 391.491 1397.17 240.606 1528.44 1364.32 2574.92 688.096 21.887 1305.41 1235.51 114.158 928.216 1502.81 1339.42
internal_count=80344 44716 42878 26261 35628 3699 3687 16617 3539 1125 1838 2593 22562 2414 1003 31941 5210 7197 2376 9420 7738 26731 3440 148 9955 12308 1106 8801 12607 14423
is_linear=0
shrinkage=0.05


Tree=25
num_leaves=31
num_cat=0
split_feature=9 1 5 13 8 8 11 2 1 13 30 2 1 9 10 1 13 1 13 18 5 9 1 10 31 23 10 10 5 30
split_gain=426.107 179.524 184.486 129.316 113.139 94.5949 88.7255 87.6824 144.825 83.3939 70.9072 69.5084 69.4403 61.4667 61.3603 57.8959 50.2666 45.0171 44.2503 42.3111 40.7324 36.0298 54.6745 36.7162 35.8322 35.361 33.1124 33.0963 18.8193 18.0531
threshold=0.93732300000000002 47950.000000000007 176.10375000000002 0.68825950000000014 1.4950000000000003 -2.9497099999999996 0.83923250000000016 98.585000000000022 49350.000000000007 0.17914450000000001 15750.000000000002 152.68500000000003 49850.000000000007 0.96361900000000011 2.2139515000000007 49350.000000000007 0.94427200000000011 48950.000000000007 0.54195850000000012 1.0000000180025095e-35 193.50375000000003 0.87649400000000011 48950.000000000007 1.6863045000000001 26.400000000000002 1.8321240000000001 2.0781725000000004 2.1276105000000007 178.60375000000002 16050.000000000002
decision_type=2 2 2 2 2 2 2 2 2 2 2 2 2 2 2 2 2 2 2 2 2 2 2 2 2 2 2 2 2 2
left_child=1 -1 9 12 5 10 14 8 -7 21 28 -6 15 18 -5 -4 25 -8 -9 -15 -18 23 -23 -3 -11 -12 -14 -26 -2 -10
right_child=4 2 3 6 11 7 17 13 29 24 16 -13 26 19 -16 -17 20 -19 -20 -21 -22 22 -24 -25 27 -27 -28 -29 -30 -31
leaf_value=0.067154644697413779 0.030707064605493547 0.096950817338791614 0.018351553399919375 -0.015057594800262079 0.072690167354716104 0.11309997177768663 0.1133056437302815 0.038046887927882737 -0.0099892579593770375 -0.036253565798462631 0.038413585597542904 0.020618886005660999 0.017724491614088286 0.014368239688950016 0.043975650275024154 -0.0053789895212939401 -0.01316444536178697 0.014142547186822086 0.00025562936158908062 0.043436414779970761 0.06374100354541784 0.12035398578224875 0.01129271813414616 -0.013219990013272906 -0.020810088828813859 -0.0070020231653254092 0.051516835898000983 0.070541640840691269 -0.019327930423459677 -0.043121087226463038
leaf_weight=78.604975298047066 22.832235872745514 7.6776107251644126 364.59428542107344 1896.3664970211685 123.38877935707569 17.881349734961987 12.024645417928694 82.437140718102455 56.015607684850693 449.99179311841726 639.24301350861788 134.19772340357304 422.65360451489687 626.96144463121891 44.928813368082047 870.13995680958033 98.748807780444622 211.91789254546165 1263.840885065496 156.76209782063961 20.748178839683533 12.492692545056341 134.13089225441217 263.89329995959997 1565.4940530844033 45.712544076144695 87.767710320651531 9.8584512025117856 102.9044447094202 159.80390872061253
leaf_count=429 180 81 2725 16626 622 79 67 411 523 6009 3338 592 2929 2890 296 6795 694 1662 7761 709 109 66 1253 2779 17792 259 488 64 693 1423
internal_value=-0.000214029 -0.0078897 -0.00881991 -0.00208345 0.0136868 0.0111883 -0.0102473 0.0058696 -0.0231911 -0.0195977 0.0246962 0.0455999 0.00804264 0.00906139 -0.0136866 0.00162507 0.030155 0.0195376 0.00257608 0.0201937 0.000188919 0.00071832 0.0206948 -0.0100524 -0.0237948 0.0353748 0.0235539 -0.0202308 -0.0101853 -0.0345535
internal_weight=9984.02 6432.54 6353.93 3910.39 3551.48 3293.89 2165.24 2363.7 233.701 2443.54 930.189 257.587 1745.16 2130 1941.3 1234.73 804.453 223.943 1346.28 783.724 119.497 418.194 146.624 271.571 2025.34 684.956 510.421 1575.35 125.737 215.82
internal_count=80344 60061 59632 31588 20283 19069 18651 13796 2025 28044 5273 1214 12937 11771 16922 9520 4400 1729 8172 3599 803 4179 1319 2860 23865 3597 3417 17856 873 1946
is_linear=0
shrinkage=0.05


Tree=26
num_leaves=31
num_cat=0
split_feature=9 9 13 1 10 21 2 8 1 2 8 22 1 32 2 1 11 8 5 1 10 22 0 12 14 2 16 1 8 13
split_gain=391.491 157.681 140.647 132.579 126.747 121.993 106.92 174.533 83.905 245.466 82.4411 80.0581 82.1377 78.7049 70.7469 130.389 66.6152 64.772 61.0894 60.3735 54.499 48.6268 47.6973 46.7684 56.5551 61.4645 43.7154 43.3462 40.3605 37.5208
threshold=0.90604750000000012 0.9578350000000001 0.54195850000000012 48950.000000000007 1.9563765000000002 44.495000000000012 100.25500000000001 -8.6939599999999988 48950.000000000007 143.44500000000002 -9.6708899999999982 1.0000000180025095e-35 50200.000000000007 1157.8198560000003 89.225000000000009 49350.000000000007 0.59213900000000008 2.3773000000000004 180.40375000000003 49750.000000000007 2.1778565000000003 2.5950000000000002 90.485000000000014 3.5000000000000004 2.5000000000000004 98.585000000000022 1.0000000180025095e-35 47950.000000000007 -4.2497299999999987 0.46410250000000003
decision_type=2 2 2 2 2 2 2 2 2 2 2 2 2 2 2 2 2 2 2 2 2 2 2 2 2 2 2 2 2 2
left_child=3 2 14 5 27 6 7 16 9 -6 -8 12 -5 -10 15 -2 -1 23 -12 -13 -21 -16 -7 -3 25 -25 -26 -4 -17 -23
right_child=1 17 4 11 8 22 10 -9 13 -11 18 19 -14 -15 21 28 -18 -19 -20 20 -22 29 -24 24 26 -27 -28 -29 -30 -31
leaf_value=0.0018029249868649765 0.12431727422799088 0.051207632689729138 0.068999545128408279 -0.044131770227659718 0.11339831800761438 0.018887727742356926 0.14742917054532415 0.17241995246840558 0.0087795998992370242 0.003699544106329149 -0.022173425860026939 -0.020925490527782281 0.085147175197143404 -0.0089201724262896707 0.028795960031227908 0.0042185802174827961 0.11971012879823087 0.056105207596783405 0.1440547922657168 -0.0060953167371415621 0.12246073947455567 -0.0072220979063675542 0.17716156857796786 -0.020462948096866593 -0.010526263780530339 0.02605412361889875 0.023617434942818372 -0.019224691731675788 -0.038130602599554864 0.034325174449792523
leaf_weight=94.793745003640652 17.283855274319649 97.0809695571661 14.008064866065977 359.25205877795815 65.655145660042763 7.1118250861763981 7.6391248628497115 21.528884574770927 1272.6216674000025 227.67925713211298 237.31716741621494 1558.8237403556705 12.606056168675421 1239.8695451654494 772.4827853217721 107.90498381108046 13.628491975367067 118.57520893216133 5.5531515777111045 951.61226164549589 8.2132228463888151 197.29434195905924 14.936710543930529 77.238276414573193 294.91955067962408 856.42709532380104 137.30383559316397 958.8408923111856 116.97807620465755 74.83872877061367
leaf_count=840 105 449 75 5147 377 56 44 120 8484 1322 2417 16789 63 8671 4736 993 87 598 31 9891 51 1252 92 567 1470 4052 680 9141 1294 450
internal_value=-0.000209393 0.00677436 0.00247001 -0.0143075 -0.00239084 0.0125678 0.0059117 0.0427046 0.00299988 0.0283 -0.013164 -0.018052 -0.039714 4.3081e-05 0.016747 -0.00758468 0.0167664 0.0205564 -0.0182944 -0.0148503 -0.00497741 0.0223926 0.126651 0.017668 0.015277 0.0221988 0.000311509 -0.0179422 -0.0177953 0.00419377
internal_weight=9940.02 6647 5065.46 3293.02 3778.67 402.509 380.461 129.951 2805.83 293.334 250.509 2890.51 371.858 2512.49 1286.78 242.167 108.422 1581.54 242.87 2518.65 959.825 1044.62 22.0485 1462.97 1365.89 933.665 432.223 972.849 224.883 272.133
internal_count=80344 44716 36900 35628 28070 3687 3539 1047 18854 1699 2492 31941 5210 17155 8830 2392 927 7816 2448 26731 9942 6438 148 7218 6769 4619 2150 9216 2287 1702
is_linear=0
shrinkage=0.05


Tree=27
num_leaves=31
num_cat=0
split_feature=9 8 1 5 2 8 31 1 5 1 22 1 8 11 1 21 13 2 1 5 5 13 31 23 5 21 11 13 13 31
split_gain=361.106 135.071 125.911 137.435 131.312 238.591 120.234 162.533 118.216 113.731 96.1306 95.9226 95.0968 88.9347 86.4519 85.9659 81.4526 71.3268 60.7999 54.9514 51.1385 55.7258 50.2308 46.6178 45.5401 39.4965 35.8149 34.4105 32.0641 31.9945
threshold=0.91521550000000007 1.4950000000000003 48950.000000000007 182.10375000000002 117.24500000000002 -6.9133699999999996 56.485000000000007 49250.000000000007 173.40375000000003 49650.000000000007 1.0000000180025095e-35 50200.000000000007 -7.981679999999999 0.65202750000000009 49850.000000000007 31.065000000000001 0.52506300000000017 152.68500000000003 47950.000000000007 172.80375000000004 172.50375000000003 1.0000000180025095e-35 31.570000000000004 1.1836720000000003 181.65375000000003 39.910000000000004 0.64902250000000017 0.94427200000000011 1.0000000180025095e-35 21.930000000000003
decision_type=2 2 2 2 2 2 2 2 2 2 2 2 2 2 2 2 2 2 2 2 2 2 2 2 2 2 2 2 2 2
left_child=2 6 3 4 5 13 7 8 -2 18 11 28 -6 -1 22 -10 20 -3 -8 -20 -12 -22 -9 26 29 -14 -11 -16 -4 -18
right_child=1 17 10 -5 12 -7 9 14 15 23 16 -13 25 -15 27 -17 24 -19 19 -21 21 -23 -24 -25 -26 -27 -28 -29 -30 -31
leaf_value=0.0058882726320622029 -0.022282298345592613 0.07178070518005808 0.054084508980267024 0.15385072524453122 0.18107359142418467 0.18148431376145516 0.077283965299616564 -0.031580112926630655 0.076261864085433728 0.062681509518740561 -0.01583137092480939 0.090195589000790347 -0.036601043110737225 0.11201403857772325 0.014964920137846942 0.023081731206194365 -0.040886079794709325 0.018607222557945006 -0.027255802182423072 0.0055916986707650398 0.067945365030891033 0.001478234022281357 -0.0087566344359044646 0.012605706119543522 -0.0057791945710149476 0.01511957567068529 0.028045755200647254 -0.0067709376997942237 -0.045357495519796509 -0.020439391721450751
leaf_weight=207.7406849861145 97.02179428935051 118.25633123517036 8.1627347618341428 16.38298462331295 5.5970580242574206 23.984594598412514 27.439187690615654 296.31299735605717 111.63169027119875 83.657425999641418 515.38440479338169 13.868262767791746 175.50143880024552 21.732950113713741 509.56912106275558 239.41725071519613 235.24253955483437 135.91784133762121 141.59632589668036 1253.3179365023971 32.61625748872757 879.750633046031 1299.2320399209857 536.27086306363344 455.50870185345411 46.522003330290318 715.82730457931757 282.85611432045698 368.20675097033381 1043.6991981938481
leaf_count=1858 975 628 108 89 35 142 132 3202 563 412 6038 70 1819 143 3363 1410 3286 599 1527 6805 256 7735 9609 2738 4028 377 3446 2217 5352 11382
internal_value=-0.000206152 0.0077405 -0.0116828 0.0118691 0.0069926 0.0317497 0.00611934 -0.00110785 0.0265195 0.0135523 -0.0149825 -0.0383993 -0.0205546 0.0160054 -0.00629473 0.0400239 -0.01209 0.0433847 0.0037084 0.00225208 -0.00324073 0.00386704 -0.0130001 0.0240296 -0.019371 -0.0257393 0.0316837 0.00720012 -0.0431737 -0.0242071
internal_weight=9898.23 5848.32 4049.9 497.462 481.079 253.458 5594.15 2836.04 448.071 2758.11 3552.44 390.238 227.621 229.474 2387.97 351.049 3162.2 254.174 1422.35 1394.91 1427.75 912.367 1595.55 1335.76 1734.45 222.023 799.485 792.425 376.369 1278.94
internal_count=80344 37626 42718 4463 4374 2143 36399 21339 2948 15060 38255 5530 2231 2001 18391 1973 32725 1227 8464 8332 14029 7991 12811 6596 18696 2196 3858 5580 5460 14668
is_linear=0
shrinkage=0.05


Tree=28
num_leaves=31
num_cat=0
split_feature=9 31 1 9 8 9 13 21 21 21 21 2 1 1 22 1 0 1 30 30 1 22 30 5 13 31 13 5 2 30
split_gain=334.207 161.294 122.955 85.3125 107.966 82.3543 103.747 76.2564 150.936 85.6779 227.845 71.2996 107.934 67.8445 60.6742 71.4534 63.4117 58.4033 56.1431 46.8499 45.3733 37.2877 35.6264 35.5248 49.7435 32.8772 31.6824 27.7693 23.5132 23.1455
